<?xml version="1.0" encoding="US-ASCII"?>
 
 
 <!--
 	Bayesian network in XMLBIF v0.3 (BayesNet Interchange Format)
 	Produced by JavaBayes (http://www.cs.cmu.edu/~javabayes/
 	Output created Mon Nov 02 22:40:12**8 GMT-03:00 1998
 -->

 
 
 <!-- DTD for the XMLBIF 0.3 format -->
 <!DOCTYPE BIF [
 	<!ELEMENT BIF ( NETWORK )*>
 	      <!ATTLIST BIF VERSION CDATA #REQUIRED>
 	<!ELEMENT NETWORK ( NAME, ( PROPERTY | VARIABLE | DEFINITION )* )>
 	<!ELEMENT NAME (#PCDATA)>
 	<!ELEMENT VARIABLE ( NAME, ( OUTCOME |  PROPERTY )* ) >
 	      <!ATTLIST VARIABLE TYPE (nature|decision|utility) "nature">
 	<!ELEMENT OUTCOME (#PCDATA)>
 	<!ELEMENT DEFINITION ( FOR | GIVEN | TABLE | PROPERTY )* >
 	<!ELEMENT FOR (#PCDATA)>
 	<!ELEMENT GIVEN (#PCDATA)>
 	<!ELEMENT TABLE (#PCDATA)>
 	<!ELEMENT PROPERTY (#PCDATA)>
 ]>
 
 
 <BIF VERSION="0.3">
 <NETWORK>
	<NAME>NAIVE_BAYES_MODEL</NAME>
	<VARIABLE TYPE  = "nature">
		<NAME>CLASS5</NAME>
		<OUTCOME>true</OUTCOME>
		<OUTCOME>false</OUTCOME>
	</VARIABLE>
		<VARIABLE TYPE  = "nature">
			<NAME>SENSOR1</NAME>
		
			<OUTCOME>X0</OUTCOME>
			<OUTCOME>X1</OUTCOME>
			<OUTCOME>X2</OUTCOME>
			<OUTCOME>X3</OUTCOME>
			<OUTCOME>X4</OUTCOME>
			<OUTCOME>X5</OUTCOME>
			<OUTCOME>X6</OUTCOME>
			<OUTCOME>X7</OUTCOME>
			<OUTCOME>X8</OUTCOME>
			<OUTCOME>X9</OUTCOME>
			<OUTCOME>X10</OUTCOME>
			<OUTCOME>X11</OUTCOME>
			<OUTCOME>X12</OUTCOME>
			<OUTCOME>X13</OUTCOME>
			<OUTCOME>X14</OUTCOME>
			<OUTCOME>X15</OUTCOME>
			<OUTCOME>X16</OUTCOME>
			<OUTCOME>X17</OUTCOME>
			<OUTCOME>X18</OUTCOME>
			<OUTCOME>X19</OUTCOME>
			<OUTCOME>X20</OUTCOME>
			<OUTCOME>X21</OUTCOME>
			<OUTCOME>X22</OUTCOME>
			<OUTCOME>X23</OUTCOME>
			<OUTCOME>X24</OUTCOME>
			<OUTCOME>X25</OUTCOME>
			<OUTCOME>X26</OUTCOME>
			<OUTCOME>X27</OUTCOME>
			<OUTCOME>X28</OUTCOME>
			<OUTCOME>X29</OUTCOME>
			<OUTCOME>X30</OUTCOME>
			<OUTCOME>X31</OUTCOME>
			<OUTCOME>X32</OUTCOME>
			<OUTCOME>X33</OUTCOME>
			<OUTCOME>X34</OUTCOME>
			<OUTCOME>X35</OUTCOME>
			<OUTCOME>X36</OUTCOME>
			<OUTCOME>X37</OUTCOME>
			<OUTCOME>X38</OUTCOME>
			<OUTCOME>X39</OUTCOME>
			<OUTCOME>X40</OUTCOME>
			<OUTCOME>X41</OUTCOME>
			<OUTCOME>X42</OUTCOME>
			<OUTCOME>X43</OUTCOME>
			<OUTCOME>X44</OUTCOME>
			<OUTCOME>X45</OUTCOME>
			<OUTCOME>X46</OUTCOME>
			<OUTCOME>X47</OUTCOME>
			<OUTCOME>X48</OUTCOME>
			<OUTCOME>X49</OUTCOME>
			<OUTCOME>X50</OUTCOME>
			<OUTCOME>X51</OUTCOME>
			<OUTCOME>X52</OUTCOME>
			<OUTCOME>X53</OUTCOME>
			<OUTCOME>X54</OUTCOME>
			<OUTCOME>X55</OUTCOME>
			<OUTCOME>X56</OUTCOME>
			<OUTCOME>X57</OUTCOME>
			<OUTCOME>X58</OUTCOME>
			<OUTCOME>X59</OUTCOME>
			<OUTCOME>X60</OUTCOME>
			<OUTCOME>X61</OUTCOME>
			<OUTCOME>X62</OUTCOME>
			<OUTCOME>X63</OUTCOME>
			<OUTCOME>X64</OUTCOME>
			<OUTCOME>X65</OUTCOME>
			<OUTCOME>X66</OUTCOME>
			<OUTCOME>X67</OUTCOME>
			<OUTCOME>X68</OUTCOME>
			<OUTCOME>X69</OUTCOME>
			<OUTCOME>X70</OUTCOME>
			<OUTCOME>X71</OUTCOME>
			<OUTCOME>X72</OUTCOME>
			<OUTCOME>X73</OUTCOME>
			<OUTCOME>X74</OUTCOME>
			<OUTCOME>X75</OUTCOME>
			<OUTCOME>X76</OUTCOME>
			<OUTCOME>X77</OUTCOME>
			<OUTCOME>X78</OUTCOME>
			<OUTCOME>X79</OUTCOME>
			<OUTCOME>X80</OUTCOME>
			<OUTCOME>X81</OUTCOME>
			<OUTCOME>X82</OUTCOME>
			<OUTCOME>X83</OUTCOME>
			<OUTCOME>X84</OUTCOME>
			<OUTCOME>X85</OUTCOME>
			<OUTCOME>X86</OUTCOME>
			<OUTCOME>X87</OUTCOME>
			<OUTCOME>X88</OUTCOME>
			<OUTCOME>X89</OUTCOME>
			<OUTCOME>X90</OUTCOME>
			<OUTCOME>X91</OUTCOME>
			<OUTCOME>X92</OUTCOME>
			<OUTCOME>X93</OUTCOME>
			<OUTCOME>X94</OUTCOME>
			<OUTCOME>X95</OUTCOME>
			<OUTCOME>X96</OUTCOME>
			<OUTCOME>X97</OUTCOME>
			<OUTCOME>X98</OUTCOME>
			<OUTCOME>X99</OUTCOME>
			<OUTCOME>X100</OUTCOME>
			<OUTCOME>X101</OUTCOME>
			<OUTCOME>X102</OUTCOME>
			<OUTCOME>X103</OUTCOME>
			<OUTCOME>X104</OUTCOME>
			<OUTCOME>X105</OUTCOME>
			<OUTCOME>X106</OUTCOME>
			<OUTCOME>X107</OUTCOME>
			<OUTCOME>X108</OUTCOME>
			<OUTCOME>X109</OUTCOME>
			<OUTCOME>X110</OUTCOME>
			<OUTCOME>X111</OUTCOME>
			<OUTCOME>X112</OUTCOME>
			<OUTCOME>X113</OUTCOME>
			<OUTCOME>X114</OUTCOME>
			<OUTCOME>X115</OUTCOME>
			<OUTCOME>X116</OUTCOME>
			<OUTCOME>X117</OUTCOME>
			<OUTCOME>X118</OUTCOME>
			<OUTCOME>X119</OUTCOME>
			<OUTCOME>X120</OUTCOME>
			<OUTCOME>X121</OUTCOME>
			<OUTCOME>X122</OUTCOME>
			<OUTCOME>X123</OUTCOME>
			<OUTCOME>X124</OUTCOME>
			<OUTCOME>X125</OUTCOME>
			<OUTCOME>X126</OUTCOME>
			<OUTCOME>X127</OUTCOME>
			<OUTCOME>X128</OUTCOME>
			<OUTCOME>X129</OUTCOME>
			<OUTCOME>X130</OUTCOME>
			<OUTCOME>X131</OUTCOME>
			<OUTCOME>X132</OUTCOME>
			<OUTCOME>X133</OUTCOME>
			<OUTCOME>X134</OUTCOME>
			<OUTCOME>X135</OUTCOME>
			<OUTCOME>X136</OUTCOME>
			<OUTCOME>X137</OUTCOME>
			<OUTCOME>X138</OUTCOME>
			<OUTCOME>X139</OUTCOME>
			<OUTCOME>X140</OUTCOME>
			<OUTCOME>X141</OUTCOME>
			<OUTCOME>X142</OUTCOME>
			<OUTCOME>X143</OUTCOME>
			<OUTCOME>X144</OUTCOME>
			<OUTCOME>X145</OUTCOME>
			<OUTCOME>X146</OUTCOME>
			<OUTCOME>X147</OUTCOME>
			<OUTCOME>X148</OUTCOME>
			<OUTCOME>X149</OUTCOME>
			<OUTCOME>X150</OUTCOME>
			<OUTCOME>X151</OUTCOME>
			<OUTCOME>X152</OUTCOME>
			<OUTCOME>X153</OUTCOME>
			<OUTCOME>X154</OUTCOME>
			<OUTCOME>X155</OUTCOME>
			<OUTCOME>X156</OUTCOME>
			<OUTCOME>X157</OUTCOME>
			<OUTCOME>X158</OUTCOME>
			<OUTCOME>X159</OUTCOME>
			<OUTCOME>X160</OUTCOME>
			<OUTCOME>X161</OUTCOME>
			<OUTCOME>X162</OUTCOME>
			<OUTCOME>X163</OUTCOME>
			<OUTCOME>X164</OUTCOME>
			<OUTCOME>X165</OUTCOME>
			<OUTCOME>X166</OUTCOME>
			<OUTCOME>X167</OUTCOME>
			<OUTCOME>X168</OUTCOME>
			<OUTCOME>X169</OUTCOME>
			<OUTCOME>X170</OUTCOME>
			<OUTCOME>X171</OUTCOME>
			<OUTCOME>X172</OUTCOME>
			<OUTCOME>X173</OUTCOME>
			<OUTCOME>X174</OUTCOME>
			<OUTCOME>X175</OUTCOME>
			<OUTCOME>X176</OUTCOME>
			<OUTCOME>X177</OUTCOME>
			<OUTCOME>X178</OUTCOME>
			<OUTCOME>X179</OUTCOME>
			<OUTCOME>X180</OUTCOME>
			<OUTCOME>X181</OUTCOME>
			<OUTCOME>X182</OUTCOME>
			<OUTCOME>X183</OUTCOME>
			<OUTCOME>X184</OUTCOME>
			<OUTCOME>X185</OUTCOME>
			<OUTCOME>X186</OUTCOME>
			<OUTCOME>X187</OUTCOME>
			<OUTCOME>X188</OUTCOME>
			<OUTCOME>X189</OUTCOME>
			<OUTCOME>X190</OUTCOME>
			<OUTCOME>X191</OUTCOME>
			<OUTCOME>X192</OUTCOME>
			<OUTCOME>X193</OUTCOME>
			<OUTCOME>X194</OUTCOME>
			<OUTCOME>X195</OUTCOME>
			<OUTCOME>X196</OUTCOME>
			<OUTCOME>X197</OUTCOME>
			<OUTCOME>X198</OUTCOME>
			<OUTCOME>X199</OUTCOME>
			<OUTCOME>X200</OUTCOME>
			<OUTCOME>X201</OUTCOME>
			<OUTCOME>X202</OUTCOME>
			<OUTCOME>X203</OUTCOME>
			<OUTCOME>X204</OUTCOME>
			<OUTCOME>X205</OUTCOME>
			<OUTCOME>X206</OUTCOME>
			<OUTCOME>X207</OUTCOME>
			<OUTCOME>X208</OUTCOME>
			<OUTCOME>X209</OUTCOME>
			<OUTCOME>X210</OUTCOME>
			<OUTCOME>X211</OUTCOME>
			<OUTCOME>X212</OUTCOME>
			<OUTCOME>X213</OUTCOME>
			<OUTCOME>X214</OUTCOME>
			<OUTCOME>X215</OUTCOME>
			<OUTCOME>X216</OUTCOME>
			<OUTCOME>X217</OUTCOME>
			<OUTCOME>X218</OUTCOME>
			<OUTCOME>X219</OUTCOME>
			<OUTCOME>X220</OUTCOME>
			<OUTCOME>X221</OUTCOME>
			<OUTCOME>X222</OUTCOME>
			<OUTCOME>X223</OUTCOME>
			<OUTCOME>X224</OUTCOME>
			<OUTCOME>X225</OUTCOME>
			<OUTCOME>X226</OUTCOME>
			<OUTCOME>X227</OUTCOME>
			<OUTCOME>X228</OUTCOME>
			<OUTCOME>X229</OUTCOME>
			<OUTCOME>X230</OUTCOME>
			<OUTCOME>X231</OUTCOME>
			<OUTCOME>X232</OUTCOME>
			<OUTCOME>X233</OUTCOME>
			<OUTCOME>X234</OUTCOME>
			<OUTCOME>X235</OUTCOME>
			<OUTCOME>X236</OUTCOME>
			<OUTCOME>X237</OUTCOME>
			<OUTCOME>X238</OUTCOME>
			<OUTCOME>X239</OUTCOME>
			<OUTCOME>X240</OUTCOME>
			<OUTCOME>X241</OUTCOME>
			<OUTCOME>X242</OUTCOME>
			<OUTCOME>X243</OUTCOME>
			<OUTCOME>X244</OUTCOME>
			<OUTCOME>X245</OUTCOME>
			<OUTCOME>X246</OUTCOME>
			<OUTCOME>X247</OUTCOME>
			<OUTCOME>X248</OUTCOME>
			<OUTCOME>X249</OUTCOME>
			<OUTCOME>X250</OUTCOME>
			<OUTCOME>X251</OUTCOME>
			<OUTCOME>X252</OUTCOME>
			<OUTCOME>X253</OUTCOME>
			<OUTCOME>X254</OUTCOME>
			<OUTCOME>X255</OUTCOME>
		</VARIABLE>
		<VARIABLE TYPE  = "nature">
			<NAME>SENSOR2</NAME>
		
			<OUTCOME>X0</OUTCOME>
			<OUTCOME>X1</OUTCOME>
			<OUTCOME>X2</OUTCOME>
			<OUTCOME>X3</OUTCOME>
			<OUTCOME>X4</OUTCOME>
			<OUTCOME>X5</OUTCOME>
			<OUTCOME>X6</OUTCOME>
			<OUTCOME>X7</OUTCOME>
			<OUTCOME>X8</OUTCOME>
			<OUTCOME>X9</OUTCOME>
			<OUTCOME>X10</OUTCOME>
			<OUTCOME>X11</OUTCOME>
			<OUTCOME>X12</OUTCOME>
			<OUTCOME>X13</OUTCOME>
			<OUTCOME>X14</OUTCOME>
			<OUTCOME>X15</OUTCOME>
			<OUTCOME>X16</OUTCOME>
			<OUTCOME>X17</OUTCOME>
			<OUTCOME>X18</OUTCOME>
			<OUTCOME>X19</OUTCOME>
			<OUTCOME>X20</OUTCOME>
			<OUTCOME>X21</OUTCOME>
			<OUTCOME>X22</OUTCOME>
			<OUTCOME>X23</OUTCOME>
			<OUTCOME>X24</OUTCOME>
			<OUTCOME>X25</OUTCOME>
			<OUTCOME>X26</OUTCOME>
			<OUTCOME>X27</OUTCOME>
			<OUTCOME>X28</OUTCOME>
			<OUTCOME>X29</OUTCOME>
			<OUTCOME>X30</OUTCOME>
			<OUTCOME>X31</OUTCOME>
			<OUTCOME>X32</OUTCOME>
			<OUTCOME>X33</OUTCOME>
			<OUTCOME>X34</OUTCOME>
			<OUTCOME>X35</OUTCOME>
			<OUTCOME>X36</OUTCOME>
			<OUTCOME>X37</OUTCOME>
			<OUTCOME>X38</OUTCOME>
			<OUTCOME>X39</OUTCOME>
			<OUTCOME>X40</OUTCOME>
			<OUTCOME>X41</OUTCOME>
			<OUTCOME>X42</OUTCOME>
			<OUTCOME>X43</OUTCOME>
			<OUTCOME>X44</OUTCOME>
			<OUTCOME>X45</OUTCOME>
			<OUTCOME>X46</OUTCOME>
			<OUTCOME>X47</OUTCOME>
			<OUTCOME>X48</OUTCOME>
			<OUTCOME>X49</OUTCOME>
			<OUTCOME>X50</OUTCOME>
			<OUTCOME>X51</OUTCOME>
			<OUTCOME>X52</OUTCOME>
			<OUTCOME>X53</OUTCOME>
			<OUTCOME>X54</OUTCOME>
			<OUTCOME>X55</OUTCOME>
			<OUTCOME>X56</OUTCOME>
			<OUTCOME>X57</OUTCOME>
			<OUTCOME>X58</OUTCOME>
			<OUTCOME>X59</OUTCOME>
			<OUTCOME>X60</OUTCOME>
			<OUTCOME>X61</OUTCOME>
			<OUTCOME>X62</OUTCOME>
			<OUTCOME>X63</OUTCOME>
			<OUTCOME>X64</OUTCOME>
			<OUTCOME>X65</OUTCOME>
			<OUTCOME>X66</OUTCOME>
			<OUTCOME>X67</OUTCOME>
			<OUTCOME>X68</OUTCOME>
			<OUTCOME>X69</OUTCOME>
			<OUTCOME>X70</OUTCOME>
			<OUTCOME>X71</OUTCOME>
			<OUTCOME>X72</OUTCOME>
			<OUTCOME>X73</OUTCOME>
			<OUTCOME>X74</OUTCOME>
			<OUTCOME>X75</OUTCOME>
			<OUTCOME>X76</OUTCOME>
			<OUTCOME>X77</OUTCOME>
			<OUTCOME>X78</OUTCOME>
			<OUTCOME>X79</OUTCOME>
			<OUTCOME>X80</OUTCOME>
			<OUTCOME>X81</OUTCOME>
			<OUTCOME>X82</OUTCOME>
			<OUTCOME>X83</OUTCOME>
			<OUTCOME>X84</OUTCOME>
			<OUTCOME>X85</OUTCOME>
			<OUTCOME>X86</OUTCOME>
			<OUTCOME>X87</OUTCOME>
			<OUTCOME>X88</OUTCOME>
			<OUTCOME>X89</OUTCOME>
			<OUTCOME>X90</OUTCOME>
			<OUTCOME>X91</OUTCOME>
			<OUTCOME>X92</OUTCOME>
			<OUTCOME>X93</OUTCOME>
			<OUTCOME>X94</OUTCOME>
			<OUTCOME>X95</OUTCOME>
			<OUTCOME>X96</OUTCOME>
			<OUTCOME>X97</OUTCOME>
			<OUTCOME>X98</OUTCOME>
			<OUTCOME>X99</OUTCOME>
			<OUTCOME>X100</OUTCOME>
			<OUTCOME>X101</OUTCOME>
			<OUTCOME>X102</OUTCOME>
			<OUTCOME>X103</OUTCOME>
			<OUTCOME>X104</OUTCOME>
			<OUTCOME>X105</OUTCOME>
			<OUTCOME>X106</OUTCOME>
			<OUTCOME>X107</OUTCOME>
			<OUTCOME>X108</OUTCOME>
			<OUTCOME>X109</OUTCOME>
			<OUTCOME>X110</OUTCOME>
			<OUTCOME>X111</OUTCOME>
			<OUTCOME>X112</OUTCOME>
			<OUTCOME>X113</OUTCOME>
			<OUTCOME>X114</OUTCOME>
			<OUTCOME>X115</OUTCOME>
			<OUTCOME>X116</OUTCOME>
			<OUTCOME>X117</OUTCOME>
			<OUTCOME>X118</OUTCOME>
			<OUTCOME>X119</OUTCOME>
			<OUTCOME>X120</OUTCOME>
			<OUTCOME>X121</OUTCOME>
			<OUTCOME>X122</OUTCOME>
			<OUTCOME>X123</OUTCOME>
			<OUTCOME>X124</OUTCOME>
			<OUTCOME>X125</OUTCOME>
			<OUTCOME>X126</OUTCOME>
			<OUTCOME>X127</OUTCOME>
			<OUTCOME>X128</OUTCOME>
			<OUTCOME>X129</OUTCOME>
			<OUTCOME>X130</OUTCOME>
			<OUTCOME>X131</OUTCOME>
			<OUTCOME>X132</OUTCOME>
			<OUTCOME>X133</OUTCOME>
			<OUTCOME>X134</OUTCOME>
			<OUTCOME>X135</OUTCOME>
			<OUTCOME>X136</OUTCOME>
			<OUTCOME>X137</OUTCOME>
			<OUTCOME>X138</OUTCOME>
			<OUTCOME>X139</OUTCOME>
			<OUTCOME>X140</OUTCOME>
			<OUTCOME>X141</OUTCOME>
			<OUTCOME>X142</OUTCOME>
			<OUTCOME>X143</OUTCOME>
			<OUTCOME>X144</OUTCOME>
			<OUTCOME>X145</OUTCOME>
			<OUTCOME>X146</OUTCOME>
			<OUTCOME>X147</OUTCOME>
			<OUTCOME>X148</OUTCOME>
			<OUTCOME>X149</OUTCOME>
			<OUTCOME>X150</OUTCOME>
			<OUTCOME>X151</OUTCOME>
			<OUTCOME>X152</OUTCOME>
			<OUTCOME>X153</OUTCOME>
			<OUTCOME>X154</OUTCOME>
			<OUTCOME>X155</OUTCOME>
			<OUTCOME>X156</OUTCOME>
			<OUTCOME>X157</OUTCOME>
			<OUTCOME>X158</OUTCOME>
			<OUTCOME>X159</OUTCOME>
			<OUTCOME>X160</OUTCOME>
			<OUTCOME>X161</OUTCOME>
			<OUTCOME>X162</OUTCOME>
			<OUTCOME>X163</OUTCOME>
			<OUTCOME>X164</OUTCOME>
			<OUTCOME>X165</OUTCOME>
			<OUTCOME>X166</OUTCOME>
			<OUTCOME>X167</OUTCOME>
			<OUTCOME>X168</OUTCOME>
			<OUTCOME>X169</OUTCOME>
			<OUTCOME>X170</OUTCOME>
			<OUTCOME>X171</OUTCOME>
			<OUTCOME>X172</OUTCOME>
			<OUTCOME>X173</OUTCOME>
			<OUTCOME>X174</OUTCOME>
			<OUTCOME>X175</OUTCOME>
			<OUTCOME>X176</OUTCOME>
			<OUTCOME>X177</OUTCOME>
			<OUTCOME>X178</OUTCOME>
			<OUTCOME>X179</OUTCOME>
			<OUTCOME>X180</OUTCOME>
			<OUTCOME>X181</OUTCOME>
			<OUTCOME>X182</OUTCOME>
			<OUTCOME>X183</OUTCOME>
			<OUTCOME>X184</OUTCOME>
			<OUTCOME>X185</OUTCOME>
			<OUTCOME>X186</OUTCOME>
			<OUTCOME>X187</OUTCOME>
			<OUTCOME>X188</OUTCOME>
			<OUTCOME>X189</OUTCOME>
			<OUTCOME>X190</OUTCOME>
			<OUTCOME>X191</OUTCOME>
			<OUTCOME>X192</OUTCOME>
			<OUTCOME>X193</OUTCOME>
			<OUTCOME>X194</OUTCOME>
			<OUTCOME>X195</OUTCOME>
			<OUTCOME>X196</OUTCOME>
			<OUTCOME>X197</OUTCOME>
			<OUTCOME>X198</OUTCOME>
			<OUTCOME>X199</OUTCOME>
			<OUTCOME>X200</OUTCOME>
			<OUTCOME>X201</OUTCOME>
			<OUTCOME>X202</OUTCOME>
			<OUTCOME>X203</OUTCOME>
			<OUTCOME>X204</OUTCOME>
			<OUTCOME>X205</OUTCOME>
			<OUTCOME>X206</OUTCOME>
			<OUTCOME>X207</OUTCOME>
			<OUTCOME>X208</OUTCOME>
			<OUTCOME>X209</OUTCOME>
			<OUTCOME>X210</OUTCOME>
			<OUTCOME>X211</OUTCOME>
			<OUTCOME>X212</OUTCOME>
			<OUTCOME>X213</OUTCOME>
			<OUTCOME>X214</OUTCOME>
			<OUTCOME>X215</OUTCOME>
			<OUTCOME>X216</OUTCOME>
			<OUTCOME>X217</OUTCOME>
			<OUTCOME>X218</OUTCOME>
			<OUTCOME>X219</OUTCOME>
			<OUTCOME>X220</OUTCOME>
			<OUTCOME>X221</OUTCOME>
			<OUTCOME>X222</OUTCOME>
			<OUTCOME>X223</OUTCOME>
			<OUTCOME>X224</OUTCOME>
			<OUTCOME>X225</OUTCOME>
			<OUTCOME>X226</OUTCOME>
			<OUTCOME>X227</OUTCOME>
			<OUTCOME>X228</OUTCOME>
			<OUTCOME>X229</OUTCOME>
			<OUTCOME>X230</OUTCOME>
			<OUTCOME>X231</OUTCOME>
			<OUTCOME>X232</OUTCOME>
			<OUTCOME>X233</OUTCOME>
			<OUTCOME>X234</OUTCOME>
			<OUTCOME>X235</OUTCOME>
			<OUTCOME>X236</OUTCOME>
			<OUTCOME>X237</OUTCOME>
			<OUTCOME>X238</OUTCOME>
			<OUTCOME>X239</OUTCOME>
			<OUTCOME>X240</OUTCOME>
			<OUTCOME>X241</OUTCOME>
			<OUTCOME>X242</OUTCOME>
			<OUTCOME>X243</OUTCOME>
			<OUTCOME>X244</OUTCOME>
			<OUTCOME>X245</OUTCOME>
			<OUTCOME>X246</OUTCOME>
			<OUTCOME>X247</OUTCOME>
			<OUTCOME>X248</OUTCOME>
			<OUTCOME>X249</OUTCOME>
			<OUTCOME>X250</OUTCOME>
			<OUTCOME>X251</OUTCOME>
			<OUTCOME>X252</OUTCOME>
			<OUTCOME>X253</OUTCOME>
			<OUTCOME>X254</OUTCOME>
			<OUTCOME>X255</OUTCOME>
		</VARIABLE>
		<VARIABLE TYPE  = "nature">
			<NAME>SENSOR3</NAME>
		
			<OUTCOME>X0</OUTCOME>
			<OUTCOME>X1</OUTCOME>
			<OUTCOME>X2</OUTCOME>
			<OUTCOME>X3</OUTCOME>
			<OUTCOME>X4</OUTCOME>
			<OUTCOME>X5</OUTCOME>
			<OUTCOME>X6</OUTCOME>
			<OUTCOME>X7</OUTCOME>
			<OUTCOME>X8</OUTCOME>
			<OUTCOME>X9</OUTCOME>
			<OUTCOME>X10</OUTCOME>
			<OUTCOME>X11</OUTCOME>
			<OUTCOME>X12</OUTCOME>
			<OUTCOME>X13</OUTCOME>
			<OUTCOME>X14</OUTCOME>
			<OUTCOME>X15</OUTCOME>
			<OUTCOME>X16</OUTCOME>
			<OUTCOME>X17</OUTCOME>
			<OUTCOME>X18</OUTCOME>
			<OUTCOME>X19</OUTCOME>
			<OUTCOME>X20</OUTCOME>
			<OUTCOME>X21</OUTCOME>
			<OUTCOME>X22</OUTCOME>
			<OUTCOME>X23</OUTCOME>
			<OUTCOME>X24</OUTCOME>
			<OUTCOME>X25</OUTCOME>
			<OUTCOME>X26</OUTCOME>
			<OUTCOME>X27</OUTCOME>
			<OUTCOME>X28</OUTCOME>
			<OUTCOME>X29</OUTCOME>
			<OUTCOME>X30</OUTCOME>
			<OUTCOME>X31</OUTCOME>
			<OUTCOME>X32</OUTCOME>
			<OUTCOME>X33</OUTCOME>
			<OUTCOME>X34</OUTCOME>
			<OUTCOME>X35</OUTCOME>
			<OUTCOME>X36</OUTCOME>
			<OUTCOME>X37</OUTCOME>
			<OUTCOME>X38</OUTCOME>
			<OUTCOME>X39</OUTCOME>
			<OUTCOME>X40</OUTCOME>
			<OUTCOME>X41</OUTCOME>
			<OUTCOME>X42</OUTCOME>
			<OUTCOME>X43</OUTCOME>
			<OUTCOME>X44</OUTCOME>
			<OUTCOME>X45</OUTCOME>
			<OUTCOME>X46</OUTCOME>
			<OUTCOME>X47</OUTCOME>
			<OUTCOME>X48</OUTCOME>
			<OUTCOME>X49</OUTCOME>
			<OUTCOME>X50</OUTCOME>
			<OUTCOME>X51</OUTCOME>
			<OUTCOME>X52</OUTCOME>
			<OUTCOME>X53</OUTCOME>
			<OUTCOME>X54</OUTCOME>
			<OUTCOME>X55</OUTCOME>
			<OUTCOME>X56</OUTCOME>
			<OUTCOME>X57</OUTCOME>
			<OUTCOME>X58</OUTCOME>
			<OUTCOME>X59</OUTCOME>
			<OUTCOME>X60</OUTCOME>
			<OUTCOME>X61</OUTCOME>
			<OUTCOME>X62</OUTCOME>
			<OUTCOME>X63</OUTCOME>
			<OUTCOME>X64</OUTCOME>
			<OUTCOME>X65</OUTCOME>
			<OUTCOME>X66</OUTCOME>
			<OUTCOME>X67</OUTCOME>
			<OUTCOME>X68</OUTCOME>
			<OUTCOME>X69</OUTCOME>
			<OUTCOME>X70</OUTCOME>
			<OUTCOME>X71</OUTCOME>
			<OUTCOME>X72</OUTCOME>
			<OUTCOME>X73</OUTCOME>
			<OUTCOME>X74</OUTCOME>
			<OUTCOME>X75</OUTCOME>
			<OUTCOME>X76</OUTCOME>
			<OUTCOME>X77</OUTCOME>
			<OUTCOME>X78</OUTCOME>
			<OUTCOME>X79</OUTCOME>
			<OUTCOME>X80</OUTCOME>
			<OUTCOME>X81</OUTCOME>
			<OUTCOME>X82</OUTCOME>
			<OUTCOME>X83</OUTCOME>
			<OUTCOME>X84</OUTCOME>
			<OUTCOME>X85</OUTCOME>
			<OUTCOME>X86</OUTCOME>
			<OUTCOME>X87</OUTCOME>
			<OUTCOME>X88</OUTCOME>
			<OUTCOME>X89</OUTCOME>
			<OUTCOME>X90</OUTCOME>
			<OUTCOME>X91</OUTCOME>
			<OUTCOME>X92</OUTCOME>
			<OUTCOME>X93</OUTCOME>
			<OUTCOME>X94</OUTCOME>
			<OUTCOME>X95</OUTCOME>
			<OUTCOME>X96</OUTCOME>
			<OUTCOME>X97</OUTCOME>
			<OUTCOME>X98</OUTCOME>
			<OUTCOME>X99</OUTCOME>
			<OUTCOME>X100</OUTCOME>
			<OUTCOME>X101</OUTCOME>
			<OUTCOME>X102</OUTCOME>
			<OUTCOME>X103</OUTCOME>
			<OUTCOME>X104</OUTCOME>
			<OUTCOME>X105</OUTCOME>
			<OUTCOME>X106</OUTCOME>
			<OUTCOME>X107</OUTCOME>
			<OUTCOME>X108</OUTCOME>
			<OUTCOME>X109</OUTCOME>
			<OUTCOME>X110</OUTCOME>
			<OUTCOME>X111</OUTCOME>
			<OUTCOME>X112</OUTCOME>
			<OUTCOME>X113</OUTCOME>
			<OUTCOME>X114</OUTCOME>
			<OUTCOME>X115</OUTCOME>
			<OUTCOME>X116</OUTCOME>
			<OUTCOME>X117</OUTCOME>
			<OUTCOME>X118</OUTCOME>
			<OUTCOME>X119</OUTCOME>
			<OUTCOME>X120</OUTCOME>
			<OUTCOME>X121</OUTCOME>
			<OUTCOME>X122</OUTCOME>
			<OUTCOME>X123</OUTCOME>
			<OUTCOME>X124</OUTCOME>
			<OUTCOME>X125</OUTCOME>
			<OUTCOME>X126</OUTCOME>
			<OUTCOME>X127</OUTCOME>
			<OUTCOME>X128</OUTCOME>
			<OUTCOME>X129</OUTCOME>
			<OUTCOME>X130</OUTCOME>
			<OUTCOME>X131</OUTCOME>
			<OUTCOME>X132</OUTCOME>
			<OUTCOME>X133</OUTCOME>
			<OUTCOME>X134</OUTCOME>
			<OUTCOME>X135</OUTCOME>
			<OUTCOME>X136</OUTCOME>
			<OUTCOME>X137</OUTCOME>
			<OUTCOME>X138</OUTCOME>
			<OUTCOME>X139</OUTCOME>
			<OUTCOME>X140</OUTCOME>
			<OUTCOME>X141</OUTCOME>
			<OUTCOME>X142</OUTCOME>
			<OUTCOME>X143</OUTCOME>
			<OUTCOME>X144</OUTCOME>
			<OUTCOME>X145</OUTCOME>
			<OUTCOME>X146</OUTCOME>
			<OUTCOME>X147</OUTCOME>
			<OUTCOME>X148</OUTCOME>
			<OUTCOME>X149</OUTCOME>
			<OUTCOME>X150</OUTCOME>
			<OUTCOME>X151</OUTCOME>
			<OUTCOME>X152</OUTCOME>
			<OUTCOME>X153</OUTCOME>
			<OUTCOME>X154</OUTCOME>
			<OUTCOME>X155</OUTCOME>
			<OUTCOME>X156</OUTCOME>
			<OUTCOME>X157</OUTCOME>
			<OUTCOME>X158</OUTCOME>
			<OUTCOME>X159</OUTCOME>
			<OUTCOME>X160</OUTCOME>
			<OUTCOME>X161</OUTCOME>
			<OUTCOME>X162</OUTCOME>
			<OUTCOME>X163</OUTCOME>
			<OUTCOME>X164</OUTCOME>
			<OUTCOME>X165</OUTCOME>
			<OUTCOME>X166</OUTCOME>
			<OUTCOME>X167</OUTCOME>
			<OUTCOME>X168</OUTCOME>
			<OUTCOME>X169</OUTCOME>
			<OUTCOME>X170</OUTCOME>
			<OUTCOME>X171</OUTCOME>
			<OUTCOME>X172</OUTCOME>
			<OUTCOME>X173</OUTCOME>
			<OUTCOME>X174</OUTCOME>
			<OUTCOME>X175</OUTCOME>
			<OUTCOME>X176</OUTCOME>
			<OUTCOME>X177</OUTCOME>
			<OUTCOME>X178</OUTCOME>
			<OUTCOME>X179</OUTCOME>
			<OUTCOME>X180</OUTCOME>
			<OUTCOME>X181</OUTCOME>
			<OUTCOME>X182</OUTCOME>
			<OUTCOME>X183</OUTCOME>
			<OUTCOME>X184</OUTCOME>
			<OUTCOME>X185</OUTCOME>
			<OUTCOME>X186</OUTCOME>
			<OUTCOME>X187</OUTCOME>
			<OUTCOME>X188</OUTCOME>
			<OUTCOME>X189</OUTCOME>
			<OUTCOME>X190</OUTCOME>
			<OUTCOME>X191</OUTCOME>
			<OUTCOME>X192</OUTCOME>
			<OUTCOME>X193</OUTCOME>
			<OUTCOME>X194</OUTCOME>
			<OUTCOME>X195</OUTCOME>
			<OUTCOME>X196</OUTCOME>
			<OUTCOME>X197</OUTCOME>
			<OUTCOME>X198</OUTCOME>
			<OUTCOME>X199</OUTCOME>
			<OUTCOME>X200</OUTCOME>
			<OUTCOME>X201</OUTCOME>
			<OUTCOME>X202</OUTCOME>
			<OUTCOME>X203</OUTCOME>
			<OUTCOME>X204</OUTCOME>
			<OUTCOME>X205</OUTCOME>
			<OUTCOME>X206</OUTCOME>
			<OUTCOME>X207</OUTCOME>
			<OUTCOME>X208</OUTCOME>
			<OUTCOME>X209</OUTCOME>
			<OUTCOME>X210</OUTCOME>
			<OUTCOME>X211</OUTCOME>
			<OUTCOME>X212</OUTCOME>
			<OUTCOME>X213</OUTCOME>
			<OUTCOME>X214</OUTCOME>
			<OUTCOME>X215</OUTCOME>
			<OUTCOME>X216</OUTCOME>
			<OUTCOME>X217</OUTCOME>
			<OUTCOME>X218</OUTCOME>
			<OUTCOME>X219</OUTCOME>
			<OUTCOME>X220</OUTCOME>
			<OUTCOME>X221</OUTCOME>
			<OUTCOME>X222</OUTCOME>
			<OUTCOME>X223</OUTCOME>
			<OUTCOME>X224</OUTCOME>
			<OUTCOME>X225</OUTCOME>
			<OUTCOME>X226</OUTCOME>
			<OUTCOME>X227</OUTCOME>
			<OUTCOME>X228</OUTCOME>
			<OUTCOME>X229</OUTCOME>
			<OUTCOME>X230</OUTCOME>
			<OUTCOME>X231</OUTCOME>
			<OUTCOME>X232</OUTCOME>
			<OUTCOME>X233</OUTCOME>
			<OUTCOME>X234</OUTCOME>
			<OUTCOME>X235</OUTCOME>
			<OUTCOME>X236</OUTCOME>
			<OUTCOME>X237</OUTCOME>
			<OUTCOME>X238</OUTCOME>
			<OUTCOME>X239</OUTCOME>
			<OUTCOME>X240</OUTCOME>
			<OUTCOME>X241</OUTCOME>
			<OUTCOME>X242</OUTCOME>
			<OUTCOME>X243</OUTCOME>
			<OUTCOME>X244</OUTCOME>
			<OUTCOME>X245</OUTCOME>
			<OUTCOME>X246</OUTCOME>
			<OUTCOME>X247</OUTCOME>
			<OUTCOME>X248</OUTCOME>
			<OUTCOME>X249</OUTCOME>
			<OUTCOME>X250</OUTCOME>
			<OUTCOME>X251</OUTCOME>
			<OUTCOME>X252</OUTCOME>
			<OUTCOME>X253</OUTCOME>
			<OUTCOME>X254</OUTCOME>
			<OUTCOME>X255</OUTCOME>
		</VARIABLE>
		<VARIABLE TYPE  = "nature">
			<NAME>SENSOR4</NAME>
		
			<OUTCOME>X0</OUTCOME>
			<OUTCOME>X1</OUTCOME>
			<OUTCOME>X2</OUTCOME>
			<OUTCOME>X3</OUTCOME>
			<OUTCOME>X4</OUTCOME>
			<OUTCOME>X5</OUTCOME>
			<OUTCOME>X6</OUTCOME>
			<OUTCOME>X7</OUTCOME>
			<OUTCOME>X8</OUTCOME>
			<OUTCOME>X9</OUTCOME>
			<OUTCOME>X10</OUTCOME>
			<OUTCOME>X11</OUTCOME>
			<OUTCOME>X12</OUTCOME>
			<OUTCOME>X13</OUTCOME>
			<OUTCOME>X14</OUTCOME>
			<OUTCOME>X15</OUTCOME>
			<OUTCOME>X16</OUTCOME>
			<OUTCOME>X17</OUTCOME>
			<OUTCOME>X18</OUTCOME>
			<OUTCOME>X19</OUTCOME>
			<OUTCOME>X20</OUTCOME>
			<OUTCOME>X21</OUTCOME>
			<OUTCOME>X22</OUTCOME>
			<OUTCOME>X23</OUTCOME>
			<OUTCOME>X24</OUTCOME>
			<OUTCOME>X25</OUTCOME>
			<OUTCOME>X26</OUTCOME>
			<OUTCOME>X27</OUTCOME>
			<OUTCOME>X28</OUTCOME>
			<OUTCOME>X29</OUTCOME>
			<OUTCOME>X30</OUTCOME>
			<OUTCOME>X31</OUTCOME>
			<OUTCOME>X32</OUTCOME>
			<OUTCOME>X33</OUTCOME>
			<OUTCOME>X34</OUTCOME>
			<OUTCOME>X35</OUTCOME>
			<OUTCOME>X36</OUTCOME>
			<OUTCOME>X37</OUTCOME>
			<OUTCOME>X38</OUTCOME>
			<OUTCOME>X39</OUTCOME>
			<OUTCOME>X40</OUTCOME>
			<OUTCOME>X41</OUTCOME>
			<OUTCOME>X42</OUTCOME>
			<OUTCOME>X43</OUTCOME>
			<OUTCOME>X44</OUTCOME>
			<OUTCOME>X45</OUTCOME>
			<OUTCOME>X46</OUTCOME>
			<OUTCOME>X47</OUTCOME>
			<OUTCOME>X48</OUTCOME>
			<OUTCOME>X49</OUTCOME>
			<OUTCOME>X50</OUTCOME>
			<OUTCOME>X51</OUTCOME>
			<OUTCOME>X52</OUTCOME>
			<OUTCOME>X53</OUTCOME>
			<OUTCOME>X54</OUTCOME>
			<OUTCOME>X55</OUTCOME>
			<OUTCOME>X56</OUTCOME>
			<OUTCOME>X57</OUTCOME>
			<OUTCOME>X58</OUTCOME>
			<OUTCOME>X59</OUTCOME>
			<OUTCOME>X60</OUTCOME>
			<OUTCOME>X61</OUTCOME>
			<OUTCOME>X62</OUTCOME>
			<OUTCOME>X63</OUTCOME>
			<OUTCOME>X64</OUTCOME>
			<OUTCOME>X65</OUTCOME>
			<OUTCOME>X66</OUTCOME>
			<OUTCOME>X67</OUTCOME>
			<OUTCOME>X68</OUTCOME>
			<OUTCOME>X69</OUTCOME>
			<OUTCOME>X70</OUTCOME>
			<OUTCOME>X71</OUTCOME>
			<OUTCOME>X72</OUTCOME>
			<OUTCOME>X73</OUTCOME>
			<OUTCOME>X74</OUTCOME>
			<OUTCOME>X75</OUTCOME>
			<OUTCOME>X76</OUTCOME>
			<OUTCOME>X77</OUTCOME>
			<OUTCOME>X78</OUTCOME>
			<OUTCOME>X79</OUTCOME>
			<OUTCOME>X80</OUTCOME>
			<OUTCOME>X81</OUTCOME>
			<OUTCOME>X82</OUTCOME>
			<OUTCOME>X83</OUTCOME>
			<OUTCOME>X84</OUTCOME>
			<OUTCOME>X85</OUTCOME>
			<OUTCOME>X86</OUTCOME>
			<OUTCOME>X87</OUTCOME>
			<OUTCOME>X88</OUTCOME>
			<OUTCOME>X89</OUTCOME>
			<OUTCOME>X90</OUTCOME>
			<OUTCOME>X91</OUTCOME>
			<OUTCOME>X92</OUTCOME>
			<OUTCOME>X93</OUTCOME>
			<OUTCOME>X94</OUTCOME>
			<OUTCOME>X95</OUTCOME>
			<OUTCOME>X96</OUTCOME>
			<OUTCOME>X97</OUTCOME>
			<OUTCOME>X98</OUTCOME>
			<OUTCOME>X99</OUTCOME>
			<OUTCOME>X100</OUTCOME>
			<OUTCOME>X101</OUTCOME>
			<OUTCOME>X102</OUTCOME>
			<OUTCOME>X103</OUTCOME>
			<OUTCOME>X104</OUTCOME>
			<OUTCOME>X105</OUTCOME>
			<OUTCOME>X106</OUTCOME>
			<OUTCOME>X107</OUTCOME>
			<OUTCOME>X108</OUTCOME>
			<OUTCOME>X109</OUTCOME>
			<OUTCOME>X110</OUTCOME>
			<OUTCOME>X111</OUTCOME>
			<OUTCOME>X112</OUTCOME>
			<OUTCOME>X113</OUTCOME>
			<OUTCOME>X114</OUTCOME>
			<OUTCOME>X115</OUTCOME>
			<OUTCOME>X116</OUTCOME>
			<OUTCOME>X117</OUTCOME>
			<OUTCOME>X118</OUTCOME>
			<OUTCOME>X119</OUTCOME>
			<OUTCOME>X120</OUTCOME>
			<OUTCOME>X121</OUTCOME>
			<OUTCOME>X122</OUTCOME>
			<OUTCOME>X123</OUTCOME>
			<OUTCOME>X124</OUTCOME>
			<OUTCOME>X125</OUTCOME>
			<OUTCOME>X126</OUTCOME>
			<OUTCOME>X127</OUTCOME>
			<OUTCOME>X128</OUTCOME>
			<OUTCOME>X129</OUTCOME>
			<OUTCOME>X130</OUTCOME>
			<OUTCOME>X131</OUTCOME>
			<OUTCOME>X132</OUTCOME>
			<OUTCOME>X133</OUTCOME>
			<OUTCOME>X134</OUTCOME>
			<OUTCOME>X135</OUTCOME>
			<OUTCOME>X136</OUTCOME>
			<OUTCOME>X137</OUTCOME>
			<OUTCOME>X138</OUTCOME>
			<OUTCOME>X139</OUTCOME>
			<OUTCOME>X140</OUTCOME>
			<OUTCOME>X141</OUTCOME>
			<OUTCOME>X142</OUTCOME>
			<OUTCOME>X143</OUTCOME>
			<OUTCOME>X144</OUTCOME>
			<OUTCOME>X145</OUTCOME>
			<OUTCOME>X146</OUTCOME>
			<OUTCOME>X147</OUTCOME>
			<OUTCOME>X148</OUTCOME>
			<OUTCOME>X149</OUTCOME>
			<OUTCOME>X150</OUTCOME>
			<OUTCOME>X151</OUTCOME>
			<OUTCOME>X152</OUTCOME>
			<OUTCOME>X153</OUTCOME>
			<OUTCOME>X154</OUTCOME>
			<OUTCOME>X155</OUTCOME>
			<OUTCOME>X156</OUTCOME>
			<OUTCOME>X157</OUTCOME>
			<OUTCOME>X158</OUTCOME>
			<OUTCOME>X159</OUTCOME>
			<OUTCOME>X160</OUTCOME>
			<OUTCOME>X161</OUTCOME>
			<OUTCOME>X162</OUTCOME>
			<OUTCOME>X163</OUTCOME>
			<OUTCOME>X164</OUTCOME>
			<OUTCOME>X165</OUTCOME>
			<OUTCOME>X166</OUTCOME>
			<OUTCOME>X167</OUTCOME>
			<OUTCOME>X168</OUTCOME>
			<OUTCOME>X169</OUTCOME>
			<OUTCOME>X170</OUTCOME>
			<OUTCOME>X171</OUTCOME>
			<OUTCOME>X172</OUTCOME>
			<OUTCOME>X173</OUTCOME>
			<OUTCOME>X174</OUTCOME>
			<OUTCOME>X175</OUTCOME>
			<OUTCOME>X176</OUTCOME>
			<OUTCOME>X177</OUTCOME>
			<OUTCOME>X178</OUTCOME>
			<OUTCOME>X179</OUTCOME>
			<OUTCOME>X180</OUTCOME>
			<OUTCOME>X181</OUTCOME>
			<OUTCOME>X182</OUTCOME>
			<OUTCOME>X183</OUTCOME>
			<OUTCOME>X184</OUTCOME>
			<OUTCOME>X185</OUTCOME>
			<OUTCOME>X186</OUTCOME>
			<OUTCOME>X187</OUTCOME>
			<OUTCOME>X188</OUTCOME>
			<OUTCOME>X189</OUTCOME>
			<OUTCOME>X190</OUTCOME>
			<OUTCOME>X191</OUTCOME>
			<OUTCOME>X192</OUTCOME>
			<OUTCOME>X193</OUTCOME>
			<OUTCOME>X194</OUTCOME>
			<OUTCOME>X195</OUTCOME>
			<OUTCOME>X196</OUTCOME>
			<OUTCOME>X197</OUTCOME>
			<OUTCOME>X198</OUTCOME>
			<OUTCOME>X199</OUTCOME>
			<OUTCOME>X200</OUTCOME>
			<OUTCOME>X201</OUTCOME>
			<OUTCOME>X202</OUTCOME>
			<OUTCOME>X203</OUTCOME>
			<OUTCOME>X204</OUTCOME>
			<OUTCOME>X205</OUTCOME>
			<OUTCOME>X206</OUTCOME>
			<OUTCOME>X207</OUTCOME>
			<OUTCOME>X208</OUTCOME>
			<OUTCOME>X209</OUTCOME>
			<OUTCOME>X210</OUTCOME>
			<OUTCOME>X211</OUTCOME>
			<OUTCOME>X212</OUTCOME>
			<OUTCOME>X213</OUTCOME>
			<OUTCOME>X214</OUTCOME>
			<OUTCOME>X215</OUTCOME>
			<OUTCOME>X216</OUTCOME>
			<OUTCOME>X217</OUTCOME>
			<OUTCOME>X218</OUTCOME>
			<OUTCOME>X219</OUTCOME>
			<OUTCOME>X220</OUTCOME>
			<OUTCOME>X221</OUTCOME>
			<OUTCOME>X222</OUTCOME>
			<OUTCOME>X223</OUTCOME>
			<OUTCOME>X224</OUTCOME>
			<OUTCOME>X225</OUTCOME>
			<OUTCOME>X226</OUTCOME>
			<OUTCOME>X227</OUTCOME>
			<OUTCOME>X228</OUTCOME>
			<OUTCOME>X229</OUTCOME>
			<OUTCOME>X230</OUTCOME>
			<OUTCOME>X231</OUTCOME>
			<OUTCOME>X232</OUTCOME>
			<OUTCOME>X233</OUTCOME>
			<OUTCOME>X234</OUTCOME>
			<OUTCOME>X235</OUTCOME>
			<OUTCOME>X236</OUTCOME>
			<OUTCOME>X237</OUTCOME>
			<OUTCOME>X238</OUTCOME>
			<OUTCOME>X239</OUTCOME>
			<OUTCOME>X240</OUTCOME>
			<OUTCOME>X241</OUTCOME>
			<OUTCOME>X242</OUTCOME>
			<OUTCOME>X243</OUTCOME>
			<OUTCOME>X244</OUTCOME>
			<OUTCOME>X245</OUTCOME>
			<OUTCOME>X246</OUTCOME>
			<OUTCOME>X247</OUTCOME>
			<OUTCOME>X248</OUTCOME>
			<OUTCOME>X249</OUTCOME>
			<OUTCOME>X250</OUTCOME>
			<OUTCOME>X251</OUTCOME>
			<OUTCOME>X252</OUTCOME>
			<OUTCOME>X253</OUTCOME>
			<OUTCOME>X254</OUTCOME>
			<OUTCOME>X255</OUTCOME>
		</VARIABLE>
		<VARIABLE TYPE  = "nature">
			<NAME>SENSOR5</NAME>
		
			<OUTCOME>X0</OUTCOME>
			<OUTCOME>X1</OUTCOME>
			<OUTCOME>X2</OUTCOME>
			<OUTCOME>X3</OUTCOME>
			<OUTCOME>X4</OUTCOME>
			<OUTCOME>X5</OUTCOME>
			<OUTCOME>X6</OUTCOME>
			<OUTCOME>X7</OUTCOME>
			<OUTCOME>X8</OUTCOME>
			<OUTCOME>X9</OUTCOME>
			<OUTCOME>X10</OUTCOME>
			<OUTCOME>X11</OUTCOME>
			<OUTCOME>X12</OUTCOME>
			<OUTCOME>X13</OUTCOME>
			<OUTCOME>X14</OUTCOME>
			<OUTCOME>X15</OUTCOME>
			<OUTCOME>X16</OUTCOME>
			<OUTCOME>X17</OUTCOME>
			<OUTCOME>X18</OUTCOME>
			<OUTCOME>X19</OUTCOME>
			<OUTCOME>X20</OUTCOME>
			<OUTCOME>X21</OUTCOME>
			<OUTCOME>X22</OUTCOME>
			<OUTCOME>X23</OUTCOME>
			<OUTCOME>X24</OUTCOME>
			<OUTCOME>X25</OUTCOME>
			<OUTCOME>X26</OUTCOME>
			<OUTCOME>X27</OUTCOME>
			<OUTCOME>X28</OUTCOME>
			<OUTCOME>X29</OUTCOME>
			<OUTCOME>X30</OUTCOME>
			<OUTCOME>X31</OUTCOME>
			<OUTCOME>X32</OUTCOME>
			<OUTCOME>X33</OUTCOME>
			<OUTCOME>X34</OUTCOME>
			<OUTCOME>X35</OUTCOME>
			<OUTCOME>X36</OUTCOME>
			<OUTCOME>X37</OUTCOME>
			<OUTCOME>X38</OUTCOME>
			<OUTCOME>X39</OUTCOME>
			<OUTCOME>X40</OUTCOME>
			<OUTCOME>X41</OUTCOME>
			<OUTCOME>X42</OUTCOME>
			<OUTCOME>X43</OUTCOME>
			<OUTCOME>X44</OUTCOME>
			<OUTCOME>X45</OUTCOME>
			<OUTCOME>X46</OUTCOME>
			<OUTCOME>X47</OUTCOME>
			<OUTCOME>X48</OUTCOME>
			<OUTCOME>X49</OUTCOME>
			<OUTCOME>X50</OUTCOME>
			<OUTCOME>X51</OUTCOME>
			<OUTCOME>X52</OUTCOME>
			<OUTCOME>X53</OUTCOME>
			<OUTCOME>X54</OUTCOME>
			<OUTCOME>X55</OUTCOME>
			<OUTCOME>X56</OUTCOME>
			<OUTCOME>X57</OUTCOME>
			<OUTCOME>X58</OUTCOME>
			<OUTCOME>X59</OUTCOME>
			<OUTCOME>X60</OUTCOME>
			<OUTCOME>X61</OUTCOME>
			<OUTCOME>X62</OUTCOME>
			<OUTCOME>X63</OUTCOME>
			<OUTCOME>X64</OUTCOME>
			<OUTCOME>X65</OUTCOME>
			<OUTCOME>X66</OUTCOME>
			<OUTCOME>X67</OUTCOME>
			<OUTCOME>X68</OUTCOME>
			<OUTCOME>X69</OUTCOME>
			<OUTCOME>X70</OUTCOME>
			<OUTCOME>X71</OUTCOME>
			<OUTCOME>X72</OUTCOME>
			<OUTCOME>X73</OUTCOME>
			<OUTCOME>X74</OUTCOME>
			<OUTCOME>X75</OUTCOME>
			<OUTCOME>X76</OUTCOME>
			<OUTCOME>X77</OUTCOME>
			<OUTCOME>X78</OUTCOME>
			<OUTCOME>X79</OUTCOME>
			<OUTCOME>X80</OUTCOME>
			<OUTCOME>X81</OUTCOME>
			<OUTCOME>X82</OUTCOME>
			<OUTCOME>X83</OUTCOME>
			<OUTCOME>X84</OUTCOME>
			<OUTCOME>X85</OUTCOME>
			<OUTCOME>X86</OUTCOME>
			<OUTCOME>X87</OUTCOME>
			<OUTCOME>X88</OUTCOME>
			<OUTCOME>X89</OUTCOME>
			<OUTCOME>X90</OUTCOME>
			<OUTCOME>X91</OUTCOME>
			<OUTCOME>X92</OUTCOME>
			<OUTCOME>X93</OUTCOME>
			<OUTCOME>X94</OUTCOME>
			<OUTCOME>X95</OUTCOME>
			<OUTCOME>X96</OUTCOME>
			<OUTCOME>X97</OUTCOME>
			<OUTCOME>X98</OUTCOME>
			<OUTCOME>X99</OUTCOME>
			<OUTCOME>X100</OUTCOME>
			<OUTCOME>X101</OUTCOME>
			<OUTCOME>X102</OUTCOME>
			<OUTCOME>X103</OUTCOME>
			<OUTCOME>X104</OUTCOME>
			<OUTCOME>X105</OUTCOME>
			<OUTCOME>X106</OUTCOME>
			<OUTCOME>X107</OUTCOME>
			<OUTCOME>X108</OUTCOME>
			<OUTCOME>X109</OUTCOME>
			<OUTCOME>X110</OUTCOME>
			<OUTCOME>X111</OUTCOME>
			<OUTCOME>X112</OUTCOME>
			<OUTCOME>X113</OUTCOME>
			<OUTCOME>X114</OUTCOME>
			<OUTCOME>X115</OUTCOME>
			<OUTCOME>X116</OUTCOME>
			<OUTCOME>X117</OUTCOME>
			<OUTCOME>X118</OUTCOME>
			<OUTCOME>X119</OUTCOME>
			<OUTCOME>X120</OUTCOME>
			<OUTCOME>X121</OUTCOME>
			<OUTCOME>X122</OUTCOME>
			<OUTCOME>X123</OUTCOME>
			<OUTCOME>X124</OUTCOME>
			<OUTCOME>X125</OUTCOME>
			<OUTCOME>X126</OUTCOME>
			<OUTCOME>X127</OUTCOME>
			<OUTCOME>X128</OUTCOME>
			<OUTCOME>X129</OUTCOME>
			<OUTCOME>X130</OUTCOME>
			<OUTCOME>X131</OUTCOME>
			<OUTCOME>X132</OUTCOME>
			<OUTCOME>X133</OUTCOME>
			<OUTCOME>X134</OUTCOME>
			<OUTCOME>X135</OUTCOME>
			<OUTCOME>X136</OUTCOME>
			<OUTCOME>X137</OUTCOME>
			<OUTCOME>X138</OUTCOME>
			<OUTCOME>X139</OUTCOME>
			<OUTCOME>X140</OUTCOME>
			<OUTCOME>X141</OUTCOME>
			<OUTCOME>X142</OUTCOME>
			<OUTCOME>X143</OUTCOME>
			<OUTCOME>X144</OUTCOME>
			<OUTCOME>X145</OUTCOME>
			<OUTCOME>X146</OUTCOME>
			<OUTCOME>X147</OUTCOME>
			<OUTCOME>X148</OUTCOME>
			<OUTCOME>X149</OUTCOME>
			<OUTCOME>X150</OUTCOME>
			<OUTCOME>X151</OUTCOME>
			<OUTCOME>X152</OUTCOME>
			<OUTCOME>X153</OUTCOME>
			<OUTCOME>X154</OUTCOME>
			<OUTCOME>X155</OUTCOME>
			<OUTCOME>X156</OUTCOME>
			<OUTCOME>X157</OUTCOME>
			<OUTCOME>X158</OUTCOME>
			<OUTCOME>X159</OUTCOME>
			<OUTCOME>X160</OUTCOME>
			<OUTCOME>X161</OUTCOME>
			<OUTCOME>X162</OUTCOME>
			<OUTCOME>X163</OUTCOME>
			<OUTCOME>X164</OUTCOME>
			<OUTCOME>X165</OUTCOME>
			<OUTCOME>X166</OUTCOME>
			<OUTCOME>X167</OUTCOME>
			<OUTCOME>X168</OUTCOME>
			<OUTCOME>X169</OUTCOME>
			<OUTCOME>X170</OUTCOME>
			<OUTCOME>X171</OUTCOME>
			<OUTCOME>X172</OUTCOME>
			<OUTCOME>X173</OUTCOME>
			<OUTCOME>X174</OUTCOME>
			<OUTCOME>X175</OUTCOME>
			<OUTCOME>X176</OUTCOME>
			<OUTCOME>X177</OUTCOME>
			<OUTCOME>X178</OUTCOME>
			<OUTCOME>X179</OUTCOME>
			<OUTCOME>X180</OUTCOME>
			<OUTCOME>X181</OUTCOME>
			<OUTCOME>X182</OUTCOME>
			<OUTCOME>X183</OUTCOME>
			<OUTCOME>X184</OUTCOME>
			<OUTCOME>X185</OUTCOME>
			<OUTCOME>X186</OUTCOME>
			<OUTCOME>X187</OUTCOME>
			<OUTCOME>X188</OUTCOME>
			<OUTCOME>X189</OUTCOME>
			<OUTCOME>X190</OUTCOME>
			<OUTCOME>X191</OUTCOME>
			<OUTCOME>X192</OUTCOME>
			<OUTCOME>X193</OUTCOME>
			<OUTCOME>X194</OUTCOME>
			<OUTCOME>X195</OUTCOME>
			<OUTCOME>X196</OUTCOME>
			<OUTCOME>X197</OUTCOME>
			<OUTCOME>X198</OUTCOME>
			<OUTCOME>X199</OUTCOME>
			<OUTCOME>X200</OUTCOME>
			<OUTCOME>X201</OUTCOME>
			<OUTCOME>X202</OUTCOME>
			<OUTCOME>X203</OUTCOME>
			<OUTCOME>X204</OUTCOME>
			<OUTCOME>X205</OUTCOME>
			<OUTCOME>X206</OUTCOME>
			<OUTCOME>X207</OUTCOME>
			<OUTCOME>X208</OUTCOME>
			<OUTCOME>X209</OUTCOME>
			<OUTCOME>X210</OUTCOME>
			<OUTCOME>X211</OUTCOME>
			<OUTCOME>X212</OUTCOME>
			<OUTCOME>X213</OUTCOME>
			<OUTCOME>X214</OUTCOME>
			<OUTCOME>X215</OUTCOME>
			<OUTCOME>X216</OUTCOME>
			<OUTCOME>X217</OUTCOME>
			<OUTCOME>X218</OUTCOME>
			<OUTCOME>X219</OUTCOME>
			<OUTCOME>X220</OUTCOME>
			<OUTCOME>X221</OUTCOME>
			<OUTCOME>X222</OUTCOME>
			<OUTCOME>X223</OUTCOME>
			<OUTCOME>X224</OUTCOME>
			<OUTCOME>X225</OUTCOME>
			<OUTCOME>X226</OUTCOME>
			<OUTCOME>X227</OUTCOME>
			<OUTCOME>X228</OUTCOME>
			<OUTCOME>X229</OUTCOME>
			<OUTCOME>X230</OUTCOME>
			<OUTCOME>X231</OUTCOME>
			<OUTCOME>X232</OUTCOME>
			<OUTCOME>X233</OUTCOME>
			<OUTCOME>X234</OUTCOME>
			<OUTCOME>X235</OUTCOME>
			<OUTCOME>X236</OUTCOME>
			<OUTCOME>X237</OUTCOME>
			<OUTCOME>X238</OUTCOME>
			<OUTCOME>X239</OUTCOME>
			<OUTCOME>X240</OUTCOME>
			<OUTCOME>X241</OUTCOME>
			<OUTCOME>X242</OUTCOME>
			<OUTCOME>X243</OUTCOME>
			<OUTCOME>X244</OUTCOME>
			<OUTCOME>X245</OUTCOME>
			<OUTCOME>X246</OUTCOME>
			<OUTCOME>X247</OUTCOME>
			<OUTCOME>X248</OUTCOME>
			<OUTCOME>X249</OUTCOME>
			<OUTCOME>X250</OUTCOME>
			<OUTCOME>X251</OUTCOME>
			<OUTCOME>X252</OUTCOME>
			<OUTCOME>X253</OUTCOME>
			<OUTCOME>X254</OUTCOME>
			<OUTCOME>X255</OUTCOME>
		</VARIABLE>
		<VARIABLE TYPE  = "nature">
			<NAME>SENSOR6</NAME>
		
			<OUTCOME>X0</OUTCOME>
			<OUTCOME>X1</OUTCOME>
			<OUTCOME>X2</OUTCOME>
			<OUTCOME>X3</OUTCOME>
			<OUTCOME>X4</OUTCOME>
			<OUTCOME>X5</OUTCOME>
			<OUTCOME>X6</OUTCOME>
			<OUTCOME>X7</OUTCOME>
			<OUTCOME>X8</OUTCOME>
			<OUTCOME>X9</OUTCOME>
			<OUTCOME>X10</OUTCOME>
			<OUTCOME>X11</OUTCOME>
			<OUTCOME>X12</OUTCOME>
			<OUTCOME>X13</OUTCOME>
			<OUTCOME>X14</OUTCOME>
			<OUTCOME>X15</OUTCOME>
			<OUTCOME>X16</OUTCOME>
			<OUTCOME>X17</OUTCOME>
			<OUTCOME>X18</OUTCOME>
			<OUTCOME>X19</OUTCOME>
			<OUTCOME>X20</OUTCOME>
			<OUTCOME>X21</OUTCOME>
			<OUTCOME>X22</OUTCOME>
			<OUTCOME>X23</OUTCOME>
			<OUTCOME>X24</OUTCOME>
			<OUTCOME>X25</OUTCOME>
			<OUTCOME>X26</OUTCOME>
			<OUTCOME>X27</OUTCOME>
			<OUTCOME>X28</OUTCOME>
			<OUTCOME>X29</OUTCOME>
			<OUTCOME>X30</OUTCOME>
			<OUTCOME>X31</OUTCOME>
			<OUTCOME>X32</OUTCOME>
			<OUTCOME>X33</OUTCOME>
			<OUTCOME>X34</OUTCOME>
			<OUTCOME>X35</OUTCOME>
			<OUTCOME>X36</OUTCOME>
			<OUTCOME>X37</OUTCOME>
			<OUTCOME>X38</OUTCOME>
			<OUTCOME>X39</OUTCOME>
			<OUTCOME>X40</OUTCOME>
			<OUTCOME>X41</OUTCOME>
			<OUTCOME>X42</OUTCOME>
			<OUTCOME>X43</OUTCOME>
			<OUTCOME>X44</OUTCOME>
			<OUTCOME>X45</OUTCOME>
			<OUTCOME>X46</OUTCOME>
			<OUTCOME>X47</OUTCOME>
			<OUTCOME>X48</OUTCOME>
			<OUTCOME>X49</OUTCOME>
			<OUTCOME>X50</OUTCOME>
			<OUTCOME>X51</OUTCOME>
			<OUTCOME>X52</OUTCOME>
			<OUTCOME>X53</OUTCOME>
			<OUTCOME>X54</OUTCOME>
			<OUTCOME>X55</OUTCOME>
			<OUTCOME>X56</OUTCOME>
			<OUTCOME>X57</OUTCOME>
			<OUTCOME>X58</OUTCOME>
			<OUTCOME>X59</OUTCOME>
			<OUTCOME>X60</OUTCOME>
			<OUTCOME>X61</OUTCOME>
			<OUTCOME>X62</OUTCOME>
			<OUTCOME>X63</OUTCOME>
			<OUTCOME>X64</OUTCOME>
			<OUTCOME>X65</OUTCOME>
			<OUTCOME>X66</OUTCOME>
			<OUTCOME>X67</OUTCOME>
			<OUTCOME>X68</OUTCOME>
			<OUTCOME>X69</OUTCOME>
			<OUTCOME>X70</OUTCOME>
			<OUTCOME>X71</OUTCOME>
			<OUTCOME>X72</OUTCOME>
			<OUTCOME>X73</OUTCOME>
			<OUTCOME>X74</OUTCOME>
			<OUTCOME>X75</OUTCOME>
			<OUTCOME>X76</OUTCOME>
			<OUTCOME>X77</OUTCOME>
			<OUTCOME>X78</OUTCOME>
			<OUTCOME>X79</OUTCOME>
			<OUTCOME>X80</OUTCOME>
			<OUTCOME>X81</OUTCOME>
			<OUTCOME>X82</OUTCOME>
			<OUTCOME>X83</OUTCOME>
			<OUTCOME>X84</OUTCOME>
			<OUTCOME>X85</OUTCOME>
			<OUTCOME>X86</OUTCOME>
			<OUTCOME>X87</OUTCOME>
			<OUTCOME>X88</OUTCOME>
			<OUTCOME>X89</OUTCOME>
			<OUTCOME>X90</OUTCOME>
			<OUTCOME>X91</OUTCOME>
			<OUTCOME>X92</OUTCOME>
			<OUTCOME>X93</OUTCOME>
			<OUTCOME>X94</OUTCOME>
			<OUTCOME>X95</OUTCOME>
			<OUTCOME>X96</OUTCOME>
			<OUTCOME>X97</OUTCOME>
			<OUTCOME>X98</OUTCOME>
			<OUTCOME>X99</OUTCOME>
			<OUTCOME>X100</OUTCOME>
			<OUTCOME>X101</OUTCOME>
			<OUTCOME>X102</OUTCOME>
			<OUTCOME>X103</OUTCOME>
			<OUTCOME>X104</OUTCOME>
			<OUTCOME>X105</OUTCOME>
			<OUTCOME>X106</OUTCOME>
			<OUTCOME>X107</OUTCOME>
			<OUTCOME>X108</OUTCOME>
			<OUTCOME>X109</OUTCOME>
			<OUTCOME>X110</OUTCOME>
			<OUTCOME>X111</OUTCOME>
			<OUTCOME>X112</OUTCOME>
			<OUTCOME>X113</OUTCOME>
			<OUTCOME>X114</OUTCOME>
			<OUTCOME>X115</OUTCOME>
			<OUTCOME>X116</OUTCOME>
			<OUTCOME>X117</OUTCOME>
			<OUTCOME>X118</OUTCOME>
			<OUTCOME>X119</OUTCOME>
			<OUTCOME>X120</OUTCOME>
			<OUTCOME>X121</OUTCOME>
			<OUTCOME>X122</OUTCOME>
			<OUTCOME>X123</OUTCOME>
			<OUTCOME>X124</OUTCOME>
			<OUTCOME>X125</OUTCOME>
			<OUTCOME>X126</OUTCOME>
			<OUTCOME>X127</OUTCOME>
			<OUTCOME>X128</OUTCOME>
			<OUTCOME>X129</OUTCOME>
			<OUTCOME>X130</OUTCOME>
			<OUTCOME>X131</OUTCOME>
			<OUTCOME>X132</OUTCOME>
			<OUTCOME>X133</OUTCOME>
			<OUTCOME>X134</OUTCOME>
			<OUTCOME>X135</OUTCOME>
			<OUTCOME>X136</OUTCOME>
			<OUTCOME>X137</OUTCOME>
			<OUTCOME>X138</OUTCOME>
			<OUTCOME>X139</OUTCOME>
			<OUTCOME>X140</OUTCOME>
			<OUTCOME>X141</OUTCOME>
			<OUTCOME>X142</OUTCOME>
			<OUTCOME>X143</OUTCOME>
			<OUTCOME>X144</OUTCOME>
			<OUTCOME>X145</OUTCOME>
			<OUTCOME>X146</OUTCOME>
			<OUTCOME>X147</OUTCOME>
			<OUTCOME>X148</OUTCOME>
			<OUTCOME>X149</OUTCOME>
			<OUTCOME>X150</OUTCOME>
			<OUTCOME>X151</OUTCOME>
			<OUTCOME>X152</OUTCOME>
			<OUTCOME>X153</OUTCOME>
			<OUTCOME>X154</OUTCOME>
			<OUTCOME>X155</OUTCOME>
			<OUTCOME>X156</OUTCOME>
			<OUTCOME>X157</OUTCOME>
			<OUTCOME>X158</OUTCOME>
			<OUTCOME>X159</OUTCOME>
			<OUTCOME>X160</OUTCOME>
			<OUTCOME>X161</OUTCOME>
			<OUTCOME>X162</OUTCOME>
			<OUTCOME>X163</OUTCOME>
			<OUTCOME>X164</OUTCOME>
			<OUTCOME>X165</OUTCOME>
			<OUTCOME>X166</OUTCOME>
			<OUTCOME>X167</OUTCOME>
			<OUTCOME>X168</OUTCOME>
			<OUTCOME>X169</OUTCOME>
			<OUTCOME>X170</OUTCOME>
			<OUTCOME>X171</OUTCOME>
			<OUTCOME>X172</OUTCOME>
			<OUTCOME>X173</OUTCOME>
			<OUTCOME>X174</OUTCOME>
			<OUTCOME>X175</OUTCOME>
			<OUTCOME>X176</OUTCOME>
			<OUTCOME>X177</OUTCOME>
			<OUTCOME>X178</OUTCOME>
			<OUTCOME>X179</OUTCOME>
			<OUTCOME>X180</OUTCOME>
			<OUTCOME>X181</OUTCOME>
			<OUTCOME>X182</OUTCOME>
			<OUTCOME>X183</OUTCOME>
			<OUTCOME>X184</OUTCOME>
			<OUTCOME>X185</OUTCOME>
			<OUTCOME>X186</OUTCOME>
			<OUTCOME>X187</OUTCOME>
			<OUTCOME>X188</OUTCOME>
			<OUTCOME>X189</OUTCOME>
			<OUTCOME>X190</OUTCOME>
			<OUTCOME>X191</OUTCOME>
			<OUTCOME>X192</OUTCOME>
			<OUTCOME>X193</OUTCOME>
			<OUTCOME>X194</OUTCOME>
			<OUTCOME>X195</OUTCOME>
			<OUTCOME>X196</OUTCOME>
			<OUTCOME>X197</OUTCOME>
			<OUTCOME>X198</OUTCOME>
			<OUTCOME>X199</OUTCOME>
			<OUTCOME>X200</OUTCOME>
			<OUTCOME>X201</OUTCOME>
			<OUTCOME>X202</OUTCOME>
			<OUTCOME>X203</OUTCOME>
			<OUTCOME>X204</OUTCOME>
			<OUTCOME>X205</OUTCOME>
			<OUTCOME>X206</OUTCOME>
			<OUTCOME>X207</OUTCOME>
			<OUTCOME>X208</OUTCOME>
			<OUTCOME>X209</OUTCOME>
			<OUTCOME>X210</OUTCOME>
			<OUTCOME>X211</OUTCOME>
			<OUTCOME>X212</OUTCOME>
			<OUTCOME>X213</OUTCOME>
			<OUTCOME>X214</OUTCOME>
			<OUTCOME>X215</OUTCOME>
			<OUTCOME>X216</OUTCOME>
			<OUTCOME>X217</OUTCOME>
			<OUTCOME>X218</OUTCOME>
			<OUTCOME>X219</OUTCOME>
			<OUTCOME>X220</OUTCOME>
			<OUTCOME>X221</OUTCOME>
			<OUTCOME>X222</OUTCOME>
			<OUTCOME>X223</OUTCOME>
			<OUTCOME>X224</OUTCOME>
			<OUTCOME>X225</OUTCOME>
			<OUTCOME>X226</OUTCOME>
			<OUTCOME>X227</OUTCOME>
			<OUTCOME>X228</OUTCOME>
			<OUTCOME>X229</OUTCOME>
			<OUTCOME>X230</OUTCOME>
			<OUTCOME>X231</OUTCOME>
			<OUTCOME>X232</OUTCOME>
			<OUTCOME>X233</OUTCOME>
			<OUTCOME>X234</OUTCOME>
			<OUTCOME>X235</OUTCOME>
			<OUTCOME>X236</OUTCOME>
			<OUTCOME>X237</OUTCOME>
			<OUTCOME>X238</OUTCOME>
			<OUTCOME>X239</OUTCOME>
			<OUTCOME>X240</OUTCOME>
			<OUTCOME>X241</OUTCOME>
			<OUTCOME>X242</OUTCOME>
			<OUTCOME>X243</OUTCOME>
			<OUTCOME>X244</OUTCOME>
			<OUTCOME>X245</OUTCOME>
			<OUTCOME>X246</OUTCOME>
			<OUTCOME>X247</OUTCOME>
			<OUTCOME>X248</OUTCOME>
			<OUTCOME>X249</OUTCOME>
			<OUTCOME>X250</OUTCOME>
			<OUTCOME>X251</OUTCOME>
			<OUTCOME>X252</OUTCOME>
			<OUTCOME>X253</OUTCOME>
			<OUTCOME>X254</OUTCOME>
			<OUTCOME>X255</OUTCOME>
		</VARIABLE>
		<VARIABLE TYPE  = "nature">
			<NAME>SENSOR7</NAME>
		
			<OUTCOME>X0</OUTCOME>
			<OUTCOME>X1</OUTCOME>
			<OUTCOME>X2</OUTCOME>
			<OUTCOME>X3</OUTCOME>
			<OUTCOME>X4</OUTCOME>
			<OUTCOME>X5</OUTCOME>
			<OUTCOME>X6</OUTCOME>
			<OUTCOME>X7</OUTCOME>
			<OUTCOME>X8</OUTCOME>
			<OUTCOME>X9</OUTCOME>
			<OUTCOME>X10</OUTCOME>
			<OUTCOME>X11</OUTCOME>
			<OUTCOME>X12</OUTCOME>
			<OUTCOME>X13</OUTCOME>
			<OUTCOME>X14</OUTCOME>
			<OUTCOME>X15</OUTCOME>
			<OUTCOME>X16</OUTCOME>
			<OUTCOME>X17</OUTCOME>
			<OUTCOME>X18</OUTCOME>
			<OUTCOME>X19</OUTCOME>
			<OUTCOME>X20</OUTCOME>
			<OUTCOME>X21</OUTCOME>
			<OUTCOME>X22</OUTCOME>
			<OUTCOME>X23</OUTCOME>
			<OUTCOME>X24</OUTCOME>
			<OUTCOME>X25</OUTCOME>
			<OUTCOME>X26</OUTCOME>
			<OUTCOME>X27</OUTCOME>
			<OUTCOME>X28</OUTCOME>
			<OUTCOME>X29</OUTCOME>
			<OUTCOME>X30</OUTCOME>
			<OUTCOME>X31</OUTCOME>
			<OUTCOME>X32</OUTCOME>
			<OUTCOME>X33</OUTCOME>
			<OUTCOME>X34</OUTCOME>
			<OUTCOME>X35</OUTCOME>
			<OUTCOME>X36</OUTCOME>
			<OUTCOME>X37</OUTCOME>
			<OUTCOME>X38</OUTCOME>
			<OUTCOME>X39</OUTCOME>
			<OUTCOME>X40</OUTCOME>
			<OUTCOME>X41</OUTCOME>
			<OUTCOME>X42</OUTCOME>
			<OUTCOME>X43</OUTCOME>
			<OUTCOME>X44</OUTCOME>
			<OUTCOME>X45</OUTCOME>
			<OUTCOME>X46</OUTCOME>
			<OUTCOME>X47</OUTCOME>
			<OUTCOME>X48</OUTCOME>
			<OUTCOME>X49</OUTCOME>
			<OUTCOME>X50</OUTCOME>
			<OUTCOME>X51</OUTCOME>
			<OUTCOME>X52</OUTCOME>
			<OUTCOME>X53</OUTCOME>
			<OUTCOME>X54</OUTCOME>
			<OUTCOME>X55</OUTCOME>
			<OUTCOME>X56</OUTCOME>
			<OUTCOME>X57</OUTCOME>
			<OUTCOME>X58</OUTCOME>
			<OUTCOME>X59</OUTCOME>
			<OUTCOME>X60</OUTCOME>
			<OUTCOME>X61</OUTCOME>
			<OUTCOME>X62</OUTCOME>
			<OUTCOME>X63</OUTCOME>
			<OUTCOME>X64</OUTCOME>
			<OUTCOME>X65</OUTCOME>
			<OUTCOME>X66</OUTCOME>
			<OUTCOME>X67</OUTCOME>
			<OUTCOME>X68</OUTCOME>
			<OUTCOME>X69</OUTCOME>
			<OUTCOME>X70</OUTCOME>
			<OUTCOME>X71</OUTCOME>
			<OUTCOME>X72</OUTCOME>
			<OUTCOME>X73</OUTCOME>
			<OUTCOME>X74</OUTCOME>
			<OUTCOME>X75</OUTCOME>
			<OUTCOME>X76</OUTCOME>
			<OUTCOME>X77</OUTCOME>
			<OUTCOME>X78</OUTCOME>
			<OUTCOME>X79</OUTCOME>
			<OUTCOME>X80</OUTCOME>
			<OUTCOME>X81</OUTCOME>
			<OUTCOME>X82</OUTCOME>
			<OUTCOME>X83</OUTCOME>
			<OUTCOME>X84</OUTCOME>
			<OUTCOME>X85</OUTCOME>
			<OUTCOME>X86</OUTCOME>
			<OUTCOME>X87</OUTCOME>
			<OUTCOME>X88</OUTCOME>
			<OUTCOME>X89</OUTCOME>
			<OUTCOME>X90</OUTCOME>
			<OUTCOME>X91</OUTCOME>
			<OUTCOME>X92</OUTCOME>
			<OUTCOME>X93</OUTCOME>
			<OUTCOME>X94</OUTCOME>
			<OUTCOME>X95</OUTCOME>
			<OUTCOME>X96</OUTCOME>
			<OUTCOME>X97</OUTCOME>
			<OUTCOME>X98</OUTCOME>
			<OUTCOME>X99</OUTCOME>
			<OUTCOME>X100</OUTCOME>
			<OUTCOME>X101</OUTCOME>
			<OUTCOME>X102</OUTCOME>
			<OUTCOME>X103</OUTCOME>
			<OUTCOME>X104</OUTCOME>
			<OUTCOME>X105</OUTCOME>
			<OUTCOME>X106</OUTCOME>
			<OUTCOME>X107</OUTCOME>
			<OUTCOME>X108</OUTCOME>
			<OUTCOME>X109</OUTCOME>
			<OUTCOME>X110</OUTCOME>
			<OUTCOME>X111</OUTCOME>
			<OUTCOME>X112</OUTCOME>
			<OUTCOME>X113</OUTCOME>
			<OUTCOME>X114</OUTCOME>
			<OUTCOME>X115</OUTCOME>
			<OUTCOME>X116</OUTCOME>
			<OUTCOME>X117</OUTCOME>
			<OUTCOME>X118</OUTCOME>
			<OUTCOME>X119</OUTCOME>
			<OUTCOME>X120</OUTCOME>
			<OUTCOME>X121</OUTCOME>
			<OUTCOME>X122</OUTCOME>
			<OUTCOME>X123</OUTCOME>
			<OUTCOME>X124</OUTCOME>
			<OUTCOME>X125</OUTCOME>
			<OUTCOME>X126</OUTCOME>
			<OUTCOME>X127</OUTCOME>
			<OUTCOME>X128</OUTCOME>
			<OUTCOME>X129</OUTCOME>
			<OUTCOME>X130</OUTCOME>
			<OUTCOME>X131</OUTCOME>
			<OUTCOME>X132</OUTCOME>
			<OUTCOME>X133</OUTCOME>
			<OUTCOME>X134</OUTCOME>
			<OUTCOME>X135</OUTCOME>
			<OUTCOME>X136</OUTCOME>
			<OUTCOME>X137</OUTCOME>
			<OUTCOME>X138</OUTCOME>
			<OUTCOME>X139</OUTCOME>
			<OUTCOME>X140</OUTCOME>
			<OUTCOME>X141</OUTCOME>
			<OUTCOME>X142</OUTCOME>
			<OUTCOME>X143</OUTCOME>
			<OUTCOME>X144</OUTCOME>
			<OUTCOME>X145</OUTCOME>
			<OUTCOME>X146</OUTCOME>
			<OUTCOME>X147</OUTCOME>
			<OUTCOME>X148</OUTCOME>
			<OUTCOME>X149</OUTCOME>
			<OUTCOME>X150</OUTCOME>
			<OUTCOME>X151</OUTCOME>
			<OUTCOME>X152</OUTCOME>
			<OUTCOME>X153</OUTCOME>
			<OUTCOME>X154</OUTCOME>
			<OUTCOME>X155</OUTCOME>
			<OUTCOME>X156</OUTCOME>
			<OUTCOME>X157</OUTCOME>
			<OUTCOME>X158</OUTCOME>
			<OUTCOME>X159</OUTCOME>
			<OUTCOME>X160</OUTCOME>
			<OUTCOME>X161</OUTCOME>
			<OUTCOME>X162</OUTCOME>
			<OUTCOME>X163</OUTCOME>
			<OUTCOME>X164</OUTCOME>
			<OUTCOME>X165</OUTCOME>
			<OUTCOME>X166</OUTCOME>
			<OUTCOME>X167</OUTCOME>
			<OUTCOME>X168</OUTCOME>
			<OUTCOME>X169</OUTCOME>
			<OUTCOME>X170</OUTCOME>
			<OUTCOME>X171</OUTCOME>
			<OUTCOME>X172</OUTCOME>
			<OUTCOME>X173</OUTCOME>
			<OUTCOME>X174</OUTCOME>
			<OUTCOME>X175</OUTCOME>
			<OUTCOME>X176</OUTCOME>
			<OUTCOME>X177</OUTCOME>
			<OUTCOME>X178</OUTCOME>
			<OUTCOME>X179</OUTCOME>
			<OUTCOME>X180</OUTCOME>
			<OUTCOME>X181</OUTCOME>
			<OUTCOME>X182</OUTCOME>
			<OUTCOME>X183</OUTCOME>
			<OUTCOME>X184</OUTCOME>
			<OUTCOME>X185</OUTCOME>
			<OUTCOME>X186</OUTCOME>
			<OUTCOME>X187</OUTCOME>
			<OUTCOME>X188</OUTCOME>
			<OUTCOME>X189</OUTCOME>
			<OUTCOME>X190</OUTCOME>
			<OUTCOME>X191</OUTCOME>
			<OUTCOME>X192</OUTCOME>
			<OUTCOME>X193</OUTCOME>
			<OUTCOME>X194</OUTCOME>
			<OUTCOME>X195</OUTCOME>
			<OUTCOME>X196</OUTCOME>
			<OUTCOME>X197</OUTCOME>
			<OUTCOME>X198</OUTCOME>
			<OUTCOME>X199</OUTCOME>
			<OUTCOME>X200</OUTCOME>
			<OUTCOME>X201</OUTCOME>
			<OUTCOME>X202</OUTCOME>
			<OUTCOME>X203</OUTCOME>
			<OUTCOME>X204</OUTCOME>
			<OUTCOME>X205</OUTCOME>
			<OUTCOME>X206</OUTCOME>
			<OUTCOME>X207</OUTCOME>
			<OUTCOME>X208</OUTCOME>
			<OUTCOME>X209</OUTCOME>
			<OUTCOME>X210</OUTCOME>
			<OUTCOME>X211</OUTCOME>
			<OUTCOME>X212</OUTCOME>
			<OUTCOME>X213</OUTCOME>
			<OUTCOME>X214</OUTCOME>
			<OUTCOME>X215</OUTCOME>
			<OUTCOME>X216</OUTCOME>
			<OUTCOME>X217</OUTCOME>
			<OUTCOME>X218</OUTCOME>
			<OUTCOME>X219</OUTCOME>
			<OUTCOME>X220</OUTCOME>
			<OUTCOME>X221</OUTCOME>
			<OUTCOME>X222</OUTCOME>
			<OUTCOME>X223</OUTCOME>
			<OUTCOME>X224</OUTCOME>
			<OUTCOME>X225</OUTCOME>
			<OUTCOME>X226</OUTCOME>
			<OUTCOME>X227</OUTCOME>
			<OUTCOME>X228</OUTCOME>
			<OUTCOME>X229</OUTCOME>
			<OUTCOME>X230</OUTCOME>
			<OUTCOME>X231</OUTCOME>
			<OUTCOME>X232</OUTCOME>
			<OUTCOME>X233</OUTCOME>
			<OUTCOME>X234</OUTCOME>
			<OUTCOME>X235</OUTCOME>
			<OUTCOME>X236</OUTCOME>
			<OUTCOME>X237</OUTCOME>
			<OUTCOME>X238</OUTCOME>
			<OUTCOME>X239</OUTCOME>
			<OUTCOME>X240</OUTCOME>
			<OUTCOME>X241</OUTCOME>
			<OUTCOME>X242</OUTCOME>
			<OUTCOME>X243</OUTCOME>
			<OUTCOME>X244</OUTCOME>
			<OUTCOME>X245</OUTCOME>
			<OUTCOME>X246</OUTCOME>
			<OUTCOME>X247</OUTCOME>
			<OUTCOME>X248</OUTCOME>
			<OUTCOME>X249</OUTCOME>
			<OUTCOME>X250</OUTCOME>
			<OUTCOME>X251</OUTCOME>
			<OUTCOME>X252</OUTCOME>
			<OUTCOME>X253</OUTCOME>
			<OUTCOME>X254</OUTCOME>
			<OUTCOME>X255</OUTCOME>
		</VARIABLE>
		<VARIABLE TYPE  = "nature">
			<NAME>SENSOR8</NAME>
		
			<OUTCOME>X0</OUTCOME>
			<OUTCOME>X1</OUTCOME>
			<OUTCOME>X2</OUTCOME>
			<OUTCOME>X3</OUTCOME>
			<OUTCOME>X4</OUTCOME>
			<OUTCOME>X5</OUTCOME>
			<OUTCOME>X6</OUTCOME>
			<OUTCOME>X7</OUTCOME>
			<OUTCOME>X8</OUTCOME>
			<OUTCOME>X9</OUTCOME>
			<OUTCOME>X10</OUTCOME>
			<OUTCOME>X11</OUTCOME>
			<OUTCOME>X12</OUTCOME>
			<OUTCOME>X13</OUTCOME>
			<OUTCOME>X14</OUTCOME>
			<OUTCOME>X15</OUTCOME>
			<OUTCOME>X16</OUTCOME>
			<OUTCOME>X17</OUTCOME>
			<OUTCOME>X18</OUTCOME>
			<OUTCOME>X19</OUTCOME>
			<OUTCOME>X20</OUTCOME>
			<OUTCOME>X21</OUTCOME>
			<OUTCOME>X22</OUTCOME>
			<OUTCOME>X23</OUTCOME>
			<OUTCOME>X24</OUTCOME>
			<OUTCOME>X25</OUTCOME>
			<OUTCOME>X26</OUTCOME>
			<OUTCOME>X27</OUTCOME>
			<OUTCOME>X28</OUTCOME>
			<OUTCOME>X29</OUTCOME>
			<OUTCOME>X30</OUTCOME>
			<OUTCOME>X31</OUTCOME>
			<OUTCOME>X32</OUTCOME>
			<OUTCOME>X33</OUTCOME>
			<OUTCOME>X34</OUTCOME>
			<OUTCOME>X35</OUTCOME>
			<OUTCOME>X36</OUTCOME>
			<OUTCOME>X37</OUTCOME>
			<OUTCOME>X38</OUTCOME>
			<OUTCOME>X39</OUTCOME>
			<OUTCOME>X40</OUTCOME>
			<OUTCOME>X41</OUTCOME>
			<OUTCOME>X42</OUTCOME>
			<OUTCOME>X43</OUTCOME>
			<OUTCOME>X44</OUTCOME>
			<OUTCOME>X45</OUTCOME>
			<OUTCOME>X46</OUTCOME>
			<OUTCOME>X47</OUTCOME>
			<OUTCOME>X48</OUTCOME>
			<OUTCOME>X49</OUTCOME>
			<OUTCOME>X50</OUTCOME>
			<OUTCOME>X51</OUTCOME>
			<OUTCOME>X52</OUTCOME>
			<OUTCOME>X53</OUTCOME>
			<OUTCOME>X54</OUTCOME>
			<OUTCOME>X55</OUTCOME>
			<OUTCOME>X56</OUTCOME>
			<OUTCOME>X57</OUTCOME>
			<OUTCOME>X58</OUTCOME>
			<OUTCOME>X59</OUTCOME>
			<OUTCOME>X60</OUTCOME>
			<OUTCOME>X61</OUTCOME>
			<OUTCOME>X62</OUTCOME>
			<OUTCOME>X63</OUTCOME>
			<OUTCOME>X64</OUTCOME>
			<OUTCOME>X65</OUTCOME>
			<OUTCOME>X66</OUTCOME>
			<OUTCOME>X67</OUTCOME>
			<OUTCOME>X68</OUTCOME>
			<OUTCOME>X69</OUTCOME>
			<OUTCOME>X70</OUTCOME>
			<OUTCOME>X71</OUTCOME>
			<OUTCOME>X72</OUTCOME>
			<OUTCOME>X73</OUTCOME>
			<OUTCOME>X74</OUTCOME>
			<OUTCOME>X75</OUTCOME>
			<OUTCOME>X76</OUTCOME>
			<OUTCOME>X77</OUTCOME>
			<OUTCOME>X78</OUTCOME>
			<OUTCOME>X79</OUTCOME>
			<OUTCOME>X80</OUTCOME>
			<OUTCOME>X81</OUTCOME>
			<OUTCOME>X82</OUTCOME>
			<OUTCOME>X83</OUTCOME>
			<OUTCOME>X84</OUTCOME>
			<OUTCOME>X85</OUTCOME>
			<OUTCOME>X86</OUTCOME>
			<OUTCOME>X87</OUTCOME>
			<OUTCOME>X88</OUTCOME>
			<OUTCOME>X89</OUTCOME>
			<OUTCOME>X90</OUTCOME>
			<OUTCOME>X91</OUTCOME>
			<OUTCOME>X92</OUTCOME>
			<OUTCOME>X93</OUTCOME>
			<OUTCOME>X94</OUTCOME>
			<OUTCOME>X95</OUTCOME>
			<OUTCOME>X96</OUTCOME>
			<OUTCOME>X97</OUTCOME>
			<OUTCOME>X98</OUTCOME>
			<OUTCOME>X99</OUTCOME>
			<OUTCOME>X100</OUTCOME>
			<OUTCOME>X101</OUTCOME>
			<OUTCOME>X102</OUTCOME>
			<OUTCOME>X103</OUTCOME>
			<OUTCOME>X104</OUTCOME>
			<OUTCOME>X105</OUTCOME>
			<OUTCOME>X106</OUTCOME>
			<OUTCOME>X107</OUTCOME>
			<OUTCOME>X108</OUTCOME>
			<OUTCOME>X109</OUTCOME>
			<OUTCOME>X110</OUTCOME>
			<OUTCOME>X111</OUTCOME>
			<OUTCOME>X112</OUTCOME>
			<OUTCOME>X113</OUTCOME>
			<OUTCOME>X114</OUTCOME>
			<OUTCOME>X115</OUTCOME>
			<OUTCOME>X116</OUTCOME>
			<OUTCOME>X117</OUTCOME>
			<OUTCOME>X118</OUTCOME>
			<OUTCOME>X119</OUTCOME>
			<OUTCOME>X120</OUTCOME>
			<OUTCOME>X121</OUTCOME>
			<OUTCOME>X122</OUTCOME>
			<OUTCOME>X123</OUTCOME>
			<OUTCOME>X124</OUTCOME>
			<OUTCOME>X125</OUTCOME>
			<OUTCOME>X126</OUTCOME>
			<OUTCOME>X127</OUTCOME>
			<OUTCOME>X128</OUTCOME>
			<OUTCOME>X129</OUTCOME>
			<OUTCOME>X130</OUTCOME>
			<OUTCOME>X131</OUTCOME>
			<OUTCOME>X132</OUTCOME>
			<OUTCOME>X133</OUTCOME>
			<OUTCOME>X134</OUTCOME>
			<OUTCOME>X135</OUTCOME>
			<OUTCOME>X136</OUTCOME>
			<OUTCOME>X137</OUTCOME>
			<OUTCOME>X138</OUTCOME>
			<OUTCOME>X139</OUTCOME>
			<OUTCOME>X140</OUTCOME>
			<OUTCOME>X141</OUTCOME>
			<OUTCOME>X142</OUTCOME>
			<OUTCOME>X143</OUTCOME>
			<OUTCOME>X144</OUTCOME>
			<OUTCOME>X145</OUTCOME>
			<OUTCOME>X146</OUTCOME>
			<OUTCOME>X147</OUTCOME>
			<OUTCOME>X148</OUTCOME>
			<OUTCOME>X149</OUTCOME>
			<OUTCOME>X150</OUTCOME>
			<OUTCOME>X151</OUTCOME>
			<OUTCOME>X152</OUTCOME>
			<OUTCOME>X153</OUTCOME>
			<OUTCOME>X154</OUTCOME>
			<OUTCOME>X155</OUTCOME>
			<OUTCOME>X156</OUTCOME>
			<OUTCOME>X157</OUTCOME>
			<OUTCOME>X158</OUTCOME>
			<OUTCOME>X159</OUTCOME>
			<OUTCOME>X160</OUTCOME>
			<OUTCOME>X161</OUTCOME>
			<OUTCOME>X162</OUTCOME>
			<OUTCOME>X163</OUTCOME>
			<OUTCOME>X164</OUTCOME>
			<OUTCOME>X165</OUTCOME>
			<OUTCOME>X166</OUTCOME>
			<OUTCOME>X167</OUTCOME>
			<OUTCOME>X168</OUTCOME>
			<OUTCOME>X169</OUTCOME>
			<OUTCOME>X170</OUTCOME>
			<OUTCOME>X171</OUTCOME>
			<OUTCOME>X172</OUTCOME>
			<OUTCOME>X173</OUTCOME>
			<OUTCOME>X174</OUTCOME>
			<OUTCOME>X175</OUTCOME>
			<OUTCOME>X176</OUTCOME>
			<OUTCOME>X177</OUTCOME>
			<OUTCOME>X178</OUTCOME>
			<OUTCOME>X179</OUTCOME>
			<OUTCOME>X180</OUTCOME>
			<OUTCOME>X181</OUTCOME>
			<OUTCOME>X182</OUTCOME>
			<OUTCOME>X183</OUTCOME>
			<OUTCOME>X184</OUTCOME>
			<OUTCOME>X185</OUTCOME>
			<OUTCOME>X186</OUTCOME>
			<OUTCOME>X187</OUTCOME>
			<OUTCOME>X188</OUTCOME>
			<OUTCOME>X189</OUTCOME>
			<OUTCOME>X190</OUTCOME>
			<OUTCOME>X191</OUTCOME>
			<OUTCOME>X192</OUTCOME>
			<OUTCOME>X193</OUTCOME>
			<OUTCOME>X194</OUTCOME>
			<OUTCOME>X195</OUTCOME>
			<OUTCOME>X196</OUTCOME>
			<OUTCOME>X197</OUTCOME>
			<OUTCOME>X198</OUTCOME>
			<OUTCOME>X199</OUTCOME>
			<OUTCOME>X200</OUTCOME>
			<OUTCOME>X201</OUTCOME>
			<OUTCOME>X202</OUTCOME>
			<OUTCOME>X203</OUTCOME>
			<OUTCOME>X204</OUTCOME>
			<OUTCOME>X205</OUTCOME>
			<OUTCOME>X206</OUTCOME>
			<OUTCOME>X207</OUTCOME>
			<OUTCOME>X208</OUTCOME>
			<OUTCOME>X209</OUTCOME>
			<OUTCOME>X210</OUTCOME>
			<OUTCOME>X211</OUTCOME>
			<OUTCOME>X212</OUTCOME>
			<OUTCOME>X213</OUTCOME>
			<OUTCOME>X214</OUTCOME>
			<OUTCOME>X215</OUTCOME>
			<OUTCOME>X216</OUTCOME>
			<OUTCOME>X217</OUTCOME>
			<OUTCOME>X218</OUTCOME>
			<OUTCOME>X219</OUTCOME>
			<OUTCOME>X220</OUTCOME>
			<OUTCOME>X221</OUTCOME>
			<OUTCOME>X222</OUTCOME>
			<OUTCOME>X223</OUTCOME>
			<OUTCOME>X224</OUTCOME>
			<OUTCOME>X225</OUTCOME>
			<OUTCOME>X226</OUTCOME>
			<OUTCOME>X227</OUTCOME>
			<OUTCOME>X228</OUTCOME>
			<OUTCOME>X229</OUTCOME>
			<OUTCOME>X230</OUTCOME>
			<OUTCOME>X231</OUTCOME>
			<OUTCOME>X232</OUTCOME>
			<OUTCOME>X233</OUTCOME>
			<OUTCOME>X234</OUTCOME>
			<OUTCOME>X235</OUTCOME>
			<OUTCOME>X236</OUTCOME>
			<OUTCOME>X237</OUTCOME>
			<OUTCOME>X238</OUTCOME>
			<OUTCOME>X239</OUTCOME>
			<OUTCOME>X240</OUTCOME>
			<OUTCOME>X241</OUTCOME>
			<OUTCOME>X242</OUTCOME>
			<OUTCOME>X243</OUTCOME>
			<OUTCOME>X244</OUTCOME>
			<OUTCOME>X245</OUTCOME>
			<OUTCOME>X246</OUTCOME>
			<OUTCOME>X247</OUTCOME>
			<OUTCOME>X248</OUTCOME>
			<OUTCOME>X249</OUTCOME>
			<OUTCOME>X250</OUTCOME>
			<OUTCOME>X251</OUTCOME>
			<OUTCOME>X252</OUTCOME>
			<OUTCOME>X253</OUTCOME>
			<OUTCOME>X254</OUTCOME>
			<OUTCOME>X255</OUTCOME>
		</VARIABLE>
		<VARIABLE TYPE  = "nature">
			<NAME>SENSOR9</NAME>
		
			<OUTCOME>X0</OUTCOME>
			<OUTCOME>X1</OUTCOME>
			<OUTCOME>X2</OUTCOME>
			<OUTCOME>X3</OUTCOME>
			<OUTCOME>X4</OUTCOME>
			<OUTCOME>X5</OUTCOME>
			<OUTCOME>X6</OUTCOME>
			<OUTCOME>X7</OUTCOME>
			<OUTCOME>X8</OUTCOME>
			<OUTCOME>X9</OUTCOME>
			<OUTCOME>X10</OUTCOME>
			<OUTCOME>X11</OUTCOME>
			<OUTCOME>X12</OUTCOME>
			<OUTCOME>X13</OUTCOME>
			<OUTCOME>X14</OUTCOME>
			<OUTCOME>X15</OUTCOME>
			<OUTCOME>X16</OUTCOME>
			<OUTCOME>X17</OUTCOME>
			<OUTCOME>X18</OUTCOME>
			<OUTCOME>X19</OUTCOME>
			<OUTCOME>X20</OUTCOME>
			<OUTCOME>X21</OUTCOME>
			<OUTCOME>X22</OUTCOME>
			<OUTCOME>X23</OUTCOME>
			<OUTCOME>X24</OUTCOME>
			<OUTCOME>X25</OUTCOME>
			<OUTCOME>X26</OUTCOME>
			<OUTCOME>X27</OUTCOME>
			<OUTCOME>X28</OUTCOME>
			<OUTCOME>X29</OUTCOME>
			<OUTCOME>X30</OUTCOME>
			<OUTCOME>X31</OUTCOME>
			<OUTCOME>X32</OUTCOME>
			<OUTCOME>X33</OUTCOME>
			<OUTCOME>X34</OUTCOME>
			<OUTCOME>X35</OUTCOME>
			<OUTCOME>X36</OUTCOME>
			<OUTCOME>X37</OUTCOME>
			<OUTCOME>X38</OUTCOME>
			<OUTCOME>X39</OUTCOME>
			<OUTCOME>X40</OUTCOME>
			<OUTCOME>X41</OUTCOME>
			<OUTCOME>X42</OUTCOME>
			<OUTCOME>X43</OUTCOME>
			<OUTCOME>X44</OUTCOME>
			<OUTCOME>X45</OUTCOME>
			<OUTCOME>X46</OUTCOME>
			<OUTCOME>X47</OUTCOME>
			<OUTCOME>X48</OUTCOME>
			<OUTCOME>X49</OUTCOME>
			<OUTCOME>X50</OUTCOME>
			<OUTCOME>X51</OUTCOME>
			<OUTCOME>X52</OUTCOME>
			<OUTCOME>X53</OUTCOME>
			<OUTCOME>X54</OUTCOME>
			<OUTCOME>X55</OUTCOME>
			<OUTCOME>X56</OUTCOME>
			<OUTCOME>X57</OUTCOME>
			<OUTCOME>X58</OUTCOME>
			<OUTCOME>X59</OUTCOME>
			<OUTCOME>X60</OUTCOME>
			<OUTCOME>X61</OUTCOME>
			<OUTCOME>X62</OUTCOME>
			<OUTCOME>X63</OUTCOME>
			<OUTCOME>X64</OUTCOME>
			<OUTCOME>X65</OUTCOME>
			<OUTCOME>X66</OUTCOME>
			<OUTCOME>X67</OUTCOME>
			<OUTCOME>X68</OUTCOME>
			<OUTCOME>X69</OUTCOME>
			<OUTCOME>X70</OUTCOME>
			<OUTCOME>X71</OUTCOME>
			<OUTCOME>X72</OUTCOME>
			<OUTCOME>X73</OUTCOME>
			<OUTCOME>X74</OUTCOME>
			<OUTCOME>X75</OUTCOME>
			<OUTCOME>X76</OUTCOME>
			<OUTCOME>X77</OUTCOME>
			<OUTCOME>X78</OUTCOME>
			<OUTCOME>X79</OUTCOME>
			<OUTCOME>X80</OUTCOME>
			<OUTCOME>X81</OUTCOME>
			<OUTCOME>X82</OUTCOME>
			<OUTCOME>X83</OUTCOME>
			<OUTCOME>X84</OUTCOME>
			<OUTCOME>X85</OUTCOME>
			<OUTCOME>X86</OUTCOME>
			<OUTCOME>X87</OUTCOME>
			<OUTCOME>X88</OUTCOME>
			<OUTCOME>X89</OUTCOME>
			<OUTCOME>X90</OUTCOME>
			<OUTCOME>X91</OUTCOME>
			<OUTCOME>X92</OUTCOME>
			<OUTCOME>X93</OUTCOME>
			<OUTCOME>X94</OUTCOME>
			<OUTCOME>X95</OUTCOME>
			<OUTCOME>X96</OUTCOME>
			<OUTCOME>X97</OUTCOME>
			<OUTCOME>X98</OUTCOME>
			<OUTCOME>X99</OUTCOME>
			<OUTCOME>X100</OUTCOME>
			<OUTCOME>X101</OUTCOME>
			<OUTCOME>X102</OUTCOME>
			<OUTCOME>X103</OUTCOME>
			<OUTCOME>X104</OUTCOME>
			<OUTCOME>X105</OUTCOME>
			<OUTCOME>X106</OUTCOME>
			<OUTCOME>X107</OUTCOME>
			<OUTCOME>X108</OUTCOME>
			<OUTCOME>X109</OUTCOME>
			<OUTCOME>X110</OUTCOME>
			<OUTCOME>X111</OUTCOME>
			<OUTCOME>X112</OUTCOME>
			<OUTCOME>X113</OUTCOME>
			<OUTCOME>X114</OUTCOME>
			<OUTCOME>X115</OUTCOME>
			<OUTCOME>X116</OUTCOME>
			<OUTCOME>X117</OUTCOME>
			<OUTCOME>X118</OUTCOME>
			<OUTCOME>X119</OUTCOME>
			<OUTCOME>X120</OUTCOME>
			<OUTCOME>X121</OUTCOME>
			<OUTCOME>X122</OUTCOME>
			<OUTCOME>X123</OUTCOME>
			<OUTCOME>X124</OUTCOME>
			<OUTCOME>X125</OUTCOME>
			<OUTCOME>X126</OUTCOME>
			<OUTCOME>X127</OUTCOME>
			<OUTCOME>X128</OUTCOME>
			<OUTCOME>X129</OUTCOME>
			<OUTCOME>X130</OUTCOME>
			<OUTCOME>X131</OUTCOME>
			<OUTCOME>X132</OUTCOME>
			<OUTCOME>X133</OUTCOME>
			<OUTCOME>X134</OUTCOME>
			<OUTCOME>X135</OUTCOME>
			<OUTCOME>X136</OUTCOME>
			<OUTCOME>X137</OUTCOME>
			<OUTCOME>X138</OUTCOME>
			<OUTCOME>X139</OUTCOME>
			<OUTCOME>X140</OUTCOME>
			<OUTCOME>X141</OUTCOME>
			<OUTCOME>X142</OUTCOME>
			<OUTCOME>X143</OUTCOME>
			<OUTCOME>X144</OUTCOME>
			<OUTCOME>X145</OUTCOME>
			<OUTCOME>X146</OUTCOME>
			<OUTCOME>X147</OUTCOME>
			<OUTCOME>X148</OUTCOME>
			<OUTCOME>X149</OUTCOME>
			<OUTCOME>X150</OUTCOME>
			<OUTCOME>X151</OUTCOME>
			<OUTCOME>X152</OUTCOME>
			<OUTCOME>X153</OUTCOME>
			<OUTCOME>X154</OUTCOME>
			<OUTCOME>X155</OUTCOME>
			<OUTCOME>X156</OUTCOME>
			<OUTCOME>X157</OUTCOME>
			<OUTCOME>X158</OUTCOME>
			<OUTCOME>X159</OUTCOME>
			<OUTCOME>X160</OUTCOME>
			<OUTCOME>X161</OUTCOME>
			<OUTCOME>X162</OUTCOME>
			<OUTCOME>X163</OUTCOME>
			<OUTCOME>X164</OUTCOME>
			<OUTCOME>X165</OUTCOME>
			<OUTCOME>X166</OUTCOME>
			<OUTCOME>X167</OUTCOME>
			<OUTCOME>X168</OUTCOME>
			<OUTCOME>X169</OUTCOME>
			<OUTCOME>X170</OUTCOME>
			<OUTCOME>X171</OUTCOME>
			<OUTCOME>X172</OUTCOME>
			<OUTCOME>X173</OUTCOME>
			<OUTCOME>X174</OUTCOME>
			<OUTCOME>X175</OUTCOME>
			<OUTCOME>X176</OUTCOME>
			<OUTCOME>X177</OUTCOME>
			<OUTCOME>X178</OUTCOME>
			<OUTCOME>X179</OUTCOME>
			<OUTCOME>X180</OUTCOME>
			<OUTCOME>X181</OUTCOME>
			<OUTCOME>X182</OUTCOME>
			<OUTCOME>X183</OUTCOME>
			<OUTCOME>X184</OUTCOME>
			<OUTCOME>X185</OUTCOME>
			<OUTCOME>X186</OUTCOME>
			<OUTCOME>X187</OUTCOME>
			<OUTCOME>X188</OUTCOME>
			<OUTCOME>X189</OUTCOME>
			<OUTCOME>X190</OUTCOME>
			<OUTCOME>X191</OUTCOME>
			<OUTCOME>X192</OUTCOME>
			<OUTCOME>X193</OUTCOME>
			<OUTCOME>X194</OUTCOME>
			<OUTCOME>X195</OUTCOME>
			<OUTCOME>X196</OUTCOME>
			<OUTCOME>X197</OUTCOME>
			<OUTCOME>X198</OUTCOME>
			<OUTCOME>X199</OUTCOME>
			<OUTCOME>X200</OUTCOME>
			<OUTCOME>X201</OUTCOME>
			<OUTCOME>X202</OUTCOME>
			<OUTCOME>X203</OUTCOME>
			<OUTCOME>X204</OUTCOME>
			<OUTCOME>X205</OUTCOME>
			<OUTCOME>X206</OUTCOME>
			<OUTCOME>X207</OUTCOME>
			<OUTCOME>X208</OUTCOME>
			<OUTCOME>X209</OUTCOME>
			<OUTCOME>X210</OUTCOME>
			<OUTCOME>X211</OUTCOME>
			<OUTCOME>X212</OUTCOME>
			<OUTCOME>X213</OUTCOME>
			<OUTCOME>X214</OUTCOME>
			<OUTCOME>X215</OUTCOME>
			<OUTCOME>X216</OUTCOME>
			<OUTCOME>X217</OUTCOME>
			<OUTCOME>X218</OUTCOME>
			<OUTCOME>X219</OUTCOME>
			<OUTCOME>X220</OUTCOME>
			<OUTCOME>X221</OUTCOME>
			<OUTCOME>X222</OUTCOME>
			<OUTCOME>X223</OUTCOME>
			<OUTCOME>X224</OUTCOME>
			<OUTCOME>X225</OUTCOME>
			<OUTCOME>X226</OUTCOME>
			<OUTCOME>X227</OUTCOME>
			<OUTCOME>X228</OUTCOME>
			<OUTCOME>X229</OUTCOME>
			<OUTCOME>X230</OUTCOME>
			<OUTCOME>X231</OUTCOME>
			<OUTCOME>X232</OUTCOME>
			<OUTCOME>X233</OUTCOME>
			<OUTCOME>X234</OUTCOME>
			<OUTCOME>X235</OUTCOME>
			<OUTCOME>X236</OUTCOME>
			<OUTCOME>X237</OUTCOME>
			<OUTCOME>X238</OUTCOME>
			<OUTCOME>X239</OUTCOME>
			<OUTCOME>X240</OUTCOME>
			<OUTCOME>X241</OUTCOME>
			<OUTCOME>X242</OUTCOME>
			<OUTCOME>X243</OUTCOME>
			<OUTCOME>X244</OUTCOME>
			<OUTCOME>X245</OUTCOME>
			<OUTCOME>X246</OUTCOME>
			<OUTCOME>X247</OUTCOME>
			<OUTCOME>X248</OUTCOME>
			<OUTCOME>X249</OUTCOME>
			<OUTCOME>X250</OUTCOME>
			<OUTCOME>X251</OUTCOME>
			<OUTCOME>X252</OUTCOME>
			<OUTCOME>X253</OUTCOME>
			<OUTCOME>X254</OUTCOME>
			<OUTCOME>X255</OUTCOME>
		</VARIABLE>
	<DEFINITION>
	<FOR>CLASS5</FOR>
		<TABLE>0.482 0.518</TABLE>
	</DEFINITION>
			
		<DEFINITION>
		<FOR>SENSOR1</FOR>
		<GIVEN>CLASS5</GIVEN>
		<TABLE> 2.1495667814074387e-14 4.492966845511736e-14 9.299939663991344e-14 1.9063019553241153e-13 3.869616275402016e-13 7.778731013539216e-13 1.5485108482743465e-12 3.0527018911685993e-12 5.959628447794373e-12 1.1521754537427602e-11 2.2058841393434263e-11 4.182263798874023e-11 7.852443002185666e-11 1.4600334573685983e-10 2.688347889460848e-10 4.901993988701315e-10 8.851660030933601e-10 1.582855690430268e-09 2.8029965522299008e-09 4.915508490020984e-09 8.536483059566908e-09 1.4680950027641188e-08 2.5003107217940323e-08 4.216949997095254e-08 7.043160168191552e-08 1.1649340070464408e-07 1.9080938312000303e-07 3.095015132505262e-07 4.971534657794014e-07 7.908294088339207e-07 1.2457755308519067e-06 1.9433965471263847e-06 3.0022558690823205e-06 4.593023035013856e-06 6.958476899181651e-06 1.043985342858513e-05 1.5510980728465316e-05 2.282174037412165e-05 3.3252393245721305e-05 4.7980160963210044e-05 6.855910486368974e-05 9.701373428872931e-05 0.0001359458487637614 0.00018865282997121644 0.00025925392704934986 0.00035281903521132115 0.0004754921131273541 0.0006345988384283963 0.0008387255501400141 0.0010977542287593006 0.0014228365395043449 0.0018262891789087847 0.0023213933036128303 0.0029220830433202096 0.003642512293012112 0.004496495296576304 0.005496824941139656 0.006654482909350994 0.007977767351260597 0.009471375735463416 0.011135491979893164 0.012964936634774741 0.014948445516338052 0.017068144560739303 0.019299285794377317 0.02161030058378712 0.02396321162606938 0.026314424958010934 0.028615898717603536 0.030816658194266155 0.032864599034452865 0.03470849479130961 0.03630010382405114 0.037596256135875694 0.03856079485965732 0.03916625080096897 0.039395141884975636 0.039240811736683215 0.03870775126138293 0.03781138154493333 0.0365773127195377 0.0350401285004921 0.033241776886950895 0.03122967147640065 0.02905462311574385 0.026768727228161617 0.024423328087798468 0.022067168443291152 0.01974481286143826 0.01749540816776232 0.01535181688116547 0.013340132067293587 0.011479556822379779 0.009782610458604013 0.008255607632923904 0.0068993467550723005 0.005709940028566336 0.004679718894751877 0.0037981545363733145 0.003052742275427182 0.0024298098946951468 0.0019152218899119802 0.0014949633393548415 0.001155597606965589 0.0008846008864907053 0.0006705833282270358 0.0005034110903212845 0.0003742462447626828 0.00027552230866756633 0.00020087261424829226 0.00014502715913206068 0.00010369136540892452 7.341765216874214e-05 5.147816245001255e-05 3.574458221421368e-05 2.4578878341661486e-05 1.6737035598006818e-05 1.1286509851686832e-05 7.537120097847378e-06 4.9844340162341595e-06 3.264306367895896e-06 2.117047578925702e-06 1.3596745547754151e-06 8.647766747076803e-07 5.446752096274701e-07 3.3973156261912607e-07 2.0984509845384258e-07 1.2835902438076225e-07 7.775326427149302e-08 4.6641821165421995e-08 2.7707479038249687e-08 1.6299833663548574e-08 9.495852870863432e-09 5.478345608261947e-09 3.129893223725893e-09 1.770819363292979e-09 9.921644178863489e-10 5.505004505400159e-10 3.024797845040013e-10 1.6458857170098535e-10 8.868856811418264e-11 4.732604968108591e-11 2.5009068302276486e-11 1.308758198610791e-11 6.782440042348017e-12 3.4807846609669487e-12 1.7690210265600556e-12 8.903350665700822e-13 4.4375024703784835e-13 2.190223236719789e-13 1.0705397604347801e-13 5.181814558164545e-14 2.4838512115955675e-14 1.1790546422728808e-14 5.542515717638434e-15 2.5801477695166396e-15 1.189451862945099e-15 5.430174769468373e-16 2.454965478451539e-16 1.0991111578818483e-16 4.8730681973502866e-17 2.1395774257141025e-17 9.302896092668335e-18 4.005649807637968e-18 1.7080179570304514e-18 7.21234563733228e-19 3.015957904309013e-19 1.2489316315015885e-19 5.1217302319409466e-20 2.0799810583428098e-20 8.365014640876243e-21 3.3314912436243533e-21 1.3139392682436806e-21 5.131880718109819e-22 1.9849174965185423e-22 7.602790297146576e-23 2.883820394963061e-23 1.083248387802197e-23 4.0295127942806216e-24 1.48436830349869e-24 5.414962462229113e-25 1.9562027897305013e-25 6.99837069470578e-26 2.4793889248358732e-26 8.698753342125569e-27 3.022275294861212e-27 1.0398619117911088e-27 3.543088222870355e-28 1.195509157114956e-28 3.994739766366193e-29 1.3218699320942964e-29 4.331652417317796e-30 1.4056691780381532e-30 4.517282896163878e-31 1.437593503567835e-31 4.5306400436882267e-32 1.413994310636467e-32 4.370190918513251e-33 1.3375739549912633e-33 4.054150273057248e-34 1.2168765623575851e-34 3.617077847050921e-35 1.0647161224055546e-35 3.103662224215178e-36 8.959416277284647e-37 2.5612361677752154e-37 7.250770877104899e-38 2.032747252692822e-38 5.643483103558071e-39 1.5515855300064008e-39 4.2244371935125416e-40 1.1390076470774001e-40 3.041228609574418e-41 8.041482851077691e-42 2.1056581140381333e-42 5.460145572390665e-43 1.4021201485171581e-43 3.56558573932832e-44 8.979273156168705e-45 2.23931983965115e-45 5.53038947823559e-46 1.3525706295667863e-46 3.275886400105766e-47 7.857101413233693e-48 1.8662100747908734e-48 4.3895838149060656e-49 1.022470548646224e-49 2.3585381973896408e-50 5.387653616972623e-51 1.2187680584029948e-51 2.730279487957027e-52 6.05700307696376e-53 1.330678461884849e-53 2.895030250338149e-54 6.237315751267847e-55 1.3307822480649706e-55 2.811777254019577e-56 5.883279390491009e-57 1.2190532538521064e-57 2.5014425227278578e-58 5.083034106932932e-59 1.0228693484700094e-59 2.0383649865952638e-60 4.022614198257352e-61 7.861392115886263e-62 1.5214412288636064e-62 2.9159196201021264e-63 5.534272770897416e-64 1.0401841180299989e-64 1.936085452011231e-65 3.568646006476426e-66 6.513989643515001e-67 1.177484781453353e-67 2.107794112118838e-68 3.736506280654098e-69 6.559457030552748e-70 0.9999999999999785 0.999999999999955 0.999999999999907 0.9999999999998094 0.9999999999996131 0.9999999999992222 0.9999999999984515 0.9999999999969473 0.9999999999940403 0.9999999999884782 0.9999999999779412 0.9999999999581773 0.9999999999214756 0.9999999998539967 0.9999999997311652 0.9999999995098006 0.999999999114834 0.9999999984171443 0.9999999971970035 0.9999999950844916 0.9999999914635169 0.99999998531905 0.9999999749968927 0.9999999578305 0.9999999295683983 0.9999998835065993 0.9999998091906169 0.9999996904984868 0.9999995028465343 0.9999992091705912 0.9999987542244692 0.9999980566034529 0.9999969977441309 0.999995406976965 0.9999930415231009 0.9999895601465714 0.9999844890192715 0.9999771782596258 0.9999667476067543 0.9999520198390368 0.9999314408951363 0.9999029862657113 0.9998640541512362 0.9998113471700287 0.9997407460729506 0.9996471809647887 0.9995245078868726 0.9993654011615716 0.99916127444986 0.9989022457712406 0.9985771634604956 0.9981737108210912 0.9976786066963872 0.9970779169566798 0.9963574877069878 0.9955035047034237 0.9945031750588603 0.993345517090649 0.9920222326487395 0.9905286242645366 0.9888645080201068 0.9870350633652253 0.985051554483662 0.9829318554392606 0.9807007142056227 0.9783896994162129 0.9760367883739306 0.973685575041989 0.9713841012823965 0.9691833418057338 0.9671354009655472 0.9652915052086903 0.9636998961759489 0.9624037438641243 0.9614392051403426 0.9608337491990311 0.9606048581150244 0.9607591882633167 0.9612922487386171 0.9621886184550666 0.9634226872804623 0.9649598714995079 0.9667582231130492 0.9687703285235993 0.9709453768842562 0.9732312727718384 0.9755766719122015 0.9779328315567088 0.9802551871385617 0.9825045918322377 0.9846481831188345 0.9866598679327064 0.9885204431776202 0.9902173895413959 0.9917443923670761 0.9931006532449277 0.9942900599714337 0.9953202811052482 0.9962018454636267 0.9969472577245728 0.9975701901053049 0.998084778110088 0.9985050366606452 0.9988444023930344 0.9991153991135093 0.999329416671773 0.9994965889096787 0.9996257537552373 0.9997244776913324 0.9997991273857517 0.9998549728408679 0.9998963086345911 0.9999265823478313 0.99994852183755 0.9999642554177858 0.9999754211216584 0.999983262964402 0.9999887134901483 0.9999924628799022 0.9999950155659838 0.9999967356936321 0.9999978829524211 0.9999986403254453 0.9999991352233253 0.9999994553247904 0.9999996602684373 0.9999997901549016 0.9999998716409756 0.9999999222467357 0.9999999533581788 0.9999999722925209 0.9999999837001663 0.9999999905041471 0.9999999945216544 0.9999999968701068 0.9999999982291806 0.9999999990078355 0.9999999994494996 0.9999999996975202 0.9999999998354114 0.9999999999113114 0.999999999952674 0.9999999999749909 0.9999999999869125 0.9999999999932175 0.9999999999965192 0.999999999998231 0.9999999999991097 0.9999999999995562 0.999999999999781 0.999999999999893 0.9999999999999482 0.9999999999999751 0.9999999999999882 0.9999999999999944 0.9999999999999974 0.9999999999999988 0.9999999999999994 0.9999999999999998 0.9999999999999999 1.0 1.0 1.0 1.0 1.0 1.0 1.0 1.0 1.0 1.0 1.0 1.0 1.0 1.0 1.0 1.0 1.0 1.0 1.0 1.0 1.0 1.0 1.0 1.0 1.0 1.0 1.0 1.0 1.0 1.0 1.0 1.0 1.0 1.0 1.0 1.0 1.0 1.0 1.0 1.0 1.0 1.0 1.0 1.0 1.0 1.0 1.0 1.0 1.0 1.0 1.0 1.0 1.0 1.0 1.0 1.0 1.0 1.0 1.0 1.0 1.0 1.0 1.0 1.0 1.0 1.0 1.0 1.0 1.0 1.0 1.0 1.0 1.0 1.0 1.0 1.0 1.0 1.0 1.0 1.0 1.0 1.0 1.0 1.0 1.0 1.0 1.0 1.0 1.0 1.0 1.0 1.0 1.0 1.0 1.0 1.0  </TABLE>
		</DEFINITION>
			
		<DEFINITION>
		<FOR>SENSOR2</FOR>
		<GIVEN>CLASS5</GIVEN>
		<TABLE> 2.327449140047837e-07 3.434026223094872e-07 5.03390356622915e-07 7.331351674906886e-07 1.0608185124646227e-06 1.5250216323464247e-06 2.1781550675413285e-06 3.090860910718279e-06 4.357606459690702e-06 6.1037175237803925e-06 8.494126482451154e-06 1.1744131278800423e-05 1.6132473020964724e-05 2.2017037104427484e-05 2.985346033381784e-05 4.0216878376160025e-05 5.3826967634385707e-05 7.157631696035952e-05 9.456200179969144e-05 0.00012412002193175448 0.00016186200159463176 0.00020971323813232095 0.0002699508269896479 0.000345240196382598 0.00043866796937462436 0.0005537686555901672 0.0006945422868133388 0.0008654597834885465 0.0010714526106876299 0.0013178831935239323 0.0016104926549694164 0.0019553227527094414 0.0023586094589173284 0.0028266464701386888 0.0033656180617820624 0.003981402102514859 0.004679345686041045 0.0054640176655349725 0.006338944309603102 0.007306336235668126 0.008366816595883612 0.009519162057939361 0.010760069299395356 0.012083960385411393 0.013482840407737538 0.014946220036601676 0.01646111412355328 0.018012125186188544 0.019581617552068165 0.021149984242211435 0.022696004492133347 0.024197285346955685 0.025630776271235858 0.026973341451885877 0.028202370717715492 0.029296407011674946 0.030235766357933187 0.031003125439271334 0.031584052346782215 0.03196745781058606 0.03214594721014521 0.032116057755774884 0.03187837021378982 0.03143749013949927 0.030801899465237127 0.029983685124523082 0.02899815684149426 0.027863370967303906 0.026599581041268416 0.02522863839925259 0.023773367528353167 0.022256940942567666 0.02070227717923645 0.019131483217283668 0.017565359386166077 0.016022980906775026 0.014521365848298348 0.013075234772356914 0.011696862930619509 0.010396021819558504 0.009180003369463003 0.008053717196863128 0.007019849267197018 0.0060790690292338015 0.005230271574025738 0.004470841574019821 0.003796926572496645 0.0032037084958334086 0.002685663914639165 0.002236805446027631 0.001850898636987392 0.0015216505816369658 0.0012428683069169487 0.001008586538979401 0.0008131657873183895 0.0006513627298791289 0.000518375645127405 0.00040986812887846045 0.0003219745804667297 0.00025129097965519403 0.00019485434276708991 0.00015011398568566222 0.0001148973730412731 8.737293388951287e-05 6.601180612519888e-05 4.955006042883099e-05 3.695256912118816e-05 2.7379339323149108e-05 2.0154831279447107e-05 1.4740534998665188e-05 1.0710881195835643e-05 7.732412864348762e-06 5.546036759532301e-06 3.9521036806337285e-06 2.7980262963165263e-06 1.9681270512144165e-06 1.3754105335758841e-06 9.549693611988773e-07 6.587557313734983e-07 4.5147868554178526e-07 3.0741706630223484e-07 2.079680272284112e-07 1.397793598287847e-07 9.333991449339277e-08 6.192551497203309e-08 4.0817812991498845e-08 2.6730538809268054e-08 1.7391761489587476e-08 1.124235527159274e-08 7.220194825762291e-09 4.6070020359935295e-09 2.9205575497866827e-09 1.83946279974994e-09 1.1510498346284233e-09 7.156078909213055e-10 4.4201193026153944e-10 2.712506194772333e-10 1.6538090437159955e-10 1.0017927004948718e-10 6.029041036543003e-11 3.604927156179296e-11 2.141522410966523e-11 1.2639405010905385e-11 7.411540971007322e-12 4.317857184068757e-12 2.4992281862134775e-12 1.4372139478681083e-12 8.21135471034937e-13 4.661074873148195e-13 2.6286648758600105e-13 1.4728626245004565e-13 8.199118017578874e-14 4.534714089535588e-14 2.4917849563329222e-14 1.3603450647136663e-14 7.37845593144166e-15 3.9761225977735016e-15 2.12878559279602e-15 1.1323533115191658e-15 5.984251857443627e-16 3.142068498443667e-16 1.6390768277608508e-16 8.49495043142384e-17 4.374216396612617e-17 2.2377808648268852e-17 1.1373986912255883e-17 5.743620925266056e-18 2.8816198726692845e-18 1.4363672307792786e-18 7.11331700127646e-19 3.4999086931555e-19 1.710878395916676e-19 8.309204482219451e-20 4.009383767117592e-20 1.92208984982483e-20 9.154773830189501e-21 4.332109547459431e-21 2.0367096335433924e-21 9.513420242319686e-22 4.414912717885382e-22 2.0355671761383005e-22 9.324523179662409e-23 4.243710049681718e-23 1.918857173619151e-23 8.620202608255086e-24 3.847425097216703e-24 1.706085336353968e-24 7.516388224725459e-25 3.2899972378630725e-25 1.4307367735181713e-25 6.181613145106613e-26 2.653516438075389e-26 1.1316695190354916e-26 4.795074193191234e-27 2.0185937333470307e-27 8.442681126459396e-28 3.50824349937104e-28 1.448361420937766e-28 5.940760496131844e-29 2.4209455196422046e-29 9.80180064200884e-30 3.942798572707373e-30 1.5757277838634008e-30 6.256560830040874e-31 2.468129975865686e-31 9.673380221574191e-32 3.7667462701029543e-32 1.4572442552152716e-32 5.6011372342392726e-33 2.1389367960813944e-33 8.115168961680232e-34 3.058968873436288e-34 1.1455931965800226e-34 4.2624929170473176e-35 1.5757045586519328e-35 5.787137340693963e-36 2.1116924320986845e-36 7.655532673707927e-37 2.757389019976525e-37 9.867304850773132e-38 3.5081400816391845e-38 1.2391765430578723e-38 4.348778798073877e-39 1.5162797260930386e-39 5.2525381465817966e-40 1.8077442081216398e-40 6.181339810160039e-41 2.09993637157797e-41 7.087735939381978e-42 2.376768040654619e-42 7.918518680874851e-43 2.62107210692081e-43 8.619694394579099e-44 2.8163241858464324e-44 9.142212204497065e-45 2.948477562388527e-45 9.447616006109043e-46 3.0076307468006894e-46 9.512719154587136e-47 2.9892532565229116e-47 9.332513427927395e-48 2.894758997622754e-48 8.920805654974507e-49 2.7313265122358072e-49 8.308469675399182e-50 2.51099781311556e-50 7.539620844491884e-51 2.2492128447166063e-51 6.666371008938918e-52 1.96302703989768e-52 5.7430283505868265e-53 1.6692966241451514e-53 4.8206316365236786e-54 1.3830957750477483e-54 3.9425611617976505e-55 1.1165611187085911e-55 0.999999767255086 0.9999996565973777 0.9999994966096434 0.9999992668648325 0.9999989391814875 0.9999984749783677 0.9999978218449325 0.9999969091390892 0.9999956423935403 0.9999938962824763 0.9999915058735176 0.9999882558687212 0.999983867526979 0.9999779829628955 0.9999701465396662 0.9999597831216238 0.9999461730323657 0.9999284236830397 0.9999054379982003 0.9998758799780683 0.9998381379984054 0.9997902867618677 0.9997300491730103 0.9996547598036174 0.9995613320306254 0.9994462313444098 0.9993054577131867 0.9991345402165115 0.9989285473893124 0.9986821168064761 0.9983895073450306 0.9980446772472905 0.9976413905410827 0.9971733535298614 0.996634381938218 0.9960185978974851 0.995320654313959 0.994535982334465 0.9936610556903969 0.9926936637643319 0.9916331834041164 0.9904808379420607 0.9892399307006047 0.9879160396145886 0.9865171595922625 0.9850537799633983 0.9835388858764467 0.9819878748138114 0.9804183824479318 0.9788500157577885 0.9773039955078666 0.9758027146530444 0.9743692237287641 0.9730266585481141 0.9717976292822845 0.9707035929883251 0.9697642336420668 0.9689968745607287 0.9684159476532178 0.9680325421894139 0.9678540527898548 0.9678839422442251 0.9681216297862102 0.9685625098605007 0.9691981005347629 0.9700163148754769 0.9710018431585057 0.972136629032696 0.9734004189587315 0.9747713616007474 0.9762266324716469 0.9777430590574323 0.9792977228207635 0.9808685167827164 0.9824346406138339 0.983977019093225 0.9854786341517017 0.986924765227643 0.9883031370693804 0.9896039781804415 0.990819996630537 0.9919462828031369 0.992980150732803 0.9939209309707662 0.9947697284259742 0.9955291584259802 0.9962030734275034 0.9967962915041666 0.9973143360853608 0.9977631945539723 0.9981491013630126 0.998478349418363 0.998757131693083 0.9989914134610206 0.9991868342126816 0.9993486372701209 0.9994816243548726 0.9995901318711216 0.9996780254195333 0.9997487090203449 0.9998051456572329 0.9998498860143143 0.9998851026269587 0.9999126270661105 0.9999339881938748 0.9999504499395712 0.9999630474308788 0.9999726206606768 0.9999798451687205 0.9999852594650014 0.9999892891188041 0.9999922675871357 0.9999944539632405 0.9999960478963194 0.9999972019737037 0.9999980318729488 0.9999986245894664 0.9999990450306389 0.9999993412442686 0.9999995485213145 0.9999996925829338 0.9999997920319728 0.9999998602206401 0.9999999066600855 0.9999999380744851 0.999999959182187 0.9999999732694612 0.9999999826082385 0.9999999887576447 0.9999999927798052 0.999999995392998 0.9999999970794424 0.9999999981605372 0.9999999988489502 0.9999999992843921 0.999999999557988 0.9999999997287494 0.9999999998346191 0.9999999998998207 0.9999999999397096 0.9999999999639507 0.9999999999785848 0.9999999999873606 0.9999999999925885 0.9999999999956821 0.9999999999975008 0.9999999999985628 0.9999999999991789 0.9999999999995339 0.9999999999997371 0.9999999999998527 0.999999999999918 0.9999999999999547 0.9999999999999751 0.9999999999999863 0.9999999999999927 0.999999999999996 0.9999999999999979 0.9999999999999989 0.9999999999999994 0.9999999999999997 0.9999999999999999 0.9999999999999999 1.0 1.0 1.0 1.0 1.0 1.0 1.0 1.0 1.0 1.0 1.0 1.0 1.0 1.0 1.0 1.0 1.0 1.0 1.0 1.0 1.0 1.0 1.0 1.0 1.0 1.0 1.0 1.0 1.0 1.0 1.0 1.0 1.0 1.0 1.0 1.0 1.0 1.0 1.0 1.0 1.0 1.0 1.0 1.0 1.0 1.0 1.0 1.0 1.0 1.0 1.0 1.0 1.0 1.0 1.0 1.0 1.0 1.0 1.0 1.0 1.0 1.0 1.0 1.0 1.0 1.0 1.0 1.0 1.0 1.0 1.0 1.0 1.0 1.0 1.0 1.0 1.0 1.0 1.0 1.0 1.0 1.0 1.0 1.0 1.0 1.0 1.0 1.0 1.0 1.0 1.0 1.0 1.0  </TABLE>
		</DEFINITION>
			
		<DEFINITION>
		<FOR>SENSOR3</FOR>
		<GIVEN>CLASS5</GIVEN>
		<TABLE> 0.0013184842540767362 0.0014618419845179532 0.0016174321866603313 0.0017858784594925973 0.001967786080132962 0.002163734832165038 0.0023742713729012275 0.002599901192073861 0.0028410802259384383 0.0030982062022899305 0.0033716098032213625 0.0036615457433549024 0.003968183871497704 0.004291600412956855 0.0046317694778262326 0.004988554967171379 0.00536170301393462 0.005750835098325171 0.00615544197823415 0.006574878573638479 0.007008359939882385 0.007454958458045627 0.007913602361266092 0.00838307570387677 0.00886201986559521 0.009348936665879035 0.009842193144105015 0.010340028039674126 0.010840559982780287 0.011341797381751747 0.011841649966976137 0.012337941924891516 0.012828426528840557 0.013310802147243193 0.013782729484060962 0.014241849882424261 0.014685804500085387 0.015112254145538993 0.015518899546680044 0.01590350181016574 0.016263902819576515 0.016598045314330918 0.01690399238932587 0.017179946157591684 0.0174242653249288 0.01763548143649902 0.01781231357055582 0.017953681273703677 0.018058715554976727 0.018126767782242623 0.018157416353514616 0.018150471047176826 0.018105974988324242 0.018024204202780295 0.017905664765244602 0.01775108758279325 0.01756142088895817 0.017337820556222593 0.017081638365389337 0.016794408398356286 0.01647783174587359 0.016133759743433083 0.01576417596620138 0.015371177227586411 0.014956953835444214 0.014523769364999096 0.014073940208268299 0.013609815156242572 0.013133755262451717 0.012648114225092835 0.012155219509943202 0.011657354418204292 0.011156741282665018 0.010655525952605778 0.010155763703192721 0.009659406679251522 0.009168292956781749 0.008684137278888534 0.008208523496458897 0.0077428987183581375 0.00728856915159012 0.0068466975891315115 0.0064183024823392994 0.006004258516212147 0.005605298589568944 0.00522201708854178 0.004854874330754415 0.004504202049202403 0.004170209779142426 0.0038529920081608778 0.0035525359489032462 0.003268729795544631 0.003001371328771879 0.002750176739606653 0.0025147895495830847 0.002294789513347363 0.0020897013994064587 0.0018990035552560124 0.0017221361742048953 0.0015585091926387338 0.0014075097579939826 0.0012685092191342213 0.0011408696019387591 0.0010239495435621039 0.0009171096688579877 0.0008197174017661839 0.0007311512129428028 0.0006508043125089836 0.0005780878034568614 0.0005124333169659758 0.00045329515564903407 0.00040015197458268345 0.0003525080329222317 0.0003098940509979611 0.00027186770910467094 0.0002380138247935287 0.00020794424543027284 0.0001812974921741127 0.0001577381904365396 0.0001369563203777634 0.00011866631916757657 0.00010260606465084152 8.853576778463793e-05 7.623679881822392e-05 6.551046972610128e-05 5.6176792929968313e-05 4.807323390182375e-05 4.105347286590024e-05 3.498618854280389e-05 2.9753874730246872e-05 2.5251698510156857e-05 2.1386407025286537e-05 1.8075288088303066e-05 1.5245188376835058e-05 1.28315916293527e-05 1.0777758086019839e-05 9.033925410020118e-06 7.556570470368634e-06 6.307730657238563e-06 5.254382824504733e-06 4.367877499879664e-06 3.623425658614226e-06 2.999635110068035e-06 2.4780933855038335e-06 2.042993928590297e-06 1.6808023662382953e-06 1.379959666172378e-06 1.1306190594714355e-06 9.244137124726266e-07 7.54252265079274e-07 6.141395046958303e-07 4.990196106566514e-07 4.046395778896508e-07 3.2743060622871657e-07 2.6440541957168205e-07 2.1306965396717523e-07 1.7134562331409198e-07 1.3750693383180473e-07 1.1012257245059278e-07 8.800923884187029e-08 7.019082537506154e-08 5.586407357019077e-08 4.436954957652474e-08 3.516718501019852e-08 2.7815723445379678e-08 2.195549740948887e-08 1.7294036403543087e-08 1.3594073831048288e-08 1.0663580383812956e-08 8.347504025548066e-09 6.520942857707997e-09 5.0835174565362135e-09 3.954744322416631e-09 3.0702424391144623e-09 2.3786311233027574e-09 1.8389998382186524e-09 1.4188498945226165e-09 1.0924243721407762e-09 8.393565359324926e-10 6.435788148455516e-10 4.92444362588796e-10 3.760215781547541e-10 2.8652896619266316e-10 2.1788356128744762e-10 1.6534100184079882e-10 1.2520937039192167e-10 9.462224894189989e-11 7.13591827367492e-11 5.3704000268298553e-11 4.0333282894750236e-11 3.022878390152389e-11 2.2608822627038132e-11 1.6874673737815876e-11 1.2568776109258294e-11 9.34223446615875e-12 6.929608557944292e-12 5.129402864548694e-12 3.789004181609954e-12 2.7930809737530703e-12 2.0546702636534023e-12 1.5083457783474094e-12 1.1049938372344978e-12 8.078281206476718e-13 5.893567274946423e-13 4.2907942607506736e-13 3.1174342609851787e-13 2.2602531561094012e-13 1.6353737857639934e-13 1.1808021815621338e-13 8.50819488407717e-14 6.11783667386809e-14 4.3899390990355175e-14 3.143542088920077e-14 2.2463645191700953e-14 1.6019219403655382e-14 1.1399941840023893e-14 8.095880498106032e-15 5.737539779817986e-15 4.05777065945611e-15 2.863844629861866e-15 2.017026366557854e-15 1.4176658087941322e-15 9.94343232642911e-16 6.95983504926525e-16 4.861404274791726e-16 3.388634261863827e-16 2.3571532767043854e-16 1.636255493417639e-16 1.133481871552448e-16 7.835707338706152e-17 5.405576307638724e-17 3.7213966753992674e-17 2.556643038094147e-17 1.752808186640292e-17 1.1992199859222764e-17 8.18772956606071e-18 5.5786393930025935e-18 3.793090947101794e-18 2.573702769748104e-18 1.7427042535889252e-18 1.1775765803433684e-18 7.94062699298255e-19 5.343435838385276e-19 3.588282024049773e-19 2.404654618335356e-19 1.608122070439635e-19 1.0732119129374258e-19 7.147466434640122e-20 4.7502769611913046e-20 3.1505465870162005e-20 2.085225597473842e-20 1.3772740236534303e-20 9.0779509682843e-21 5.971115560189342e-21 3.919433380984438e-21 2.567386570994261e-21 0.9986815157459232 0.9985381580154821 0.9983825678133397 0.9982141215405074 0.9980322139198671 0.997836265167835 0.9976257286270988 0.9974000988079261 0.9971589197740616 0.99690179379771 0.9966283901967786 0.9963384542566451 0.9960318161285023 0.9957083995870432 0.9953682305221737 0.9950114450328286 0.9946382969860654 0.9942491649016748 0.9938445580217659 0.9934251214263615 0.9929916400601176 0.9925450415419543 0.992086397638734 0.9916169242961232 0.9911379801344048 0.990651063334121 0.9901578068558949 0.9896599719603258 0.9891594400172197 0.9886582026182482 0.9881583500330239 0.9876620580751085 0.9871715734711595 0.9866891978527568 0.986217270515939 0.9857581501175757 0.9853141954999146 0.984887745854461 0.9844811004533199 0.9840964981898342 0.9837360971804234 0.983401954685669 0.9830960076106742 0.9828200538424083 0.9825757346750712 0.9823645185635009 0.9821876864294442 0.9820463187262963 0.9819412844450233 0.9818732322177574 0.9818425836464854 0.9818495289528232 0.9818940250116758 0.9819757957972197 0.9820943352347554 0.9822489124172068 0.9824385791110418 0.9826621794437774 0.9829183616346107 0.9832055916016437 0.9835221682541264 0.9838662402565669 0.9842358240337986 0.9846288227724136 0.9850430461645557 0.9854762306350009 0.9859260597917316 0.9863901848437574 0.9868662447375482 0.9873518857749072 0.9878447804900568 0.9883426455817957 0.988843258717335 0.9893444740473942 0.9898442362968073 0.9903405933207485 0.9908317070432182 0.9913158627211115 0.9917914765035412 0.9922571012816419 0.9927114308484098 0.9931533024108685 0.9935816975176607 0.9939957414837879 0.9943947014104311 0.9947779829114582 0.9951451256692456 0.9954957979507976 0.9958297902208576 0.9961470079918391 0.9964474640510967 0.9967312702044554 0.9969986286712281 0.9972498232603934 0.9974852104504169 0.9977052104866526 0.9979102986005935 0.998100996444744 0.9982778638257951 0.9984414908073612 0.998592490242006 0.9987314907808658 0.9988591303980613 0.9989760504564379 0.9990828903311421 0.9991802825982338 0.9992688487870572 0.999349195687491 0.9994219121965432 0.9994875666830341 0.9995467048443509 0.9995998480254173 0.9996474919670778 0.999690105949002 0.9997281322908953 0.9997619861752065 0.9997920557545698 0.9998187025078259 0.9998422618095635 0.9998630436796222 0.9998813336808324 0.9998973939353492 0.9999114642322153 0.9999237632011818 0.9999344895302739 0.99994382320707 0.9999519267660982 0.9999589465271341 0.9999650138114572 0.9999702461252697 0.9999747483014898 0.9999786135929747 0.9999819247119117 0.9999847548116232 0.9999871684083707 0.999989222241914 0.9999909660745899 0.9999924434295296 0.9999936922693428 0.9999947456171755 0.9999956321225001 0.9999963765743414 0.9999970003648899 0.9999975219066145 0.9999979570060714 0.9999983191976337 0.9999986200403338 0.9999988693809405 0.9999990755862875 0.9999992457477349 0.9999993858604953 0.9999995009803894 0.9999995953604222 0.9999996725693938 0.9999997355945804 0.9999997869303461 0.9999998286543766 0.9999998624930662 0.9999998898774275 0.9999999119907611 0.9999999298091746 0.9999999441359264 0.9999999556304504 0.999999964832815 0.9999999721842766 0.9999999780445026 0.9999999827059636 0.9999999864059261 0.9999999893364196 0.999999991652496 0.9999999934790571 0.9999999949164825 0.9999999960452557 0.9999999969297576 0.9999999976213689 0.9999999981610002 0.9999999985811501 0.9999999989075756 0.9999999991606434 0.9999999993564211 0.9999999995075557 0.9999999996239785 0.9999999997134711 0.9999999997821164 0.999999999834659 0.9999999998747906 0.9999999999053778 0.9999999999286409 0.999999999946296 0.9999999999596667 0.9999999999697712 0.9999999999773912 0.9999999999831253 0.9999999999874313 0.9999999999906578 0.9999999999930704 0.9999999999948705 0.999999999996211 0.9999999999972069 0.9999999999979453 0.9999999999984917 0.999999999998895 0.9999999999991922 0.9999999999994107 0.9999999999995709 0.9999999999996882 0.999999999999774 0.9999999999998365 0.9999999999998819 0.999999999999915 0.9999999999999388 0.9999999999999561 0.9999999999999686 0.9999999999999776 0.999999999999984 0.9999999999999886 0.9999999999999919 0.9999999999999942 0.9999999999999959 0.9999999999999971 0.999999999999998 0.9999999999999986 0.999999999999999 0.9999999999999993 0.9999999999999996 0.9999999999999997 0.9999999999999998 0.9999999999999999 0.9999999999999999 0.9999999999999999 1.0 1.0 1.0 1.0 1.0 1.0 1.0 1.0 1.0 1.0 1.0 1.0 1.0 1.0 1.0 1.0 1.0 1.0 1.0 1.0 1.0 1.0 1.0 1.0 1.0 1.0  </TABLE>
		</DEFINITION>
			
		<DEFINITION>
		<FOR>SENSOR4</FOR>
		<GIVEN>CLASS5</GIVEN>
