<?xml version="1.0" encoding="US-ASCII"?>
 
 
 <!--
 	Bayesian network in XMLBIF v0.3 (BayesNet Interchange Format)
 	Produced by JavaBayes (http://www.cs.cmu.edu/~javabayes/
 	Output created Mon Nov 02 22:40:12**8 GMT-03:00 1998
 -->

 
 
 <!-- DTD for the XMLBIF 0.3 format -->
 <!DOCTYPE BIF [
 	<!ELEMENT BIF ( NETWORK )*>
 	      <!ATTLIST BIF VERSION CDATA #REQUIRED>
 	<!ELEMENT NETWORK ( NAME, ( PROPERTY | VARIABLE | DEFINITION )* )>
 	<!ELEMENT NAME (#PCDATA)>
 	<!ELEMENT VARIABLE ( NAME, ( OUTCOME |  PROPERTY )* ) >
 	      <!ATTLIST VARIABLE TYPE (nature|decision|utility) "nature">
 	<!ELEMENT OUTCOME (#PCDATA)>
 	<!ELEMENT DEFINITION ( FOR | GIVEN | TABLE | PROPERTY )* >
 	<!ELEMENT FOR (#PCDATA)>
 	<!ELEMENT GIVEN (#PCDATA)>
 	<!ELEMENT TABLE (#PCDATA)>
 	<!ELEMENT PROPERTY (#PCDATA)>
 ]>
 
 
 <BIF VERSION="0.3">
 <NETWORK>
	<NAME>NAIVE_BAYES_MODEL</NAME>
	<VARIABLE TYPE  = "nature">
		<NAME>CLASS4</NAME>
		<OUTCOME>true</OUTCOME>
		<OUTCOME>false</OUTCOME>
	</VARIABLE>
		<VARIABLE TYPE  = "nature">
			<NAME>SENSOR1</NAME>
		
			<OUTCOME>X0</OUTCOME>
			<OUTCOME>X1</OUTCOME>
			<OUTCOME>X2</OUTCOME>
			<OUTCOME>X3</OUTCOME>
			<OUTCOME>X4</OUTCOME>
			<OUTCOME>X5</OUTCOME>
			<OUTCOME>X6</OUTCOME>
			<OUTCOME>X7</OUTCOME>
			<OUTCOME>X8</OUTCOME>
			<OUTCOME>X9</OUTCOME>
			<OUTCOME>X10</OUTCOME>
			<OUTCOME>X11</OUTCOME>
			<OUTCOME>X12</OUTCOME>
			<OUTCOME>X13</OUTCOME>
			<OUTCOME>X14</OUTCOME>
			<OUTCOME>X15</OUTCOME>
			<OUTCOME>X16</OUTCOME>
			<OUTCOME>X17</OUTCOME>
			<OUTCOME>X18</OUTCOME>
			<OUTCOME>X19</OUTCOME>
			<OUTCOME>X20</OUTCOME>
			<OUTCOME>X21</OUTCOME>
			<OUTCOME>X22</OUTCOME>
			<OUTCOME>X23</OUTCOME>
			<OUTCOME>X24</OUTCOME>
			<OUTCOME>X25</OUTCOME>
			<OUTCOME>X26</OUTCOME>
			<OUTCOME>X27</OUTCOME>
			<OUTCOME>X28</OUTCOME>
			<OUTCOME>X29</OUTCOME>
			<OUTCOME>X30</OUTCOME>
			<OUTCOME>X31</OUTCOME>
			<OUTCOME>X32</OUTCOME>
			<OUTCOME>X33</OUTCOME>
			<OUTCOME>X34</OUTCOME>
			<OUTCOME>X35</OUTCOME>
			<OUTCOME>X36</OUTCOME>
			<OUTCOME>X37</OUTCOME>
			<OUTCOME>X38</OUTCOME>
			<OUTCOME>X39</OUTCOME>
			<OUTCOME>X40</OUTCOME>
			<OUTCOME>X41</OUTCOME>
			<OUTCOME>X42</OUTCOME>
			<OUTCOME>X43</OUTCOME>
			<OUTCOME>X44</OUTCOME>
			<OUTCOME>X45</OUTCOME>
			<OUTCOME>X46</OUTCOME>
			<OUTCOME>X47</OUTCOME>
			<OUTCOME>X48</OUTCOME>
			<OUTCOME>X49</OUTCOME>
			<OUTCOME>X50</OUTCOME>
			<OUTCOME>X51</OUTCOME>
			<OUTCOME>X52</OUTCOME>
			<OUTCOME>X53</OUTCOME>
			<OUTCOME>X54</OUTCOME>
			<OUTCOME>X55</OUTCOME>
			<OUTCOME>X56</OUTCOME>
			<OUTCOME>X57</OUTCOME>
			<OUTCOME>X58</OUTCOME>
			<OUTCOME>X59</OUTCOME>
			<OUTCOME>X60</OUTCOME>
			<OUTCOME>X61</OUTCOME>
			<OUTCOME>X62</OUTCOME>
			<OUTCOME>X63</OUTCOME>
			<OUTCOME>X64</OUTCOME>
			<OUTCOME>X65</OUTCOME>
			<OUTCOME>X66</OUTCOME>
			<OUTCOME>X67</OUTCOME>
			<OUTCOME>X68</OUTCOME>
			<OUTCOME>X69</OUTCOME>
			<OUTCOME>X70</OUTCOME>
			<OUTCOME>X71</OUTCOME>
			<OUTCOME>X72</OUTCOME>
			<OUTCOME>X73</OUTCOME>
			<OUTCOME>X74</OUTCOME>
			<OUTCOME>X75</OUTCOME>
			<OUTCOME>X76</OUTCOME>
			<OUTCOME>X77</OUTCOME>
			<OUTCOME>X78</OUTCOME>
			<OUTCOME>X79</OUTCOME>
			<OUTCOME>X80</OUTCOME>
			<OUTCOME>X81</OUTCOME>
			<OUTCOME>X82</OUTCOME>
			<OUTCOME>X83</OUTCOME>
			<OUTCOME>X84</OUTCOME>
			<OUTCOME>X85</OUTCOME>
			<OUTCOME>X86</OUTCOME>
			<OUTCOME>X87</OUTCOME>
			<OUTCOME>X88</OUTCOME>
			<OUTCOME>X89</OUTCOME>
			<OUTCOME>X90</OUTCOME>
			<OUTCOME>X91</OUTCOME>
			<OUTCOME>X92</OUTCOME>
			<OUTCOME>X93</OUTCOME>
			<OUTCOME>X94</OUTCOME>
			<OUTCOME>X95</OUTCOME>
			<OUTCOME>X96</OUTCOME>
			<OUTCOME>X97</OUTCOME>
			<OUTCOME>X98</OUTCOME>
			<OUTCOME>X99</OUTCOME>
			<OUTCOME>X100</OUTCOME>
			<OUTCOME>X101</OUTCOME>
			<OUTCOME>X102</OUTCOME>
			<OUTCOME>X103</OUTCOME>
			<OUTCOME>X104</OUTCOME>
			<OUTCOME>X105</OUTCOME>
			<OUTCOME>X106</OUTCOME>
			<OUTCOME>X107</OUTCOME>
			<OUTCOME>X108</OUTCOME>
			<OUTCOME>X109</OUTCOME>
			<OUTCOME>X110</OUTCOME>
			<OUTCOME>X111</OUTCOME>
			<OUTCOME>X112</OUTCOME>
			<OUTCOME>X113</OUTCOME>
			<OUTCOME>X114</OUTCOME>
			<OUTCOME>X115</OUTCOME>
			<OUTCOME>X116</OUTCOME>
			<OUTCOME>X117</OUTCOME>
			<OUTCOME>X118</OUTCOME>
			<OUTCOME>X119</OUTCOME>
			<OUTCOME>X120</OUTCOME>
			<OUTCOME>X121</OUTCOME>
			<OUTCOME>X122</OUTCOME>
			<OUTCOME>X123</OUTCOME>
			<OUTCOME>X124</OUTCOME>
			<OUTCOME>X125</OUTCOME>
			<OUTCOME>X126</OUTCOME>
			<OUTCOME>X127</OUTCOME>
			<OUTCOME>X128</OUTCOME>
			<OUTCOME>X129</OUTCOME>
			<OUTCOME>X130</OUTCOME>
			<OUTCOME>X131</OUTCOME>
			<OUTCOME>X132</OUTCOME>
			<OUTCOME>X133</OUTCOME>
			<OUTCOME>X134</OUTCOME>
			<OUTCOME>X135</OUTCOME>
			<OUTCOME>X136</OUTCOME>
			<OUTCOME>X137</OUTCOME>
			<OUTCOME>X138</OUTCOME>
			<OUTCOME>X139</OUTCOME>
			<OUTCOME>X140</OUTCOME>
			<OUTCOME>X141</OUTCOME>
			<OUTCOME>X142</OUTCOME>
			<OUTCOME>X143</OUTCOME>
			<OUTCOME>X144</OUTCOME>
			<OUTCOME>X145</OUTCOME>
			<OUTCOME>X146</OUTCOME>
			<OUTCOME>X147</OUTCOME>
			<OUTCOME>X148</OUTCOME>
			<OUTCOME>X149</OUTCOME>
			<OUTCOME>X150</OUTCOME>
			<OUTCOME>X151</OUTCOME>
			<OUTCOME>X152</OUTCOME>
			<OUTCOME>X153</OUTCOME>
			<OUTCOME>X154</OUTCOME>
			<OUTCOME>X155</OUTCOME>
			<OUTCOME>X156</OUTCOME>
			<OUTCOME>X157</OUTCOME>
			<OUTCOME>X158</OUTCOME>
			<OUTCOME>X159</OUTCOME>
			<OUTCOME>X160</OUTCOME>
			<OUTCOME>X161</OUTCOME>
			<OUTCOME>X162</OUTCOME>
			<OUTCOME>X163</OUTCOME>
			<OUTCOME>X164</OUTCOME>
			<OUTCOME>X165</OUTCOME>
			<OUTCOME>X166</OUTCOME>
			<OUTCOME>X167</OUTCOME>
			<OUTCOME>X168</OUTCOME>
			<OUTCOME>X169</OUTCOME>
			<OUTCOME>X170</OUTCOME>
			<OUTCOME>X171</OUTCOME>
			<OUTCOME>X172</OUTCOME>
			<OUTCOME>X173</OUTCOME>
			<OUTCOME>X174</OUTCOME>
			<OUTCOME>X175</OUTCOME>
			<OUTCOME>X176</OUTCOME>
			<OUTCOME>X177</OUTCOME>
			<OUTCOME>X178</OUTCOME>
			<OUTCOME>X179</OUTCOME>
			<OUTCOME>X180</OUTCOME>
			<OUTCOME>X181</OUTCOME>
			<OUTCOME>X182</OUTCOME>
			<OUTCOME>X183</OUTCOME>
			<OUTCOME>X184</OUTCOME>
			<OUTCOME>X185</OUTCOME>
			<OUTCOME>X186</OUTCOME>
			<OUTCOME>X187</OUTCOME>
			<OUTCOME>X188</OUTCOME>
			<OUTCOME>X189</OUTCOME>
			<OUTCOME>X190</OUTCOME>
			<OUTCOME>X191</OUTCOME>
			<OUTCOME>X192</OUTCOME>
			<OUTCOME>X193</OUTCOME>
			<OUTCOME>X194</OUTCOME>
			<OUTCOME>X195</OUTCOME>
			<OUTCOME>X196</OUTCOME>
			<OUTCOME>X197</OUTCOME>
			<OUTCOME>X198</OUTCOME>
			<OUTCOME>X199</OUTCOME>
			<OUTCOME>X200</OUTCOME>
			<OUTCOME>X201</OUTCOME>
			<OUTCOME>X202</OUTCOME>
			<OUTCOME>X203</OUTCOME>
			<OUTCOME>X204</OUTCOME>
			<OUTCOME>X205</OUTCOME>
			<OUTCOME>X206</OUTCOME>
			<OUTCOME>X207</OUTCOME>
			<OUTCOME>X208</OUTCOME>
			<OUTCOME>X209</OUTCOME>
			<OUTCOME>X210</OUTCOME>
			<OUTCOME>X211</OUTCOME>
			<OUTCOME>X212</OUTCOME>
			<OUTCOME>X213</OUTCOME>
			<OUTCOME>X214</OUTCOME>
			<OUTCOME>X215</OUTCOME>
			<OUTCOME>X216</OUTCOME>
			<OUTCOME>X217</OUTCOME>
			<OUTCOME>X218</OUTCOME>
			<OUTCOME>X219</OUTCOME>
			<OUTCOME>X220</OUTCOME>
			<OUTCOME>X221</OUTCOME>
			<OUTCOME>X222</OUTCOME>
			<OUTCOME>X223</OUTCOME>
			<OUTCOME>X224</OUTCOME>
			<OUTCOME>X225</OUTCOME>
			<OUTCOME>X226</OUTCOME>
			<OUTCOME>X227</OUTCOME>
			<OUTCOME>X228</OUTCOME>
			<OUTCOME>X229</OUTCOME>
			<OUTCOME>X230</OUTCOME>
			<OUTCOME>X231</OUTCOME>
			<OUTCOME>X232</OUTCOME>
			<OUTCOME>X233</OUTCOME>
			<OUTCOME>X234</OUTCOME>
			<OUTCOME>X235</OUTCOME>
			<OUTCOME>X236</OUTCOME>
			<OUTCOME>X237</OUTCOME>
			<OUTCOME>X238</OUTCOME>
			<OUTCOME>X239</OUTCOME>
			<OUTCOME>X240</OUTCOME>
			<OUTCOME>X241</OUTCOME>
			<OUTCOME>X242</OUTCOME>
			<OUTCOME>X243</OUTCOME>
			<OUTCOME>X244</OUTCOME>
			<OUTCOME>X245</OUTCOME>
			<OUTCOME>X246</OUTCOME>
			<OUTCOME>X247</OUTCOME>
			<OUTCOME>X248</OUTCOME>
			<OUTCOME>X249</OUTCOME>
			<OUTCOME>X250</OUTCOME>
			<OUTCOME>X251</OUTCOME>
			<OUTCOME>X252</OUTCOME>
			<OUTCOME>X253</OUTCOME>
			<OUTCOME>X254</OUTCOME>
			<OUTCOME>X255</OUTCOME>
		</VARIABLE>
		<VARIABLE TYPE  = "nature">
			<NAME>SENSOR2</NAME>
		
			<OUTCOME>X0</OUTCOME>
			<OUTCOME>X1</OUTCOME>
			<OUTCOME>X2</OUTCOME>
			<OUTCOME>X3</OUTCOME>
			<OUTCOME>X4</OUTCOME>
			<OUTCOME>X5</OUTCOME>
			<OUTCOME>X6</OUTCOME>
			<OUTCOME>X7</OUTCOME>
			<OUTCOME>X8</OUTCOME>
			<OUTCOME>X9</OUTCOME>
			<OUTCOME>X10</OUTCOME>
			<OUTCOME>X11</OUTCOME>
			<OUTCOME>X12</OUTCOME>
			<OUTCOME>X13</OUTCOME>
			<OUTCOME>X14</OUTCOME>
			<OUTCOME>X15</OUTCOME>
			<OUTCOME>X16</OUTCOME>
			<OUTCOME>X17</OUTCOME>
			<OUTCOME>X18</OUTCOME>
			<OUTCOME>X19</OUTCOME>
			<OUTCOME>X20</OUTCOME>
			<OUTCOME>X21</OUTCOME>
			<OUTCOME>X22</OUTCOME>
			<OUTCOME>X23</OUTCOME>
			<OUTCOME>X24</OUTCOME>
			<OUTCOME>X25</OUTCOME>
			<OUTCOME>X26</OUTCOME>
			<OUTCOME>X27</OUTCOME>
			<OUTCOME>X28</OUTCOME>
			<OUTCOME>X29</OUTCOME>
			<OUTCOME>X30</OUTCOME>
			<OUTCOME>X31</OUTCOME>
			<OUTCOME>X32</OUTCOME>
			<OUTCOME>X33</OUTCOME>
			<OUTCOME>X34</OUTCOME>
			<OUTCOME>X35</OUTCOME>
			<OUTCOME>X36</OUTCOME>
			<OUTCOME>X37</OUTCOME>
			<OUTCOME>X38</OUTCOME>
			<OUTCOME>X39</OUTCOME>
			<OUTCOME>X40</OUTCOME>
			<OUTCOME>X41</OUTCOME>
			<OUTCOME>X42</OUTCOME>
			<OUTCOME>X43</OUTCOME>
			<OUTCOME>X44</OUTCOME>
			<OUTCOME>X45</OUTCOME>
			<OUTCOME>X46</OUTCOME>
			<OUTCOME>X47</OUTCOME>
			<OUTCOME>X48</OUTCOME>
			<OUTCOME>X49</OUTCOME>
			<OUTCOME>X50</OUTCOME>
			<OUTCOME>X51</OUTCOME>
			<OUTCOME>X52</OUTCOME>
			<OUTCOME>X53</OUTCOME>
			<OUTCOME>X54</OUTCOME>
			<OUTCOME>X55</OUTCOME>
			<OUTCOME>X56</OUTCOME>
			<OUTCOME>X57</OUTCOME>
			<OUTCOME>X58</OUTCOME>
			<OUTCOME>X59</OUTCOME>
			<OUTCOME>X60</OUTCOME>
			<OUTCOME>X61</OUTCOME>
			<OUTCOME>X62</OUTCOME>
			<OUTCOME>X63</OUTCOME>
			<OUTCOME>X64</OUTCOME>
			<OUTCOME>X65</OUTCOME>
			<OUTCOME>X66</OUTCOME>
			<OUTCOME>X67</OUTCOME>
			<OUTCOME>X68</OUTCOME>
			<OUTCOME>X69</OUTCOME>
			<OUTCOME>X70</OUTCOME>
			<OUTCOME>X71</OUTCOME>
			<OUTCOME>X72</OUTCOME>
			<OUTCOME>X73</OUTCOME>
			<OUTCOME>X74</OUTCOME>
			<OUTCOME>X75</OUTCOME>
			<OUTCOME>X76</OUTCOME>
			<OUTCOME>X77</OUTCOME>
			<OUTCOME>X78</OUTCOME>
			<OUTCOME>X79</OUTCOME>
			<OUTCOME>X80</OUTCOME>
			<OUTCOME>X81</OUTCOME>
			<OUTCOME>X82</OUTCOME>
			<OUTCOME>X83</OUTCOME>
			<OUTCOME>X84</OUTCOME>
			<OUTCOME>X85</OUTCOME>
			<OUTCOME>X86</OUTCOME>
			<OUTCOME>X87</OUTCOME>
			<OUTCOME>X88</OUTCOME>
			<OUTCOME>X89</OUTCOME>
			<OUTCOME>X90</OUTCOME>
			<OUTCOME>X91</OUTCOME>
			<OUTCOME>X92</OUTCOME>
			<OUTCOME>X93</OUTCOME>
			<OUTCOME>X94</OUTCOME>
			<OUTCOME>X95</OUTCOME>
			<OUTCOME>X96</OUTCOME>
			<OUTCOME>X97</OUTCOME>
			<OUTCOME>X98</OUTCOME>
			<OUTCOME>X99</OUTCOME>
			<OUTCOME>X100</OUTCOME>
			<OUTCOME>X101</OUTCOME>
			<OUTCOME>X102</OUTCOME>
			<OUTCOME>X103</OUTCOME>
			<OUTCOME>X104</OUTCOME>
			<OUTCOME>X105</OUTCOME>
			<OUTCOME>X106</OUTCOME>
			<OUTCOME>X107</OUTCOME>
			<OUTCOME>X108</OUTCOME>
			<OUTCOME>X109</OUTCOME>
			<OUTCOME>X110</OUTCOME>
			<OUTCOME>X111</OUTCOME>
			<OUTCOME>X112</OUTCOME>
			<OUTCOME>X113</OUTCOME>
			<OUTCOME>X114</OUTCOME>
			<OUTCOME>X115</OUTCOME>
			<OUTCOME>X116</OUTCOME>
			<OUTCOME>X117</OUTCOME>
			<OUTCOME>X118</OUTCOME>
			<OUTCOME>X119</OUTCOME>
			<OUTCOME>X120</OUTCOME>
			<OUTCOME>X121</OUTCOME>
			<OUTCOME>X122</OUTCOME>
			<OUTCOME>X123</OUTCOME>
			<OUTCOME>X124</OUTCOME>
			<OUTCOME>X125</OUTCOME>
			<OUTCOME>X126</OUTCOME>
			<OUTCOME>X127</OUTCOME>
			<OUTCOME>X128</OUTCOME>
			<OUTCOME>X129</OUTCOME>
			<OUTCOME>X130</OUTCOME>
			<OUTCOME>X131</OUTCOME>
			<OUTCOME>X132</OUTCOME>
			<OUTCOME>X133</OUTCOME>
			<OUTCOME>X134</OUTCOME>
			<OUTCOME>X135</OUTCOME>
			<OUTCOME>X136</OUTCOME>
			<OUTCOME>X137</OUTCOME>
			<OUTCOME>X138</OUTCOME>
			<OUTCOME>X139</OUTCOME>
			<OUTCOME>X140</OUTCOME>
			<OUTCOME>X141</OUTCOME>
			<OUTCOME>X142</OUTCOME>
			<OUTCOME>X143</OUTCOME>
			<OUTCOME>X144</OUTCOME>
			<OUTCOME>X145</OUTCOME>
			<OUTCOME>X146</OUTCOME>
			<OUTCOME>X147</OUTCOME>
			<OUTCOME>X148</OUTCOME>
			<OUTCOME>X149</OUTCOME>
			<OUTCOME>X150</OUTCOME>
			<OUTCOME>X151</OUTCOME>
			<OUTCOME>X152</OUTCOME>
			<OUTCOME>X153</OUTCOME>
			<OUTCOME>X154</OUTCOME>
			<OUTCOME>X155</OUTCOME>
			<OUTCOME>X156</OUTCOME>
			<OUTCOME>X157</OUTCOME>
			<OUTCOME>X158</OUTCOME>
			<OUTCOME>X159</OUTCOME>
			<OUTCOME>X160</OUTCOME>
			<OUTCOME>X161</OUTCOME>
			<OUTCOME>X162</OUTCOME>
			<OUTCOME>X163</OUTCOME>
			<OUTCOME>X164</OUTCOME>
			<OUTCOME>X165</OUTCOME>
			<OUTCOME>X166</OUTCOME>
			<OUTCOME>X167</OUTCOME>
			<OUTCOME>X168</OUTCOME>
			<OUTCOME>X169</OUTCOME>
			<OUTCOME>X170</OUTCOME>
			<OUTCOME>X171</OUTCOME>
			<OUTCOME>X172</OUTCOME>
			<OUTCOME>X173</OUTCOME>
			<OUTCOME>X174</OUTCOME>
			<OUTCOME>X175</OUTCOME>
			<OUTCOME>X176</OUTCOME>
			<OUTCOME>X177</OUTCOME>
			<OUTCOME>X178</OUTCOME>
			<OUTCOME>X179</OUTCOME>
			<OUTCOME>X180</OUTCOME>
			<OUTCOME>X181</OUTCOME>
			<OUTCOME>X182</OUTCOME>
			<OUTCOME>X183</OUTCOME>
			<OUTCOME>X184</OUTCOME>
			<OUTCOME>X185</OUTCOME>
			<OUTCOME>X186</OUTCOME>
			<OUTCOME>X187</OUTCOME>
			<OUTCOME>X188</OUTCOME>
			<OUTCOME>X189</OUTCOME>
			<OUTCOME>X190</OUTCOME>
			<OUTCOME>X191</OUTCOME>
			<OUTCOME>X192</OUTCOME>
			<OUTCOME>X193</OUTCOME>
			<OUTCOME>X194</OUTCOME>
			<OUTCOME>X195</OUTCOME>
			<OUTCOME>X196</OUTCOME>
			<OUTCOME>X197</OUTCOME>
			<OUTCOME>X198</OUTCOME>
			<OUTCOME>X199</OUTCOME>
			<OUTCOME>X200</OUTCOME>
			<OUTCOME>X201</OUTCOME>
			<OUTCOME>X202</OUTCOME>
			<OUTCOME>X203</OUTCOME>
			<OUTCOME>X204</OUTCOME>
			<OUTCOME>X205</OUTCOME>
			<OUTCOME>X206</OUTCOME>
			<OUTCOME>X207</OUTCOME>
			<OUTCOME>X208</OUTCOME>
			<OUTCOME>X209</OUTCOME>
			<OUTCOME>X210</OUTCOME>
			<OUTCOME>X211</OUTCOME>
			<OUTCOME>X212</OUTCOME>
			<OUTCOME>X213</OUTCOME>
			<OUTCOME>X214</OUTCOME>
			<OUTCOME>X215</OUTCOME>
			<OUTCOME>X216</OUTCOME>
			<OUTCOME>X217</OUTCOME>
			<OUTCOME>X218</OUTCOME>
			<OUTCOME>X219</OUTCOME>
			<OUTCOME>X220</OUTCOME>
			<OUTCOME>X221</OUTCOME>
			<OUTCOME>X222</OUTCOME>
			<OUTCOME>X223</OUTCOME>
			<OUTCOME>X224</OUTCOME>
			<OUTCOME>X225</OUTCOME>
			<OUTCOME>X226</OUTCOME>
			<OUTCOME>X227</OUTCOME>
			<OUTCOME>X228</OUTCOME>
			<OUTCOME>X229</OUTCOME>
			<OUTCOME>X230</OUTCOME>
			<OUTCOME>X231</OUTCOME>
			<OUTCOME>X232</OUTCOME>
			<OUTCOME>X233</OUTCOME>
			<OUTCOME>X234</OUTCOME>
			<OUTCOME>X235</OUTCOME>
			<OUTCOME>X236</OUTCOME>
			<OUTCOME>X237</OUTCOME>
			<OUTCOME>X238</OUTCOME>
			<OUTCOME>X239</OUTCOME>
			<OUTCOME>X240</OUTCOME>
			<OUTCOME>X241</OUTCOME>
			<OUTCOME>X242</OUTCOME>
			<OUTCOME>X243</OUTCOME>
			<OUTCOME>X244</OUTCOME>
			<OUTCOME>X245</OUTCOME>
			<OUTCOME>X246</OUTCOME>
			<OUTCOME>X247</OUTCOME>
			<OUTCOME>X248</OUTCOME>
			<OUTCOME>X249</OUTCOME>
			<OUTCOME>X250</OUTCOME>
			<OUTCOME>X251</OUTCOME>
			<OUTCOME>X252</OUTCOME>
			<OUTCOME>X253</OUTCOME>
			<OUTCOME>X254</OUTCOME>
			<OUTCOME>X255</OUTCOME>
		</VARIABLE>
		<VARIABLE TYPE  = "nature">
			<NAME>SENSOR3</NAME>
		
			<OUTCOME>X0</OUTCOME>
			<OUTCOME>X1</OUTCOME>
			<OUTCOME>X2</OUTCOME>
			<OUTCOME>X3</OUTCOME>
			<OUTCOME>X4</OUTCOME>
			<OUTCOME>X5</OUTCOME>
			<OUTCOME>X6</OUTCOME>
			<OUTCOME>X7</OUTCOME>
			<OUTCOME>X8</OUTCOME>
			<OUTCOME>X9</OUTCOME>
			<OUTCOME>X10</OUTCOME>
			<OUTCOME>X11</OUTCOME>
			<OUTCOME>X12</OUTCOME>
			<OUTCOME>X13</OUTCOME>
			<OUTCOME>X14</OUTCOME>
			<OUTCOME>X15</OUTCOME>
			<OUTCOME>X16</OUTCOME>
			<OUTCOME>X17</OUTCOME>
			<OUTCOME>X18</OUTCOME>
			<OUTCOME>X19</OUTCOME>
			<OUTCOME>X20</OUTCOME>
			<OUTCOME>X21</OUTCOME>
			<OUTCOME>X22</OUTCOME>
			<OUTCOME>X23</OUTCOME>
			<OUTCOME>X24</OUTCOME>
			<OUTCOME>X25</OUTCOME>
			<OUTCOME>X26</OUTCOME>
			<OUTCOME>X27</OUTCOME>
			<OUTCOME>X28</OUTCOME>
			<OUTCOME>X29</OUTCOME>
			<OUTCOME>X30</OUTCOME>
			<OUTCOME>X31</OUTCOME>
			<OUTCOME>X32</OUTCOME>
			<OUTCOME>X33</OUTCOME>
			<OUTCOME>X34</OUTCOME>
			<OUTCOME>X35</OUTCOME>
			<OUTCOME>X36</OUTCOME>
			<OUTCOME>X37</OUTCOME>
			<OUTCOME>X38</OUTCOME>
			<OUTCOME>X39</OUTCOME>
			<OUTCOME>X40</OUTCOME>
			<OUTCOME>X41</OUTCOME>
			<OUTCOME>X42</OUTCOME>
			<OUTCOME>X43</OUTCOME>
			<OUTCOME>X44</OUTCOME>
			<OUTCOME>X45</OUTCOME>
			<OUTCOME>X46</OUTCOME>
			<OUTCOME>X47</OUTCOME>
			<OUTCOME>X48</OUTCOME>
			<OUTCOME>X49</OUTCOME>
			<OUTCOME>X50</OUTCOME>
			<OUTCOME>X51</OUTCOME>
			<OUTCOME>X52</OUTCOME>
			<OUTCOME>X53</OUTCOME>
			<OUTCOME>X54</OUTCOME>
			<OUTCOME>X55</OUTCOME>
			<OUTCOME>X56</OUTCOME>
			<OUTCOME>X57</OUTCOME>
			<OUTCOME>X58</OUTCOME>
			<OUTCOME>X59</OUTCOME>
			<OUTCOME>X60</OUTCOME>
			<OUTCOME>X61</OUTCOME>
			<OUTCOME>X62</OUTCOME>
			<OUTCOME>X63</OUTCOME>
			<OUTCOME>X64</OUTCOME>
			<OUTCOME>X65</OUTCOME>
			<OUTCOME>X66</OUTCOME>
			<OUTCOME>X67</OUTCOME>
			<OUTCOME>X68</OUTCOME>
			<OUTCOME>X69</OUTCOME>
			<OUTCOME>X70</OUTCOME>
			<OUTCOME>X71</OUTCOME>
			<OUTCOME>X72</OUTCOME>
			<OUTCOME>X73</OUTCOME>
			<OUTCOME>X74</OUTCOME>
			<OUTCOME>X75</OUTCOME>
			<OUTCOME>X76</OUTCOME>
			<OUTCOME>X77</OUTCOME>
			<OUTCOME>X78</OUTCOME>
			<OUTCOME>X79</OUTCOME>
			<OUTCOME>X80</OUTCOME>
			<OUTCOME>X81</OUTCOME>
			<OUTCOME>X82</OUTCOME>
			<OUTCOME>X83</OUTCOME>
			<OUTCOME>X84</OUTCOME>
			<OUTCOME>X85</OUTCOME>
			<OUTCOME>X86</OUTCOME>
			<OUTCOME>X87</OUTCOME>
			<OUTCOME>X88</OUTCOME>
			<OUTCOME>X89</OUTCOME>
			<OUTCOME>X90</OUTCOME>
			<OUTCOME>X91</OUTCOME>
			<OUTCOME>X92</OUTCOME>
			<OUTCOME>X93</OUTCOME>
			<OUTCOME>X94</OUTCOME>
			<OUTCOME>X95</OUTCOME>
			<OUTCOME>X96</OUTCOME>
			<OUTCOME>X97</OUTCOME>
			<OUTCOME>X98</OUTCOME>
			<OUTCOME>X99</OUTCOME>
			<OUTCOME>X100</OUTCOME>
			<OUTCOME>X101</OUTCOME>
			<OUTCOME>X102</OUTCOME>
			<OUTCOME>X103</OUTCOME>
			<OUTCOME>X104</OUTCOME>
			<OUTCOME>X105</OUTCOME>
			<OUTCOME>X106</OUTCOME>
			<OUTCOME>X107</OUTCOME>
			<OUTCOME>X108</OUTCOME>
			<OUTCOME>X109</OUTCOME>
			<OUTCOME>X110</OUTCOME>
			<OUTCOME>X111</OUTCOME>
			<OUTCOME>X112</OUTCOME>
			<OUTCOME>X113</OUTCOME>
			<OUTCOME>X114</OUTCOME>
			<OUTCOME>X115</OUTCOME>
			<OUTCOME>X116</OUTCOME>
			<OUTCOME>X117</OUTCOME>
			<OUTCOME>X118</OUTCOME>
			<OUTCOME>X119</OUTCOME>
			<OUTCOME>X120</OUTCOME>
			<OUTCOME>X121</OUTCOME>
			<OUTCOME>X122</OUTCOME>
			<OUTCOME>X123</OUTCOME>
			<OUTCOME>X124</OUTCOME>
			<OUTCOME>X125</OUTCOME>
			<OUTCOME>X126</OUTCOME>
			<OUTCOME>X127</OUTCOME>
			<OUTCOME>X128</OUTCOME>
			<OUTCOME>X129</OUTCOME>
			<OUTCOME>X130</OUTCOME>
			<OUTCOME>X131</OUTCOME>
			<OUTCOME>X132</OUTCOME>
			<OUTCOME>X133</OUTCOME>
			<OUTCOME>X134</OUTCOME>
			<OUTCOME>X135</OUTCOME>
			<OUTCOME>X136</OUTCOME>
			<OUTCOME>X137</OUTCOME>
			<OUTCOME>X138</OUTCOME>
			<OUTCOME>X139</OUTCOME>
			<OUTCOME>X140</OUTCOME>
			<OUTCOME>X141</OUTCOME>
			<OUTCOME>X142</OUTCOME>
			<OUTCOME>X143</OUTCOME>
			<OUTCOME>X144</OUTCOME>
			<OUTCOME>X145</OUTCOME>
			<OUTCOME>X146</OUTCOME>
			<OUTCOME>X147</OUTCOME>
			<OUTCOME>X148</OUTCOME>
			<OUTCOME>X149</OUTCOME>
			<OUTCOME>X150</OUTCOME>
			<OUTCOME>X151</OUTCOME>
			<OUTCOME>X152</OUTCOME>
			<OUTCOME>X153</OUTCOME>
			<OUTCOME>X154</OUTCOME>
			<OUTCOME>X155</OUTCOME>
			<OUTCOME>X156</OUTCOME>
			<OUTCOME>X157</OUTCOME>
			<OUTCOME>X158</OUTCOME>
			<OUTCOME>X159</OUTCOME>
			<OUTCOME>X160</OUTCOME>
			<OUTCOME>X161</OUTCOME>
			<OUTCOME>X162</OUTCOME>
			<OUTCOME>X163</OUTCOME>
			<OUTCOME>X164</OUTCOME>
			<OUTCOME>X165</OUTCOME>
			<OUTCOME>X166</OUTCOME>
			<OUTCOME>X167</OUTCOME>
			<OUTCOME>X168</OUTCOME>
			<OUTCOME>X169</OUTCOME>
			<OUTCOME>X170</OUTCOME>
			<OUTCOME>X171</OUTCOME>
			<OUTCOME>X172</OUTCOME>
			<OUTCOME>X173</OUTCOME>
			<OUTCOME>X174</OUTCOME>
			<OUTCOME>X175</OUTCOME>
			<OUTCOME>X176</OUTCOME>
			<OUTCOME>X177</OUTCOME>
			<OUTCOME>X178</OUTCOME>
			<OUTCOME>X179</OUTCOME>
			<OUTCOME>X180</OUTCOME>
			<OUTCOME>X181</OUTCOME>
			<OUTCOME>X182</OUTCOME>
			<OUTCOME>X183</OUTCOME>
			<OUTCOME>X184</OUTCOME>
			<OUTCOME>X185</OUTCOME>
			<OUTCOME>X186</OUTCOME>
			<OUTCOME>X187</OUTCOME>
			<OUTCOME>X188</OUTCOME>
			<OUTCOME>X189</OUTCOME>
			<OUTCOME>X190</OUTCOME>
			<OUTCOME>X191</OUTCOME>
			<OUTCOME>X192</OUTCOME>
			<OUTCOME>X193</OUTCOME>
			<OUTCOME>X194</OUTCOME>
			<OUTCOME>X195</OUTCOME>
			<OUTCOME>X196</OUTCOME>
			<OUTCOME>X197</OUTCOME>
			<OUTCOME>X198</OUTCOME>
			<OUTCOME>X199</OUTCOME>
			<OUTCOME>X200</OUTCOME>
			<OUTCOME>X201</OUTCOME>
			<OUTCOME>X202</OUTCOME>
			<OUTCOME>X203</OUTCOME>
			<OUTCOME>X204</OUTCOME>
			<OUTCOME>X205</OUTCOME>
			<OUTCOME>X206</OUTCOME>
			<OUTCOME>X207</OUTCOME>
			<OUTCOME>X208</OUTCOME>
			<OUTCOME>X209</OUTCOME>
			<OUTCOME>X210</OUTCOME>
			<OUTCOME>X211</OUTCOME>
			<OUTCOME>X212</OUTCOME>
			<OUTCOME>X213</OUTCOME>
			<OUTCOME>X214</OUTCOME>
			<OUTCOME>X215</OUTCOME>
			<OUTCOME>X216</OUTCOME>
			<OUTCOME>X217</OUTCOME>
			<OUTCOME>X218</OUTCOME>
			<OUTCOME>X219</OUTCOME>
			<OUTCOME>X220</OUTCOME>
			<OUTCOME>X221</OUTCOME>
			<OUTCOME>X222</OUTCOME>
			<OUTCOME>X223</OUTCOME>
			<OUTCOME>X224</OUTCOME>
			<OUTCOME>X225</OUTCOME>
			<OUTCOME>X226</OUTCOME>
			<OUTCOME>X227</OUTCOME>
			<OUTCOME>X228</OUTCOME>
			<OUTCOME>X229</OUTCOME>
			<OUTCOME>X230</OUTCOME>
			<OUTCOME>X231</OUTCOME>
			<OUTCOME>X232</OUTCOME>
			<OUTCOME>X233</OUTCOME>
			<OUTCOME>X234</OUTCOME>
			<OUTCOME>X235</OUTCOME>
			<OUTCOME>X236</OUTCOME>
			<OUTCOME>X237</OUTCOME>
			<OUTCOME>X238</OUTCOME>
			<OUTCOME>X239</OUTCOME>
			<OUTCOME>X240</OUTCOME>
			<OUTCOME>X241</OUTCOME>
			<OUTCOME>X242</OUTCOME>
			<OUTCOME>X243</OUTCOME>
			<OUTCOME>X244</OUTCOME>
			<OUTCOME>X245</OUTCOME>
			<OUTCOME>X246</OUTCOME>
			<OUTCOME>X247</OUTCOME>
			<OUTCOME>X248</OUTCOME>
			<OUTCOME>X249</OUTCOME>
			<OUTCOME>X250</OUTCOME>
			<OUTCOME>X251</OUTCOME>
			<OUTCOME>X252</OUTCOME>
			<OUTCOME>X253</OUTCOME>
			<OUTCOME>X254</OUTCOME>
			<OUTCOME>X255</OUTCOME>
		</VARIABLE>
		<VARIABLE TYPE  = "nature">
			<NAME>SENSOR4</NAME>
		
			<OUTCOME>X0</OUTCOME>
			<OUTCOME>X1</OUTCOME>
			<OUTCOME>X2</OUTCOME>
			<OUTCOME>X3</OUTCOME>
			<OUTCOME>X4</OUTCOME>
			<OUTCOME>X5</OUTCOME>
			<OUTCOME>X6</OUTCOME>
			<OUTCOME>X7</OUTCOME>
			<OUTCOME>X8</OUTCOME>
			<OUTCOME>X9</OUTCOME>
			<OUTCOME>X10</OUTCOME>
			<OUTCOME>X11</OUTCOME>
			<OUTCOME>X12</OUTCOME>
			<OUTCOME>X13</OUTCOME>
			<OUTCOME>X14</OUTCOME>
			<OUTCOME>X15</OUTCOME>
			<OUTCOME>X16</OUTCOME>
			<OUTCOME>X17</OUTCOME>
			<OUTCOME>X18</OUTCOME>
			<OUTCOME>X19</OUTCOME>
			<OUTCOME>X20</OUTCOME>
			<OUTCOME>X21</OUTCOME>
			<OUTCOME>X22</OUTCOME>
			<OUTCOME>X23</OUTCOME>
			<OUTCOME>X24</OUTCOME>
			<OUTCOME>X25</OUTCOME>
			<OUTCOME>X26</OUTCOME>
			<OUTCOME>X27</OUTCOME>
			<OUTCOME>X28</OUTCOME>
			<OUTCOME>X29</OUTCOME>
			<OUTCOME>X30</OUTCOME>
			<OUTCOME>X31</OUTCOME>
			<OUTCOME>X32</OUTCOME>
			<OUTCOME>X33</OUTCOME>
			<OUTCOME>X34</OUTCOME>
			<OUTCOME>X35</OUTCOME>
			<OUTCOME>X36</OUTCOME>
			<OUTCOME>X37</OUTCOME>
			<OUTCOME>X38</OUTCOME>
			<OUTCOME>X39</OUTCOME>
			<OUTCOME>X40</OUTCOME>
			<OUTCOME>X41</OUTCOME>
			<OUTCOME>X42</OUTCOME>
			<OUTCOME>X43</OUTCOME>
			<OUTCOME>X44</OUTCOME>
			<OUTCOME>X45</OUTCOME>
			<OUTCOME>X46</OUTCOME>
			<OUTCOME>X47</OUTCOME>
			<OUTCOME>X48</OUTCOME>
			<OUTCOME>X49</OUTCOME>
			<OUTCOME>X50</OUTCOME>
			<OUTCOME>X51</OUTCOME>
			<OUTCOME>X52</OUTCOME>
			<OUTCOME>X53</OUTCOME>
			<OUTCOME>X54</OUTCOME>
			<OUTCOME>X55</OUTCOME>
			<OUTCOME>X56</OUTCOME>
			<OUTCOME>X57</OUTCOME>
			<OUTCOME>X58</OUTCOME>
			<OUTCOME>X59</OUTCOME>
			<OUTCOME>X60</OUTCOME>
			<OUTCOME>X61</OUTCOME>
			<OUTCOME>X62</OUTCOME>
			<OUTCOME>X63</OUTCOME>
			<OUTCOME>X64</OUTCOME>
			<OUTCOME>X65</OUTCOME>
			<OUTCOME>X66</OUTCOME>
			<OUTCOME>X67</OUTCOME>
			<OUTCOME>X68</OUTCOME>
			<OUTCOME>X69</OUTCOME>
			<OUTCOME>X70</OUTCOME>
			<OUTCOME>X71</OUTCOME>
			<OUTCOME>X72</OUTCOME>
			<OUTCOME>X73</OUTCOME>
			<OUTCOME>X74</OUTCOME>
			<OUTCOME>X75</OUTCOME>
			<OUTCOME>X76</OUTCOME>
			<OUTCOME>X77</OUTCOME>
			<OUTCOME>X78</OUTCOME>
			<OUTCOME>X79</OUTCOME>
			<OUTCOME>X80</OUTCOME>
			<OUTCOME>X81</OUTCOME>
			<OUTCOME>X82</OUTCOME>
			<OUTCOME>X83</OUTCOME>
			<OUTCOME>X84</OUTCOME>
			<OUTCOME>X85</OUTCOME>
			<OUTCOME>X86</OUTCOME>
			<OUTCOME>X87</OUTCOME>
			<OUTCOME>X88</OUTCOME>
			<OUTCOME>X89</OUTCOME>
			<OUTCOME>X90</OUTCOME>
			<OUTCOME>X91</OUTCOME>
			<OUTCOME>X92</OUTCOME>
			<OUTCOME>X93</OUTCOME>
			<OUTCOME>X94</OUTCOME>
			<OUTCOME>X95</OUTCOME>
			<OUTCOME>X96</OUTCOME>
			<OUTCOME>X97</OUTCOME>
			<OUTCOME>X98</OUTCOME>
			<OUTCOME>X99</OUTCOME>
			<OUTCOME>X100</OUTCOME>
			<OUTCOME>X101</OUTCOME>
			<OUTCOME>X102</OUTCOME>
			<OUTCOME>X103</OUTCOME>
			<OUTCOME>X104</OUTCOME>
			<OUTCOME>X105</OUTCOME>
			<OUTCOME>X106</OUTCOME>
			<OUTCOME>X107</OUTCOME>
			<OUTCOME>X108</OUTCOME>
			<OUTCOME>X109</OUTCOME>
			<OUTCOME>X110</OUTCOME>
			<OUTCOME>X111</OUTCOME>
			<OUTCOME>X112</OUTCOME>
			<OUTCOME>X113</OUTCOME>
			<OUTCOME>X114</OUTCOME>
			<OUTCOME>X115</OUTCOME>
			<OUTCOME>X116</OUTCOME>
			<OUTCOME>X117</OUTCOME>
			<OUTCOME>X118</OUTCOME>
			<OUTCOME>X119</OUTCOME>
			<OUTCOME>X120</OUTCOME>
			<OUTCOME>X121</OUTCOME>
			<OUTCOME>X122</OUTCOME>
			<OUTCOME>X123</OUTCOME>
			<OUTCOME>X124</OUTCOME>
			<OUTCOME>X125</OUTCOME>
			<OUTCOME>X126</OUTCOME>
			<OUTCOME>X127</OUTCOME>
			<OUTCOME>X128</OUTCOME>
			<OUTCOME>X129</OUTCOME>
			<OUTCOME>X130</OUTCOME>
			<OUTCOME>X131</OUTCOME>
			<OUTCOME>X132</OUTCOME>
			<OUTCOME>X133</OUTCOME>
			<OUTCOME>X134</OUTCOME>
			<OUTCOME>X135</OUTCOME>
			<OUTCOME>X136</OUTCOME>
			<OUTCOME>X137</OUTCOME>
			<OUTCOME>X138</OUTCOME>
			<OUTCOME>X139</OUTCOME>
			<OUTCOME>X140</OUTCOME>
			<OUTCOME>X141</OUTCOME>
			<OUTCOME>X142</OUTCOME>
			<OUTCOME>X143</OUTCOME>
			<OUTCOME>X144</OUTCOME>
			<OUTCOME>X145</OUTCOME>
			<OUTCOME>X146</OUTCOME>
			<OUTCOME>X147</OUTCOME>
			<OUTCOME>X148</OUTCOME>
			<OUTCOME>X149</OUTCOME>
			<OUTCOME>X150</OUTCOME>
			<OUTCOME>X151</OUTCOME>
			<OUTCOME>X152</OUTCOME>
			<OUTCOME>X153</OUTCOME>
			<OUTCOME>X154</OUTCOME>
			<OUTCOME>X155</OUTCOME>
			<OUTCOME>X156</OUTCOME>
			<OUTCOME>X157</OUTCOME>
			<OUTCOME>X158</OUTCOME>
			<OUTCOME>X159</OUTCOME>
			<OUTCOME>X160</OUTCOME>
			<OUTCOME>X161</OUTCOME>
			<OUTCOME>X162</OUTCOME>
			<OUTCOME>X163</OUTCOME>
			<OUTCOME>X164</OUTCOME>
			<OUTCOME>X165</OUTCOME>
			<OUTCOME>X166</OUTCOME>
			<OUTCOME>X167</OUTCOME>
			<OUTCOME>X168</OUTCOME>
			<OUTCOME>X169</OUTCOME>
			<OUTCOME>X170</OUTCOME>
			<OUTCOME>X171</OUTCOME>
			<OUTCOME>X172</OUTCOME>
			<OUTCOME>X173</OUTCOME>
			<OUTCOME>X174</OUTCOME>
			<OUTCOME>X175</OUTCOME>
			<OUTCOME>X176</OUTCOME>
			<OUTCOME>X177</OUTCOME>
			<OUTCOME>X178</OUTCOME>
			<OUTCOME>X179</OUTCOME>
			<OUTCOME>X180</OUTCOME>
			<OUTCOME>X181</OUTCOME>
			<OUTCOME>X182</OUTCOME>
			<OUTCOME>X183</OUTCOME>
			<OUTCOME>X184</OUTCOME>
			<OUTCOME>X185</OUTCOME>
			<OUTCOME>X186</OUTCOME>
			<OUTCOME>X187</OUTCOME>
			<OUTCOME>X188</OUTCOME>
			<OUTCOME>X189</OUTCOME>
			<OUTCOME>X190</OUTCOME>
			<OUTCOME>X191</OUTCOME>
			<OUTCOME>X192</OUTCOME>
			<OUTCOME>X193</OUTCOME>
			<OUTCOME>X194</OUTCOME>
			<OUTCOME>X195</OUTCOME>
			<OUTCOME>X196</OUTCOME>
			<OUTCOME>X197</OUTCOME>
			<OUTCOME>X198</OUTCOME>
			<OUTCOME>X199</OUTCOME>
			<OUTCOME>X200</OUTCOME>
			<OUTCOME>X201</OUTCOME>
			<OUTCOME>X202</OUTCOME>
			<OUTCOME>X203</OUTCOME>
			<OUTCOME>X204</OUTCOME>
			<OUTCOME>X205</OUTCOME>
			<OUTCOME>X206</OUTCOME>
			<OUTCOME>X207</OUTCOME>
			<OUTCOME>X208</OUTCOME>
			<OUTCOME>X209</OUTCOME>
			<OUTCOME>X210</OUTCOME>
			<OUTCOME>X211</OUTCOME>
			<OUTCOME>X212</OUTCOME>
			<OUTCOME>X213</OUTCOME>
			<OUTCOME>X214</OUTCOME>
			<OUTCOME>X215</OUTCOME>
			<OUTCOME>X216</OUTCOME>
			<OUTCOME>X217</OUTCOME>
			<OUTCOME>X218</OUTCOME>
			<OUTCOME>X219</OUTCOME>
			<OUTCOME>X220</OUTCOME>
			<OUTCOME>X221</OUTCOME>
			<OUTCOME>X222</OUTCOME>
			<OUTCOME>X223</OUTCOME>
			<OUTCOME>X224</OUTCOME>
			<OUTCOME>X225</OUTCOME>
			<OUTCOME>X226</OUTCOME>
			<OUTCOME>X227</OUTCOME>
			<OUTCOME>X228</OUTCOME>
			<OUTCOME>X229</OUTCOME>
			<OUTCOME>X230</OUTCOME>
			<OUTCOME>X231</OUTCOME>
			<OUTCOME>X232</OUTCOME>
			<OUTCOME>X233</OUTCOME>
			<OUTCOME>X234</OUTCOME>
			<OUTCOME>X235</OUTCOME>
			<OUTCOME>X236</OUTCOME>
			<OUTCOME>X237</OUTCOME>
			<OUTCOME>X238</OUTCOME>
			<OUTCOME>X239</OUTCOME>
			<OUTCOME>X240</OUTCOME>
			<OUTCOME>X241</OUTCOME>
			<OUTCOME>X242</OUTCOME>
			<OUTCOME>X243</OUTCOME>
			<OUTCOME>X244</OUTCOME>
			<OUTCOME>X245</OUTCOME>
			<OUTCOME>X246</OUTCOME>
			<OUTCOME>X247</OUTCOME>
			<OUTCOME>X248</OUTCOME>
			<OUTCOME>X249</OUTCOME>
			<OUTCOME>X250</OUTCOME>
			<OUTCOME>X251</OUTCOME>
			<OUTCOME>X252</OUTCOME>
			<OUTCOME>X253</OUTCOME>
			<OUTCOME>X254</OUTCOME>
			<OUTCOME>X255</OUTCOME>
		</VARIABLE>
		<VARIABLE TYPE  = "nature">
			<NAME>SENSOR5</NAME>
		
			<OUTCOME>X0</OUTCOME>
			<OUTCOME>X1</OUTCOME>
			<OUTCOME>X2</OUTCOME>
			<OUTCOME>X3</OUTCOME>
			<OUTCOME>X4</OUTCOME>
			<OUTCOME>X5</OUTCOME>
			<OUTCOME>X6</OUTCOME>
			<OUTCOME>X7</OUTCOME>
			<OUTCOME>X8</OUTCOME>
			<OUTCOME>X9</OUTCOME>
			<OUTCOME>X10</OUTCOME>
			<OUTCOME>X11</OUTCOME>
			<OUTCOME>X12</OUTCOME>
			<OUTCOME>X13</OUTCOME>
			<OUTCOME>X14</OUTCOME>
			<OUTCOME>X15</OUTCOME>
			<OUTCOME>X16</OUTCOME>
			<OUTCOME>X17</OUTCOME>
			<OUTCOME>X18</OUTCOME>
			<OUTCOME>X19</OUTCOME>
			<OUTCOME>X20</OUTCOME>
			<OUTCOME>X21</OUTCOME>
			<OUTCOME>X22</OUTCOME>
			<OUTCOME>X23</OUTCOME>
			<OUTCOME>X24</OUTCOME>
			<OUTCOME>X25</OUTCOME>
			<OUTCOME>X26</OUTCOME>
			<OUTCOME>X27</OUTCOME>
			<OUTCOME>X28</OUTCOME>
			<OUTCOME>X29</OUTCOME>
			<OUTCOME>X30</OUTCOME>
			<OUTCOME>X31</OUTCOME>
			<OUTCOME>X32</OUTCOME>
			<OUTCOME>X33</OUTCOME>
			<OUTCOME>X34</OUTCOME>
			<OUTCOME>X35</OUTCOME>
			<OUTCOME>X36</OUTCOME>
			<OUTCOME>X37</OUTCOME>
			<OUTCOME>X38</OUTCOME>
			<OUTCOME>X39</OUTCOME>
			<OUTCOME>X40</OUTCOME>
			<OUTCOME>X41</OUTCOME>
			<OUTCOME>X42</OUTCOME>
			<OUTCOME>X43</OUTCOME>
			<OUTCOME>X44</OUTCOME>
			<OUTCOME>X45</OUTCOME>
			<OUTCOME>X46</OUTCOME>
			<OUTCOME>X47</OUTCOME>
			<OUTCOME>X48</OUTCOME>
			<OUTCOME>X49</OUTCOME>
			<OUTCOME>X50</OUTCOME>
			<OUTCOME>X51</OUTCOME>
			<OUTCOME>X52</OUTCOME>
			<OUTCOME>X53</OUTCOME>
			<OUTCOME>X54</OUTCOME>
			<OUTCOME>X55</OUTCOME>
			<OUTCOME>X56</OUTCOME>
			<OUTCOME>X57</OUTCOME>
			<OUTCOME>X58</OUTCOME>
			<OUTCOME>X59</OUTCOME>
			<OUTCOME>X60</OUTCOME>
			<OUTCOME>X61</OUTCOME>
			<OUTCOME>X62</OUTCOME>
			<OUTCOME>X63</OUTCOME>
			<OUTCOME>X64</OUTCOME>
			<OUTCOME>X65</OUTCOME>
			<OUTCOME>X66</OUTCOME>
			<OUTCOME>X67</OUTCOME>
			<OUTCOME>X68</OUTCOME>
			<OUTCOME>X69</OUTCOME>
			<OUTCOME>X70</OUTCOME>
			<OUTCOME>X71</OUTCOME>
			<OUTCOME>X72</OUTCOME>
			<OUTCOME>X73</OUTCOME>
			<OUTCOME>X74</OUTCOME>
			<OUTCOME>X75</OUTCOME>
			<OUTCOME>X76</OUTCOME>
			<OUTCOME>X77</OUTCOME>
			<OUTCOME>X78</OUTCOME>
			<OUTCOME>X79</OUTCOME>
			<OUTCOME>X80</OUTCOME>
			<OUTCOME>X81</OUTCOME>
			<OUTCOME>X82</OUTCOME>
			<OUTCOME>X83</OUTCOME>
			<OUTCOME>X84</OUTCOME>
			<OUTCOME>X85</OUTCOME>
			<OUTCOME>X86</OUTCOME>
			<OUTCOME>X87</OUTCOME>
			<OUTCOME>X88</OUTCOME>
			<OUTCOME>X89</OUTCOME>
			<OUTCOME>X90</OUTCOME>
			<OUTCOME>X91</OUTCOME>
			<OUTCOME>X92</OUTCOME>
			<OUTCOME>X93</OUTCOME>
			<OUTCOME>X94</OUTCOME>
			<OUTCOME>X95</OUTCOME>
			<OUTCOME>X96</OUTCOME>
			<OUTCOME>X97</OUTCOME>
			<OUTCOME>X98</OUTCOME>
			<OUTCOME>X99</OUTCOME>
			<OUTCOME>X100</OUTCOME>
			<OUTCOME>X101</OUTCOME>
			<OUTCOME>X102</OUTCOME>
			<OUTCOME>X103</OUTCOME>
			<OUTCOME>X104</OUTCOME>
			<OUTCOME>X105</OUTCOME>
			<OUTCOME>X106</OUTCOME>
			<OUTCOME>X107</OUTCOME>
			<OUTCOME>X108</OUTCOME>
			<OUTCOME>X109</OUTCOME>
			<OUTCOME>X110</OUTCOME>
			<OUTCOME>X111</OUTCOME>
			<OUTCOME>X112</OUTCOME>
			<OUTCOME>X113</OUTCOME>
			<OUTCOME>X114</OUTCOME>
			<OUTCOME>X115</OUTCOME>
			<OUTCOME>X116</OUTCOME>
			<OUTCOME>X117</OUTCOME>
			<OUTCOME>X118</OUTCOME>
			<OUTCOME>X119</OUTCOME>
			<OUTCOME>X120</OUTCOME>
			<OUTCOME>X121</OUTCOME>
			<OUTCOME>X122</OUTCOME>
			<OUTCOME>X123</OUTCOME>
			<OUTCOME>X124</OUTCOME>
			<OUTCOME>X125</OUTCOME>
			<OUTCOME>X126</OUTCOME>
			<OUTCOME>X127</OUTCOME>
			<OUTCOME>X128</OUTCOME>
			<OUTCOME>X129</OUTCOME>
			<OUTCOME>X130</OUTCOME>
			<OUTCOME>X131</OUTCOME>
			<OUTCOME>X132</OUTCOME>
			<OUTCOME>X133</OUTCOME>
			<OUTCOME>X134</OUTCOME>
			<OUTCOME>X135</OUTCOME>
			<OUTCOME>X136</OUTCOME>
			<OUTCOME>X137</OUTCOME>
			<OUTCOME>X138</OUTCOME>
			<OUTCOME>X139</OUTCOME>
			<OUTCOME>X140</OUTCOME>
			<OUTCOME>X141</OUTCOME>
			<OUTCOME>X142</OUTCOME>
			<OUTCOME>X143</OUTCOME>
			<OUTCOME>X144</OUTCOME>
			<OUTCOME>X145</OUTCOME>
			<OUTCOME>X146</OUTCOME>
			<OUTCOME>X147</OUTCOME>
			<OUTCOME>X148</OUTCOME>
			<OUTCOME>X149</OUTCOME>
			<OUTCOME>X150</OUTCOME>
			<OUTCOME>X151</OUTCOME>
			<OUTCOME>X152</OUTCOME>
			<OUTCOME>X153</OUTCOME>
			<OUTCOME>X154</OUTCOME>
			<OUTCOME>X155</OUTCOME>
			<OUTCOME>X156</OUTCOME>
			<OUTCOME>X157</OUTCOME>
			<OUTCOME>X158</OUTCOME>
			<OUTCOME>X159</OUTCOME>
			<OUTCOME>X160</OUTCOME>
			<OUTCOME>X161</OUTCOME>
			<OUTCOME>X162</OUTCOME>
			<OUTCOME>X163</OUTCOME>
			<OUTCOME>X164</OUTCOME>
			<OUTCOME>X165</OUTCOME>
			<OUTCOME>X166</OUTCOME>
			<OUTCOME>X167</OUTCOME>
			<OUTCOME>X168</OUTCOME>
			<OUTCOME>X169</OUTCOME>
			<OUTCOME>X170</OUTCOME>
			<OUTCOME>X171</OUTCOME>
			<OUTCOME>X172</OUTCOME>
			<OUTCOME>X173</OUTCOME>
			<OUTCOME>X174</OUTCOME>
			<OUTCOME>X175</OUTCOME>
			<OUTCOME>X176</OUTCOME>
			<OUTCOME>X177</OUTCOME>
			<OUTCOME>X178</OUTCOME>
			<OUTCOME>X179</OUTCOME>
			<OUTCOME>X180</OUTCOME>
			<OUTCOME>X181</OUTCOME>
			<OUTCOME>X182</OUTCOME>
			<OUTCOME>X183</OUTCOME>
			<OUTCOME>X184</OUTCOME>
			<OUTCOME>X185</OUTCOME>
			<OUTCOME>X186</OUTCOME>
			<OUTCOME>X187</OUTCOME>
			<OUTCOME>X188</OUTCOME>
			<OUTCOME>X189</OUTCOME>
			<OUTCOME>X190</OUTCOME>
			<OUTCOME>X191</OUTCOME>
			<OUTCOME>X192</OUTCOME>
			<OUTCOME>X193</OUTCOME>
			<OUTCOME>X194</OUTCOME>
			<OUTCOME>X195</OUTCOME>
			<OUTCOME>X196</OUTCOME>
			<OUTCOME>X197</OUTCOME>
			<OUTCOME>X198</OUTCOME>
			<OUTCOME>X199</OUTCOME>
			<OUTCOME>X200</OUTCOME>
			<OUTCOME>X201</OUTCOME>
			<OUTCOME>X202</OUTCOME>
			<OUTCOME>X203</OUTCOME>
			<OUTCOME>X204</OUTCOME>
			<OUTCOME>X205</OUTCOME>
			<OUTCOME>X206</OUTCOME>
			<OUTCOME>X207</OUTCOME>
			<OUTCOME>X208</OUTCOME>
			<OUTCOME>X209</OUTCOME>
			<OUTCOME>X210</OUTCOME>
			<OUTCOME>X211</OUTCOME>
			<OUTCOME>X212</OUTCOME>
			<OUTCOME>X213</OUTCOME>
			<OUTCOME>X214</OUTCOME>
			<OUTCOME>X215</OUTCOME>
			<OUTCOME>X216</OUTCOME>
			<OUTCOME>X217</OUTCOME>
			<OUTCOME>X218</OUTCOME>
			<OUTCOME>X219</OUTCOME>
			<OUTCOME>X220</OUTCOME>
			<OUTCOME>X221</OUTCOME>
			<OUTCOME>X222</OUTCOME>
			<OUTCOME>X223</OUTCOME>
			<OUTCOME>X224</OUTCOME>
			<OUTCOME>X225</OUTCOME>
			<OUTCOME>X226</OUTCOME>
			<OUTCOME>X227</OUTCOME>
			<OUTCOME>X228</OUTCOME>
			<OUTCOME>X229</OUTCOME>
			<OUTCOME>X230</OUTCOME>
			<OUTCOME>X231</OUTCOME>
			<OUTCOME>X232</OUTCOME>
			<OUTCOME>X233</OUTCOME>
			<OUTCOME>X234</OUTCOME>
			<OUTCOME>X235</OUTCOME>
			<OUTCOME>X236</OUTCOME>
			<OUTCOME>X237</OUTCOME>
			<OUTCOME>X238</OUTCOME>
			<OUTCOME>X239</OUTCOME>
			<OUTCOME>X240</OUTCOME>
			<OUTCOME>X241</OUTCOME>
			<OUTCOME>X242</OUTCOME>
			<OUTCOME>X243</OUTCOME>
			<OUTCOME>X244</OUTCOME>
			<OUTCOME>X245</OUTCOME>
			<OUTCOME>X246</OUTCOME>
			<OUTCOME>X247</OUTCOME>
			<OUTCOME>X248</OUTCOME>
			<OUTCOME>X249</OUTCOME>
			<OUTCOME>X250</OUTCOME>
			<OUTCOME>X251</OUTCOME>
			<OUTCOME>X252</OUTCOME>
			<OUTCOME>X253</OUTCOME>
			<OUTCOME>X254</OUTCOME>
			<OUTCOME>X255</OUTCOME>
		</VARIABLE>
		<VARIABLE TYPE  = "nature">
			<NAME>SENSOR6</NAME>
		
			<OUTCOME>X0</OUTCOME>
			<OUTCOME>X1</OUTCOME>
			<OUTCOME>X2</OUTCOME>
			<OUTCOME>X3</OUTCOME>
			<OUTCOME>X4</OUTCOME>
			<OUTCOME>X5</OUTCOME>
			<OUTCOME>X6</OUTCOME>
			<OUTCOME>X7</OUTCOME>
			<OUTCOME>X8</OUTCOME>
			<OUTCOME>X9</OUTCOME>
			<OUTCOME>X10</OUTCOME>
			<OUTCOME>X11</OUTCOME>
			<OUTCOME>X12</OUTCOME>
			<OUTCOME>X13</OUTCOME>
			<OUTCOME>X14</OUTCOME>
			<OUTCOME>X15</OUTCOME>
			<OUTCOME>X16</OUTCOME>
			<OUTCOME>X17</OUTCOME>
			<OUTCOME>X18</OUTCOME>
			<OUTCOME>X19</OUTCOME>
			<OUTCOME>X20</OUTCOME>
			<OUTCOME>X21</OUTCOME>
			<OUTCOME>X22</OUTCOME>
			<OUTCOME>X23</OUTCOME>
			<OUTCOME>X24</OUTCOME>
			<OUTCOME>X25</OUTCOME>
			<OUTCOME>X26</OUTCOME>
			<OUTCOME>X27</OUTCOME>
			<OUTCOME>X28</OUTCOME>
			<OUTCOME>X29</OUTCOME>
			<OUTCOME>X30</OUTCOME>
			<OUTCOME>X31</OUTCOME>
			<OUTCOME>X32</OUTCOME>
			<OUTCOME>X33</OUTCOME>
			<OUTCOME>X34</OUTCOME>
			<OUTCOME>X35</OUTCOME>
			<OUTCOME>X36</OUTCOME>
			<OUTCOME>X37</OUTCOME>
			<OUTCOME>X38</OUTCOME>
			<OUTCOME>X39</OUTCOME>
			<OUTCOME>X40</OUTCOME>
			<OUTCOME>X41</OUTCOME>
			<OUTCOME>X42</OUTCOME>
			<OUTCOME>X43</OUTCOME>
			<OUTCOME>X44</OUTCOME>
			<OUTCOME>X45</OUTCOME>
			<OUTCOME>X46</OUTCOME>
			<OUTCOME>X47</OUTCOME>
			<OUTCOME>X48</OUTCOME>
			<OUTCOME>X49</OUTCOME>
			<OUTCOME>X50</OUTCOME>
			<OUTCOME>X51</OUTCOME>
			<OUTCOME>X52</OUTCOME>
			<OUTCOME>X53</OUTCOME>
			<OUTCOME>X54</OUTCOME>
			<OUTCOME>X55</OUTCOME>
			<OUTCOME>X56</OUTCOME>
			<OUTCOME>X57</OUTCOME>
			<OUTCOME>X58</OUTCOME>
			<OUTCOME>X59</OUTCOME>
			<OUTCOME>X60</OUTCOME>
			<OUTCOME>X61</OUTCOME>
			<OUTCOME>X62</OUTCOME>
			<OUTCOME>X63</OUTCOME>
			<OUTCOME>X64</OUTCOME>
			<OUTCOME>X65</OUTCOME>
			<OUTCOME>X66</OUTCOME>
			<OUTCOME>X67</OUTCOME>
			<OUTCOME>X68</OUTCOME>
			<OUTCOME>X69</OUTCOME>
			<OUTCOME>X70</OUTCOME>
			<OUTCOME>X71</OUTCOME>
			<OUTCOME>X72</OUTCOME>
			<OUTCOME>X73</OUTCOME>
			<OUTCOME>X74</OUTCOME>
			<OUTCOME>X75</OUTCOME>
			<OUTCOME>X76</OUTCOME>
			<OUTCOME>X77</OUTCOME>
			<OUTCOME>X78</OUTCOME>
			<OUTCOME>X79</OUTCOME>
			<OUTCOME>X80</OUTCOME>
			<OUTCOME>X81</OUTCOME>
			<OUTCOME>X82</OUTCOME>
			<OUTCOME>X83</OUTCOME>
			<OUTCOME>X84</OUTCOME>
			<OUTCOME>X85</OUTCOME>
			<OUTCOME>X86</OUTCOME>
			<OUTCOME>X87</OUTCOME>
			<OUTCOME>X88</OUTCOME>
			<OUTCOME>X89</OUTCOME>
			<OUTCOME>X90</OUTCOME>
			<OUTCOME>X91</OUTCOME>
			<OUTCOME>X92</OUTCOME>
			<OUTCOME>X93</OUTCOME>
			<OUTCOME>X94</OUTCOME>
			<OUTCOME>X95</OUTCOME>
			<OUTCOME>X96</OUTCOME>
			<OUTCOME>X97</OUTCOME>
			<OUTCOME>X98</OUTCOME>
			<OUTCOME>X99</OUTCOME>
			<OUTCOME>X100</OUTCOME>
			<OUTCOME>X101</OUTCOME>
			<OUTCOME>X102</OUTCOME>
			<OUTCOME>X103</OUTCOME>
			<OUTCOME>X104</OUTCOME>
			<OUTCOME>X105</OUTCOME>
			<OUTCOME>X106</OUTCOME>
			<OUTCOME>X107</OUTCOME>
			<OUTCOME>X108</OUTCOME>
			<OUTCOME>X109</OUTCOME>
			<OUTCOME>X110</OUTCOME>
			<OUTCOME>X111</OUTCOME>
			<OUTCOME>X112</OUTCOME>
			<OUTCOME>X113</OUTCOME>
			<OUTCOME>X114</OUTCOME>
			<OUTCOME>X115</OUTCOME>
			<OUTCOME>X116</OUTCOME>
			<OUTCOME>X117</OUTCOME>
			<OUTCOME>X118</OUTCOME>
			<OUTCOME>X119</OUTCOME>
			<OUTCOME>X120</OUTCOME>
			<OUTCOME>X121</OUTCOME>
			<OUTCOME>X122</OUTCOME>
			<OUTCOME>X123</OUTCOME>
			<OUTCOME>X124</OUTCOME>
			<OUTCOME>X125</OUTCOME>
			<OUTCOME>X126</OUTCOME>
			<OUTCOME>X127</OUTCOME>
			<OUTCOME>X128</OUTCOME>
			<OUTCOME>X129</OUTCOME>
			<OUTCOME>X130</OUTCOME>
			<OUTCOME>X131</OUTCOME>
			<OUTCOME>X132</OUTCOME>
			<OUTCOME>X133</OUTCOME>
			<OUTCOME>X134</OUTCOME>
			<OUTCOME>X135</OUTCOME>
			<OUTCOME>X136</OUTCOME>
			<OUTCOME>X137</OUTCOME>
			<OUTCOME>X138</OUTCOME>
			<OUTCOME>X139</OUTCOME>
			<OUTCOME>X140</OUTCOME>
			<OUTCOME>X141</OUTCOME>
			<OUTCOME>X142</OUTCOME>
			<OUTCOME>X143</OUTCOME>
			<OUTCOME>X144</OUTCOME>
			<OUTCOME>X145</OUTCOME>
			<OUTCOME>X146</OUTCOME>
			<OUTCOME>X147</OUTCOME>
			<OUTCOME>X148</OUTCOME>
			<OUTCOME>X149</OUTCOME>
			<OUTCOME>X150</OUTCOME>
			<OUTCOME>X151</OUTCOME>
			<OUTCOME>X152</OUTCOME>
			<OUTCOME>X153</OUTCOME>
			<OUTCOME>X154</OUTCOME>
			<OUTCOME>X155</OUTCOME>
			<OUTCOME>X156</OUTCOME>
			<OUTCOME>X157</OUTCOME>
			<OUTCOME>X158</OUTCOME>
			<OUTCOME>X159</OUTCOME>
			<OUTCOME>X160</OUTCOME>
			<OUTCOME>X161</OUTCOME>
			<OUTCOME>X162</OUTCOME>
			<OUTCOME>X163</OUTCOME>
			<OUTCOME>X164</OUTCOME>
			<OUTCOME>X165</OUTCOME>
			<OUTCOME>X166</OUTCOME>
			<OUTCOME>X167</OUTCOME>
			<OUTCOME>X168</OUTCOME>
			<OUTCOME>X169</OUTCOME>
			<OUTCOME>X170</OUTCOME>
			<OUTCOME>X171</OUTCOME>
			<OUTCOME>X172</OUTCOME>
			<OUTCOME>X173</OUTCOME>
			<OUTCOME>X174</OUTCOME>
			<OUTCOME>X175</OUTCOME>
			<OUTCOME>X176</OUTCOME>
			<OUTCOME>X177</OUTCOME>
			<OUTCOME>X178</OUTCOME>
			<OUTCOME>X179</OUTCOME>
			<OUTCOME>X180</OUTCOME>
			<OUTCOME>X181</OUTCOME>
			<OUTCOME>X182</OUTCOME>
			<OUTCOME>X183</OUTCOME>
			<OUTCOME>X184</OUTCOME>
			<OUTCOME>X185</OUTCOME>
			<OUTCOME>X186</OUTCOME>
			<OUTCOME>X187</OUTCOME>
			<OUTCOME>X188</OUTCOME>
			<OUTCOME>X189</OUTCOME>
			<OUTCOME>X190</OUTCOME>
			<OUTCOME>X191</OUTCOME>
			<OUTCOME>X192</OUTCOME>
			<OUTCOME>X193</OUTCOME>
			<OUTCOME>X194</OUTCOME>
			<OUTCOME>X195</OUTCOME>
			<OUTCOME>X196</OUTCOME>
			<OUTCOME>X197</OUTCOME>
			<OUTCOME>X198</OUTCOME>
			<OUTCOME>X199</OUTCOME>
			<OUTCOME>X200</OUTCOME>
			<OUTCOME>X201</OUTCOME>
			<OUTCOME>X202</OUTCOME>
			<OUTCOME>X203</OUTCOME>
			<OUTCOME>X204</OUTCOME>
			<OUTCOME>X205</OUTCOME>
			<OUTCOME>X206</OUTCOME>
			<OUTCOME>X207</OUTCOME>
			<OUTCOME>X208</OUTCOME>
			<OUTCOME>X209</OUTCOME>
			<OUTCOME>X210</OUTCOME>
			<OUTCOME>X211</OUTCOME>
			<OUTCOME>X212</OUTCOME>
			<OUTCOME>X213</OUTCOME>
			<OUTCOME>X214</OUTCOME>
			<OUTCOME>X215</OUTCOME>
			<OUTCOME>X216</OUTCOME>
			<OUTCOME>X217</OUTCOME>
			<OUTCOME>X218</OUTCOME>
			<OUTCOME>X219</OUTCOME>
			<OUTCOME>X220</OUTCOME>
			<OUTCOME>X221</OUTCOME>
			<OUTCOME>X222</OUTCOME>
			<OUTCOME>X223</OUTCOME>
			<OUTCOME>X224</OUTCOME>
			<OUTCOME>X225</OUTCOME>
			<OUTCOME>X226</OUTCOME>
			<OUTCOME>X227</OUTCOME>
			<OUTCOME>X228</OUTCOME>
			<OUTCOME>X229</OUTCOME>
			<OUTCOME>X230</OUTCOME>
			<OUTCOME>X231</OUTCOME>
			<OUTCOME>X232</OUTCOME>
			<OUTCOME>X233</OUTCOME>
			<OUTCOME>X234</OUTCOME>
			<OUTCOME>X235</OUTCOME>
			<OUTCOME>X236</OUTCOME>
			<OUTCOME>X237</OUTCOME>
			<OUTCOME>X238</OUTCOME>
			<OUTCOME>X239</OUTCOME>
			<OUTCOME>X240</OUTCOME>
			<OUTCOME>X241</OUTCOME>
			<OUTCOME>X242</OUTCOME>
			<OUTCOME>X243</OUTCOME>
			<OUTCOME>X244</OUTCOME>
			<OUTCOME>X245</OUTCOME>
			<OUTCOME>X246</OUTCOME>
			<OUTCOME>X247</OUTCOME>
			<OUTCOME>X248</OUTCOME>
			<OUTCOME>X249</OUTCOME>
			<OUTCOME>X250</OUTCOME>
			<OUTCOME>X251</OUTCOME>
			<OUTCOME>X252</OUTCOME>
			<OUTCOME>X253</OUTCOME>
			<OUTCOME>X254</OUTCOME>
			<OUTCOME>X255</OUTCOME>
		</VARIABLE>
		<VARIABLE TYPE  = "nature">
			<NAME>SENSOR7</NAME>
		
			<OUTCOME>X0</OUTCOME>
			<OUTCOME>X1</OUTCOME>
			<OUTCOME>X2</OUTCOME>
			<OUTCOME>X3</OUTCOME>
			<OUTCOME>X4</OUTCOME>
			<OUTCOME>X5</OUTCOME>
			<OUTCOME>X6</OUTCOME>
			<OUTCOME>X7</OUTCOME>
			<OUTCOME>X8</OUTCOME>
			<OUTCOME>X9</OUTCOME>
			<OUTCOME>X10</OUTCOME>
			<OUTCOME>X11</OUTCOME>
			<OUTCOME>X12</OUTCOME>
			<OUTCOME>X13</OUTCOME>
			<OUTCOME>X14</OUTCOME>
			<OUTCOME>X15</OUTCOME>
			<OUTCOME>X16</OUTCOME>
			<OUTCOME>X17</OUTCOME>
			<OUTCOME>X18</OUTCOME>
			<OUTCOME>X19</OUTCOME>
			<OUTCOME>X20</OUTCOME>
			<OUTCOME>X21</OUTCOME>
			<OUTCOME>X22</OUTCOME>
			<OUTCOME>X23</OUTCOME>
			<OUTCOME>X24</OUTCOME>
			<OUTCOME>X25</OUTCOME>
			<OUTCOME>X26</OUTCOME>
			<OUTCOME>X27</OUTCOME>
			<OUTCOME>X28</OUTCOME>
			<OUTCOME>X29</OUTCOME>
			<OUTCOME>X30</OUTCOME>
			<OUTCOME>X31</OUTCOME>
			<OUTCOME>X32</OUTCOME>
			<OUTCOME>X33</OUTCOME>
			<OUTCOME>X34</OUTCOME>
			<OUTCOME>X35</OUTCOME>
			<OUTCOME>X36</OUTCOME>
			<OUTCOME>X37</OUTCOME>
			<OUTCOME>X38</OUTCOME>
			<OUTCOME>X39</OUTCOME>
			<OUTCOME>X40</OUTCOME>
			<OUTCOME>X41</OUTCOME>
			<OUTCOME>X42</OUTCOME>
			<OUTCOME>X43</OUTCOME>
			<OUTCOME>X44</OUTCOME>
			<OUTCOME>X45</OUTCOME>
			<OUTCOME>X46</OUTCOME>
			<OUTCOME>X47</OUTCOME>
			<OUTCOME>X48</OUTCOME>
			<OUTCOME>X49</OUTCOME>
			<OUTCOME>X50</OUTCOME>
			<OUTCOME>X51</OUTCOME>
			<OUTCOME>X52</OUTCOME>
			<OUTCOME>X53</OUTCOME>
			<OUTCOME>X54</OUTCOME>
			<OUTCOME>X55</OUTCOME>
			<OUTCOME>X56</OUTCOME>
			<OUTCOME>X57</OUTCOME>
			<OUTCOME>X58</OUTCOME>
			<OUTCOME>X59</OUTCOME>
			<OUTCOME>X60</OUTCOME>
			<OUTCOME>X61</OUTCOME>
			<OUTCOME>X62</OUTCOME>
			<OUTCOME>X63</OUTCOME>
			<OUTCOME>X64</OUTCOME>
			<OUTCOME>X65</OUTCOME>
			<OUTCOME>X66</OUTCOME>
			<OUTCOME>X67</OUTCOME>
			<OUTCOME>X68</OUTCOME>
			<OUTCOME>X69</OUTCOME>
			<OUTCOME>X70</OUTCOME>
			<OUTCOME>X71</OUTCOME>
			<OUTCOME>X72</OUTCOME>
			<OUTCOME>X73</OUTCOME>
			<OUTCOME>X74</OUTCOME>
			<OUTCOME>X75</OUTCOME>
			<OUTCOME>X76</OUTCOME>
			<OUTCOME>X77</OUTCOME>
			<OUTCOME>X78</OUTCOME>
			<OUTCOME>X79</OUTCOME>
			<OUTCOME>X80</OUTCOME>
			<OUTCOME>X81</OUTCOME>
			<OUTCOME>X82</OUTCOME>
			<OUTCOME>X83</OUTCOME>
			<OUTCOME>X84</OUTCOME>
			<OUTCOME>X85</OUTCOME>
			<OUTCOME>X86</OUTCOME>
			<OUTCOME>X87</OUTCOME>
			<OUTCOME>X88</OUTCOME>
			<OUTCOME>X89</OUTCOME>
			<OUTCOME>X90</OUTCOME>
			<OUTCOME>X91</OUTCOME>
			<OUTCOME>X92</OUTCOME>
			<OUTCOME>X93</OUTCOME>
			<OUTCOME>X94</OUTCOME>
			<OUTCOME>X95</OUTCOME>
			<OUTCOME>X96</OUTCOME>
			<OUTCOME>X97</OUTCOME>
			<OUTCOME>X98</OUTCOME>
			<OUTCOME>X99</OUTCOME>
			<OUTCOME>X100</OUTCOME>
			<OUTCOME>X101</OUTCOME>
			<OUTCOME>X102</OUTCOME>
			<OUTCOME>X103</OUTCOME>
			<OUTCOME>X104</OUTCOME>
			<OUTCOME>X105</OUTCOME>
			<OUTCOME>X106</OUTCOME>
			<OUTCOME>X107</OUTCOME>
			<OUTCOME>X108</OUTCOME>
			<OUTCOME>X109</OUTCOME>
			<OUTCOME>X110</OUTCOME>
			<OUTCOME>X111</OUTCOME>
			<OUTCOME>X112</OUTCOME>
			<OUTCOME>X113</OUTCOME>
			<OUTCOME>X114</OUTCOME>
			<OUTCOME>X115</OUTCOME>
			<OUTCOME>X116</OUTCOME>
			<OUTCOME>X117</OUTCOME>
			<OUTCOME>X118</OUTCOME>
			<OUTCOME>X119</OUTCOME>
			<OUTCOME>X120</OUTCOME>
			<OUTCOME>X121</OUTCOME>
			<OUTCOME>X122</OUTCOME>
			<OUTCOME>X123</OUTCOME>
			<OUTCOME>X124</OUTCOME>
			<OUTCOME>X125</OUTCOME>
			<OUTCOME>X126</OUTCOME>
			<OUTCOME>X127</OUTCOME>
			<OUTCOME>X128</OUTCOME>
			<OUTCOME>X129</OUTCOME>
			<OUTCOME>X130</OUTCOME>
			<OUTCOME>X131</OUTCOME>
			<OUTCOME>X132</OUTCOME>
			<OUTCOME>X133</OUTCOME>
			<OUTCOME>X134</OUTCOME>
			<OUTCOME>X135</OUTCOME>
			<OUTCOME>X136</OUTCOME>
			<OUTCOME>X137</OUTCOME>
			<OUTCOME>X138</OUTCOME>
			<OUTCOME>X139</OUTCOME>
			<OUTCOME>X140</OUTCOME>
			<OUTCOME>X141</OUTCOME>
			<OUTCOME>X142</OUTCOME>
			<OUTCOME>X143</OUTCOME>
			<OUTCOME>X144</OUTCOME>
			<OUTCOME>X145</OUTCOME>
			<OUTCOME>X146</OUTCOME>
			<OUTCOME>X147</OUTCOME>
			<OUTCOME>X148</OUTCOME>
			<OUTCOME>X149</OUTCOME>
			<OUTCOME>X150</OUTCOME>
			<OUTCOME>X151</OUTCOME>
			<OUTCOME>X152</OUTCOME>
			<OUTCOME>X153</OUTCOME>
			<OUTCOME>X154</OUTCOME>
			<OUTCOME>X155</OUTCOME>
			<OUTCOME>X156</OUTCOME>
			<OUTCOME>X157</OUTCOME>
			<OUTCOME>X158</OUTCOME>
			<OUTCOME>X159</OUTCOME>
			<OUTCOME>X160</OUTCOME>
			<OUTCOME>X161</OUTCOME>
			<OUTCOME>X162</OUTCOME>
			<OUTCOME>X163</OUTCOME>
			<OUTCOME>X164</OUTCOME>
			<OUTCOME>X165</OUTCOME>
			<OUTCOME>X166</OUTCOME>
			<OUTCOME>X167</OUTCOME>
			<OUTCOME>X168</OUTCOME>
			<OUTCOME>X169</OUTCOME>
			<OUTCOME>X170</OUTCOME>
			<OUTCOME>X171</OUTCOME>
			<OUTCOME>X172</OUTCOME>
			<OUTCOME>X173</OUTCOME>
			<OUTCOME>X174</OUTCOME>
			<OUTCOME>X175</OUTCOME>
			<OUTCOME>X176</OUTCOME>
			<OUTCOME>X177</OUTCOME>
			<OUTCOME>X178</OUTCOME>
			<OUTCOME>X179</OUTCOME>
			<OUTCOME>X180</OUTCOME>
			<OUTCOME>X181</OUTCOME>
			<OUTCOME>X182</OUTCOME>
			<OUTCOME>X183</OUTCOME>
			<OUTCOME>X184</OUTCOME>
			<OUTCOME>X185</OUTCOME>
			<OUTCOME>X186</OUTCOME>
			<OUTCOME>X187</OUTCOME>
			<OUTCOME>X188</OUTCOME>
			<OUTCOME>X189</OUTCOME>
			<OUTCOME>X190</OUTCOME>
			<OUTCOME>X191</OUTCOME>
			<OUTCOME>X192</OUTCOME>
			<OUTCOME>X193</OUTCOME>
			<OUTCOME>X194</OUTCOME>
			<OUTCOME>X195</OUTCOME>
			<OUTCOME>X196</OUTCOME>
			<OUTCOME>X197</OUTCOME>
			<OUTCOME>X198</OUTCOME>
			<OUTCOME>X199</OUTCOME>
			<OUTCOME>X200</OUTCOME>
			<OUTCOME>X201</OUTCOME>
			<OUTCOME>X202</OUTCOME>
			<OUTCOME>X203</OUTCOME>
			<OUTCOME>X204</OUTCOME>
			<OUTCOME>X205</OUTCOME>
			<OUTCOME>X206</OUTCOME>
			<OUTCOME>X207</OUTCOME>
			<OUTCOME>X208</OUTCOME>
			<OUTCOME>X209</OUTCOME>
			<OUTCOME>X210</OUTCOME>
			<OUTCOME>X211</OUTCOME>
			<OUTCOME>X212</OUTCOME>
			<OUTCOME>X213</OUTCOME>
			<OUTCOME>X214</OUTCOME>
			<OUTCOME>X215</OUTCOME>
			<OUTCOME>X216</OUTCOME>
			<OUTCOME>X217</OUTCOME>
			<OUTCOME>X218</OUTCOME>
			<OUTCOME>X219</OUTCOME>
			<OUTCOME>X220</OUTCOME>
			<OUTCOME>X221</OUTCOME>
			<OUTCOME>X222</OUTCOME>
			<OUTCOME>X223</OUTCOME>
			<OUTCOME>X224</OUTCOME>
			<OUTCOME>X225</OUTCOME>
			<OUTCOME>X226</OUTCOME>
			<OUTCOME>X227</OUTCOME>
			<OUTCOME>X228</OUTCOME>
			<OUTCOME>X229</OUTCOME>
			<OUTCOME>X230</OUTCOME>
			<OUTCOME>X231</OUTCOME>
			<OUTCOME>X232</OUTCOME>
			<OUTCOME>X233</OUTCOME>
			<OUTCOME>X234</OUTCOME>
			<OUTCOME>X235</OUTCOME>
			<OUTCOME>X236</OUTCOME>
			<OUTCOME>X237</OUTCOME>
			<OUTCOME>X238</OUTCOME>
			<OUTCOME>X239</OUTCOME>
			<OUTCOME>X240</OUTCOME>
			<OUTCOME>X241</OUTCOME>
			<OUTCOME>X242</OUTCOME>
			<OUTCOME>X243</OUTCOME>
			<OUTCOME>X244</OUTCOME>
			<OUTCOME>X245</OUTCOME>
			<OUTCOME>X246</OUTCOME>
			<OUTCOME>X247</OUTCOME>
			<OUTCOME>X248</OUTCOME>
			<OUTCOME>X249</OUTCOME>
			<OUTCOME>X250</OUTCOME>
			<OUTCOME>X251</OUTCOME>
			<OUTCOME>X252</OUTCOME>
			<OUTCOME>X253</OUTCOME>
			<OUTCOME>X254</OUTCOME>
			<OUTCOME>X255</OUTCOME>
		</VARIABLE>
		<VARIABLE TYPE  = "nature">
			<NAME>SENSOR8</NAME>
		
			<OUTCOME>X0</OUTCOME>
			<OUTCOME>X1</OUTCOME>
			<OUTCOME>X2</OUTCOME>
			<OUTCOME>X3</OUTCOME>
			<OUTCOME>X4</OUTCOME>
			<OUTCOME>X5</OUTCOME>
			<OUTCOME>X6</OUTCOME>
			<OUTCOME>X7</OUTCOME>
			<OUTCOME>X8</OUTCOME>
			<OUTCOME>X9</OUTCOME>
			<OUTCOME>X10</OUTCOME>
			<OUTCOME>X11</OUTCOME>
			<OUTCOME>X12</OUTCOME>
			<OUTCOME>X13</OUTCOME>
			<OUTCOME>X14</OUTCOME>
			<OUTCOME>X15</OUTCOME>
			<OUTCOME>X16</OUTCOME>
			<OUTCOME>X17</OUTCOME>
			<OUTCOME>X18</OUTCOME>
			<OUTCOME>X19</OUTCOME>
			<OUTCOME>X20</OUTCOME>
			<OUTCOME>X21</OUTCOME>
			<OUTCOME>X22</OUTCOME>
			<OUTCOME>X23</OUTCOME>
			<OUTCOME>X24</OUTCOME>
			<OUTCOME>X25</OUTCOME>
			<OUTCOME>X26</OUTCOME>
			<OUTCOME>X27</OUTCOME>
			<OUTCOME>X28</OUTCOME>
			<OUTCOME>X29</OUTCOME>
			<OUTCOME>X30</OUTCOME>
			<OUTCOME>X31</OUTCOME>
			<OUTCOME>X32</OUTCOME>
			<OUTCOME>X33</OUTCOME>
			<OUTCOME>X34</OUTCOME>
			<OUTCOME>X35</OUTCOME>
			<OUTCOME>X36</OUTCOME>
			<OUTCOME>X37</OUTCOME>
			<OUTCOME>X38</OUTCOME>
			<OUTCOME>X39</OUTCOME>
			<OUTCOME>X40</OUTCOME>
			<OUTCOME>X41</OUTCOME>
			<OUTCOME>X42</OUTCOME>
			<OUTCOME>X43</OUTCOME>
			<OUTCOME>X44</OUTCOME>
			<OUTCOME>X45</OUTCOME>
			<OUTCOME>X46</OUTCOME>
			<OUTCOME>X47</OUTCOME>
			<OUTCOME>X48</OUTCOME>
			<OUTCOME>X49</OUTCOME>
			<OUTCOME>X50</OUTCOME>
			<OUTCOME>X51</OUTCOME>
			<OUTCOME>X52</OUTCOME>
			<OUTCOME>X53</OUTCOME>
			<OUTCOME>X54</OUTCOME>
			<OUTCOME>X55</OUTCOME>
			<OUTCOME>X56</OUTCOME>
			<OUTCOME>X57</OUTCOME>
			<OUTCOME>X58</OUTCOME>
			<OUTCOME>X59</OUTCOME>
			<OUTCOME>X60</OUTCOME>
			<OUTCOME>X61</OUTCOME>
			<OUTCOME>X62</OUTCOME>
			<OUTCOME>X63</OUTCOME>
			<OUTCOME>X64</OUTCOME>
			<OUTCOME>X65</OUTCOME>
			<OUTCOME>X66</OUTCOME>
			<OUTCOME>X67</OUTCOME>
			<OUTCOME>X68</OUTCOME>
			<OUTCOME>X69</OUTCOME>
			<OUTCOME>X70</OUTCOME>
			<OUTCOME>X71</OUTCOME>
			<OUTCOME>X72</OUTCOME>
			<OUTCOME>X73</OUTCOME>
			<OUTCOME>X74</OUTCOME>
			<OUTCOME>X75</OUTCOME>
			<OUTCOME>X76</OUTCOME>
			<OUTCOME>X77</OUTCOME>
			<OUTCOME>X78</OUTCOME>
			<OUTCOME>X79</OUTCOME>
			<OUTCOME>X80</OUTCOME>
			<OUTCOME>X81</OUTCOME>
			<OUTCOME>X82</OUTCOME>
			<OUTCOME>X83</OUTCOME>
			<OUTCOME>X84</OUTCOME>
			<OUTCOME>X85</OUTCOME>
			<OUTCOME>X86</OUTCOME>
			<OUTCOME>X87</OUTCOME>
			<OUTCOME>X88</OUTCOME>
			<OUTCOME>X89</OUTCOME>
			<OUTCOME>X90</OUTCOME>
			<OUTCOME>X91</OUTCOME>
			<OUTCOME>X92</OUTCOME>
			<OUTCOME>X93</OUTCOME>
			<OUTCOME>X94</OUTCOME>
			<OUTCOME>X95</OUTCOME>
			<OUTCOME>X96</OUTCOME>
			<OUTCOME>X97</OUTCOME>
			<OUTCOME>X98</OUTCOME>
			<OUTCOME>X99</OUTCOME>
			<OUTCOME>X100</OUTCOME>
			<OUTCOME>X101</OUTCOME>
			<OUTCOME>X102</OUTCOME>
			<OUTCOME>X103</OUTCOME>
			<OUTCOME>X104</OUTCOME>
			<OUTCOME>X105</OUTCOME>
			<OUTCOME>X106</OUTCOME>
			<OUTCOME>X107</OUTCOME>
			<OUTCOME>X108</OUTCOME>
			<OUTCOME>X109</OUTCOME>
			<OUTCOME>X110</OUTCOME>
			<OUTCOME>X111</OUTCOME>
			<OUTCOME>X112</OUTCOME>
			<OUTCOME>X113</OUTCOME>
			<OUTCOME>X114</OUTCOME>
			<OUTCOME>X115</OUTCOME>
			<OUTCOME>X116</OUTCOME>
			<OUTCOME>X117</OUTCOME>
			<OUTCOME>X118</OUTCOME>
			<OUTCOME>X119</OUTCOME>
			<OUTCOME>X120</OUTCOME>
			<OUTCOME>X121</OUTCOME>
			<OUTCOME>X122</OUTCOME>
			<OUTCOME>X123</OUTCOME>
			<OUTCOME>X124</OUTCOME>
			<OUTCOME>X125</OUTCOME>
			<OUTCOME>X126</OUTCOME>
			<OUTCOME>X127</OUTCOME>
			<OUTCOME>X128</OUTCOME>
			<OUTCOME>X129</OUTCOME>
			<OUTCOME>X130</OUTCOME>
			<OUTCOME>X131</OUTCOME>
			<OUTCOME>X132</OUTCOME>
			<OUTCOME>X133</OUTCOME>
			<OUTCOME>X134</OUTCOME>
			<OUTCOME>X135</OUTCOME>
			<OUTCOME>X136</OUTCOME>
			<OUTCOME>X137</OUTCOME>
			<OUTCOME>X138</OUTCOME>
			<OUTCOME>X139</OUTCOME>
			<OUTCOME>X140</OUTCOME>
			<OUTCOME>X141</OUTCOME>
			<OUTCOME>X142</OUTCOME>
			<OUTCOME>X143</OUTCOME>
			<OUTCOME>X144</OUTCOME>
			<OUTCOME>X145</OUTCOME>
			<OUTCOME>X146</OUTCOME>
			<OUTCOME>X147</OUTCOME>
			<OUTCOME>X148</OUTCOME>
			<OUTCOME>X149</OUTCOME>
			<OUTCOME>X150</OUTCOME>
			<OUTCOME>X151</OUTCOME>
			<OUTCOME>X152</OUTCOME>
			<OUTCOME>X153</OUTCOME>
			<OUTCOME>X154</OUTCOME>
			<OUTCOME>X155</OUTCOME>
			<OUTCOME>X156</OUTCOME>
			<OUTCOME>X157</OUTCOME>
			<OUTCOME>X158</OUTCOME>
			<OUTCOME>X159</OUTCOME>
			<OUTCOME>X160</OUTCOME>
			<OUTCOME>X161</OUTCOME>
			<OUTCOME>X162</OUTCOME>
			<OUTCOME>X163</OUTCOME>
			<OUTCOME>X164</OUTCOME>
			<OUTCOME>X165</OUTCOME>
			<OUTCOME>X166</OUTCOME>
			<OUTCOME>X167</OUTCOME>
			<OUTCOME>X168</OUTCOME>
			<OUTCOME>X169</OUTCOME>
			<OUTCOME>X170</OUTCOME>
			<OUTCOME>X171</OUTCOME>
			<OUTCOME>X172</OUTCOME>
			<OUTCOME>X173</OUTCOME>
			<OUTCOME>X174</OUTCOME>
			<OUTCOME>X175</OUTCOME>
			<OUTCOME>X176</OUTCOME>
			<OUTCOME>X177</OUTCOME>
			<OUTCOME>X178</OUTCOME>
			<OUTCOME>X179</OUTCOME>
			<OUTCOME>X180</OUTCOME>
			<OUTCOME>X181</OUTCOME>
			<OUTCOME>X182</OUTCOME>
			<OUTCOME>X183</OUTCOME>
			<OUTCOME>X184</OUTCOME>
			<OUTCOME>X185</OUTCOME>
			<OUTCOME>X186</OUTCOME>
			<OUTCOME>X187</OUTCOME>
			<OUTCOME>X188</OUTCOME>
			<OUTCOME>X189</OUTCOME>
			<OUTCOME>X190</OUTCOME>
			<OUTCOME>X191</OUTCOME>
			<OUTCOME>X192</OUTCOME>
			<OUTCOME>X193</OUTCOME>
			<OUTCOME>X194</OUTCOME>
			<OUTCOME>X195</OUTCOME>
			<OUTCOME>X196</OUTCOME>
			<OUTCOME>X197</OUTCOME>
			<OUTCOME>X198</OUTCOME>
			<OUTCOME>X199</OUTCOME>
			<OUTCOME>X200</OUTCOME>
			<OUTCOME>X201</OUTCOME>
			<OUTCOME>X202</OUTCOME>
			<OUTCOME>X203</OUTCOME>
			<OUTCOME>X204</OUTCOME>
			<OUTCOME>X205</OUTCOME>
			<OUTCOME>X206</OUTCOME>
			<OUTCOME>X207</OUTCOME>
			<OUTCOME>X208</OUTCOME>
			<OUTCOME>X209</OUTCOME>
			<OUTCOME>X210</OUTCOME>
			<OUTCOME>X211</OUTCOME>
			<OUTCOME>X212</OUTCOME>
			<OUTCOME>X213</OUTCOME>
			<OUTCOME>X214</OUTCOME>
			<OUTCOME>X215</OUTCOME>
			<OUTCOME>X216</OUTCOME>
			<OUTCOME>X217</OUTCOME>
			<OUTCOME>X218</OUTCOME>
			<OUTCOME>X219</OUTCOME>
			<OUTCOME>X220</OUTCOME>
			<OUTCOME>X221</OUTCOME>
			<OUTCOME>X222</OUTCOME>
			<OUTCOME>X223</OUTCOME>
			<OUTCOME>X224</OUTCOME>
			<OUTCOME>X225</OUTCOME>
			<OUTCOME>X226</OUTCOME>
			<OUTCOME>X227</OUTCOME>
			<OUTCOME>X228</OUTCOME>
			<OUTCOME>X229</OUTCOME>
			<OUTCOME>X230</OUTCOME>
			<OUTCOME>X231</OUTCOME>
			<OUTCOME>X232</OUTCOME>
			<OUTCOME>X233</OUTCOME>
			<OUTCOME>X234</OUTCOME>
			<OUTCOME>X235</OUTCOME>
			<OUTCOME>X236</OUTCOME>
			<OUTCOME>X237</OUTCOME>
			<OUTCOME>X238</OUTCOME>
			<OUTCOME>X239</OUTCOME>
			<OUTCOME>X240</OUTCOME>
			<OUTCOME>X241</OUTCOME>
			<OUTCOME>X242</OUTCOME>
			<OUTCOME>X243</OUTCOME>
			<OUTCOME>X244</OUTCOME>
			<OUTCOME>X245</OUTCOME>
			<OUTCOME>X246</OUTCOME>
			<OUTCOME>X247</OUTCOME>
			<OUTCOME>X248</OUTCOME>
			<OUTCOME>X249</OUTCOME>
			<OUTCOME>X250</OUTCOME>
			<OUTCOME>X251</OUTCOME>
			<OUTCOME>X252</OUTCOME>
			<OUTCOME>X253</OUTCOME>
			<OUTCOME>X254</OUTCOME>
			<OUTCOME>X255</OUTCOME>
		</VARIABLE>
		<VARIABLE TYPE  = "nature">
			<NAME>SENSOR9</NAME>
		
			<OUTCOME>X0</OUTCOME>
			<OUTCOME>X1</OUTCOME>
			<OUTCOME>X2</OUTCOME>
			<OUTCOME>X3</OUTCOME>
			<OUTCOME>X4</OUTCOME>
			<OUTCOME>X5</OUTCOME>
			<OUTCOME>X6</OUTCOME>
			<OUTCOME>X7</OUTCOME>
			<OUTCOME>X8</OUTCOME>
			<OUTCOME>X9</OUTCOME>
			<OUTCOME>X10</OUTCOME>
			<OUTCOME>X11</OUTCOME>
			<OUTCOME>X12</OUTCOME>
			<OUTCOME>X13</OUTCOME>
			<OUTCOME>X14</OUTCOME>
			<OUTCOME>X15</OUTCOME>
			<OUTCOME>X16</OUTCOME>
			<OUTCOME>X17</OUTCOME>
			<OUTCOME>X18</OUTCOME>
			<OUTCOME>X19</OUTCOME>
			<OUTCOME>X20</OUTCOME>
			<OUTCOME>X21</OUTCOME>
			<OUTCOME>X22</OUTCOME>
			<OUTCOME>X23</OUTCOME>
			<OUTCOME>X24</OUTCOME>
			<OUTCOME>X25</OUTCOME>
			<OUTCOME>X26</OUTCOME>
			<OUTCOME>X27</OUTCOME>
			<OUTCOME>X28</OUTCOME>
			<OUTCOME>X29</OUTCOME>
			<OUTCOME>X30</OUTCOME>
			<OUTCOME>X31</OUTCOME>
			<OUTCOME>X32</OUTCOME>
			<OUTCOME>X33</OUTCOME>
			<OUTCOME>X34</OUTCOME>
			<OUTCOME>X35</OUTCOME>
			<OUTCOME>X36</OUTCOME>
			<OUTCOME>X37</OUTCOME>
			<OUTCOME>X38</OUTCOME>
			<OUTCOME>X39</OUTCOME>
			<OUTCOME>X40</OUTCOME>
			<OUTCOME>X41</OUTCOME>
			<OUTCOME>X42</OUTCOME>
			<OUTCOME>X43</OUTCOME>
			<OUTCOME>X44</OUTCOME>
			<OUTCOME>X45</OUTCOME>
			<OUTCOME>X46</OUTCOME>
			<OUTCOME>X47</OUTCOME>
			<OUTCOME>X48</OUTCOME>
			<OUTCOME>X49</OUTCOME>
			<OUTCOME>X50</OUTCOME>
			<OUTCOME>X51</OUTCOME>
			<OUTCOME>X52</OUTCOME>
			<OUTCOME>X53</OUTCOME>
			<OUTCOME>X54</OUTCOME>
			<OUTCOME>X55</OUTCOME>
			<OUTCOME>X56</OUTCOME>
			<OUTCOME>X57</OUTCOME>
			<OUTCOME>X58</OUTCOME>
			<OUTCOME>X59</OUTCOME>
			<OUTCOME>X60</OUTCOME>
			<OUTCOME>X61</OUTCOME>
			<OUTCOME>X62</OUTCOME>
			<OUTCOME>X63</OUTCOME>
			<OUTCOME>X64</OUTCOME>
			<OUTCOME>X65</OUTCOME>
			<OUTCOME>X66</OUTCOME>
			<OUTCOME>X67</OUTCOME>
			<OUTCOME>X68</OUTCOME>
			<OUTCOME>X69</OUTCOME>
			<OUTCOME>X70</OUTCOME>
			<OUTCOME>X71</OUTCOME>
			<OUTCOME>X72</OUTCOME>
			<OUTCOME>X73</OUTCOME>
			<OUTCOME>X74</OUTCOME>
			<OUTCOME>X75</OUTCOME>
			<OUTCOME>X76</OUTCOME>
			<OUTCOME>X77</OUTCOME>
			<OUTCOME>X78</OUTCOME>
			<OUTCOME>X79</OUTCOME>
			<OUTCOME>X80</OUTCOME>
			<OUTCOME>X81</OUTCOME>
			<OUTCOME>X82</OUTCOME>
			<OUTCOME>X83</OUTCOME>
			<OUTCOME>X84</OUTCOME>
			<OUTCOME>X85</OUTCOME>
			<OUTCOME>X86</OUTCOME>
			<OUTCOME>X87</OUTCOME>
			<OUTCOME>X88</OUTCOME>
			<OUTCOME>X89</OUTCOME>
			<OUTCOME>X90</OUTCOME>
			<OUTCOME>X91</OUTCOME>
			<OUTCOME>X92</OUTCOME>
			<OUTCOME>X93</OUTCOME>
			<OUTCOME>X94</OUTCOME>
			<OUTCOME>X95</OUTCOME>
			<OUTCOME>X96</OUTCOME>
			<OUTCOME>X97</OUTCOME>
			<OUTCOME>X98</OUTCOME>
			<OUTCOME>X99</OUTCOME>
			<OUTCOME>X100</OUTCOME>
			<OUTCOME>X101</OUTCOME>
			<OUTCOME>X102</OUTCOME>
			<OUTCOME>X103</OUTCOME>
			<OUTCOME>X104</OUTCOME>
			<OUTCOME>X105</OUTCOME>
			<OUTCOME>X106</OUTCOME>
			<OUTCOME>X107</OUTCOME>
			<OUTCOME>X108</OUTCOME>
			<OUTCOME>X109</OUTCOME>
			<OUTCOME>X110</OUTCOME>
			<OUTCOME>X111</OUTCOME>
			<OUTCOME>X112</OUTCOME>
			<OUTCOME>X113</OUTCOME>
			<OUTCOME>X114</OUTCOME>
			<OUTCOME>X115</OUTCOME>
			<OUTCOME>X116</OUTCOME>
			<OUTCOME>X117</OUTCOME>
			<OUTCOME>X118</OUTCOME>
			<OUTCOME>X119</OUTCOME>
			<OUTCOME>X120</OUTCOME>
			<OUTCOME>X121</OUTCOME>
			<OUTCOME>X122</OUTCOME>
			<OUTCOME>X123</OUTCOME>
			<OUTCOME>X124</OUTCOME>
			<OUTCOME>X125</OUTCOME>
			<OUTCOME>X126</OUTCOME>
			<OUTCOME>X127</OUTCOME>
			<OUTCOME>X128</OUTCOME>
			<OUTCOME>X129</OUTCOME>
			<OUTCOME>X130</OUTCOME>
			<OUTCOME>X131</OUTCOME>
			<OUTCOME>X132</OUTCOME>
			<OUTCOME>X133</OUTCOME>
			<OUTCOME>X134</OUTCOME>
			<OUTCOME>X135</OUTCOME>
			<OUTCOME>X136</OUTCOME>
			<OUTCOME>X137</OUTCOME>
			<OUTCOME>X138</OUTCOME>
			<OUTCOME>X139</OUTCOME>
			<OUTCOME>X140</OUTCOME>
			<OUTCOME>X141</OUTCOME>
			<OUTCOME>X142</OUTCOME>
			<OUTCOME>X143</OUTCOME>
			<OUTCOME>X144</OUTCOME>
			<OUTCOME>X145</OUTCOME>
			<OUTCOME>X146</OUTCOME>
			<OUTCOME>X147</OUTCOME>
			<OUTCOME>X148</OUTCOME>
			<OUTCOME>X149</OUTCOME>
			<OUTCOME>X150</OUTCOME>
			<OUTCOME>X151</OUTCOME>
			<OUTCOME>X152</OUTCOME>
			<OUTCOME>X153</OUTCOME>
			<OUTCOME>X154</OUTCOME>
			<OUTCOME>X155</OUTCOME>
			<OUTCOME>X156</OUTCOME>
			<OUTCOME>X157</OUTCOME>
			<OUTCOME>X158</OUTCOME>
			<OUTCOME>X159</OUTCOME>
			<OUTCOME>X160</OUTCOME>
			<OUTCOME>X161</OUTCOME>
			<OUTCOME>X162</OUTCOME>
			<OUTCOME>X163</OUTCOME>
			<OUTCOME>X164</OUTCOME>
			<OUTCOME>X165</OUTCOME>
			<OUTCOME>X166</OUTCOME>
			<OUTCOME>X167</OUTCOME>
			<OUTCOME>X168</OUTCOME>
			<OUTCOME>X169</OUTCOME>
			<OUTCOME>X170</OUTCOME>
			<OUTCOME>X171</OUTCOME>
			<OUTCOME>X172</OUTCOME>
			<OUTCOME>X173</OUTCOME>
			<OUTCOME>X174</OUTCOME>
			<OUTCOME>X175</OUTCOME>
			<OUTCOME>X176</OUTCOME>
			<OUTCOME>X177</OUTCOME>
			<OUTCOME>X178</OUTCOME>
			<OUTCOME>X179</OUTCOME>
			<OUTCOME>X180</OUTCOME>
			<OUTCOME>X181</OUTCOME>
			<OUTCOME>X182</OUTCOME>
			<OUTCOME>X183</OUTCOME>
			<OUTCOME>X184</OUTCOME>
			<OUTCOME>X185</OUTCOME>
			<OUTCOME>X186</OUTCOME>
			<OUTCOME>X187</OUTCOME>
			<OUTCOME>X188</OUTCOME>
			<OUTCOME>X189</OUTCOME>
			<OUTCOME>X190</OUTCOME>
			<OUTCOME>X191</OUTCOME>
			<OUTCOME>X192</OUTCOME>
			<OUTCOME>X193</OUTCOME>
			<OUTCOME>X194</OUTCOME>
			<OUTCOME>X195</OUTCOME>
			<OUTCOME>X196</OUTCOME>
			<OUTCOME>X197</OUTCOME>
			<OUTCOME>X198</OUTCOME>
			<OUTCOME>X199</OUTCOME>
			<OUTCOME>X200</OUTCOME>
			<OUTCOME>X201</OUTCOME>
			<OUTCOME>X202</OUTCOME>
			<OUTCOME>X203</OUTCOME>
			<OUTCOME>X204</OUTCOME>
			<OUTCOME>X205</OUTCOME>
			<OUTCOME>X206</OUTCOME>
			<OUTCOME>X207</OUTCOME>
			<OUTCOME>X208</OUTCOME>
			<OUTCOME>X209</OUTCOME>
			<OUTCOME>X210</OUTCOME>
			<OUTCOME>X211</OUTCOME>
			<OUTCOME>X212</OUTCOME>
			<OUTCOME>X213</OUTCOME>
			<OUTCOME>X214</OUTCOME>
			<OUTCOME>X215</OUTCOME>
			<OUTCOME>X216</OUTCOME>
			<OUTCOME>X217</OUTCOME>
			<OUTCOME>X218</OUTCOME>
			<OUTCOME>X219</OUTCOME>
			<OUTCOME>X220</OUTCOME>
			<OUTCOME>X221</OUTCOME>
			<OUTCOME>X222</OUTCOME>
			<OUTCOME>X223</OUTCOME>
			<OUTCOME>X224</OUTCOME>
			<OUTCOME>X225</OUTCOME>
			<OUTCOME>X226</OUTCOME>
			<OUTCOME>X227</OUTCOME>
			<OUTCOME>X228</OUTCOME>
			<OUTCOME>X229</OUTCOME>
			<OUTCOME>X230</OUTCOME>
			<OUTCOME>X231</OUTCOME>
			<OUTCOME>X232</OUTCOME>
			<OUTCOME>X233</OUTCOME>
			<OUTCOME>X234</OUTCOME>
			<OUTCOME>X235</OUTCOME>
			<OUTCOME>X236</OUTCOME>
			<OUTCOME>X237</OUTCOME>
			<OUTCOME>X238</OUTCOME>
			<OUTCOME>X239</OUTCOME>
			<OUTCOME>X240</OUTCOME>
			<OUTCOME>X241</OUTCOME>
			<OUTCOME>X242</OUTCOME>
			<OUTCOME>X243</OUTCOME>
			<OUTCOME>X244</OUTCOME>
			<OUTCOME>X245</OUTCOME>
			<OUTCOME>X246</OUTCOME>
			<OUTCOME>X247</OUTCOME>
			<OUTCOME>X248</OUTCOME>
			<OUTCOME>X249</OUTCOME>
			<OUTCOME>X250</OUTCOME>
			<OUTCOME>X251</OUTCOME>
			<OUTCOME>X252</OUTCOME>
			<OUTCOME>X253</OUTCOME>
			<OUTCOME>X254</OUTCOME>
			<OUTCOME>X255</OUTCOME>
		</VARIABLE>
	<DEFINITION>
	<FOR>CLASS4</FOR>
		<TABLE>0.067 0.933</TABLE>
	</DEFINITION>
			
		<DEFINITION>
		<FOR>SENSOR1</FOR>
		<GIVEN>CLASS4</GIVEN>
		<TABLE> 3.562060116086113e-10 5.483429171706117e-10 8.397629236910165e-10 1.279424370441588e-09 1.939215198029731e-09 2.924090824518148e-09 4.386409510238026e-09 6.546074679151721e-09 9.718655798778973e-09 1.4354395614461988e-08 2.1091967151245416e-08 3.0832073011134494e-08 4.483754543608069e-08 6.48685810855524e-08 9.336421104709491e-08 1.3368415321716812e-07 1.9042891454746749e-07 2.698604989191044e-07 3.804514210283227e-07 5.335960018262123e-07 7.445251754653039e-07 1.0334742804748505e-06 1.4271624913262577e-06 1.960652546034325e-06 2.6796700166883934e-06 3.6434722043565466e-06 4.928367319884851e-06 6.6319942666688735e-06 8.878481205669006e-06 1.182460608402195e-05 1.5667083161606336e-05 2.065109478707675e-05 2.7080175592837706e-05 3.5327535107389106e-05 4.584887268187865e-05 5.919669380521834e-05 7.60360777323153e-05 9.716177161184564e-05 0.00012351639524530098 0.00015620943324869192 0.00019653656868827264 0.00024599877635438967 0.0003063204482120002 0.00037946567321598226 0.0004676516451857377 0.0005733580339624412 0.0006993310362587175 0.0008485807343147785 0.0010243703443945382 0.0012301959452870772 0.001469755350938003 0.0017469049415451345 0.00206560350224023 0.0024298424431179657 0.0028435621901418953 0.003310555039768078 0.003834355351823924 0.004418118600070144 0.005064491486582698 0.005775476027301036 0.006552291199212481 0.007395236367960194 0.008303561248906674 0.009275347555036152 0.01030740771348606 0.01139520605520618 0.012532807672383971 0.013712859678327879 0.014926608888461331 0.01616395897612035 0.017413568964311957 0.018662993530181592 0.019898864071995658 0.02110710788028074 0.022273201136079113 0.0233824499067857 0.024420291902397282 0.025372610568420263 0.026226052195274293 0.02696833617544131 0.027588548381079245 0.02807740789001406 0.028427497959911705 0.028633453220364202 0.028692096480735535 0.028602520278554137 0.02836611024315922 0.02798650943391455 0.027469524935735994 0.026822980058890528 0.026056517400303264 0.025181359693881238 0.024210036734923796 0.02315608765305371 0.02203374839373924 0.020857634436264882 0.01964242853336014 0.018402582632371853 0.017152042175613568 0.015903999738735405 0.014670683521606165 0.013463184633374037 0.012291325490691781 0.011163570051323266 0.010086975103488131 0.009067180483343078 0.008108434945538682 0.00721365349756049 0.006384501345901874 0.005621499195334759 0.004924144483074701 0.00429104319781519 0.0037200472009129727 0.0032083923985758442 0.0027528336711111893 0.002349773108250912 0.0019953787893889252 0.0016856920482783927 0.001416721841773576 0.0011845254754484068 0.000985275505291601 0.0008153131202591798 0.0006711887073144612 0.0005496906061976466 0.00044786327772957697 0.00036301624295904293 0.0002927252097531073 0.0002348267992498477 0.00018740822870050376 0.0001487932116095244 0.00011752521229831949 9.234905070301227e-05 7.219170371186267e-05 5.614299949442431e-05 4.343675731879029e-05 3.34327919651252e-05 2.5600082214610268e-05 1.9501298894936903e-05 1.47788003451286e-05 1.1142131762517165e-05 8.357008857023638e-06 6.235724214626541e-06 4.628885105752652e-06 3.4183723542969114e-06 2.5113994707854077e-06 1.8355477801903162e-06 1.334655111153825e-06 9.654413118889098e-07 6.947621779184909e-07 4.973932895219445e-07 3.5425593936199074e-07 2.5100815026992556e-07 1.7693427505136191e-07 1.2407651400221445e-07 8.656068012009843e-08 6.007658001063932e-08 4.1480425970895195e-08 2.8492770384984053e-08 1.9470612494070707e-08 1.3236647800214867e-08 8.952202094892179e-09 6.023309880133209e-09 4.031753767492594e-09 2.6847648837006327e-09 1.7785741728218805e-09 1.1721715300558346e-09 7.685353015242377e-10 5.012910347099274e-10 3.252891059190997e-10 2.0999191042892765e-10 1.3486183823504177e-10 8.616463448356092e-11 5.476744611881712e-11 3.463134779136604e-11 2.178561190195969e-11 1.3634009618911409e-11 8.488498848129886e-12 5.257649815481707e-12 3.239708115786812e-12 1.9859740783744407e-12 1.2111410717854809e-12 7.348003474730313e-13 4.4350389528584216e-13 2.6630479652305735e-13 1.5907942170288136e-13 9.453714507377431e-14 5.5891327759835226e-14 3.287303752179811e-14 1.9234845780708043e-14 1.1196725892920431e-14 6.484057369480523e-15 3.735563434698056e-15 2.1410107468149807e-15 1.2207733598742862e-15 6.924759649660525e-16 3.9077595173923443e-16 2.1938373165268487e-16 1.2252775434962212e-16 6.807975640039852e-17 3.7631798691735606e-17 2.0694046716954104e-17 1.1321118548336592e-17 6.161503728635996e-18 3.3360884588271066e-18 1.79697429388807e-18 9.629409054337834e-19 5.133468148487553e-19 2.722548168504147e-19 1.4364606625116972e-19 7.53989619931038e-20 3.9372270605141006e-20 2.0453565234286177e-20 1.057063418907965e-20 5.434837105803213e-21 2.7798763869916067e-21 1.4145486931994908e-21 7.160836927335471e-22 3.6063106150255412e-22 1.8068243770696832e-22 9.0057983204144e-23 4.465621984883396e-23 2.2029019233899008e-23 1.0810899537331785e-23 5.278152884771886e-24 2.563631293942206e-24 1.2387470338571993e-24 5.954744822067663e-25 2.847719098623058e-25 1.3548293770242983e-25 6.412472662027957e-26 3.019394870195316e-26 1.4143853968432626e-26 6.591269651422135e-27 3.0557924898317252e-27 1.4093929794785344e-27 6.466865271252925e-28 2.9519499304044556e-28 1.340533357546405e-28 6.056193299469093e-29 2.721919619573626e-29 1.2170385314716256e-29 5.413608246625264e-30 2.395646788053423e-30 1.054659362782459e-30 4.619075948045094e-31 2.0125721484927438e-31 8.723711166958772e-32 3.7618767483414523e-32 1.6138431065620059e-32 6.887657216547348e-33 2.9243894151596807e-33 1.2352428425227111e-33 5.190664433585178e-34 2.169936502152245e-34 9.024529357288599e-35 3.7338387905636306e-35 0.9999999996437939 0.9999999994516571 0.9999999991602371 0.9999999987205757 0.9999999980607848 0.9999999970759091 0.9999999956135905 0.9999999934539253 0.9999999902813442 0.9999999856456044 0.9999999789080328 0.999999969167927 0.9999999551624545 0.9999999351314189 0.999999906635789 0.9999998663158468 0.9999998095710855 0.999999730139501 0.999999619548579 0.9999994664039982 0.9999992554748245 0.9999989665257195 0.9999985728375087 0.999998039347454 0.9999973203299833 0.9999963565277956 0.9999950716326801 0.9999933680057334 0.9999911215187943 0.9999881753939159 0.9999843329168384 0.9999793489052129 0.9999729198244072 0.9999646724648926 0.9999541511273181 0.9999408033061948 0.9999239639222677 0.9999028382283881 0.9998764836047547 0.9998437905667513 0.9998034634313118 0.9997540012236457 0.999693679551788 0.999620534326784 0.9995323483548143 0.9994266419660376 0.9993006689637413 0.9991514192656852 0.9989756296556055 0.9987698040547129 0.998530244649062 0.9982530950584548 0.9979343964977597 0.997570157556882 0.9971564378098581 0.9966894449602319 0.996165644648176 0.9955818813999299 0.9949355085134173 0.994224523972699 0.9934477088007875 0.9926047636320398 0.9916964387510934 0.9907246524449639 0.989692592286514 0.9886047939447938 0.987467192327616 0.9862871403216721 0.9850733911115387 0.9838360410238797 0.982586431035688 0.9813370064698184 0.9801011359280043 0.9788928921197193 0.9777267988639209 0.9766175500932143 0.9755797080976027 0.9746273894315798 0.9737739478047257 0.9730316638245586 0.9724114516189207 0.9719225921099859 0.9715725020400883 0.9713665467796357 0.9713079035192644 0.9713974797214459 0.9716338897568407 0.9720134905660854 0.972530475064264 0.9731770199411095 0.9739434825996968 0.9748186403061188 0.9757899632650762 0.9768439123469463 0.9779662516062607 0.9791423655637351 0.9803575714666398 0.9815974173676282 0.9828479578243864 0.9840960002612646 0.9853293164783938 0.986536815366626 0.9877086745093082 0.9888364299486767 0.9899130248965119 0.9909328195166569 0.9918915650544613 0.9927863465024395 0.9936154986540982 0.9943785008046653 0.9950758555169253 0.9957089568021849 0.996279952799087 0.9967916076014242 0.9972471663288888 0.9976502268917491 0.9980046212106111 0.9983143079517216 0.9985832781582265 0.9988154745245515 0.9990147244947084 0.9991846868797408 0.9993288112926856 0.9994503093938023 0.9995521367222704 0.9996369837570409 0.9997072747902469 0.9997651732007502 0.9998125917712994 0.9998512067883905 0.9998824747877016 0.999907650949297 0.9999278082962881 0.9999438570005056 0.9999565632426812 0.9999665672080349 0.9999743999177854 0.9999804987011051 0.9999852211996548 0.9999888578682374 0.999991642991143 0.9999937642757853 0.9999953711148942 0.9999965816276457 0.9999974886005292 0.9999981644522198 0.9999986653448888 0.9999990345586881 0.9999993052378221 0.9999995026067104 0.9999996457440606 0.9999997489918497 0.999999823065725 0.999999875923486 0.9999999134393199 0.99999993992342 0.999999958519574 0.9999999715072296 0.9999999805293875 0.9999999867633522 0.9999999910477979 0.9999999939766901 0.9999999959682462 0.9999999973152351 0.9999999982214258 0.9999999988278284 0.9999999992314647 0.999999999498709 0.9999999996747109 0.9999999997900081 0.9999999998651382 0.9999999999138354 0.9999999999452326 0.9999999999653687 0.9999999999782144 0.999999999986366 0.9999999999915115 0.9999999999947423 0.9999999999967603 0.999999999998014 0.9999999999987889 0.9999999999992653 0.9999999999995565 0.9999999999997337 0.9999999999998409 0.9999999999999054 0.9999999999999442 0.9999999999999671 0.9999999999999808 0.9999999999999888 0.9999999999999936 0.9999999999999962 0.9999999999999979 0.9999999999999988 0.9999999999999993 0.9999999999999996 0.9999999999999998 0.9999999999999999 0.9999999999999999 1.0 1.0 1.0 1.0 1.0 1.0 1.0 1.0 1.0 1.0 1.0 1.0 1.0 1.0 1.0 1.0 1.0 1.0 1.0 1.0 1.0 1.0 1.0 1.0 1.0 1.0 1.0 1.0 1.0 1.0 1.0 1.0 1.0 1.0 1.0 1.0 1.0 1.0 1.0 1.0 1.0 1.0 1.0 1.0 1.0 1.0 1.0 1.0 1.0 1.0 1.0 1.0 1.0 1.0 1.0 1.0 1.0  </TABLE>
		</DEFINITION>
			
		<DEFINITION>
		<FOR>SENSOR2</FOR>
		<GIVEN>CLASS4</GIVEN>
		<TABLE> 8.491144160318647e-07 1.1347751619690204e-06 1.510281390546309e-06 2.001752426121604e-06 2.642209797598564e-06 3.4731910754018955e-06 4.5466811269718385e-06 5.927407153443973e-06 7.695546482008861e-06 9.949897667719152e-06 1.2811565617383264e-05 1.642820974628293e-05 2.0978900129616414e-05 2.6679619694216138e-05 3.3789440173866186e-05 4.2617385289860314e-05 5.3529975917150906e-05 6.695942842375465e-05 8.341244860426984e-05 0.00010347952949941319 0.00012784462193829904 0.00015729500214927753 0.000192731111853206 0.00023517609382408733 0.0002857846913064906 0.0003458511246585353 0.0004168155053039711 0.0005002682980934471 0.0005979523014275635 0.000711761583218192 0.0008437367933991681 0.0009960562737578434 0.0011710224067766962 0.0013710426901114912 0.0015986050949744622 0.0018562473670243587 0.0021465200584531376 0.0024719432397256676 0.002834957027465911 0.0032378662783958474 0.003682780033539054 0.004171546545995431 0.004705684981799143 0.005286315137574583 0.005914086760588523 0.006589110275171108 0.007310890902702513 0.008078268298842096 0.008889363910428162 0.009741538265721515 0.010631360347441636 0.01155459105278123 0.012506182515629906 0.013480294754275368 0.014470330717199295 0.015468990338330334 0.016468343693065973 0.017459922782815145 0.018434830887072776 0.019383867828855872 0.020297668924063456 0.021166854851004915 0.021982189205659898 0.022734740122452267 0.02341604205822359 0.024018253673986734 0.02453430771590331 0.024958048899718675 0.02528435604209476 0.025509245052724647 0.02562994989202642 0.02564497919460171 0.02555414693791056 0.025358576274429237 0.025060676416920665 0.024664093241891852 0.02417363502718749 0.023595175438430843 0.022935536500469898 0.02220235481236599 0.021403934670399014 0.020549092040759175 0.019646993465265956 0.01870699398849032 0.017738478067500334 0.016750707175715612 0.015752677454203872 0.014752990315076044 0.01375973838310182 0.01278040859566836 0.011821803690784507 0.010889982720639598 0.009990220655545523 0.009126986609006436 0.008303939735375685 0.00752394143990065 0.006789082206077834 0.006100721092522809 0.005459535782694454 0.004865580984055389 0.0043183529638091914 0.0038168580688882317 0.003359683199049926 0.002945066373069617 0.0025709657376152793 0.002235125604770692 0.0019351383559758552 0.0016685013067742128 0.0014326678787131655 0.0012250926639338913 0.0010432701878500294 0.0008847673709096884 0.0007472498584239698 0.0006285025260118072 0.0005264445769197299 0.00043913972708768776 0.0003648020260957199 0.0003017978895509887 0.0002486449241092568 0.00020400811354453056 0.0001666939065939646 0.00013564270818752525 0.00010992022842781467 8.870809134249493e-05 7.129405066568557e-05 5.7062104993512674e-05 4.548275146296326e-05 3.610356706748477e-05 2.8540260897660543e-05 2.2468299670233722e-05 1.761517325561637e-05 1.375333663574626e-05 1.0693839705454022e-05 8.280636287702984e-06 6.385548260921357e-06 4.903849310602042e-06 3.7504249900991862e-06 2.8564609675519716e-06 2.1666090195512193e-06 1.6365800102402129e-06 1.2311143127781283e-06 9.222824853058652e-07 6.88072157496031e-07 5.112207237515409e-07 3.7825733607737955e-07 2.787216543925709e-07 2.0453070028199375e-07 1.4946886687535978e-07 1.0877959101580918e-07 7.884035003897696e-08 5.690548231473231e-08 4.0903843318016356e-08 2.928050524414197e-08 2.0873604918826803e-08 1.4819064718190535e-08 1.0477280543280603e-08 7.377017160850187e-09 5.172701974923865e-09 3.6120900055088943e-09 2.5119102166138634e-09 1.7396188457969076e-09 1.1997991172218518e-09 8.240762823395412e-10 5.636775451650467e-10 3.839710635133086e-10 2.6047779184309276e-10 1.7597353126307132e-10 1.183936580555132e-10 7.932571078693173e-11 5.293025030821262e-11 3.517210540617706e-11 2.327540394514595e-11 1.5339123018853986e-11 1.0067190266602425e-11 6.579917760901852e-12 4.282891744504439e-12 2.7762474422288152e-12 1.79218850870552e-12 1.1521622665746896e-12 7.376460993004367e-13 4.703129044800307e-13 2.986277641670202e-13 1.888330087465254e-13 1.189132053661772e-13 7.457387346447114e-14 4.657445265706739e-14 2.896764974703962e-14 1.7942510304341795e-14 1.106770540045856e-14 6.7988650273643456e-15 4.159294685493124e-15 2.534004638063937e-15 1.5374449078682283e-15 9.289581773117718e-16 5.589812034183218e-16 3.349675133797251e-16 1.998999184416817e-16 1.188028850233122e-16 7.031464690058613e-17 4.1444705299395417e-17 2.4327459272477123e-17 1.422095935425555e-17 8.278763548487737e-18 4.799616140214202e-18 2.7710985692083736e-18 1.5933158842155725e-18 9.123389998540168e-19 5.202535317300863e-19 2.9544611038005095e-19 1.6708826871351821e-19 9.410616686994571e-20 5.278307066507603e-20 2.948327084954494e-20 1.6400652059879997e-20 9.085545566473703e-21 5.012395705080814e-21 2.7538744085104894e-21 1.5067713501336037e-21 8.210224266600706e-22 4.455199224610543e-22 2.40759637633646e-22 1.2957006462253128e-22 6.94432619021211e-23 3.706465756743259e-23 1.970127415429089e-23 1.042876976178528e-23 5.497639868109751e-24 2.8861834874562226e-24 1.5089541044838954e-24 7.856562440602742e-25 4.073742227288036e-25 2.1035796747124657e-25 1.0817547967596114e-25 5.539915443039232e-26 2.825412649068578e-26 1.435043536247127e-26 7.25859744117507e-27 3.6563249698720744e-27 1.8341772740332018e-27 9.163096715813138e-28 4.558769936878971e-28 2.258694651077033e-28 1.114478805704495e-28 5.476341807390723e-29 2.679869973424446e-29 1.3059944794000314e-29 6.338308919714854e-30 3.063443719326238e-30 1.4745206276941572e-30 7.067995129675454e-31 3.374007730939509e-31 1.6039851671107762e-31 7.593798428462084e-32 3.580323134457436e-32 1.6810855967180185e-32 7.860711772084594e-33 0.999999150885584 0.999998865224838 0.9999984897186095 0.9999979982475738 0.9999973577902024 0.9999965268089246 0.9999954533188731 0.9999940725928466 0.9999923044535179 0.9999900501023323 0.9999871884343826 0.9999835717902538 0.9999790210998704 0.9999733203803057 0.9999662105598262 0.9999573826147101 0.9999464700240829 0.9999330405715763 0.9999165875513957 0.9998965204705006 0.9998721553780617 0.9998427049978508 0.9998072688881467 0.9997648239061759 0.9997142153086935 0.9996541488753414 0.9995831844946961 0.9994997317019065 0.9994020476985724 0.9992882384167818 0.9991562632066008 0.9990039437262421 0.9988289775932233 0.9986289573098885 0.9984013949050256 0.9981437526329756 0.9978534799415468 0.9975280567602743 0.997165042972534 0.9967621337216042 0.9963172199664609 0.9958284534540046 0.9952943150182009 0.9947136848624254 0.9940859132394114 0.9934108897248289 0.9926891090972975 0.9919217317011579 0.9911106360895718 0.9902584617342785 0.9893686396525584 0.9884454089472188 0.98749381748437 0.9865197052457246 0.9855296692828007 0.9845310096616696 0.9835316563069341 0.9825400772171848 0.9815651691129272 0.9806161321711442 0.9797023310759365 0.9788331451489951 0.9780178107943401 0.9772652598775478 0.9765839579417764 0.9759817463260133 0.9754656922840967 0.9750419511002814 0.9747156439579052 0.9744907549472753 0.9743700501079736 0.9743550208053983 0.9744458530620894 0.9746414237255707 0.9749393235830793 0.9753359067581081 0.9758263649728125 0.9764048245615692 0.9770644634995301 0.977797645187634 0.978596065329601 0.9794509079592408 0.980353006534734 0.9812930060115097 0.9822615219324997 0.9832492928242844 0.9842473225457962 0.985247009684924 0.9862402616168982 0.9872195914043317 0.9881781963092154 0.9891100172793604 0.9900097793444544 0.9908730133909935 0.9916960602646243 0.9924760585600994 0.9932109177939221 0.9938992789074772 0.9945404642173056 0.9951344190159446 0.9956816470361908 0.9961831419311118 0.9966403168009501 0.9970549336269304 0.9974290342623847 0.9977648743952293 0.9980648616440242 0.9983314986932258 0.9985673321212868 0.9987749073360661 0.99895672981215 0.9991152326290903 0.999252750141576 0.9993714974739882 0.9994735554230803 0.9995608602729124 0.9996351979739043 0.999698202110449 0.9997513550758907 0.9997959918864555 0.999833306093406 0.9998643572918124 0.9998900797715722 0.9999112919086575 0.9999287059493344 0.9999429378950064 0.999954517248537 0.9999638964329325 0.9999714597391023 0.9999775317003298 0.9999823848267444 0.9999862466633642 0.9999893061602946 0.9999917193637123 0.9999936144517391 0.9999950961506894 0.9999962495750099 0.9999971435390325 0.9999978333909805 0.9999983634199897 0.9999987688856872 0.9999990777175147 0.9999993119278425 0.9999994887792762 0.9999996217426639 0.9999997212783456 0.9999997954692997 0.9999998505311332 0.999999891220409 0.99999992115965 0.9999999430945177 0.9999999590961567 0.9999999707194948 0.999999979126395 0.9999999851809352 0.9999999895227194 0.9999999926229829 0.9999999948272981 0.99999999638791 0.9999999974880898 0.9999999982603811 0.9999999988002009 0.9999999991759237 0.9999999994363225 0.9999999996160289 0.9999999997395222 0.9999999998240264 0.9999999998816064 0.9999999999206743 0.9999999999470698 0.9999999999648279 0.9999999999767246 0.9999999999846608 0.9999999999899328 0.99999999999342 0.9999999999957171 0.9999999999972238 0.9999999999982078 0.9999999999988478 0.9999999999992624 0.9999999999995297 0.9999999999997014 0.9999999999998112 0.9999999999998811 0.9999999999999254 0.9999999999999534 0.999999999999971 0.999999999999982 0.9999999999999889 0.9999999999999932 0.9999999999999959 0.9999999999999974 0.9999999999999984 0.9999999999999991 0.9999999999999994 0.9999999999999997 0.9999999999999998 0.9999999999999999 0.9999999999999999 1.0 1.0 1.0 1.0 1.0 1.0 1.0 1.0 1.0 1.0 1.0 1.0 1.0 1.0 1.0 1.0 1.0 1.0 1.0 1.0 1.0 1.0 1.0 1.0 1.0 1.0 1.0 1.0 1.0 1.0 1.0 1.0 1.0 1.0 1.0 1.0 1.0 1.0 1.0 1.0 1.0 1.0 1.0 1.0 1.0 1.0 1.0 1.0 1.0 1.0 1.0 1.0 1.0 1.0 1.0 1.0 1.0  </TABLE>
		</DEFINITION>
			
		<DEFINITION>
		<FOR>SENSOR3</FOR>
		<GIVEN>CLASS4</GIVEN>
		<TABLE> 0.000608497415926749 0.0006675455114037546 0.0007313243316067275 0.0008001034938608363 0.0008741567429947865 0.0009537607765992218 0.0010391939396875176 0.0011307347878450143 0.0012286605191804449 0.0013332452767291698 0.001444758324394428 0.0015634621010407435 0.0016896101589613116 0.0018234449946148972 0.001965195781251727 0.002115076014804197 0.0022732810861871506 0.0024399857949125303 0.002615341820651196 0.0027994751710461907 0.0029924836256712225 0.003194434197509332 0.0034053606346729267 0.0036252609862709733 0.0038540952573258296 0.004091783178425535 0.004338202116343189 0.004593185152141042 0.00485651935328271 0.005127944265985163 0.005407150653438301 0.005693779504593072 0.005987421336962241 0.006287615815288235 0.006593851706011569 0.006905567185227763 0.007222150515261599 0.007542941102131161 0.007867230943041866 0.008194266469668346 0.008523250789380769 0.008853346322786818 0.009183677832031108 0.009513335830262518 0.009841380358594103 0.010166845112787851 0.010488741897849162 0.010806065384765376 0.011117798139821698 0.011422915893329093 0.011720393011253202 0.012009208130190832 0.012288349913447823 0.012556822883672263 0.012813653285629452 0.013057894931303533 0.013288634978604136 0.01350499959456688 0.013706159454080104 0.01389133502585523 0.014059801598586483 0.014210894002011035 0.014344010979869766 0.014458619174560691 0.014554256686543978 0.014630536175264127 0.014687147472460424 0.014723859683193839 0.014740522754674888 0.014737068497976092 0.01471351105289378 0.01466994679152461 0.014606553661476876 0.01452358997498036 0.014421392655425158 0.01430037495798568 0.014161023685908344 0.014003895928701306 0.01382961535280661 0.013638868079308787 0.013432398186793908 0.013211002880580544 0.012975527372166132 0.012726859514843581 0.01246592424302503 0.012193677863851853 0.011911102250168518 0.011619198983897242 0.011318983498281124 0.011011479266384202 0.01069771208167188 0.010378704474475088 0.010055470305702186 0.009729009576344753 0.009400303488171436 0.009070309787565874 0.008739958420790742 0.008410147525101537 0.008081739776144199 0.007755559108001786 0.007432387818159856 0.007112964065587484 0.0067979797661296215 0.006488078885521745 0.006183856126611356 0.005885856003841028 0.005594572294747948 0.005310447855194659 0.00503387478228928 0.004765194906500369 0.004504700592336489 0.004252635825152833 0.004009197560171869 0.0037745373086619694 0.003548762935402933 0.0033319406410721544 0.003124097102997215 0.0029252217478249035 0.0027352691300341694 0.0025541613908505074 0.0023817907729786736 0.002218022167634713 0.0020626956716013776 0.00191562913342658 0.0017766206694058851 0.0016454511316106135 0.0015218865119168493 0.0014056802677323377 0.0012965755568838603 0.0011943073708946688 0.0010986045576288803 0.0010091917259883625 0.0009257910270003581 0.000848123807215844 0.0007759121318363821 0.0007088801763902097 0.0006467554870777573 0.0005892701110960612 0.0005361615993259826 0.00048717388472300154 0.00044205804059061003 0.00040057292363565616 0.00036248570730946177 0.0003275723114306222 0.00029561773446964024 0.0002664162951575283 0.00023977179026657674 0.00021549757550863428 0.00019341657651196013 0.00017336123677979553 0.00015517340941022492 0.0001387041991757338 0.00012381376133004386 0.0001103710632371488 9.82536146104846e-05 8.734717181604803e-05 7.754542133877599e-05 6.874964714293913e-05 6.086838628047703e-05 5.3817076721382275e-05 4.7517701002161455e-05 4.189842891622757e-05 3.689326210743699e-05 3.244168307797114e-05 2.8488310786935906e-05 2.498256469849188e-05 2.187833883964174e-05 1.9133687149159846e-05 1.6710521141334938e-05 1.45743206716197e-05 1.2693858376040403e-05 1.1040938162122117e-05 9.590147955696305e-06 8.318626754632213e-06 7.20584590645529e-06 6.2334044110258315e-06 5.384837950885937e-06 4.645441269396885e-06 4.002103449186506e-06 3.4431555894801966e-06 2.9582303393673547e-06 2.5381327137324403e-06 2.174721598260609e-06 1.8608013384520956e-06 1.5900228038400024e-06 1.3567933215512138e-06 1.1561948819949749e-06 9.839100328907506e-07 8.361548952118016e-07 7.096187551515745e-07 6.014097092180659e-07 5.09005864400246e-07 4.3021162147426803e-07 3.631185964362437e-07 3.0607076233805117e-07 2.576334210976558e-07 2.165656418469922e-07 1.8179582881091798e-07 1.5240010736995906e-07 1.2758324167976455e-07 1.0666182087206985e-07 8.904947335003782e-08 7.424388994958632e-08 6.181545672804807e-08 5.13973168449277e-08 4.2676698418137016e-08 3.538736139022509e-08 2.930303135297679e-08 2.423170199590114e-08 2.001070041318794e-08 1.6502420979336214e-08 1.3590643944756819e-08 1.11773643708655e-08 9.18006558256144e-09 7.529379027892718e-09 6.167079362892896e-09 5.0443697854310705e-09 4.120418184892693e-09 3.3611096116290655e-09 2.7379849556541257e-09 2.2273396093005816e-09 1.8094593216001813e-09 1.4679734779194772e-09 1.1893086985145874e-09 9.622279826066159e-10 7.774426656298982e-10 6.272862387476468e-10 5.054406309492685e-10 4.06706901681558e-10 3.2681346008126935e-10 2.6225593711481723e-10 2.1016370869743725e-10 1.6818881849524923e-10 1.3441369404574924e-10 1.0727460276606073e-10 8.549826747576159e-11 6.804946493500645e-11 5.408777499331125e-11 4.2931940506873993e-11 3.403054642492925e-11 2.6937936658227984e-11 2.129446499598023e-11 1.6810326177270853e-11 1.3252339355283706e-11 1.0433162161588144e-11 8.202502434245844e-12 6.43996903781447e-12 5.049265320304739e-12 3.95348054046822e-12 3.0912776945499764e-12 2.4138119667122235e-12 1.8822437031795025e-12 1.4657343673408659e-12 1.139834217079604e-12 8.851871693889917e-13 6.864920806714571e-13 0.9993915025840733 0.9993324544885962 0.9992686756683933 0.9991998965061392 0.9991258432570053 0.9990462392234007 0.9989608060603125 0.998869265212155 0.9987713394808195 0.9986667547232708 0.9985552416756056 0.9984365378989593 0.9983103898410387 0.9981765550053852 0.9980348042187482 0.9978849239851958 0.9977267189138128 0.9975600142050874 0.9973846581793488 0.9972005248289538 0.9970075163743288 0.9968055658024907 0.9965946393653271 0.996374739013729 0.9961459047426742 0.9959082168215745 0.9956617978836568 0.995406814847859 0.9951434806467173 0.9948720557340148 0.9945928493465617 0.994306220495407 0.9940125786630377 0.9937123841847118 0.9934061482939884 0.9930944328147723 0.9927778494847384 0.9924570588978688 0.9921327690569581 0.9918057335303316 0.9914767492106192 0.9911466536772132 0.9908163221679689 0.9904866641697375 0.990158619641406 0.9898331548872121 0.9895112581021508 0.9891939346152346 0.9888822018601783 0.9885770841066709 0.9882796069887468 0.9879907918698092 0.9877116500865522 0.9874431771163278 0.9871863467143706 0.9869421050686965 0.9867113650213959 0.9864950004054331 0.9862938405459198 0.9861086649741447 0.9859401984014136 0.985789105997989 0.9856559890201302 0.9855413808254393 0.985445743313456 0.9853694638247359 0.9853128525275395 0.9852761403168062 0.9852594772453251 0.9852629315020239 0.9852864889471062 0.9853300532084754 0.9853934463385231 0.9854764100250196 0.9855786073445748 0.9856996250420144 0.9858389763140917 0.9859961040712987 0.9861703846471934 0.9863611319206912 0.9865676018132061 0.9867889971194195 0.9870244726278339 0.9872731404851565 0.9875340757569749 0.9878063221361482 0.9880888977498314 0.9883808010161027 0.9886810165017189 0.9889885207336158 0.9893022879183281 0.9896212955255249 0.9899445296942978 0.9902709904236553 0.9905996965118286 0.9909296902124342 0.9912600415792092 0.9915898524748985 0.9919182602238558 0.9922444408919983 0.9925676121818402 0.9928870359344125 0.9932020202338704 0.9935119211144783 0.9938161438733887 0.9941141439961589 0.9944054277052521 0.9946895521448054 0.9949661252177108 0.9952348050934996 0.9954952994076635 0.9957473641748472 0.9959908024398282 0.996225462691338 0.996451237064597 0.9966680593589279 0.9968759028970028 0.997074778252175 0.9972647308699658 0.9974458386091495 0.9976182092270214 0.9977819778323653 0.9979373043283987 0.9980843708665734 0.9982233793305941 0.9983545488683894 0.9984781134880831 0.9985943197322676 0.9987034244431161 0.9988056926291053 0.9989013954423711 0.9989908082740117 0.9990742089729996 0.9991518761927841 0.9992240878681636 0.9992911198236097 0.9993532445129223 0.9994107298889039 0.999463838400674 0.999512826115277 0.9995579419594094 0.9995994270763643 0.9996375142926905 0.9996724276885693 0.9997043822655304 0.9997335837048424 0.9997602282097334 0.9997845024244914 0.999806583423488 0.9998266387632202 0.9998448265905898 0.9998612958008243 0.9998761862386699 0.9998896289367628 0.9999017463853895 0.999912652828184 0.9999224545786612 0.999931250352857 0.9999391316137195 0.9999461829232786 0.9999524822989978 0.9999581015710838 0.9999631067378926 0.9999675583169221 0.999971511689213 0.9999750174353015 0.9999781216611604 0.9999808663128509 0.9999832894788586 0.9999854256793284 0.999987306141624 0.9999889590618378 0.9999904098520443 0.9999916813732453 0.9999927941540936 0.999993766595589 0.9999946151620491 0.9999953545587306 0.9999959978965508 0.9999965568444105 0.9999970417696606 0.9999974618672862 0.9999978252784018 0.9999981391986615 0.9999984099771961 0.9999986432066784 0.999998843805118 0.9999990160899671 0.9999991638451048 0.9999992903812448 0.9999993985902907 0.9999994909941357 0.9999995697883786 0.9999996368814036 0.9999996939292377 0.9999997423665788 0.9999997834343581 0.9999998182041712 0.9999998475998926 0.9999998724167584 0.9999998933381792 0.9999999109505266 0.9999999257561101 0.9999999381845432 0.9999999486026832 0.9999999573233016 0.9999999646126386 0.9999999706969687 0.999999975768298 0.9999999799892996 0.999999983497579 0.9999999864093561 0.9999999888226356 0.9999999908199344 0.999999992470621 0.9999999938329206 0.9999999949556302 0.9999999958795818 0.9999999966388904 0.999999997262015 0.9999999977726604 0.9999999981905406 0.9999999985320265 0.9999999988106913 0.999999999037772 0.9999999992225573 0.9999999993727138 0.9999999994945594 0.9999999995932931 0.9999999996731865 0.9999999997377441 0.9999999997898363 0.9999999998318112 0.9999999998655863 0.9999999998927254 0.9999999999145017 0.9999999999319505 0.9999999999459123 0.999999999957068 0.9999999999659694 0.9999999999730621 0.9999999999787056 0.9999999999831897 0.9999999999867477 0.9999999999895668 0.9999999999917975 0.99999999999356 0.9999999999949507 0.9999999999960465 0.9999999999969087 0.9999999999975862 0.9999999999981177 0.9999999999985343 0.9999999999988601 0.9999999999991148 0.9999999999993135  </TABLE>
		</DEFINITION>
			
		<DEFINITION>
		<FOR>SENSOR4</FOR>
		<GIVEN>CLASS4</GIVEN>
