<?xml version="1.0" encoding="US-ASCII"?>
 
 
 <!--
 	Bayesian network in XMLBIF v0.3 (BayesNet Interchange Format)
 	Produced by JavaBayes (http://www.cs.cmu.edu/~javabayes/
 	Output created Mon Nov 02 22:40:12**8 GMT-03:00 1998
 -->

 
 
 <!-- DTD for the XMLBIF 0.3 format -->
 <!DOCTYPE BIF [
 	<!ELEMENT BIF ( NETWORK )*>
 	      <!ATTLIST BIF VERSION CDATA #REQUIRED>
 	<!ELEMENT NETWORK ( NAME, ( PROPERTY | VARIABLE | DEFINITION )* )>
 	<!ELEMENT NAME (#PCDATA)>
 	<!ELEMENT VARIABLE ( NAME, ( OUTCOME |  PROPERTY )* ) >
 	      <!ATTLIST VARIABLE TYPE (nature|decision|utility) "nature">
 	<!ELEMENT OUTCOME (#PCDATA)>
 	<!ELEMENT DEFINITION ( FOR | GIVEN | TABLE | PROPERTY )* >
 	<!ELEMENT FOR (#PCDATA)>
 	<!ELEMENT GIVEN (#PCDATA)>
 	<!ELEMENT TABLE (#PCDATA)>
 	<!ELEMENT PROPERTY (#PCDATA)>
 ]>
 
 
 <BIF VERSION="0.3">
 <NETWORK>
	<NAME>NAIVE_BAYES_MODEL</NAME>
	<VARIABLE TYPE  = "nature">
		<NAME>CLASS6</NAME>
		<OUTCOME>true</OUTCOME>
		<OUTCOME>false</OUTCOME>
	</VARIABLE>
		<VARIABLE TYPE  = "nature">
			<NAME>SENSOR1</NAME>
		
			<OUTCOME>X0</OUTCOME>
			<OUTCOME>X1</OUTCOME>
			<OUTCOME>X2</OUTCOME>
			<OUTCOME>X3</OUTCOME>
			<OUTCOME>X4</OUTCOME>
			<OUTCOME>X5</OUTCOME>
			<OUTCOME>X6</OUTCOME>
			<OUTCOME>X7</OUTCOME>
			<OUTCOME>X8</OUTCOME>
			<OUTCOME>X9</OUTCOME>
			<OUTCOME>X10</OUTCOME>
			<OUTCOME>X11</OUTCOME>
			<OUTCOME>X12</OUTCOME>
			<OUTCOME>X13</OUTCOME>
			<OUTCOME>X14</OUTCOME>
			<OUTCOME>X15</OUTCOME>
			<OUTCOME>X16</OUTCOME>
			<OUTCOME>X17</OUTCOME>
			<OUTCOME>X18</OUTCOME>
			<OUTCOME>X19</OUTCOME>
			<OUTCOME>X20</OUTCOME>
			<OUTCOME>X21</OUTCOME>
			<OUTCOME>X22</OUTCOME>
			<OUTCOME>X23</OUTCOME>
			<OUTCOME>X24</OUTCOME>
			<OUTCOME>X25</OUTCOME>
			<OUTCOME>X26</OUTCOME>
			<OUTCOME>X27</OUTCOME>
			<OUTCOME>X28</OUTCOME>
			<OUTCOME>X29</OUTCOME>
			<OUTCOME>X30</OUTCOME>
			<OUTCOME>X31</OUTCOME>
			<OUTCOME>X32</OUTCOME>
			<OUTCOME>X33</OUTCOME>
			<OUTCOME>X34</OUTCOME>
			<OUTCOME>X35</OUTCOME>
			<OUTCOME>X36</OUTCOME>
			<OUTCOME>X37</OUTCOME>
			<OUTCOME>X38</OUTCOME>
			<OUTCOME>X39</OUTCOME>
			<OUTCOME>X40</OUTCOME>
			<OUTCOME>X41</OUTCOME>
			<OUTCOME>X42</OUTCOME>
			<OUTCOME>X43</OUTCOME>
			<OUTCOME>X44</OUTCOME>
			<OUTCOME>X45</OUTCOME>
			<OUTCOME>X46</OUTCOME>
			<OUTCOME>X47</OUTCOME>
			<OUTCOME>X48</OUTCOME>
			<OUTCOME>X49</OUTCOME>
			<OUTCOME>X50</OUTCOME>
			<OUTCOME>X51</OUTCOME>
			<OUTCOME>X52</OUTCOME>
			<OUTCOME>X53</OUTCOME>
			<OUTCOME>X54</OUTCOME>
			<OUTCOME>X55</OUTCOME>
			<OUTCOME>X56</OUTCOME>
			<OUTCOME>X57</OUTCOME>
			<OUTCOME>X58</OUTCOME>
			<OUTCOME>X59</OUTCOME>
			<OUTCOME>X60</OUTCOME>
			<OUTCOME>X61</OUTCOME>
			<OUTCOME>X62</OUTCOME>
			<OUTCOME>X63</OUTCOME>
			<OUTCOME>X64</OUTCOME>
			<OUTCOME>X65</OUTCOME>
			<OUTCOME>X66</OUTCOME>
			<OUTCOME>X67</OUTCOME>
			<OUTCOME>X68</OUTCOME>
			<OUTCOME>X69</OUTCOME>
			<OUTCOME>X70</OUTCOME>
			<OUTCOME>X71</OUTCOME>
			<OUTCOME>X72</OUTCOME>
			<OUTCOME>X73</OUTCOME>
			<OUTCOME>X74</OUTCOME>
			<OUTCOME>X75</OUTCOME>
			<OUTCOME>X76</OUTCOME>
			<OUTCOME>X77</OUTCOME>
			<OUTCOME>X78</OUTCOME>
			<OUTCOME>X79</OUTCOME>
			<OUTCOME>X80</OUTCOME>
			<OUTCOME>X81</OUTCOME>
			<OUTCOME>X82</OUTCOME>
			<OUTCOME>X83</OUTCOME>
			<OUTCOME>X84</OUTCOME>
			<OUTCOME>X85</OUTCOME>
			<OUTCOME>X86</OUTCOME>
			<OUTCOME>X87</OUTCOME>
			<OUTCOME>X88</OUTCOME>
			<OUTCOME>X89</OUTCOME>
			<OUTCOME>X90</OUTCOME>
			<OUTCOME>X91</OUTCOME>
			<OUTCOME>X92</OUTCOME>
			<OUTCOME>X93</OUTCOME>
			<OUTCOME>X94</OUTCOME>
			<OUTCOME>X95</OUTCOME>
			<OUTCOME>X96</OUTCOME>
			<OUTCOME>X97</OUTCOME>
			<OUTCOME>X98</OUTCOME>
			<OUTCOME>X99</OUTCOME>
			<OUTCOME>X100</OUTCOME>
			<OUTCOME>X101</OUTCOME>
			<OUTCOME>X102</OUTCOME>
			<OUTCOME>X103</OUTCOME>
			<OUTCOME>X104</OUTCOME>
			<OUTCOME>X105</OUTCOME>
			<OUTCOME>X106</OUTCOME>
			<OUTCOME>X107</OUTCOME>
			<OUTCOME>X108</OUTCOME>
			<OUTCOME>X109</OUTCOME>
			<OUTCOME>X110</OUTCOME>
			<OUTCOME>X111</OUTCOME>
			<OUTCOME>X112</OUTCOME>
			<OUTCOME>X113</OUTCOME>
			<OUTCOME>X114</OUTCOME>
			<OUTCOME>X115</OUTCOME>
			<OUTCOME>X116</OUTCOME>
			<OUTCOME>X117</OUTCOME>
			<OUTCOME>X118</OUTCOME>
			<OUTCOME>X119</OUTCOME>
			<OUTCOME>X120</OUTCOME>
			<OUTCOME>X121</OUTCOME>
			<OUTCOME>X122</OUTCOME>
			<OUTCOME>X123</OUTCOME>
			<OUTCOME>X124</OUTCOME>
			<OUTCOME>X125</OUTCOME>
			<OUTCOME>X126</OUTCOME>
			<OUTCOME>X127</OUTCOME>
			<OUTCOME>X128</OUTCOME>
			<OUTCOME>X129</OUTCOME>
			<OUTCOME>X130</OUTCOME>
			<OUTCOME>X131</OUTCOME>
			<OUTCOME>X132</OUTCOME>
			<OUTCOME>X133</OUTCOME>
			<OUTCOME>X134</OUTCOME>
			<OUTCOME>X135</OUTCOME>
			<OUTCOME>X136</OUTCOME>
			<OUTCOME>X137</OUTCOME>
			<OUTCOME>X138</OUTCOME>
			<OUTCOME>X139</OUTCOME>
			<OUTCOME>X140</OUTCOME>
			<OUTCOME>X141</OUTCOME>
			<OUTCOME>X142</OUTCOME>
			<OUTCOME>X143</OUTCOME>
			<OUTCOME>X144</OUTCOME>
			<OUTCOME>X145</OUTCOME>
			<OUTCOME>X146</OUTCOME>
			<OUTCOME>X147</OUTCOME>
			<OUTCOME>X148</OUTCOME>
			<OUTCOME>X149</OUTCOME>
			<OUTCOME>X150</OUTCOME>
			<OUTCOME>X151</OUTCOME>
			<OUTCOME>X152</OUTCOME>
			<OUTCOME>X153</OUTCOME>
			<OUTCOME>X154</OUTCOME>
			<OUTCOME>X155</OUTCOME>
			<OUTCOME>X156</OUTCOME>
			<OUTCOME>X157</OUTCOME>
			<OUTCOME>X158</OUTCOME>
			<OUTCOME>X159</OUTCOME>
			<OUTCOME>X160</OUTCOME>
			<OUTCOME>X161</OUTCOME>
			<OUTCOME>X162</OUTCOME>
			<OUTCOME>X163</OUTCOME>
			<OUTCOME>X164</OUTCOME>
			<OUTCOME>X165</OUTCOME>
			<OUTCOME>X166</OUTCOME>
			<OUTCOME>X167</OUTCOME>
			<OUTCOME>X168</OUTCOME>
			<OUTCOME>X169</OUTCOME>
			<OUTCOME>X170</OUTCOME>
			<OUTCOME>X171</OUTCOME>
			<OUTCOME>X172</OUTCOME>
			<OUTCOME>X173</OUTCOME>
			<OUTCOME>X174</OUTCOME>
			<OUTCOME>X175</OUTCOME>
			<OUTCOME>X176</OUTCOME>
			<OUTCOME>X177</OUTCOME>
			<OUTCOME>X178</OUTCOME>
			<OUTCOME>X179</OUTCOME>
			<OUTCOME>X180</OUTCOME>
			<OUTCOME>X181</OUTCOME>
			<OUTCOME>X182</OUTCOME>
			<OUTCOME>X183</OUTCOME>
			<OUTCOME>X184</OUTCOME>
			<OUTCOME>X185</OUTCOME>
			<OUTCOME>X186</OUTCOME>
			<OUTCOME>X187</OUTCOME>
			<OUTCOME>X188</OUTCOME>
			<OUTCOME>X189</OUTCOME>
			<OUTCOME>X190</OUTCOME>
			<OUTCOME>X191</OUTCOME>
			<OUTCOME>X192</OUTCOME>
			<OUTCOME>X193</OUTCOME>
			<OUTCOME>X194</OUTCOME>
			<OUTCOME>X195</OUTCOME>
			<OUTCOME>X196</OUTCOME>
			<OUTCOME>X197</OUTCOME>
			<OUTCOME>X198</OUTCOME>
			<OUTCOME>X199</OUTCOME>
			<OUTCOME>X200</OUTCOME>
			<OUTCOME>X201</OUTCOME>
			<OUTCOME>X202</OUTCOME>
			<OUTCOME>X203</OUTCOME>
			<OUTCOME>X204</OUTCOME>
			<OUTCOME>X205</OUTCOME>
			<OUTCOME>X206</OUTCOME>
			<OUTCOME>X207</OUTCOME>
			<OUTCOME>X208</OUTCOME>
			<OUTCOME>X209</OUTCOME>
			<OUTCOME>X210</OUTCOME>
			<OUTCOME>X211</OUTCOME>
			<OUTCOME>X212</OUTCOME>
			<OUTCOME>X213</OUTCOME>
			<OUTCOME>X214</OUTCOME>
			<OUTCOME>X215</OUTCOME>
			<OUTCOME>X216</OUTCOME>
			<OUTCOME>X217</OUTCOME>
			<OUTCOME>X218</OUTCOME>
			<OUTCOME>X219</OUTCOME>
			<OUTCOME>X220</OUTCOME>
			<OUTCOME>X221</OUTCOME>
			<OUTCOME>X222</OUTCOME>
			<OUTCOME>X223</OUTCOME>
			<OUTCOME>X224</OUTCOME>
			<OUTCOME>X225</OUTCOME>
			<OUTCOME>X226</OUTCOME>
			<OUTCOME>X227</OUTCOME>
			<OUTCOME>X228</OUTCOME>
			<OUTCOME>X229</OUTCOME>
			<OUTCOME>X230</OUTCOME>
			<OUTCOME>X231</OUTCOME>
			<OUTCOME>X232</OUTCOME>
			<OUTCOME>X233</OUTCOME>
			<OUTCOME>X234</OUTCOME>
			<OUTCOME>X235</OUTCOME>
			<OUTCOME>X236</OUTCOME>
			<OUTCOME>X237</OUTCOME>
			<OUTCOME>X238</OUTCOME>
			<OUTCOME>X239</OUTCOME>
			<OUTCOME>X240</OUTCOME>
			<OUTCOME>X241</OUTCOME>
			<OUTCOME>X242</OUTCOME>
			<OUTCOME>X243</OUTCOME>
			<OUTCOME>X244</OUTCOME>
			<OUTCOME>X245</OUTCOME>
			<OUTCOME>X246</OUTCOME>
			<OUTCOME>X247</OUTCOME>
			<OUTCOME>X248</OUTCOME>
			<OUTCOME>X249</OUTCOME>
			<OUTCOME>X250</OUTCOME>
			<OUTCOME>X251</OUTCOME>
			<OUTCOME>X252</OUTCOME>
			<OUTCOME>X253</OUTCOME>
			<OUTCOME>X254</OUTCOME>
			<OUTCOME>X255</OUTCOME>
		</VARIABLE>
		<VARIABLE TYPE  = "nature">
			<NAME>SENSOR2</NAME>
		
			<OUTCOME>X0</OUTCOME>
			<OUTCOME>X1</OUTCOME>
			<OUTCOME>X2</OUTCOME>
			<OUTCOME>X3</OUTCOME>
			<OUTCOME>X4</OUTCOME>
			<OUTCOME>X5</OUTCOME>
			<OUTCOME>X6</OUTCOME>
			<OUTCOME>X7</OUTCOME>
			<OUTCOME>X8</OUTCOME>
			<OUTCOME>X9</OUTCOME>
			<OUTCOME>X10</OUTCOME>
			<OUTCOME>X11</OUTCOME>
			<OUTCOME>X12</OUTCOME>
			<OUTCOME>X13</OUTCOME>
			<OUTCOME>X14</OUTCOME>
			<OUTCOME>X15</OUTCOME>
			<OUTCOME>X16</OUTCOME>
			<OUTCOME>X17</OUTCOME>
			<OUTCOME>X18</OUTCOME>
			<OUTCOME>X19</OUTCOME>
			<OUTCOME>X20</OUTCOME>
			<OUTCOME>X21</OUTCOME>
			<OUTCOME>X22</OUTCOME>
			<OUTCOME>X23</OUTCOME>
			<OUTCOME>X24</OUTCOME>
			<OUTCOME>X25</OUTCOME>
			<OUTCOME>X26</OUTCOME>
			<OUTCOME>X27</OUTCOME>
			<OUTCOME>X28</OUTCOME>
			<OUTCOME>X29</OUTCOME>
			<OUTCOME>X30</OUTCOME>
			<OUTCOME>X31</OUTCOME>
			<OUTCOME>X32</OUTCOME>
			<OUTCOME>X33</OUTCOME>
			<OUTCOME>X34</OUTCOME>
			<OUTCOME>X35</OUTCOME>
			<OUTCOME>X36</OUTCOME>
			<OUTCOME>X37</OUTCOME>
			<OUTCOME>X38</OUTCOME>
			<OUTCOME>X39</OUTCOME>
			<OUTCOME>X40</OUTCOME>
			<OUTCOME>X41</OUTCOME>
			<OUTCOME>X42</OUTCOME>
			<OUTCOME>X43</OUTCOME>
			<OUTCOME>X44</OUTCOME>
			<OUTCOME>X45</OUTCOME>
			<OUTCOME>X46</OUTCOME>
			<OUTCOME>X47</OUTCOME>
			<OUTCOME>X48</OUTCOME>
			<OUTCOME>X49</OUTCOME>
			<OUTCOME>X50</OUTCOME>
			<OUTCOME>X51</OUTCOME>
			<OUTCOME>X52</OUTCOME>
			<OUTCOME>X53</OUTCOME>
			<OUTCOME>X54</OUTCOME>
			<OUTCOME>X55</OUTCOME>
			<OUTCOME>X56</OUTCOME>
			<OUTCOME>X57</OUTCOME>
			<OUTCOME>X58</OUTCOME>
			<OUTCOME>X59</OUTCOME>
			<OUTCOME>X60</OUTCOME>
			<OUTCOME>X61</OUTCOME>
			<OUTCOME>X62</OUTCOME>
			<OUTCOME>X63</OUTCOME>
			<OUTCOME>X64</OUTCOME>
			<OUTCOME>X65</OUTCOME>
			<OUTCOME>X66</OUTCOME>
			<OUTCOME>X67</OUTCOME>
			<OUTCOME>X68</OUTCOME>
			<OUTCOME>X69</OUTCOME>
			<OUTCOME>X70</OUTCOME>
			<OUTCOME>X71</OUTCOME>
			<OUTCOME>X72</OUTCOME>
			<OUTCOME>X73</OUTCOME>
			<OUTCOME>X74</OUTCOME>
			<OUTCOME>X75</OUTCOME>
			<OUTCOME>X76</OUTCOME>
			<OUTCOME>X77</OUTCOME>
			<OUTCOME>X78</OUTCOME>
			<OUTCOME>X79</OUTCOME>
			<OUTCOME>X80</OUTCOME>
			<OUTCOME>X81</OUTCOME>
			<OUTCOME>X82</OUTCOME>
			<OUTCOME>X83</OUTCOME>
			<OUTCOME>X84</OUTCOME>
			<OUTCOME>X85</OUTCOME>
			<OUTCOME>X86</OUTCOME>
			<OUTCOME>X87</OUTCOME>
			<OUTCOME>X88</OUTCOME>
			<OUTCOME>X89</OUTCOME>
			<OUTCOME>X90</OUTCOME>
			<OUTCOME>X91</OUTCOME>
			<OUTCOME>X92</OUTCOME>
			<OUTCOME>X93</OUTCOME>
			<OUTCOME>X94</OUTCOME>
			<OUTCOME>X95</OUTCOME>
			<OUTCOME>X96</OUTCOME>
			<OUTCOME>X97</OUTCOME>
			<OUTCOME>X98</OUTCOME>
			<OUTCOME>X99</OUTCOME>
			<OUTCOME>X100</OUTCOME>
			<OUTCOME>X101</OUTCOME>
			<OUTCOME>X102</OUTCOME>
			<OUTCOME>X103</OUTCOME>
			<OUTCOME>X104</OUTCOME>
			<OUTCOME>X105</OUTCOME>
			<OUTCOME>X106</OUTCOME>
			<OUTCOME>X107</OUTCOME>
			<OUTCOME>X108</OUTCOME>
			<OUTCOME>X109</OUTCOME>
			<OUTCOME>X110</OUTCOME>
			<OUTCOME>X111</OUTCOME>
			<OUTCOME>X112</OUTCOME>
			<OUTCOME>X113</OUTCOME>
			<OUTCOME>X114</OUTCOME>
			<OUTCOME>X115</OUTCOME>
			<OUTCOME>X116</OUTCOME>
			<OUTCOME>X117</OUTCOME>
			<OUTCOME>X118</OUTCOME>
			<OUTCOME>X119</OUTCOME>
			<OUTCOME>X120</OUTCOME>
			<OUTCOME>X121</OUTCOME>
			<OUTCOME>X122</OUTCOME>
			<OUTCOME>X123</OUTCOME>
			<OUTCOME>X124</OUTCOME>
			<OUTCOME>X125</OUTCOME>
			<OUTCOME>X126</OUTCOME>
			<OUTCOME>X127</OUTCOME>
			<OUTCOME>X128</OUTCOME>
			<OUTCOME>X129</OUTCOME>
			<OUTCOME>X130</OUTCOME>
			<OUTCOME>X131</OUTCOME>
			<OUTCOME>X132</OUTCOME>
			<OUTCOME>X133</OUTCOME>
			<OUTCOME>X134</OUTCOME>
			<OUTCOME>X135</OUTCOME>
			<OUTCOME>X136</OUTCOME>
			<OUTCOME>X137</OUTCOME>
			<OUTCOME>X138</OUTCOME>
			<OUTCOME>X139</OUTCOME>
			<OUTCOME>X140</OUTCOME>
			<OUTCOME>X141</OUTCOME>
			<OUTCOME>X142</OUTCOME>
			<OUTCOME>X143</OUTCOME>
			<OUTCOME>X144</OUTCOME>
			<OUTCOME>X145</OUTCOME>
			<OUTCOME>X146</OUTCOME>
			<OUTCOME>X147</OUTCOME>
			<OUTCOME>X148</OUTCOME>
			<OUTCOME>X149</OUTCOME>
			<OUTCOME>X150</OUTCOME>
			<OUTCOME>X151</OUTCOME>
			<OUTCOME>X152</OUTCOME>
			<OUTCOME>X153</OUTCOME>
			<OUTCOME>X154</OUTCOME>
			<OUTCOME>X155</OUTCOME>
			<OUTCOME>X156</OUTCOME>
			<OUTCOME>X157</OUTCOME>
			<OUTCOME>X158</OUTCOME>
			<OUTCOME>X159</OUTCOME>
			<OUTCOME>X160</OUTCOME>
			<OUTCOME>X161</OUTCOME>
			<OUTCOME>X162</OUTCOME>
			<OUTCOME>X163</OUTCOME>
			<OUTCOME>X164</OUTCOME>
			<OUTCOME>X165</OUTCOME>
			<OUTCOME>X166</OUTCOME>
			<OUTCOME>X167</OUTCOME>
			<OUTCOME>X168</OUTCOME>
			<OUTCOME>X169</OUTCOME>
			<OUTCOME>X170</OUTCOME>
			<OUTCOME>X171</OUTCOME>
			<OUTCOME>X172</OUTCOME>
			<OUTCOME>X173</OUTCOME>
			<OUTCOME>X174</OUTCOME>
			<OUTCOME>X175</OUTCOME>
			<OUTCOME>X176</OUTCOME>
			<OUTCOME>X177</OUTCOME>
			<OUTCOME>X178</OUTCOME>
			<OUTCOME>X179</OUTCOME>
			<OUTCOME>X180</OUTCOME>
			<OUTCOME>X181</OUTCOME>
			<OUTCOME>X182</OUTCOME>
			<OUTCOME>X183</OUTCOME>
			<OUTCOME>X184</OUTCOME>
			<OUTCOME>X185</OUTCOME>
			<OUTCOME>X186</OUTCOME>
			<OUTCOME>X187</OUTCOME>
			<OUTCOME>X188</OUTCOME>
			<OUTCOME>X189</OUTCOME>
			<OUTCOME>X190</OUTCOME>
			<OUTCOME>X191</OUTCOME>
			<OUTCOME>X192</OUTCOME>
			<OUTCOME>X193</OUTCOME>
			<OUTCOME>X194</OUTCOME>
			<OUTCOME>X195</OUTCOME>
			<OUTCOME>X196</OUTCOME>
			<OUTCOME>X197</OUTCOME>
			<OUTCOME>X198</OUTCOME>
			<OUTCOME>X199</OUTCOME>
			<OUTCOME>X200</OUTCOME>
			<OUTCOME>X201</OUTCOME>
			<OUTCOME>X202</OUTCOME>
			<OUTCOME>X203</OUTCOME>
			<OUTCOME>X204</OUTCOME>
			<OUTCOME>X205</OUTCOME>
			<OUTCOME>X206</OUTCOME>
			<OUTCOME>X207</OUTCOME>
			<OUTCOME>X208</OUTCOME>
			<OUTCOME>X209</OUTCOME>
			<OUTCOME>X210</OUTCOME>
			<OUTCOME>X211</OUTCOME>
			<OUTCOME>X212</OUTCOME>
			<OUTCOME>X213</OUTCOME>
			<OUTCOME>X214</OUTCOME>
			<OUTCOME>X215</OUTCOME>
			<OUTCOME>X216</OUTCOME>
			<OUTCOME>X217</OUTCOME>
			<OUTCOME>X218</OUTCOME>
			<OUTCOME>X219</OUTCOME>
			<OUTCOME>X220</OUTCOME>
			<OUTCOME>X221</OUTCOME>
			<OUTCOME>X222</OUTCOME>
			<OUTCOME>X223</OUTCOME>
			<OUTCOME>X224</OUTCOME>
			<OUTCOME>X225</OUTCOME>
			<OUTCOME>X226</OUTCOME>
			<OUTCOME>X227</OUTCOME>
			<OUTCOME>X228</OUTCOME>
			<OUTCOME>X229</OUTCOME>
			<OUTCOME>X230</OUTCOME>
			<OUTCOME>X231</OUTCOME>
			<OUTCOME>X232</OUTCOME>
			<OUTCOME>X233</OUTCOME>
			<OUTCOME>X234</OUTCOME>
			<OUTCOME>X235</OUTCOME>
			<OUTCOME>X236</OUTCOME>
			<OUTCOME>X237</OUTCOME>
			<OUTCOME>X238</OUTCOME>
			<OUTCOME>X239</OUTCOME>
			<OUTCOME>X240</OUTCOME>
			<OUTCOME>X241</OUTCOME>
			<OUTCOME>X242</OUTCOME>
			<OUTCOME>X243</OUTCOME>
			<OUTCOME>X244</OUTCOME>
			<OUTCOME>X245</OUTCOME>
			<OUTCOME>X246</OUTCOME>
			<OUTCOME>X247</OUTCOME>
			<OUTCOME>X248</OUTCOME>
			<OUTCOME>X249</OUTCOME>
			<OUTCOME>X250</OUTCOME>
			<OUTCOME>X251</OUTCOME>
			<OUTCOME>X252</OUTCOME>
			<OUTCOME>X253</OUTCOME>
			<OUTCOME>X254</OUTCOME>
			<OUTCOME>X255</OUTCOME>
		</VARIABLE>
		<VARIABLE TYPE  = "nature">
			<NAME>SENSOR3</NAME>
		
			<OUTCOME>X0</OUTCOME>
			<OUTCOME>X1</OUTCOME>
			<OUTCOME>X2</OUTCOME>
			<OUTCOME>X3</OUTCOME>
			<OUTCOME>X4</OUTCOME>
			<OUTCOME>X5</OUTCOME>
			<OUTCOME>X6</OUTCOME>
			<OUTCOME>X7</OUTCOME>
			<OUTCOME>X8</OUTCOME>
			<OUTCOME>X9</OUTCOME>
			<OUTCOME>X10</OUTCOME>
			<OUTCOME>X11</OUTCOME>
			<OUTCOME>X12</OUTCOME>
			<OUTCOME>X13</OUTCOME>
			<OUTCOME>X14</OUTCOME>
			<OUTCOME>X15</OUTCOME>
			<OUTCOME>X16</OUTCOME>
			<OUTCOME>X17</OUTCOME>
			<OUTCOME>X18</OUTCOME>
			<OUTCOME>X19</OUTCOME>
			<OUTCOME>X20</OUTCOME>
			<OUTCOME>X21</OUTCOME>
			<OUTCOME>X22</OUTCOME>
			<OUTCOME>X23</OUTCOME>
			<OUTCOME>X24</OUTCOME>
			<OUTCOME>X25</OUTCOME>
			<OUTCOME>X26</OUTCOME>
			<OUTCOME>X27</OUTCOME>
			<OUTCOME>X28</OUTCOME>
			<OUTCOME>X29</OUTCOME>
			<OUTCOME>X30</OUTCOME>
			<OUTCOME>X31</OUTCOME>
			<OUTCOME>X32</OUTCOME>
			<OUTCOME>X33</OUTCOME>
			<OUTCOME>X34</OUTCOME>
			<OUTCOME>X35</OUTCOME>
			<OUTCOME>X36</OUTCOME>
			<OUTCOME>X37</OUTCOME>
			<OUTCOME>X38</OUTCOME>
			<OUTCOME>X39</OUTCOME>
			<OUTCOME>X40</OUTCOME>
			<OUTCOME>X41</OUTCOME>
			<OUTCOME>X42</OUTCOME>
			<OUTCOME>X43</OUTCOME>
			<OUTCOME>X44</OUTCOME>
			<OUTCOME>X45</OUTCOME>
			<OUTCOME>X46</OUTCOME>
			<OUTCOME>X47</OUTCOME>
			<OUTCOME>X48</OUTCOME>
			<OUTCOME>X49</OUTCOME>
			<OUTCOME>X50</OUTCOME>
			<OUTCOME>X51</OUTCOME>
			<OUTCOME>X52</OUTCOME>
			<OUTCOME>X53</OUTCOME>
			<OUTCOME>X54</OUTCOME>
			<OUTCOME>X55</OUTCOME>
			<OUTCOME>X56</OUTCOME>
			<OUTCOME>X57</OUTCOME>
			<OUTCOME>X58</OUTCOME>
			<OUTCOME>X59</OUTCOME>
			<OUTCOME>X60</OUTCOME>
			<OUTCOME>X61</OUTCOME>
			<OUTCOME>X62</OUTCOME>
			<OUTCOME>X63</OUTCOME>
			<OUTCOME>X64</OUTCOME>
			<OUTCOME>X65</OUTCOME>
			<OUTCOME>X66</OUTCOME>
			<OUTCOME>X67</OUTCOME>
			<OUTCOME>X68</OUTCOME>
			<OUTCOME>X69</OUTCOME>
			<OUTCOME>X70</OUTCOME>
			<OUTCOME>X71</OUTCOME>
			<OUTCOME>X72</OUTCOME>
			<OUTCOME>X73</OUTCOME>
			<OUTCOME>X74</OUTCOME>
			<OUTCOME>X75</OUTCOME>
			<OUTCOME>X76</OUTCOME>
			<OUTCOME>X77</OUTCOME>
			<OUTCOME>X78</OUTCOME>
			<OUTCOME>X79</OUTCOME>
			<OUTCOME>X80</OUTCOME>
			<OUTCOME>X81</OUTCOME>
			<OUTCOME>X82</OUTCOME>
			<OUTCOME>X83</OUTCOME>
			<OUTCOME>X84</OUTCOME>
			<OUTCOME>X85</OUTCOME>
			<OUTCOME>X86</OUTCOME>
			<OUTCOME>X87</OUTCOME>
			<OUTCOME>X88</OUTCOME>
			<OUTCOME>X89</OUTCOME>
			<OUTCOME>X90</OUTCOME>
			<OUTCOME>X91</OUTCOME>
			<OUTCOME>X92</OUTCOME>
			<OUTCOME>X93</OUTCOME>
			<OUTCOME>X94</OUTCOME>
			<OUTCOME>X95</OUTCOME>
			<OUTCOME>X96</OUTCOME>
			<OUTCOME>X97</OUTCOME>
			<OUTCOME>X98</OUTCOME>
			<OUTCOME>X99</OUTCOME>
			<OUTCOME>X100</OUTCOME>
			<OUTCOME>X101</OUTCOME>
			<OUTCOME>X102</OUTCOME>
			<OUTCOME>X103</OUTCOME>
			<OUTCOME>X104</OUTCOME>
			<OUTCOME>X105</OUTCOME>
			<OUTCOME>X106</OUTCOME>
			<OUTCOME>X107</OUTCOME>
			<OUTCOME>X108</OUTCOME>
			<OUTCOME>X109</OUTCOME>
			<OUTCOME>X110</OUTCOME>
			<OUTCOME>X111</OUTCOME>
			<OUTCOME>X112</OUTCOME>
			<OUTCOME>X113</OUTCOME>
			<OUTCOME>X114</OUTCOME>
			<OUTCOME>X115</OUTCOME>
			<OUTCOME>X116</OUTCOME>
			<OUTCOME>X117</OUTCOME>
			<OUTCOME>X118</OUTCOME>
			<OUTCOME>X119</OUTCOME>
			<OUTCOME>X120</OUTCOME>
			<OUTCOME>X121</OUTCOME>
			<OUTCOME>X122</OUTCOME>
			<OUTCOME>X123</OUTCOME>
			<OUTCOME>X124</OUTCOME>
			<OUTCOME>X125</OUTCOME>
			<OUTCOME>X126</OUTCOME>
			<OUTCOME>X127</OUTCOME>
			<OUTCOME>X128</OUTCOME>
			<OUTCOME>X129</OUTCOME>
			<OUTCOME>X130</OUTCOME>
			<OUTCOME>X131</OUTCOME>
			<OUTCOME>X132</OUTCOME>
			<OUTCOME>X133</OUTCOME>
			<OUTCOME>X134</OUTCOME>
			<OUTCOME>X135</OUTCOME>
			<OUTCOME>X136</OUTCOME>
			<OUTCOME>X137</OUTCOME>
			<OUTCOME>X138</OUTCOME>
			<OUTCOME>X139</OUTCOME>
			<OUTCOME>X140</OUTCOME>
			<OUTCOME>X141</OUTCOME>
			<OUTCOME>X142</OUTCOME>
			<OUTCOME>X143</OUTCOME>
			<OUTCOME>X144</OUTCOME>
			<OUTCOME>X145</OUTCOME>
			<OUTCOME>X146</OUTCOME>
			<OUTCOME>X147</OUTCOME>
			<OUTCOME>X148</OUTCOME>
			<OUTCOME>X149</OUTCOME>
			<OUTCOME>X150</OUTCOME>
			<OUTCOME>X151</OUTCOME>
			<OUTCOME>X152</OUTCOME>
			<OUTCOME>X153</OUTCOME>
			<OUTCOME>X154</OUTCOME>
			<OUTCOME>X155</OUTCOME>
			<OUTCOME>X156</OUTCOME>
			<OUTCOME>X157</OUTCOME>
			<OUTCOME>X158</OUTCOME>
			<OUTCOME>X159</OUTCOME>
			<OUTCOME>X160</OUTCOME>
			<OUTCOME>X161</OUTCOME>
			<OUTCOME>X162</OUTCOME>
			<OUTCOME>X163</OUTCOME>
			<OUTCOME>X164</OUTCOME>
			<OUTCOME>X165</OUTCOME>
			<OUTCOME>X166</OUTCOME>
			<OUTCOME>X167</OUTCOME>
			<OUTCOME>X168</OUTCOME>
			<OUTCOME>X169</OUTCOME>
			<OUTCOME>X170</OUTCOME>
			<OUTCOME>X171</OUTCOME>
			<OUTCOME>X172</OUTCOME>
			<OUTCOME>X173</OUTCOME>
			<OUTCOME>X174</OUTCOME>
			<OUTCOME>X175</OUTCOME>
			<OUTCOME>X176</OUTCOME>
			<OUTCOME>X177</OUTCOME>
			<OUTCOME>X178</OUTCOME>
			<OUTCOME>X179</OUTCOME>
			<OUTCOME>X180</OUTCOME>
			<OUTCOME>X181</OUTCOME>
			<OUTCOME>X182</OUTCOME>
			<OUTCOME>X183</OUTCOME>
			<OUTCOME>X184</OUTCOME>
			<OUTCOME>X185</OUTCOME>
			<OUTCOME>X186</OUTCOME>
			<OUTCOME>X187</OUTCOME>
			<OUTCOME>X188</OUTCOME>
			<OUTCOME>X189</OUTCOME>
			<OUTCOME>X190</OUTCOME>
			<OUTCOME>X191</OUTCOME>
			<OUTCOME>X192</OUTCOME>
			<OUTCOME>X193</OUTCOME>
			<OUTCOME>X194</OUTCOME>
			<OUTCOME>X195</OUTCOME>
			<OUTCOME>X196</OUTCOME>
			<OUTCOME>X197</OUTCOME>
			<OUTCOME>X198</OUTCOME>
			<OUTCOME>X199</OUTCOME>
			<OUTCOME>X200</OUTCOME>
			<OUTCOME>X201</OUTCOME>
			<OUTCOME>X202</OUTCOME>
			<OUTCOME>X203</OUTCOME>
			<OUTCOME>X204</OUTCOME>
			<OUTCOME>X205</OUTCOME>
			<OUTCOME>X206</OUTCOME>
			<OUTCOME>X207</OUTCOME>
			<OUTCOME>X208</OUTCOME>
			<OUTCOME>X209</OUTCOME>
			<OUTCOME>X210</OUTCOME>
			<OUTCOME>X211</OUTCOME>
			<OUTCOME>X212</OUTCOME>
			<OUTCOME>X213</OUTCOME>
			<OUTCOME>X214</OUTCOME>
			<OUTCOME>X215</OUTCOME>
			<OUTCOME>X216</OUTCOME>
			<OUTCOME>X217</OUTCOME>
			<OUTCOME>X218</OUTCOME>
			<OUTCOME>X219</OUTCOME>
			<OUTCOME>X220</OUTCOME>
			<OUTCOME>X221</OUTCOME>
			<OUTCOME>X222</OUTCOME>
			<OUTCOME>X223</OUTCOME>
			<OUTCOME>X224</OUTCOME>
			<OUTCOME>X225</OUTCOME>
			<OUTCOME>X226</OUTCOME>
			<OUTCOME>X227</OUTCOME>
			<OUTCOME>X228</OUTCOME>
			<OUTCOME>X229</OUTCOME>
			<OUTCOME>X230</OUTCOME>
			<OUTCOME>X231</OUTCOME>
			<OUTCOME>X232</OUTCOME>
			<OUTCOME>X233</OUTCOME>
			<OUTCOME>X234</OUTCOME>
			<OUTCOME>X235</OUTCOME>
			<OUTCOME>X236</OUTCOME>
			<OUTCOME>X237</OUTCOME>
			<OUTCOME>X238</OUTCOME>
			<OUTCOME>X239</OUTCOME>
			<OUTCOME>X240</OUTCOME>
			<OUTCOME>X241</OUTCOME>
			<OUTCOME>X242</OUTCOME>
			<OUTCOME>X243</OUTCOME>
			<OUTCOME>X244</OUTCOME>
			<OUTCOME>X245</OUTCOME>
			<OUTCOME>X246</OUTCOME>
			<OUTCOME>X247</OUTCOME>
			<OUTCOME>X248</OUTCOME>
			<OUTCOME>X249</OUTCOME>
			<OUTCOME>X250</OUTCOME>
			<OUTCOME>X251</OUTCOME>
			<OUTCOME>X252</OUTCOME>
			<OUTCOME>X253</OUTCOME>
			<OUTCOME>X254</OUTCOME>
			<OUTCOME>X255</OUTCOME>
		</VARIABLE>
		<VARIABLE TYPE  = "nature">
			<NAME>SENSOR4</NAME>
		
			<OUTCOME>X0</OUTCOME>
			<OUTCOME>X1</OUTCOME>
			<OUTCOME>X2</OUTCOME>
			<OUTCOME>X3</OUTCOME>
			<OUTCOME>X4</OUTCOME>
			<OUTCOME>X5</OUTCOME>
			<OUTCOME>X6</OUTCOME>
			<OUTCOME>X7</OUTCOME>
			<OUTCOME>X8</OUTCOME>
			<OUTCOME>X9</OUTCOME>
			<OUTCOME>X10</OUTCOME>
			<OUTCOME>X11</OUTCOME>
			<OUTCOME>X12</OUTCOME>
			<OUTCOME>X13</OUTCOME>
			<OUTCOME>X14</OUTCOME>
			<OUTCOME>X15</OUTCOME>
			<OUTCOME>X16</OUTCOME>
			<OUTCOME>X17</OUTCOME>
			<OUTCOME>X18</OUTCOME>
			<OUTCOME>X19</OUTCOME>
			<OUTCOME>X20</OUTCOME>
			<OUTCOME>X21</OUTCOME>
			<OUTCOME>X22</OUTCOME>
			<OUTCOME>X23</OUTCOME>
			<OUTCOME>X24</OUTCOME>
			<OUTCOME>X25</OUTCOME>
			<OUTCOME>X26</OUTCOME>
			<OUTCOME>X27</OUTCOME>
			<OUTCOME>X28</OUTCOME>
			<OUTCOME>X29</OUTCOME>
			<OUTCOME>X30</OUTCOME>
			<OUTCOME>X31</OUTCOME>
			<OUTCOME>X32</OUTCOME>
			<OUTCOME>X33</OUTCOME>
			<OUTCOME>X34</OUTCOME>
			<OUTCOME>X35</OUTCOME>
			<OUTCOME>X36</OUTCOME>
			<OUTCOME>X37</OUTCOME>
			<OUTCOME>X38</OUTCOME>
			<OUTCOME>X39</OUTCOME>
			<OUTCOME>X40</OUTCOME>
			<OUTCOME>X41</OUTCOME>
			<OUTCOME>X42</OUTCOME>
			<OUTCOME>X43</OUTCOME>
			<OUTCOME>X44</OUTCOME>
			<OUTCOME>X45</OUTCOME>
			<OUTCOME>X46</OUTCOME>
			<OUTCOME>X47</OUTCOME>
			<OUTCOME>X48</OUTCOME>
			<OUTCOME>X49</OUTCOME>
			<OUTCOME>X50</OUTCOME>
			<OUTCOME>X51</OUTCOME>
			<OUTCOME>X52</OUTCOME>
			<OUTCOME>X53</OUTCOME>
			<OUTCOME>X54</OUTCOME>
			<OUTCOME>X55</OUTCOME>
			<OUTCOME>X56</OUTCOME>
			<OUTCOME>X57</OUTCOME>
			<OUTCOME>X58</OUTCOME>
			<OUTCOME>X59</OUTCOME>
			<OUTCOME>X60</OUTCOME>
			<OUTCOME>X61</OUTCOME>
			<OUTCOME>X62</OUTCOME>
			<OUTCOME>X63</OUTCOME>
			<OUTCOME>X64</OUTCOME>
			<OUTCOME>X65</OUTCOME>
			<OUTCOME>X66</OUTCOME>
			<OUTCOME>X67</OUTCOME>
			<OUTCOME>X68</OUTCOME>
			<OUTCOME>X69</OUTCOME>
			<OUTCOME>X70</OUTCOME>
			<OUTCOME>X71</OUTCOME>
			<OUTCOME>X72</OUTCOME>
			<OUTCOME>X73</OUTCOME>
			<OUTCOME>X74</OUTCOME>
			<OUTCOME>X75</OUTCOME>
			<OUTCOME>X76</OUTCOME>
			<OUTCOME>X77</OUTCOME>
			<OUTCOME>X78</OUTCOME>
			<OUTCOME>X79</OUTCOME>
			<OUTCOME>X80</OUTCOME>
			<OUTCOME>X81</OUTCOME>
			<OUTCOME>X82</OUTCOME>
			<OUTCOME>X83</OUTCOME>
			<OUTCOME>X84</OUTCOME>
			<OUTCOME>X85</OUTCOME>
			<OUTCOME>X86</OUTCOME>
			<OUTCOME>X87</OUTCOME>
			<OUTCOME>X88</OUTCOME>
			<OUTCOME>X89</OUTCOME>
			<OUTCOME>X90</OUTCOME>
			<OUTCOME>X91</OUTCOME>
			<OUTCOME>X92</OUTCOME>
			<OUTCOME>X93</OUTCOME>
			<OUTCOME>X94</OUTCOME>
			<OUTCOME>X95</OUTCOME>
			<OUTCOME>X96</OUTCOME>
			<OUTCOME>X97</OUTCOME>
			<OUTCOME>X98</OUTCOME>
			<OUTCOME>X99</OUTCOME>
			<OUTCOME>X100</OUTCOME>
			<OUTCOME>X101</OUTCOME>
			<OUTCOME>X102</OUTCOME>
			<OUTCOME>X103</OUTCOME>
			<OUTCOME>X104</OUTCOME>
			<OUTCOME>X105</OUTCOME>
			<OUTCOME>X106</OUTCOME>
			<OUTCOME>X107</OUTCOME>
			<OUTCOME>X108</OUTCOME>
			<OUTCOME>X109</OUTCOME>
			<OUTCOME>X110</OUTCOME>
			<OUTCOME>X111</OUTCOME>
			<OUTCOME>X112</OUTCOME>
			<OUTCOME>X113</OUTCOME>
			<OUTCOME>X114</OUTCOME>
			<OUTCOME>X115</OUTCOME>
			<OUTCOME>X116</OUTCOME>
			<OUTCOME>X117</OUTCOME>
			<OUTCOME>X118</OUTCOME>
			<OUTCOME>X119</OUTCOME>
			<OUTCOME>X120</OUTCOME>
			<OUTCOME>X121</OUTCOME>
			<OUTCOME>X122</OUTCOME>
			<OUTCOME>X123</OUTCOME>
			<OUTCOME>X124</OUTCOME>
			<OUTCOME>X125</OUTCOME>
			<OUTCOME>X126</OUTCOME>
			<OUTCOME>X127</OUTCOME>
			<OUTCOME>X128</OUTCOME>
			<OUTCOME>X129</OUTCOME>
			<OUTCOME>X130</OUTCOME>
			<OUTCOME>X131</OUTCOME>
			<OUTCOME>X132</OUTCOME>
			<OUTCOME>X133</OUTCOME>
			<OUTCOME>X134</OUTCOME>
			<OUTCOME>X135</OUTCOME>
			<OUTCOME>X136</OUTCOME>
			<OUTCOME>X137</OUTCOME>
			<OUTCOME>X138</OUTCOME>
			<OUTCOME>X139</OUTCOME>
			<OUTCOME>X140</OUTCOME>
			<OUTCOME>X141</OUTCOME>
			<OUTCOME>X142</OUTCOME>
			<OUTCOME>X143</OUTCOME>
			<OUTCOME>X144</OUTCOME>
			<OUTCOME>X145</OUTCOME>
			<OUTCOME>X146</OUTCOME>
			<OUTCOME>X147</OUTCOME>
			<OUTCOME>X148</OUTCOME>
			<OUTCOME>X149</OUTCOME>
			<OUTCOME>X150</OUTCOME>
			<OUTCOME>X151</OUTCOME>
			<OUTCOME>X152</OUTCOME>
			<OUTCOME>X153</OUTCOME>
			<OUTCOME>X154</OUTCOME>
			<OUTCOME>X155</OUTCOME>
			<OUTCOME>X156</OUTCOME>
			<OUTCOME>X157</OUTCOME>
			<OUTCOME>X158</OUTCOME>
			<OUTCOME>X159</OUTCOME>
			<OUTCOME>X160</OUTCOME>
			<OUTCOME>X161</OUTCOME>
			<OUTCOME>X162</OUTCOME>
			<OUTCOME>X163</OUTCOME>
			<OUTCOME>X164</OUTCOME>
			<OUTCOME>X165</OUTCOME>
			<OUTCOME>X166</OUTCOME>
			<OUTCOME>X167</OUTCOME>
			<OUTCOME>X168</OUTCOME>
			<OUTCOME>X169</OUTCOME>
			<OUTCOME>X170</OUTCOME>
			<OUTCOME>X171</OUTCOME>
			<OUTCOME>X172</OUTCOME>
			<OUTCOME>X173</OUTCOME>
			<OUTCOME>X174</OUTCOME>
			<OUTCOME>X175</OUTCOME>
			<OUTCOME>X176</OUTCOME>
			<OUTCOME>X177</OUTCOME>
			<OUTCOME>X178</OUTCOME>
			<OUTCOME>X179</OUTCOME>
			<OUTCOME>X180</OUTCOME>
			<OUTCOME>X181</OUTCOME>
			<OUTCOME>X182</OUTCOME>
			<OUTCOME>X183</OUTCOME>
			<OUTCOME>X184</OUTCOME>
			<OUTCOME>X185</OUTCOME>
			<OUTCOME>X186</OUTCOME>
			<OUTCOME>X187</OUTCOME>
			<OUTCOME>X188</OUTCOME>
			<OUTCOME>X189</OUTCOME>
			<OUTCOME>X190</OUTCOME>
			<OUTCOME>X191</OUTCOME>
			<OUTCOME>X192</OUTCOME>
			<OUTCOME>X193</OUTCOME>
			<OUTCOME>X194</OUTCOME>
			<OUTCOME>X195</OUTCOME>
			<OUTCOME>X196</OUTCOME>
			<OUTCOME>X197</OUTCOME>
			<OUTCOME>X198</OUTCOME>
			<OUTCOME>X199</OUTCOME>
			<OUTCOME>X200</OUTCOME>
			<OUTCOME>X201</OUTCOME>
			<OUTCOME>X202</OUTCOME>
			<OUTCOME>X203</OUTCOME>
			<OUTCOME>X204</OUTCOME>
			<OUTCOME>X205</OUTCOME>
			<OUTCOME>X206</OUTCOME>
			<OUTCOME>X207</OUTCOME>
			<OUTCOME>X208</OUTCOME>
			<OUTCOME>X209</OUTCOME>
			<OUTCOME>X210</OUTCOME>
			<OUTCOME>X211</OUTCOME>
			<OUTCOME>X212</OUTCOME>
			<OUTCOME>X213</OUTCOME>
			<OUTCOME>X214</OUTCOME>
			<OUTCOME>X215</OUTCOME>
			<OUTCOME>X216</OUTCOME>
			<OUTCOME>X217</OUTCOME>
			<OUTCOME>X218</OUTCOME>
			<OUTCOME>X219</OUTCOME>
			<OUTCOME>X220</OUTCOME>
			<OUTCOME>X221</OUTCOME>
			<OUTCOME>X222</OUTCOME>
			<OUTCOME>X223</OUTCOME>
			<OUTCOME>X224</OUTCOME>
			<OUTCOME>X225</OUTCOME>
			<OUTCOME>X226</OUTCOME>
			<OUTCOME>X227</OUTCOME>
			<OUTCOME>X228</OUTCOME>
			<OUTCOME>X229</OUTCOME>
			<OUTCOME>X230</OUTCOME>
			<OUTCOME>X231</OUTCOME>
			<OUTCOME>X232</OUTCOME>
			<OUTCOME>X233</OUTCOME>
			<OUTCOME>X234</OUTCOME>
			<OUTCOME>X235</OUTCOME>
			<OUTCOME>X236</OUTCOME>
			<OUTCOME>X237</OUTCOME>
			<OUTCOME>X238</OUTCOME>
			<OUTCOME>X239</OUTCOME>
			<OUTCOME>X240</OUTCOME>
			<OUTCOME>X241</OUTCOME>
			<OUTCOME>X242</OUTCOME>
			<OUTCOME>X243</OUTCOME>
			<OUTCOME>X244</OUTCOME>
			<OUTCOME>X245</OUTCOME>
			<OUTCOME>X246</OUTCOME>
			<OUTCOME>X247</OUTCOME>
			<OUTCOME>X248</OUTCOME>
			<OUTCOME>X249</OUTCOME>
			<OUTCOME>X250</OUTCOME>
			<OUTCOME>X251</OUTCOME>
			<OUTCOME>X252</OUTCOME>
			<OUTCOME>X253</OUTCOME>
			<OUTCOME>X254</OUTCOME>
			<OUTCOME>X255</OUTCOME>
		</VARIABLE>
		<VARIABLE TYPE  = "nature">
			<NAME>SENSOR5</NAME>
		
			<OUTCOME>X0</OUTCOME>
			<OUTCOME>X1</OUTCOME>
			<OUTCOME>X2</OUTCOME>
			<OUTCOME>X3</OUTCOME>
			<OUTCOME>X4</OUTCOME>
			<OUTCOME>X5</OUTCOME>
			<OUTCOME>X6</OUTCOME>
			<OUTCOME>X7</OUTCOME>
			<OUTCOME>X8</OUTCOME>
			<OUTCOME>X9</OUTCOME>
			<OUTCOME>X10</OUTCOME>
			<OUTCOME>X11</OUTCOME>
			<OUTCOME>X12</OUTCOME>
			<OUTCOME>X13</OUTCOME>
			<OUTCOME>X14</OUTCOME>
			<OUTCOME>X15</OUTCOME>
			<OUTCOME>X16</OUTCOME>
			<OUTCOME>X17</OUTCOME>
			<OUTCOME>X18</OUTCOME>
			<OUTCOME>X19</OUTCOME>
			<OUTCOME>X20</OUTCOME>
			<OUTCOME>X21</OUTCOME>
			<OUTCOME>X22</OUTCOME>
			<OUTCOME>X23</OUTCOME>
			<OUTCOME>X24</OUTCOME>
			<OUTCOME>X25</OUTCOME>
			<OUTCOME>X26</OUTCOME>
			<OUTCOME>X27</OUTCOME>
			<OUTCOME>X28</OUTCOME>
			<OUTCOME>X29</OUTCOME>
			<OUTCOME>X30</OUTCOME>
			<OUTCOME>X31</OUTCOME>
			<OUTCOME>X32</OUTCOME>
			<OUTCOME>X33</OUTCOME>
			<OUTCOME>X34</OUTCOME>
			<OUTCOME>X35</OUTCOME>
			<OUTCOME>X36</OUTCOME>
			<OUTCOME>X37</OUTCOME>
			<OUTCOME>X38</OUTCOME>
			<OUTCOME>X39</OUTCOME>
			<OUTCOME>X40</OUTCOME>
			<OUTCOME>X41</OUTCOME>
			<OUTCOME>X42</OUTCOME>
			<OUTCOME>X43</OUTCOME>
			<OUTCOME>X44</OUTCOME>
			<OUTCOME>X45</OUTCOME>
			<OUTCOME>X46</OUTCOME>
			<OUTCOME>X47</OUTCOME>
			<OUTCOME>X48</OUTCOME>
			<OUTCOME>X49</OUTCOME>
			<OUTCOME>X50</OUTCOME>
			<OUTCOME>X51</OUTCOME>
			<OUTCOME>X52</OUTCOME>
			<OUTCOME>X53</OUTCOME>
			<OUTCOME>X54</OUTCOME>
			<OUTCOME>X55</OUTCOME>
			<OUTCOME>X56</OUTCOME>
			<OUTCOME>X57</OUTCOME>
			<OUTCOME>X58</OUTCOME>
			<OUTCOME>X59</OUTCOME>
			<OUTCOME>X60</OUTCOME>
			<OUTCOME>X61</OUTCOME>
			<OUTCOME>X62</OUTCOME>
			<OUTCOME>X63</OUTCOME>
			<OUTCOME>X64</OUTCOME>
			<OUTCOME>X65</OUTCOME>
			<OUTCOME>X66</OUTCOME>
			<OUTCOME>X67</OUTCOME>
			<OUTCOME>X68</OUTCOME>
			<OUTCOME>X69</OUTCOME>
			<OUTCOME>X70</OUTCOME>
			<OUTCOME>X71</OUTCOME>
			<OUTCOME>X72</OUTCOME>
			<OUTCOME>X73</OUTCOME>
			<OUTCOME>X74</OUTCOME>
			<OUTCOME>X75</OUTCOME>
			<OUTCOME>X76</OUTCOME>
			<OUTCOME>X77</OUTCOME>
			<OUTCOME>X78</OUTCOME>
			<OUTCOME>X79</OUTCOME>
			<OUTCOME>X80</OUTCOME>
			<OUTCOME>X81</OUTCOME>
			<OUTCOME>X82</OUTCOME>
			<OUTCOME>X83</OUTCOME>
			<OUTCOME>X84</OUTCOME>
			<OUTCOME>X85</OUTCOME>
			<OUTCOME>X86</OUTCOME>
			<OUTCOME>X87</OUTCOME>
			<OUTCOME>X88</OUTCOME>
			<OUTCOME>X89</OUTCOME>
			<OUTCOME>X90</OUTCOME>
			<OUTCOME>X91</OUTCOME>
			<OUTCOME>X92</OUTCOME>
			<OUTCOME>X93</OUTCOME>
			<OUTCOME>X94</OUTCOME>
			<OUTCOME>X95</OUTCOME>
			<OUTCOME>X96</OUTCOME>
			<OUTCOME>X97</OUTCOME>
			<OUTCOME>X98</OUTCOME>
			<OUTCOME>X99</OUTCOME>
			<OUTCOME>X100</OUTCOME>
			<OUTCOME>X101</OUTCOME>
			<OUTCOME>X102</OUTCOME>
			<OUTCOME>X103</OUTCOME>
			<OUTCOME>X104</OUTCOME>
			<OUTCOME>X105</OUTCOME>
			<OUTCOME>X106</OUTCOME>
			<OUTCOME>X107</OUTCOME>
			<OUTCOME>X108</OUTCOME>
			<OUTCOME>X109</OUTCOME>
			<OUTCOME>X110</OUTCOME>
			<OUTCOME>X111</OUTCOME>
			<OUTCOME>X112</OUTCOME>
			<OUTCOME>X113</OUTCOME>
			<OUTCOME>X114</OUTCOME>
			<OUTCOME>X115</OUTCOME>
			<OUTCOME>X116</OUTCOME>
			<OUTCOME>X117</OUTCOME>
			<OUTCOME>X118</OUTCOME>
			<OUTCOME>X119</OUTCOME>
			<OUTCOME>X120</OUTCOME>
			<OUTCOME>X121</OUTCOME>
			<OUTCOME>X122</OUTCOME>
			<OUTCOME>X123</OUTCOME>
			<OUTCOME>X124</OUTCOME>
			<OUTCOME>X125</OUTCOME>
			<OUTCOME>X126</OUTCOME>
			<OUTCOME>X127</OUTCOME>
			<OUTCOME>X128</OUTCOME>
			<OUTCOME>X129</OUTCOME>
			<OUTCOME>X130</OUTCOME>
			<OUTCOME>X131</OUTCOME>
			<OUTCOME>X132</OUTCOME>
			<OUTCOME>X133</OUTCOME>
			<OUTCOME>X134</OUTCOME>
			<OUTCOME>X135</OUTCOME>
			<OUTCOME>X136</OUTCOME>
			<OUTCOME>X137</OUTCOME>
			<OUTCOME>X138</OUTCOME>
			<OUTCOME>X139</OUTCOME>
			<OUTCOME>X140</OUTCOME>
			<OUTCOME>X141</OUTCOME>
			<OUTCOME>X142</OUTCOME>
			<OUTCOME>X143</OUTCOME>
			<OUTCOME>X144</OUTCOME>
			<OUTCOME>X145</OUTCOME>
			<OUTCOME>X146</OUTCOME>
			<OUTCOME>X147</OUTCOME>
			<OUTCOME>X148</OUTCOME>
			<OUTCOME>X149</OUTCOME>
			<OUTCOME>X150</OUTCOME>
			<OUTCOME>X151</OUTCOME>
			<OUTCOME>X152</OUTCOME>
			<OUTCOME>X153</OUTCOME>
			<OUTCOME>X154</OUTCOME>
			<OUTCOME>X155</OUTCOME>
			<OUTCOME>X156</OUTCOME>
			<OUTCOME>X157</OUTCOME>
			<OUTCOME>X158</OUTCOME>
			<OUTCOME>X159</OUTCOME>
			<OUTCOME>X160</OUTCOME>
			<OUTCOME>X161</OUTCOME>
			<OUTCOME>X162</OUTCOME>
			<OUTCOME>X163</OUTCOME>
			<OUTCOME>X164</OUTCOME>
			<OUTCOME>X165</OUTCOME>
			<OUTCOME>X166</OUTCOME>
			<OUTCOME>X167</OUTCOME>
			<OUTCOME>X168</OUTCOME>
			<OUTCOME>X169</OUTCOME>
			<OUTCOME>X170</OUTCOME>
			<OUTCOME>X171</OUTCOME>
			<OUTCOME>X172</OUTCOME>
			<OUTCOME>X173</OUTCOME>
			<OUTCOME>X174</OUTCOME>
			<OUTCOME>X175</OUTCOME>
			<OUTCOME>X176</OUTCOME>
			<OUTCOME>X177</OUTCOME>
			<OUTCOME>X178</OUTCOME>
			<OUTCOME>X179</OUTCOME>
			<OUTCOME>X180</OUTCOME>
			<OUTCOME>X181</OUTCOME>
			<OUTCOME>X182</OUTCOME>
			<OUTCOME>X183</OUTCOME>
			<OUTCOME>X184</OUTCOME>
			<OUTCOME>X185</OUTCOME>
			<OUTCOME>X186</OUTCOME>
			<OUTCOME>X187</OUTCOME>
			<OUTCOME>X188</OUTCOME>
			<OUTCOME>X189</OUTCOME>
			<OUTCOME>X190</OUTCOME>
			<OUTCOME>X191</OUTCOME>
			<OUTCOME>X192</OUTCOME>
			<OUTCOME>X193</OUTCOME>
			<OUTCOME>X194</OUTCOME>
			<OUTCOME>X195</OUTCOME>
			<OUTCOME>X196</OUTCOME>
			<OUTCOME>X197</OUTCOME>
			<OUTCOME>X198</OUTCOME>
			<OUTCOME>X199</OUTCOME>
			<OUTCOME>X200</OUTCOME>
			<OUTCOME>X201</OUTCOME>
			<OUTCOME>X202</OUTCOME>
			<OUTCOME>X203</OUTCOME>
			<OUTCOME>X204</OUTCOME>
			<OUTCOME>X205</OUTCOME>
			<OUTCOME>X206</OUTCOME>
			<OUTCOME>X207</OUTCOME>
			<OUTCOME>X208</OUTCOME>
			<OUTCOME>X209</OUTCOME>
			<OUTCOME>X210</OUTCOME>
			<OUTCOME>X211</OUTCOME>
			<OUTCOME>X212</OUTCOME>
			<OUTCOME>X213</OUTCOME>
			<OUTCOME>X214</OUTCOME>
			<OUTCOME>X215</OUTCOME>
			<OUTCOME>X216</OUTCOME>
			<OUTCOME>X217</OUTCOME>
			<OUTCOME>X218</OUTCOME>
			<OUTCOME>X219</OUTCOME>
			<OUTCOME>X220</OUTCOME>
			<OUTCOME>X221</OUTCOME>
			<OUTCOME>X222</OUTCOME>
			<OUTCOME>X223</OUTCOME>
			<OUTCOME>X224</OUTCOME>
			<OUTCOME>X225</OUTCOME>
			<OUTCOME>X226</OUTCOME>
			<OUTCOME>X227</OUTCOME>
			<OUTCOME>X228</OUTCOME>
			<OUTCOME>X229</OUTCOME>
			<OUTCOME>X230</OUTCOME>
			<OUTCOME>X231</OUTCOME>
			<OUTCOME>X232</OUTCOME>
			<OUTCOME>X233</OUTCOME>
			<OUTCOME>X234</OUTCOME>
			<OUTCOME>X235</OUTCOME>
			<OUTCOME>X236</OUTCOME>
			<OUTCOME>X237</OUTCOME>
			<OUTCOME>X238</OUTCOME>
			<OUTCOME>X239</OUTCOME>
			<OUTCOME>X240</OUTCOME>
			<OUTCOME>X241</OUTCOME>
			<OUTCOME>X242</OUTCOME>
			<OUTCOME>X243</OUTCOME>
			<OUTCOME>X244</OUTCOME>
			<OUTCOME>X245</OUTCOME>
			<OUTCOME>X246</OUTCOME>
			<OUTCOME>X247</OUTCOME>
			<OUTCOME>X248</OUTCOME>
			<OUTCOME>X249</OUTCOME>
			<OUTCOME>X250</OUTCOME>
			<OUTCOME>X251</OUTCOME>
			<OUTCOME>X252</OUTCOME>
			<OUTCOME>X253</OUTCOME>
			<OUTCOME>X254</OUTCOME>
			<OUTCOME>X255</OUTCOME>
		</VARIABLE>
		<VARIABLE TYPE  = "nature">
			<NAME>SENSOR6</NAME>
		
			<OUTCOME>X0</OUTCOME>
			<OUTCOME>X1</OUTCOME>
			<OUTCOME>X2</OUTCOME>
			<OUTCOME>X3</OUTCOME>
			<OUTCOME>X4</OUTCOME>
			<OUTCOME>X5</OUTCOME>
			<OUTCOME>X6</OUTCOME>
			<OUTCOME>X7</OUTCOME>
			<OUTCOME>X8</OUTCOME>
			<OUTCOME>X9</OUTCOME>
			<OUTCOME>X10</OUTCOME>
			<OUTCOME>X11</OUTCOME>
			<OUTCOME>X12</OUTCOME>
			<OUTCOME>X13</OUTCOME>
			<OUTCOME>X14</OUTCOME>
			<OUTCOME>X15</OUTCOME>
			<OUTCOME>X16</OUTCOME>
			<OUTCOME>X17</OUTCOME>
			<OUTCOME>X18</OUTCOME>
			<OUTCOME>X19</OUTCOME>
			<OUTCOME>X20</OUTCOME>
			<OUTCOME>X21</OUTCOME>
			<OUTCOME>X22</OUTCOME>
			<OUTCOME>X23</OUTCOME>
			<OUTCOME>X24</OUTCOME>
			<OUTCOME>X25</OUTCOME>
			<OUTCOME>X26</OUTCOME>
			<OUTCOME>X27</OUTCOME>
			<OUTCOME>X28</OUTCOME>
			<OUTCOME>X29</OUTCOME>
			<OUTCOME>X30</OUTCOME>
			<OUTCOME>X31</OUTCOME>
			<OUTCOME>X32</OUTCOME>
			<OUTCOME>X33</OUTCOME>
			<OUTCOME>X34</OUTCOME>
			<OUTCOME>X35</OUTCOME>
			<OUTCOME>X36</OUTCOME>
			<OUTCOME>X37</OUTCOME>
			<OUTCOME>X38</OUTCOME>
			<OUTCOME>X39</OUTCOME>
			<OUTCOME>X40</OUTCOME>
			<OUTCOME>X41</OUTCOME>
			<OUTCOME>X42</OUTCOME>
			<OUTCOME>X43</OUTCOME>
			<OUTCOME>X44</OUTCOME>
			<OUTCOME>X45</OUTCOME>
			<OUTCOME>X46</OUTCOME>
			<OUTCOME>X47</OUTCOME>
			<OUTCOME>X48</OUTCOME>
			<OUTCOME>X49</OUTCOME>
			<OUTCOME>X50</OUTCOME>
			<OUTCOME>X51</OUTCOME>
			<OUTCOME>X52</OUTCOME>
			<OUTCOME>X53</OUTCOME>
			<OUTCOME>X54</OUTCOME>
			<OUTCOME>X55</OUTCOME>
			<OUTCOME>X56</OUTCOME>
			<OUTCOME>X57</OUTCOME>
			<OUTCOME>X58</OUTCOME>
			<OUTCOME>X59</OUTCOME>
			<OUTCOME>X60</OUTCOME>
			<OUTCOME>X61</OUTCOME>
			<OUTCOME>X62</OUTCOME>
			<OUTCOME>X63</OUTCOME>
			<OUTCOME>X64</OUTCOME>
			<OUTCOME>X65</OUTCOME>
			<OUTCOME>X66</OUTCOME>
			<OUTCOME>X67</OUTCOME>
			<OUTCOME>X68</OUTCOME>
			<OUTCOME>X69</OUTCOME>
			<OUTCOME>X70</OUTCOME>
			<OUTCOME>X71</OUTCOME>
			<OUTCOME>X72</OUTCOME>
			<OUTCOME>X73</OUTCOME>
			<OUTCOME>X74</OUTCOME>
			<OUTCOME>X75</OUTCOME>
			<OUTCOME>X76</OUTCOME>
			<OUTCOME>X77</OUTCOME>
			<OUTCOME>X78</OUTCOME>
			<OUTCOME>X79</OUTCOME>
			<OUTCOME>X80</OUTCOME>
			<OUTCOME>X81</OUTCOME>
			<OUTCOME>X82</OUTCOME>
			<OUTCOME>X83</OUTCOME>
			<OUTCOME>X84</OUTCOME>
			<OUTCOME>X85</OUTCOME>
			<OUTCOME>X86</OUTCOME>
			<OUTCOME>X87</OUTCOME>
			<OUTCOME>X88</OUTCOME>
			<OUTCOME>X89</OUTCOME>
			<OUTCOME>X90</OUTCOME>
			<OUTCOME>X91</OUTCOME>
			<OUTCOME>X92</OUTCOME>
			<OUTCOME>X93</OUTCOME>
			<OUTCOME>X94</OUTCOME>
			<OUTCOME>X95</OUTCOME>
			<OUTCOME>X96</OUTCOME>
			<OUTCOME>X97</OUTCOME>
			<OUTCOME>X98</OUTCOME>
			<OUTCOME>X99</OUTCOME>
			<OUTCOME>X100</OUTCOME>
			<OUTCOME>X101</OUTCOME>
			<OUTCOME>X102</OUTCOME>
			<OUTCOME>X103</OUTCOME>
			<OUTCOME>X104</OUTCOME>
			<OUTCOME>X105</OUTCOME>
			<OUTCOME>X106</OUTCOME>
			<OUTCOME>X107</OUTCOME>
			<OUTCOME>X108</OUTCOME>
			<OUTCOME>X109</OUTCOME>
			<OUTCOME>X110</OUTCOME>
			<OUTCOME>X111</OUTCOME>
			<OUTCOME>X112</OUTCOME>
			<OUTCOME>X113</OUTCOME>
			<OUTCOME>X114</OUTCOME>
			<OUTCOME>X115</OUTCOME>
			<OUTCOME>X116</OUTCOME>
			<OUTCOME>X117</OUTCOME>
			<OUTCOME>X118</OUTCOME>
			<OUTCOME>X119</OUTCOME>
			<OUTCOME>X120</OUTCOME>
			<OUTCOME>X121</OUTCOME>
			<OUTCOME>X122</OUTCOME>
			<OUTCOME>X123</OUTCOME>
			<OUTCOME>X124</OUTCOME>
			<OUTCOME>X125</OUTCOME>
			<OUTCOME>X126</OUTCOME>
			<OUTCOME>X127</OUTCOME>
			<OUTCOME>X128</OUTCOME>
			<OUTCOME>X129</OUTCOME>
			<OUTCOME>X130</OUTCOME>
			<OUTCOME>X131</OUTCOME>
			<OUTCOME>X132</OUTCOME>
			<OUTCOME>X133</OUTCOME>
			<OUTCOME>X134</OUTCOME>
			<OUTCOME>X135</OUTCOME>
			<OUTCOME>X136</OUTCOME>
			<OUTCOME>X137</OUTCOME>
			<OUTCOME>X138</OUTCOME>
			<OUTCOME>X139</OUTCOME>
			<OUTCOME>X140</OUTCOME>
			<OUTCOME>X141</OUTCOME>
			<OUTCOME>X142</OUTCOME>
			<OUTCOME>X143</OUTCOME>
			<OUTCOME>X144</OUTCOME>
			<OUTCOME>X145</OUTCOME>
			<OUTCOME>X146</OUTCOME>
			<OUTCOME>X147</OUTCOME>
			<OUTCOME>X148</OUTCOME>
			<OUTCOME>X149</OUTCOME>
			<OUTCOME>X150</OUTCOME>
			<OUTCOME>X151</OUTCOME>
			<OUTCOME>X152</OUTCOME>
			<OUTCOME>X153</OUTCOME>
			<OUTCOME>X154</OUTCOME>
			<OUTCOME>X155</OUTCOME>
			<OUTCOME>X156</OUTCOME>
			<OUTCOME>X157</OUTCOME>
			<OUTCOME>X158</OUTCOME>
			<OUTCOME>X159</OUTCOME>
			<OUTCOME>X160</OUTCOME>
			<OUTCOME>X161</OUTCOME>
			<OUTCOME>X162</OUTCOME>
			<OUTCOME>X163</OUTCOME>
			<OUTCOME>X164</OUTCOME>
			<OUTCOME>X165</OUTCOME>
			<OUTCOME>X166</OUTCOME>
			<OUTCOME>X167</OUTCOME>
			<OUTCOME>X168</OUTCOME>
			<OUTCOME>X169</OUTCOME>
			<OUTCOME>X170</OUTCOME>
			<OUTCOME>X171</OUTCOME>
			<OUTCOME>X172</OUTCOME>
			<OUTCOME>X173</OUTCOME>
			<OUTCOME>X174</OUTCOME>
			<OUTCOME>X175</OUTCOME>
			<OUTCOME>X176</OUTCOME>
			<OUTCOME>X177</OUTCOME>
			<OUTCOME>X178</OUTCOME>
			<OUTCOME>X179</OUTCOME>
			<OUTCOME>X180</OUTCOME>
			<OUTCOME>X181</OUTCOME>
			<OUTCOME>X182</OUTCOME>
			<OUTCOME>X183</OUTCOME>
			<OUTCOME>X184</OUTCOME>
			<OUTCOME>X185</OUTCOME>
			<OUTCOME>X186</OUTCOME>
			<OUTCOME>X187</OUTCOME>
			<OUTCOME>X188</OUTCOME>
			<OUTCOME>X189</OUTCOME>
			<OUTCOME>X190</OUTCOME>
			<OUTCOME>X191</OUTCOME>
			<OUTCOME>X192</OUTCOME>
			<OUTCOME>X193</OUTCOME>
			<OUTCOME>X194</OUTCOME>
			<OUTCOME>X195</OUTCOME>
			<OUTCOME>X196</OUTCOME>
			<OUTCOME>X197</OUTCOME>
			<OUTCOME>X198</OUTCOME>
			<OUTCOME>X199</OUTCOME>
			<OUTCOME>X200</OUTCOME>
			<OUTCOME>X201</OUTCOME>
			<OUTCOME>X202</OUTCOME>
			<OUTCOME>X203</OUTCOME>
			<OUTCOME>X204</OUTCOME>
			<OUTCOME>X205</OUTCOME>
			<OUTCOME>X206</OUTCOME>
			<OUTCOME>X207</OUTCOME>
			<OUTCOME>X208</OUTCOME>
			<OUTCOME>X209</OUTCOME>
			<OUTCOME>X210</OUTCOME>
			<OUTCOME>X211</OUTCOME>
			<OUTCOME>X212</OUTCOME>
			<OUTCOME>X213</OUTCOME>
			<OUTCOME>X214</OUTCOME>
			<OUTCOME>X215</OUTCOME>
			<OUTCOME>X216</OUTCOME>
			<OUTCOME>X217</OUTCOME>
			<OUTCOME>X218</OUTCOME>
			<OUTCOME>X219</OUTCOME>
			<OUTCOME>X220</OUTCOME>
			<OUTCOME>X221</OUTCOME>
			<OUTCOME>X222</OUTCOME>
			<OUTCOME>X223</OUTCOME>
			<OUTCOME>X224</OUTCOME>
			<OUTCOME>X225</OUTCOME>
			<OUTCOME>X226</OUTCOME>
			<OUTCOME>X227</OUTCOME>
			<OUTCOME>X228</OUTCOME>
			<OUTCOME>X229</OUTCOME>
			<OUTCOME>X230</OUTCOME>
			<OUTCOME>X231</OUTCOME>
			<OUTCOME>X232</OUTCOME>
			<OUTCOME>X233</OUTCOME>
			<OUTCOME>X234</OUTCOME>
			<OUTCOME>X235</OUTCOME>
			<OUTCOME>X236</OUTCOME>
			<OUTCOME>X237</OUTCOME>
			<OUTCOME>X238</OUTCOME>
			<OUTCOME>X239</OUTCOME>
			<OUTCOME>X240</OUTCOME>
			<OUTCOME>X241</OUTCOME>
			<OUTCOME>X242</OUTCOME>
			<OUTCOME>X243</OUTCOME>
			<OUTCOME>X244</OUTCOME>
			<OUTCOME>X245</OUTCOME>
			<OUTCOME>X246</OUTCOME>
			<OUTCOME>X247</OUTCOME>
			<OUTCOME>X248</OUTCOME>
			<OUTCOME>X249</OUTCOME>
			<OUTCOME>X250</OUTCOME>
			<OUTCOME>X251</OUTCOME>
			<OUTCOME>X252</OUTCOME>
			<OUTCOME>X253</OUTCOME>
			<OUTCOME>X254</OUTCOME>
			<OUTCOME>X255</OUTCOME>
		</VARIABLE>
		<VARIABLE TYPE  = "nature">
			<NAME>SENSOR7</NAME>
		
			<OUTCOME>X0</OUTCOME>
			<OUTCOME>X1</OUTCOME>
			<OUTCOME>X2</OUTCOME>
			<OUTCOME>X3</OUTCOME>
			<OUTCOME>X4</OUTCOME>
			<OUTCOME>X5</OUTCOME>
			<OUTCOME>X6</OUTCOME>
			<OUTCOME>X7</OUTCOME>
			<OUTCOME>X8</OUTCOME>
			<OUTCOME>X9</OUTCOME>
			<OUTCOME>X10</OUTCOME>
			<OUTCOME>X11</OUTCOME>
			<OUTCOME>X12</OUTCOME>
			<OUTCOME>X13</OUTCOME>
			<OUTCOME>X14</OUTCOME>
			<OUTCOME>X15</OUTCOME>
			<OUTCOME>X16</OUTCOME>
			<OUTCOME>X17</OUTCOME>
			<OUTCOME>X18</OUTCOME>
			<OUTCOME>X19</OUTCOME>
			<OUTCOME>X20</OUTCOME>
			<OUTCOME>X21</OUTCOME>
			<OUTCOME>X22</OUTCOME>
			<OUTCOME>X23</OUTCOME>
			<OUTCOME>X24</OUTCOME>
			<OUTCOME>X25</OUTCOME>
			<OUTCOME>X26</OUTCOME>
			<OUTCOME>X27</OUTCOME>
			<OUTCOME>X28</OUTCOME>
			<OUTCOME>X29</OUTCOME>
			<OUTCOME>X30</OUTCOME>
			<OUTCOME>X31</OUTCOME>
			<OUTCOME>X32</OUTCOME>
			<OUTCOME>X33</OUTCOME>
			<OUTCOME>X34</OUTCOME>
			<OUTCOME>X35</OUTCOME>
			<OUTCOME>X36</OUTCOME>
			<OUTCOME>X37</OUTCOME>
			<OUTCOME>X38</OUTCOME>
			<OUTCOME>X39</OUTCOME>
			<OUTCOME>X40</OUTCOME>
			<OUTCOME>X41</OUTCOME>
			<OUTCOME>X42</OUTCOME>
			<OUTCOME>X43</OUTCOME>
			<OUTCOME>X44</OUTCOME>
			<OUTCOME>X45</OUTCOME>
			<OUTCOME>X46</OUTCOME>
			<OUTCOME>X47</OUTCOME>
			<OUTCOME>X48</OUTCOME>
			<OUTCOME>X49</OUTCOME>
			<OUTCOME>X50</OUTCOME>
			<OUTCOME>X51</OUTCOME>
			<OUTCOME>X52</OUTCOME>
			<OUTCOME>X53</OUTCOME>
			<OUTCOME>X54</OUTCOME>
			<OUTCOME>X55</OUTCOME>
			<OUTCOME>X56</OUTCOME>
			<OUTCOME>X57</OUTCOME>
			<OUTCOME>X58</OUTCOME>
			<OUTCOME>X59</OUTCOME>
			<OUTCOME>X60</OUTCOME>
			<OUTCOME>X61</OUTCOME>
			<OUTCOME>X62</OUTCOME>
			<OUTCOME>X63</OUTCOME>
			<OUTCOME>X64</OUTCOME>
			<OUTCOME>X65</OUTCOME>
			<OUTCOME>X66</OUTCOME>
			<OUTCOME>X67</OUTCOME>
			<OUTCOME>X68</OUTCOME>
			<OUTCOME>X69</OUTCOME>
			<OUTCOME>X70</OUTCOME>
			<OUTCOME>X71</OUTCOME>
			<OUTCOME>X72</OUTCOME>
			<OUTCOME>X73</OUTCOME>
			<OUTCOME>X74</OUTCOME>
			<OUTCOME>X75</OUTCOME>
			<OUTCOME>X76</OUTCOME>
			<OUTCOME>X77</OUTCOME>
			<OUTCOME>X78</OUTCOME>
			<OUTCOME>X79</OUTCOME>
			<OUTCOME>X80</OUTCOME>
			<OUTCOME>X81</OUTCOME>
			<OUTCOME>X82</OUTCOME>
			<OUTCOME>X83</OUTCOME>
			<OUTCOME>X84</OUTCOME>
			<OUTCOME>X85</OUTCOME>
			<OUTCOME>X86</OUTCOME>
			<OUTCOME>X87</OUTCOME>
			<OUTCOME>X88</OUTCOME>
			<OUTCOME>X89</OUTCOME>
			<OUTCOME>X90</OUTCOME>
			<OUTCOME>X91</OUTCOME>
			<OUTCOME>X92</OUTCOME>
			<OUTCOME>X93</OUTCOME>
			<OUTCOME>X94</OUTCOME>
			<OUTCOME>X95</OUTCOME>
			<OUTCOME>X96</OUTCOME>
			<OUTCOME>X97</OUTCOME>
			<OUTCOME>X98</OUTCOME>
			<OUTCOME>X99</OUTCOME>
			<OUTCOME>X100</OUTCOME>
			<OUTCOME>X101</OUTCOME>
			<OUTCOME>X102</OUTCOME>
			<OUTCOME>X103</OUTCOME>
			<OUTCOME>X104</OUTCOME>
			<OUTCOME>X105</OUTCOME>
			<OUTCOME>X106</OUTCOME>
			<OUTCOME>X107</OUTCOME>
			<OUTCOME>X108</OUTCOME>
			<OUTCOME>X109</OUTCOME>
			<OUTCOME>X110</OUTCOME>
			<OUTCOME>X111</OUTCOME>
			<OUTCOME>X112</OUTCOME>
			<OUTCOME>X113</OUTCOME>
			<OUTCOME>X114</OUTCOME>
			<OUTCOME>X115</OUTCOME>
			<OUTCOME>X116</OUTCOME>
			<OUTCOME>X117</OUTCOME>
			<OUTCOME>X118</OUTCOME>
			<OUTCOME>X119</OUTCOME>
			<OUTCOME>X120</OUTCOME>
			<OUTCOME>X121</OUTCOME>
			<OUTCOME>X122</OUTCOME>
			<OUTCOME>X123</OUTCOME>
			<OUTCOME>X124</OUTCOME>
			<OUTCOME>X125</OUTCOME>
			<OUTCOME>X126</OUTCOME>
			<OUTCOME>X127</OUTCOME>
			<OUTCOME>X128</OUTCOME>
			<OUTCOME>X129</OUTCOME>
			<OUTCOME>X130</OUTCOME>
			<OUTCOME>X131</OUTCOME>
			<OUTCOME>X132</OUTCOME>
			<OUTCOME>X133</OUTCOME>
			<OUTCOME>X134</OUTCOME>
			<OUTCOME>X135</OUTCOME>
			<OUTCOME>X136</OUTCOME>
			<OUTCOME>X137</OUTCOME>
			<OUTCOME>X138</OUTCOME>
			<OUTCOME>X139</OUTCOME>
			<OUTCOME>X140</OUTCOME>
			<OUTCOME>X141</OUTCOME>
			<OUTCOME>X142</OUTCOME>
			<OUTCOME>X143</OUTCOME>
			<OUTCOME>X144</OUTCOME>
			<OUTCOME>X145</OUTCOME>
			<OUTCOME>X146</OUTCOME>
			<OUTCOME>X147</OUTCOME>
			<OUTCOME>X148</OUTCOME>
			<OUTCOME>X149</OUTCOME>
			<OUTCOME>X150</OUTCOME>
			<OUTCOME>X151</OUTCOME>
			<OUTCOME>X152</OUTCOME>
			<OUTCOME>X153</OUTCOME>
			<OUTCOME>X154</OUTCOME>
			<OUTCOME>X155</OUTCOME>
			<OUTCOME>X156</OUTCOME>
			<OUTCOME>X157</OUTCOME>
			<OUTCOME>X158</OUTCOME>
			<OUTCOME>X159</OUTCOME>
			<OUTCOME>X160</OUTCOME>
			<OUTCOME>X161</OUTCOME>
			<OUTCOME>X162</OUTCOME>
			<OUTCOME>X163</OUTCOME>
			<OUTCOME>X164</OUTCOME>
			<OUTCOME>X165</OUTCOME>
			<OUTCOME>X166</OUTCOME>
			<OUTCOME>X167</OUTCOME>
			<OUTCOME>X168</OUTCOME>
			<OUTCOME>X169</OUTCOME>
			<OUTCOME>X170</OUTCOME>
			<OUTCOME>X171</OUTCOME>
			<OUTCOME>X172</OUTCOME>
			<OUTCOME>X173</OUTCOME>
			<OUTCOME>X174</OUTCOME>
			<OUTCOME>X175</OUTCOME>
			<OUTCOME>X176</OUTCOME>
			<OUTCOME>X177</OUTCOME>
			<OUTCOME>X178</OUTCOME>
			<OUTCOME>X179</OUTCOME>
			<OUTCOME>X180</OUTCOME>
			<OUTCOME>X181</OUTCOME>
			<OUTCOME>X182</OUTCOME>
			<OUTCOME>X183</OUTCOME>
			<OUTCOME>X184</OUTCOME>
			<OUTCOME>X185</OUTCOME>
			<OUTCOME>X186</OUTCOME>
			<OUTCOME>X187</OUTCOME>
			<OUTCOME>X188</OUTCOME>
			<OUTCOME>X189</OUTCOME>
			<OUTCOME>X190</OUTCOME>
			<OUTCOME>X191</OUTCOME>
			<OUTCOME>X192</OUTCOME>
			<OUTCOME>X193</OUTCOME>
			<OUTCOME>X194</OUTCOME>
			<OUTCOME>X195</OUTCOME>
			<OUTCOME>X196</OUTCOME>
			<OUTCOME>X197</OUTCOME>
			<OUTCOME>X198</OUTCOME>
			<OUTCOME>X199</OUTCOME>
			<OUTCOME>X200</OUTCOME>
			<OUTCOME>X201</OUTCOME>
			<OUTCOME>X202</OUTCOME>
			<OUTCOME>X203</OUTCOME>
			<OUTCOME>X204</OUTCOME>
			<OUTCOME>X205</OUTCOME>
			<OUTCOME>X206</OUTCOME>
			<OUTCOME>X207</OUTCOME>
			<OUTCOME>X208</OUTCOME>
			<OUTCOME>X209</OUTCOME>
			<OUTCOME>X210</OUTCOME>
			<OUTCOME>X211</OUTCOME>
			<OUTCOME>X212</OUTCOME>
			<OUTCOME>X213</OUTCOME>
			<OUTCOME>X214</OUTCOME>
			<OUTCOME>X215</OUTCOME>
			<OUTCOME>X216</OUTCOME>
			<OUTCOME>X217</OUTCOME>
			<OUTCOME>X218</OUTCOME>
			<OUTCOME>X219</OUTCOME>
			<OUTCOME>X220</OUTCOME>
			<OUTCOME>X221</OUTCOME>
			<OUTCOME>X222</OUTCOME>
			<OUTCOME>X223</OUTCOME>
			<OUTCOME>X224</OUTCOME>
			<OUTCOME>X225</OUTCOME>
			<OUTCOME>X226</OUTCOME>
			<OUTCOME>X227</OUTCOME>
			<OUTCOME>X228</OUTCOME>
			<OUTCOME>X229</OUTCOME>
			<OUTCOME>X230</OUTCOME>
			<OUTCOME>X231</OUTCOME>
			<OUTCOME>X232</OUTCOME>
			<OUTCOME>X233</OUTCOME>
			<OUTCOME>X234</OUTCOME>
			<OUTCOME>X235</OUTCOME>
			<OUTCOME>X236</OUTCOME>
			<OUTCOME>X237</OUTCOME>
			<OUTCOME>X238</OUTCOME>
			<OUTCOME>X239</OUTCOME>
			<OUTCOME>X240</OUTCOME>
			<OUTCOME>X241</OUTCOME>
			<OUTCOME>X242</OUTCOME>
			<OUTCOME>X243</OUTCOME>
			<OUTCOME>X244</OUTCOME>
			<OUTCOME>X245</OUTCOME>
			<OUTCOME>X246</OUTCOME>
			<OUTCOME>X247</OUTCOME>
			<OUTCOME>X248</OUTCOME>
			<OUTCOME>X249</OUTCOME>
			<OUTCOME>X250</OUTCOME>
			<OUTCOME>X251</OUTCOME>
			<OUTCOME>X252</OUTCOME>
			<OUTCOME>X253</OUTCOME>
			<OUTCOME>X254</OUTCOME>
			<OUTCOME>X255</OUTCOME>
		</VARIABLE>
		<VARIABLE TYPE  = "nature">
			<NAME>SENSOR8</NAME>
		
			<OUTCOME>X0</OUTCOME>
			<OUTCOME>X1</OUTCOME>
			<OUTCOME>X2</OUTCOME>
			<OUTCOME>X3</OUTCOME>
			<OUTCOME>X4</OUTCOME>
			<OUTCOME>X5</OUTCOME>
			<OUTCOME>X6</OUTCOME>
			<OUTCOME>X7</OUTCOME>
			<OUTCOME>X8</OUTCOME>
			<OUTCOME>X9</OUTCOME>
			<OUTCOME>X10</OUTCOME>
			<OUTCOME>X11</OUTCOME>
			<OUTCOME>X12</OUTCOME>
			<OUTCOME>X13</OUTCOME>
			<OUTCOME>X14</OUTCOME>
			<OUTCOME>X15</OUTCOME>
			<OUTCOME>X16</OUTCOME>
			<OUTCOME>X17</OUTCOME>
			<OUTCOME>X18</OUTCOME>
			<OUTCOME>X19</OUTCOME>
			<OUTCOME>X20</OUTCOME>
			<OUTCOME>X21</OUTCOME>
			<OUTCOME>X22</OUTCOME>
			<OUTCOME>X23</OUTCOME>
			<OUTCOME>X24</OUTCOME>
			<OUTCOME>X25</OUTCOME>
			<OUTCOME>X26</OUTCOME>
			<OUTCOME>X27</OUTCOME>
			<OUTCOME>X28</OUTCOME>
			<OUTCOME>X29</OUTCOME>
			<OUTCOME>X30</OUTCOME>
			<OUTCOME>X31</OUTCOME>
			<OUTCOME>X32</OUTCOME>
			<OUTCOME>X33</OUTCOME>
			<OUTCOME>X34</OUTCOME>
			<OUTCOME>X35</OUTCOME>
			<OUTCOME>X36</OUTCOME>
			<OUTCOME>X37</OUTCOME>
			<OUTCOME>X38</OUTCOME>
			<OUTCOME>X39</OUTCOME>
			<OUTCOME>X40</OUTCOME>
			<OUTCOME>X41</OUTCOME>
			<OUTCOME>X42</OUTCOME>
			<OUTCOME>X43</OUTCOME>
			<OUTCOME>X44</OUTCOME>
			<OUTCOME>X45</OUTCOME>
			<OUTCOME>X46</OUTCOME>
			<OUTCOME>X47</OUTCOME>
			<OUTCOME>X48</OUTCOME>
			<OUTCOME>X49</OUTCOME>
			<OUTCOME>X50</OUTCOME>
			<OUTCOME>X51</OUTCOME>
			<OUTCOME>X52</OUTCOME>
			<OUTCOME>X53</OUTCOME>
			<OUTCOME>X54</OUTCOME>
			<OUTCOME>X55</OUTCOME>
			<OUTCOME>X56</OUTCOME>
			<OUTCOME>X57</OUTCOME>
			<OUTCOME>X58</OUTCOME>
			<OUTCOME>X59</OUTCOME>
			<OUTCOME>X60</OUTCOME>
			<OUTCOME>X61</OUTCOME>
			<OUTCOME>X62</OUTCOME>
			<OUTCOME>X63</OUTCOME>
			<OUTCOME>X64</OUTCOME>
			<OUTCOME>X65</OUTCOME>
			<OUTCOME>X66</OUTCOME>
			<OUTCOME>X67</OUTCOME>
			<OUTCOME>X68</OUTCOME>
			<OUTCOME>X69</OUTCOME>
			<OUTCOME>X70</OUTCOME>
			<OUTCOME>X71</OUTCOME>
			<OUTCOME>X72</OUTCOME>
			<OUTCOME>X73</OUTCOME>
			<OUTCOME>X74</OUTCOME>
			<OUTCOME>X75</OUTCOME>
			<OUTCOME>X76</OUTCOME>
			<OUTCOME>X77</OUTCOME>
			<OUTCOME>X78</OUTCOME>
			<OUTCOME>X79</OUTCOME>
			<OUTCOME>X80</OUTCOME>
			<OUTCOME>X81</OUTCOME>
			<OUTCOME>X82</OUTCOME>
			<OUTCOME>X83</OUTCOME>
			<OUTCOME>X84</OUTCOME>
			<OUTCOME>X85</OUTCOME>
			<OUTCOME>X86</OUTCOME>
			<OUTCOME>X87</OUTCOME>
			<OUTCOME>X88</OUTCOME>
			<OUTCOME>X89</OUTCOME>
			<OUTCOME>X90</OUTCOME>
			<OUTCOME>X91</OUTCOME>
			<OUTCOME>X92</OUTCOME>
			<OUTCOME>X93</OUTCOME>
			<OUTCOME>X94</OUTCOME>
			<OUTCOME>X95</OUTCOME>
			<OUTCOME>X96</OUTCOME>
			<OUTCOME>X97</OUTCOME>
			<OUTCOME>X98</OUTCOME>
			<OUTCOME>X99</OUTCOME>
			<OUTCOME>X100</OUTCOME>
			<OUTCOME>X101</OUTCOME>
			<OUTCOME>X102</OUTCOME>
			<OUTCOME>X103</OUTCOME>
			<OUTCOME>X104</OUTCOME>
			<OUTCOME>X105</OUTCOME>
			<OUTCOME>X106</OUTCOME>
			<OUTCOME>X107</OUTCOME>
			<OUTCOME>X108</OUTCOME>
			<OUTCOME>X109</OUTCOME>
			<OUTCOME>X110</OUTCOME>
			<OUTCOME>X111</OUTCOME>
			<OUTCOME>X112</OUTCOME>
			<OUTCOME>X113</OUTCOME>
			<OUTCOME>X114</OUTCOME>
			<OUTCOME>X115</OUTCOME>
			<OUTCOME>X116</OUTCOME>
			<OUTCOME>X117</OUTCOME>
			<OUTCOME>X118</OUTCOME>
			<OUTCOME>X119</OUTCOME>
			<OUTCOME>X120</OUTCOME>
			<OUTCOME>X121</OUTCOME>
			<OUTCOME>X122</OUTCOME>
			<OUTCOME>X123</OUTCOME>
			<OUTCOME>X124</OUTCOME>
			<OUTCOME>X125</OUTCOME>
			<OUTCOME>X126</OUTCOME>
			<OUTCOME>X127</OUTCOME>
			<OUTCOME>X128</OUTCOME>
			<OUTCOME>X129</OUTCOME>
			<OUTCOME>X130</OUTCOME>
			<OUTCOME>X131</OUTCOME>
			<OUTCOME>X132</OUTCOME>
			<OUTCOME>X133</OUTCOME>
			<OUTCOME>X134</OUTCOME>
			<OUTCOME>X135</OUTCOME>
			<OUTCOME>X136</OUTCOME>
			<OUTCOME>X137</OUTCOME>
			<OUTCOME>X138</OUTCOME>
			<OUTCOME>X139</OUTCOME>
			<OUTCOME>X140</OUTCOME>
			<OUTCOME>X141</OUTCOME>
			<OUTCOME>X142</OUTCOME>
			<OUTCOME>X143</OUTCOME>
			<OUTCOME>X144</OUTCOME>
			<OUTCOME>X145</OUTCOME>
			<OUTCOME>X146</OUTCOME>
			<OUTCOME>X147</OUTCOME>
			<OUTCOME>X148</OUTCOME>
			<OUTCOME>X149</OUTCOME>
			<OUTCOME>X150</OUTCOME>
			<OUTCOME>X151</OUTCOME>
			<OUTCOME>X152</OUTCOME>
			<OUTCOME>X153</OUTCOME>
			<OUTCOME>X154</OUTCOME>
			<OUTCOME>X155</OUTCOME>
			<OUTCOME>X156</OUTCOME>
			<OUTCOME>X157</OUTCOME>
			<OUTCOME>X158</OUTCOME>
			<OUTCOME>X159</OUTCOME>
			<OUTCOME>X160</OUTCOME>
			<OUTCOME>X161</OUTCOME>
			<OUTCOME>X162</OUTCOME>
			<OUTCOME>X163</OUTCOME>
			<OUTCOME>X164</OUTCOME>
			<OUTCOME>X165</OUTCOME>
			<OUTCOME>X166</OUTCOME>
			<OUTCOME>X167</OUTCOME>
			<OUTCOME>X168</OUTCOME>
			<OUTCOME>X169</OUTCOME>
			<OUTCOME>X170</OUTCOME>
			<OUTCOME>X171</OUTCOME>
			<OUTCOME>X172</OUTCOME>
			<OUTCOME>X173</OUTCOME>
			<OUTCOME>X174</OUTCOME>
			<OUTCOME>X175</OUTCOME>
			<OUTCOME>X176</OUTCOME>
			<OUTCOME>X177</OUTCOME>
			<OUTCOME>X178</OUTCOME>
			<OUTCOME>X179</OUTCOME>
			<OUTCOME>X180</OUTCOME>
			<OUTCOME>X181</OUTCOME>
			<OUTCOME>X182</OUTCOME>
			<OUTCOME>X183</OUTCOME>
			<OUTCOME>X184</OUTCOME>
			<OUTCOME>X185</OUTCOME>
			<OUTCOME>X186</OUTCOME>
			<OUTCOME>X187</OUTCOME>
			<OUTCOME>X188</OUTCOME>
			<OUTCOME>X189</OUTCOME>
			<OUTCOME>X190</OUTCOME>
			<OUTCOME>X191</OUTCOME>
			<OUTCOME>X192</OUTCOME>
			<OUTCOME>X193</OUTCOME>
			<OUTCOME>X194</OUTCOME>
			<OUTCOME>X195</OUTCOME>
			<OUTCOME>X196</OUTCOME>
			<OUTCOME>X197</OUTCOME>
			<OUTCOME>X198</OUTCOME>
			<OUTCOME>X199</OUTCOME>
			<OUTCOME>X200</OUTCOME>
			<OUTCOME>X201</OUTCOME>
			<OUTCOME>X202</OUTCOME>
			<OUTCOME>X203</OUTCOME>
			<OUTCOME>X204</OUTCOME>
			<OUTCOME>X205</OUTCOME>
			<OUTCOME>X206</OUTCOME>
			<OUTCOME>X207</OUTCOME>
			<OUTCOME>X208</OUTCOME>
			<OUTCOME>X209</OUTCOME>
			<OUTCOME>X210</OUTCOME>
			<OUTCOME>X211</OUTCOME>
			<OUTCOME>X212</OUTCOME>
			<OUTCOME>X213</OUTCOME>
			<OUTCOME>X214</OUTCOME>
			<OUTCOME>X215</OUTCOME>
			<OUTCOME>X216</OUTCOME>
			<OUTCOME>X217</OUTCOME>
			<OUTCOME>X218</OUTCOME>
			<OUTCOME>X219</OUTCOME>
			<OUTCOME>X220</OUTCOME>
			<OUTCOME>X221</OUTCOME>
			<OUTCOME>X222</OUTCOME>
			<OUTCOME>X223</OUTCOME>
			<OUTCOME>X224</OUTCOME>
			<OUTCOME>X225</OUTCOME>
			<OUTCOME>X226</OUTCOME>
			<OUTCOME>X227</OUTCOME>
			<OUTCOME>X228</OUTCOME>
			<OUTCOME>X229</OUTCOME>
			<OUTCOME>X230</OUTCOME>
			<OUTCOME>X231</OUTCOME>
			<OUTCOME>X232</OUTCOME>
			<OUTCOME>X233</OUTCOME>
			<OUTCOME>X234</OUTCOME>
			<OUTCOME>X235</OUTCOME>
			<OUTCOME>X236</OUTCOME>
			<OUTCOME>X237</OUTCOME>
			<OUTCOME>X238</OUTCOME>
			<OUTCOME>X239</OUTCOME>
			<OUTCOME>X240</OUTCOME>
			<OUTCOME>X241</OUTCOME>
			<OUTCOME>X242</OUTCOME>
			<OUTCOME>X243</OUTCOME>
			<OUTCOME>X244</OUTCOME>
			<OUTCOME>X245</OUTCOME>
			<OUTCOME>X246</OUTCOME>
			<OUTCOME>X247</OUTCOME>
			<OUTCOME>X248</OUTCOME>
			<OUTCOME>X249</OUTCOME>
			<OUTCOME>X250</OUTCOME>
			<OUTCOME>X251</OUTCOME>
			<OUTCOME>X252</OUTCOME>
			<OUTCOME>X253</OUTCOME>
			<OUTCOME>X254</OUTCOME>
			<OUTCOME>X255</OUTCOME>
		</VARIABLE>
		<VARIABLE TYPE  = "nature">
			<NAME>SENSOR9</NAME>
		
			<OUTCOME>X0</OUTCOME>
			<OUTCOME>X1</OUTCOME>
			<OUTCOME>X2</OUTCOME>
			<OUTCOME>X3</OUTCOME>
			<OUTCOME>X4</OUTCOME>
			<OUTCOME>X5</OUTCOME>
			<OUTCOME>X6</OUTCOME>
			<OUTCOME>X7</OUTCOME>
			<OUTCOME>X8</OUTCOME>
			<OUTCOME>X9</OUTCOME>
			<OUTCOME>X10</OUTCOME>
			<OUTCOME>X11</OUTCOME>
			<OUTCOME>X12</OUTCOME>
			<OUTCOME>X13</OUTCOME>
			<OUTCOME>X14</OUTCOME>
			<OUTCOME>X15</OUTCOME>
			<OUTCOME>X16</OUTCOME>
			<OUTCOME>X17</OUTCOME>
			<OUTCOME>X18</OUTCOME>
			<OUTCOME>X19</OUTCOME>
			<OUTCOME>X20</OUTCOME>
			<OUTCOME>X21</OUTCOME>
			<OUTCOME>X22</OUTCOME>
			<OUTCOME>X23</OUTCOME>
			<OUTCOME>X24</OUTCOME>
			<OUTCOME>X25</OUTCOME>
			<OUTCOME>X26</OUTCOME>
			<OUTCOME>X27</OUTCOME>
			<OUTCOME>X28</OUTCOME>
			<OUTCOME>X29</OUTCOME>
			<OUTCOME>X30</OUTCOME>
			<OUTCOME>X31</OUTCOME>
			<OUTCOME>X32</OUTCOME>
			<OUTCOME>X33</OUTCOME>
			<OUTCOME>X34</OUTCOME>
			<OUTCOME>X35</OUTCOME>
			<OUTCOME>X36</OUTCOME>
			<OUTCOME>X37</OUTCOME>
			<OUTCOME>X38</OUTCOME>
			<OUTCOME>X39</OUTCOME>
			<OUTCOME>X40</OUTCOME>
			<OUTCOME>X41</OUTCOME>
			<OUTCOME>X42</OUTCOME>
			<OUTCOME>X43</OUTCOME>
			<OUTCOME>X44</OUTCOME>
			<OUTCOME>X45</OUTCOME>
			<OUTCOME>X46</OUTCOME>
			<OUTCOME>X47</OUTCOME>
			<OUTCOME>X48</OUTCOME>
			<OUTCOME>X49</OUTCOME>
			<OUTCOME>X50</OUTCOME>
			<OUTCOME>X51</OUTCOME>
			<OUTCOME>X52</OUTCOME>
			<OUTCOME>X53</OUTCOME>
			<OUTCOME>X54</OUTCOME>
			<OUTCOME>X55</OUTCOME>
			<OUTCOME>X56</OUTCOME>
			<OUTCOME>X57</OUTCOME>
			<OUTCOME>X58</OUTCOME>
			<OUTCOME>X59</OUTCOME>
			<OUTCOME>X60</OUTCOME>
			<OUTCOME>X61</OUTCOME>
			<OUTCOME>X62</OUTCOME>
			<OUTCOME>X63</OUTCOME>
			<OUTCOME>X64</OUTCOME>
			<OUTCOME>X65</OUTCOME>
			<OUTCOME>X66</OUTCOME>
			<OUTCOME>X67</OUTCOME>
			<OUTCOME>X68</OUTCOME>
			<OUTCOME>X69</OUTCOME>
			<OUTCOME>X70</OUTCOME>
			<OUTCOME>X71</OUTCOME>
			<OUTCOME>X72</OUTCOME>
			<OUTCOME>X73</OUTCOME>
			<OUTCOME>X74</OUTCOME>
			<OUTCOME>X75</OUTCOME>
			<OUTCOME>X76</OUTCOME>
			<OUTCOME>X77</OUTCOME>
			<OUTCOME>X78</OUTCOME>
			<OUTCOME>X79</OUTCOME>
			<OUTCOME>X80</OUTCOME>
			<OUTCOME>X81</OUTCOME>
			<OUTCOME>X82</OUTCOME>
			<OUTCOME>X83</OUTCOME>
			<OUTCOME>X84</OUTCOME>
			<OUTCOME>X85</OUTCOME>
			<OUTCOME>X86</OUTCOME>
			<OUTCOME>X87</OUTCOME>
			<OUTCOME>X88</OUTCOME>
			<OUTCOME>X89</OUTCOME>
			<OUTCOME>X90</OUTCOME>
			<OUTCOME>X91</OUTCOME>
			<OUTCOME>X92</OUTCOME>
			<OUTCOME>X93</OUTCOME>
			<OUTCOME>X94</OUTCOME>
			<OUTCOME>X95</OUTCOME>
			<OUTCOME>X96</OUTCOME>
			<OUTCOME>X97</OUTCOME>
			<OUTCOME>X98</OUTCOME>
			<OUTCOME>X99</OUTCOME>
			<OUTCOME>X100</OUTCOME>
			<OUTCOME>X101</OUTCOME>
			<OUTCOME>X102</OUTCOME>
			<OUTCOME>X103</OUTCOME>
			<OUTCOME>X104</OUTCOME>
			<OUTCOME>X105</OUTCOME>
			<OUTCOME>X106</OUTCOME>
			<OUTCOME>X107</OUTCOME>
			<OUTCOME>X108</OUTCOME>
			<OUTCOME>X109</OUTCOME>
			<OUTCOME>X110</OUTCOME>
			<OUTCOME>X111</OUTCOME>
			<OUTCOME>X112</OUTCOME>
			<OUTCOME>X113</OUTCOME>
			<OUTCOME>X114</OUTCOME>
			<OUTCOME>X115</OUTCOME>
			<OUTCOME>X116</OUTCOME>
			<OUTCOME>X117</OUTCOME>
			<OUTCOME>X118</OUTCOME>
			<OUTCOME>X119</OUTCOME>
			<OUTCOME>X120</OUTCOME>
			<OUTCOME>X121</OUTCOME>
			<OUTCOME>X122</OUTCOME>
			<OUTCOME>X123</OUTCOME>
			<OUTCOME>X124</OUTCOME>
			<OUTCOME>X125</OUTCOME>
			<OUTCOME>X126</OUTCOME>
			<OUTCOME>X127</OUTCOME>
			<OUTCOME>X128</OUTCOME>
			<OUTCOME>X129</OUTCOME>
			<OUTCOME>X130</OUTCOME>
			<OUTCOME>X131</OUTCOME>
			<OUTCOME>X132</OUTCOME>
			<OUTCOME>X133</OUTCOME>
			<OUTCOME>X134</OUTCOME>
			<OUTCOME>X135</OUTCOME>
			<OUTCOME>X136</OUTCOME>
			<OUTCOME>X137</OUTCOME>
			<OUTCOME>X138</OUTCOME>
			<OUTCOME>X139</OUTCOME>
			<OUTCOME>X140</OUTCOME>
			<OUTCOME>X141</OUTCOME>
			<OUTCOME>X142</OUTCOME>
			<OUTCOME>X143</OUTCOME>
			<OUTCOME>X144</OUTCOME>
			<OUTCOME>X145</OUTCOME>
			<OUTCOME>X146</OUTCOME>
			<OUTCOME>X147</OUTCOME>
			<OUTCOME>X148</OUTCOME>
			<OUTCOME>X149</OUTCOME>
			<OUTCOME>X150</OUTCOME>
			<OUTCOME>X151</OUTCOME>
			<OUTCOME>X152</OUTCOME>
			<OUTCOME>X153</OUTCOME>
			<OUTCOME>X154</OUTCOME>
			<OUTCOME>X155</OUTCOME>
			<OUTCOME>X156</OUTCOME>
			<OUTCOME>X157</OUTCOME>
			<OUTCOME>X158</OUTCOME>
			<OUTCOME>X159</OUTCOME>
			<OUTCOME>X160</OUTCOME>
			<OUTCOME>X161</OUTCOME>
			<OUTCOME>X162</OUTCOME>
			<OUTCOME>X163</OUTCOME>
			<OUTCOME>X164</OUTCOME>
			<OUTCOME>X165</OUTCOME>
			<OUTCOME>X166</OUTCOME>
			<OUTCOME>X167</OUTCOME>
			<OUTCOME>X168</OUTCOME>
			<OUTCOME>X169</OUTCOME>
			<OUTCOME>X170</OUTCOME>
			<OUTCOME>X171</OUTCOME>
			<OUTCOME>X172</OUTCOME>
			<OUTCOME>X173</OUTCOME>
			<OUTCOME>X174</OUTCOME>
			<OUTCOME>X175</OUTCOME>
			<OUTCOME>X176</OUTCOME>
			<OUTCOME>X177</OUTCOME>
			<OUTCOME>X178</OUTCOME>
			<OUTCOME>X179</OUTCOME>
			<OUTCOME>X180</OUTCOME>
			<OUTCOME>X181</OUTCOME>
			<OUTCOME>X182</OUTCOME>
			<OUTCOME>X183</OUTCOME>
			<OUTCOME>X184</OUTCOME>
			<OUTCOME>X185</OUTCOME>
			<OUTCOME>X186</OUTCOME>
			<OUTCOME>X187</OUTCOME>
			<OUTCOME>X188</OUTCOME>
			<OUTCOME>X189</OUTCOME>
			<OUTCOME>X190</OUTCOME>
			<OUTCOME>X191</OUTCOME>
			<OUTCOME>X192</OUTCOME>
			<OUTCOME>X193</OUTCOME>
			<OUTCOME>X194</OUTCOME>
			<OUTCOME>X195</OUTCOME>
			<OUTCOME>X196</OUTCOME>
			<OUTCOME>X197</OUTCOME>
			<OUTCOME>X198</OUTCOME>
			<OUTCOME>X199</OUTCOME>
			<OUTCOME>X200</OUTCOME>
			<OUTCOME>X201</OUTCOME>
			<OUTCOME>X202</OUTCOME>
			<OUTCOME>X203</OUTCOME>
			<OUTCOME>X204</OUTCOME>
			<OUTCOME>X205</OUTCOME>
			<OUTCOME>X206</OUTCOME>
			<OUTCOME>X207</OUTCOME>
			<OUTCOME>X208</OUTCOME>
			<OUTCOME>X209</OUTCOME>
			<OUTCOME>X210</OUTCOME>
			<OUTCOME>X211</OUTCOME>
			<OUTCOME>X212</OUTCOME>
			<OUTCOME>X213</OUTCOME>
			<OUTCOME>X214</OUTCOME>
			<OUTCOME>X215</OUTCOME>
			<OUTCOME>X216</OUTCOME>
			<OUTCOME>X217</OUTCOME>
			<OUTCOME>X218</OUTCOME>
			<OUTCOME>X219</OUTCOME>
			<OUTCOME>X220</OUTCOME>
			<OUTCOME>X221</OUTCOME>
			<OUTCOME>X222</OUTCOME>
			<OUTCOME>X223</OUTCOME>
			<OUTCOME>X224</OUTCOME>
			<OUTCOME>X225</OUTCOME>
			<OUTCOME>X226</OUTCOME>
			<OUTCOME>X227</OUTCOME>
			<OUTCOME>X228</OUTCOME>
			<OUTCOME>X229</OUTCOME>
			<OUTCOME>X230</OUTCOME>
			<OUTCOME>X231</OUTCOME>
			<OUTCOME>X232</OUTCOME>
			<OUTCOME>X233</OUTCOME>
			<OUTCOME>X234</OUTCOME>
			<OUTCOME>X235</OUTCOME>
			<OUTCOME>X236</OUTCOME>
			<OUTCOME>X237</OUTCOME>
			<OUTCOME>X238</OUTCOME>
			<OUTCOME>X239</OUTCOME>
			<OUTCOME>X240</OUTCOME>
			<OUTCOME>X241</OUTCOME>
			<OUTCOME>X242</OUTCOME>
			<OUTCOME>X243</OUTCOME>
			<OUTCOME>X244</OUTCOME>
			<OUTCOME>X245</OUTCOME>
			<OUTCOME>X246</OUTCOME>
			<OUTCOME>X247</OUTCOME>
			<OUTCOME>X248</OUTCOME>
			<OUTCOME>X249</OUTCOME>
			<OUTCOME>X250</OUTCOME>
			<OUTCOME>X251</OUTCOME>
			<OUTCOME>X252</OUTCOME>
			<OUTCOME>X253</OUTCOME>
			<OUTCOME>X254</OUTCOME>
			<OUTCOME>X255</OUTCOME>
		</VARIABLE>
	<DEFINITION>
	<FOR>CLASS6</FOR>
		<TABLE>0.017 0.983</TABLE>
	</DEFINITION>
			
		<DEFINITION>
		<FOR>SENSOR1</FOR>
		<GIVEN>CLASS6</GIVEN>
		<TABLE> 4.776832724400222e-12 8.115907287325147e-12 1.370263831115172e-11 2.29901277795726e-11 3.833086758029636e-11 6.35076418163431e-11 1.0456188348332689e-10 1.7107670696975286e-10 2.78149600034892e-10 4.494031073720548e-10 7.215455882728859e-10 1.1512285561321626e-09 1.8252796218616768e-09 2.8758572837650403e-09 4.502724013305588e-09 7.0057300736831595e-09 1.0831822768039637e-08 1.664254592362669e-08 2.5410198404555698e-08 3.855373177081289e-08 5.8129268848682766e-08 8.709502993061106e-08 1.296767025046858e-07 1.918671469406867e-07 2.8210406892901124e-07 4.121811781539957e-07 5.984626285081496e-07 8.634873678970732e-07 1.2380694716315287e-06 1.7640224771216128e-06 2.4976598221074304e-06 3.514249035536884e-06 4.9136232527000955e-06 6.827178341026857e-06 9.426505268270516e-06 1.2933922515647844e-05 1.763517885238374e-05 2.3894588496937242e-05 3.217283385571853e-05 4.3047620480512906e-05 5.723728926946954e-05 7.562737708523728e-05 9.929996437129206e-05 0.0001295654537585894 0.00016799618574917885 0.00021646101770217036 0.0002771596753317367 0.0003526553407051979 0.0004459035809689609 0.0005602753664598556 0.0006995715992827223 0.000868026302317762 0.0010702954361707989 0.0013114282522609733 0.0015968181887119808 0.0019321306042217616 0.0023232051504192284 0.0027759313233808886 0.0032960967158332734 0.003889208703704331 0.004560291716906436 0.005313663817933011 0.006152697976685967 0.007079575101038239 0.00809503745947977 0.009198152503408667 0.010386098146333546 0.011653981172896816 0.012994700531760451 0.014398866733786733 0.01585478738132007 0.017348526983942774 0.01886404670207056 0.020383426579238643 0.021887169299337792 0.023354580700109116 0.024764218386190154 0.026094396033743843 0.027323727592786104 0.028431692794582984 0.02939920335882017 0.030209148229178553 0.03084689615516505 0.031300735029191167 0.03156222955960397 0.0316264820222601 0.031492284830019195 0.031162158280231483 0.03064227183175765 0.029942252346887615 0.02907488762500679 0.028055737982417967 0.02690267235631233 0.02563534823783142 0.024274656536299986 0.02284215317780086 0.021359498849332033 0.019847926884289102 0.01832775697429254 0.016817969362163787 0.01533585062997349 0.013896718370590672 0.012513728148254036 0.011197762426683945 0.009957397758698779 0.008798943639034901 0.00772654412879115 0.006742331726391341 0.005846622001755574 0.005038137201720706 0.004314247314865968 0.003671217865027326 0.003104454879164589 0.002608738932187844 0.002178441793734004 0.0018077208815183968 0.001490688367338061 0.0012215533064897435 0.0009947365098571428 0.0008049590105742731 0.0006473058733027565 0.0005172677500792784 0.00041076301291635844 0.00032414351136787013 0.00025418704218452016 0.00019807951140990107 0.00015338955166592708 0.00011803806282161951 9.026480375796723e-05 6.859380343171716e-05 5.1799002938049086e-05 3.887120369783412e-05 2.898709219843987e-05 2.1480846308474402e-05 1.5818605568473428e-05 1.1575908358639177e-05 8.418060375375878e-06 6.0832976400827904e-06 4.368538514738859e-06 3.117477627660034e-06 2.2107548956099176e-06 1.557929922731545e-06 1.09100141925744e-06 7.592289955103294e-07 5.250375073264871e-07 3.6080948553953574e-07 2.4639712547009353e-07 1.6721044429562574e-07 1.1276160224120704e-07 7.556647240282565e-08 5.0323070624329095e-08 3.33023737635414e-08 2.1900464279175753e-08 1.4312039501771939e-08 9.294366720942448e-09 5.998023395784555e-09 3.846507469835637e-09 2.4512921719468143e-09 1.552364311725645e-09 9.769274099982275e-10 6.109434504564567e-10 3.796730798475781e-10 2.344707488699062e-10 1.4389231813921136e-10 8.77519187527624e-11 5.317967843633276e-11 3.2026159772212145e-11 1.916611538313927e-11 1.1398124704385324e-11 6.736010934076746e-12 3.955872049550968e-12 2.308616324382112e-12 1.338848270157959e-12 7.715801295660943e-13 4.418763735873499e-13 2.514725588606767e-13 1.4221666633087053e-13 7.992459806106004e-14 4.463550996418309e-14 2.477140355329879e-14 1.3661261402283358e-14 7.486883267269872e-15 4.077381946154657e-15 2.2066416077262777e-15 1.1867309897578218e-15 6.342242412354516e-16 3.3682433812853974e-16 1.7776005090840715e-16 9.322554701322128e-17 4.8585400615181055e-17 2.5162089877493856e-17 1.2949640259923488e-17 6.622756262135035e-18 3.3658124570280963e-18 1.6998520695596533e-18 8.531048611663573e-19 4.2546494010429707e-19 2.1086049106133932e-19 1.0384766171382177e-19 5.0823937026516765e-20 2.471780829660247e-20 1.1945977393137374e-20 5.737246251097552e-21 2.738138215131649e-21 1.2986057326656843e-21 6.120252476474708e-22 2.866364617894392e-22 1.3340238796807017e-22 6.169725564123541e-23 2.8355555702943984e-23 1.2950321571055622e-23 5.8775051143546716e-24 2.650791395869807e-24 1.1880320645096733e-24 5.291159405838245e-25 2.3417665730033857e-25 1.0299269744142662e-25 4.5013142815063047e-26 1.9549799762381747e-26 8.437530661688114e-27 3.6187492245718265e-27 1.5423100388075417e-27 6.532132058870509e-28 2.749212440262784e-28 1.1498249233828027e-28 4.7788699190928174e-29 1.9737346873876076e-29 8.100697439858218e-30 3.3038941349321056e-30 1.3390596011767165e-30 5.393165727255454e-31 2.1585280547074355e-31 8.585027737739965e-32 3.393093140211096e-32 1.3326617508659436e-32 5.201327003717711e-33 2.0173370147912696e-33 7.775222562388474e-34 2.977949131505025e-34 1.1334224067935645e-34 4.286831235474353e-35 1.6112059327972878e-35 6.0177728650167535e-36 2.233523902034646e-36 8.23788055453638e-37 3.019329082441583e-37 1.0997031858319637e-37 3.980252186961693e-38 1.4315804848814234e-38 5.1167125879938304e-39 1.8173406859608906e-39 6.414336649501703e-40 2.2497653477889547e-40 7.841384867352053e-41 2.7159288639524307e-41 9.347900573615805e-42 0.9999999999952232 0.999999999991884 0.9999999999862974 0.9999999999770098 0.9999999999616691 0.9999999999364924 0.9999999998954381 0.9999999998289233 0.9999999997218504 0.9999999995505969 0.9999999992784544 0.9999999988487714 0.9999999981747204 0.9999999971241427 0.999999995497276 0.9999999929942699 0.9999999891681772 0.9999999833574541 0.9999999745898016 0.9999999614462682 0.9999999418707312 0.99999991290497 0.9999998703232975 0.999999808132853 0.9999997178959311 0.9999995878188218 0.9999994015373715 0.9999991365126321 0.9999987619305284 0.9999982359775229 0.9999975023401779 0.9999964857509644 0.9999950863767473 0.999993172821659 0.9999905734947317 0.9999870660774843 0.9999823648211477 0.9999761054115031 0.9999678271661443 0.9999569523795195 0.9999427627107306 0.9999243726229148 0.9999007000356287 0.9998704345462414 0.9998320038142509 0.9997835389822979 0.9997228403246683 0.9996473446592948 0.999554096419031 0.9994397246335401 0.9993004284007173 0.9991319736976823 0.9989297045638292 0.9986885717477391 0.9984031818112881 0.9980678693957782 0.9976767948495807 0.9972240686766191 0.9967039032841667 0.9961107912962957 0.9954397082830936 0.994686336182067 0.9938473020233141 0.9929204248989617 0.9919049625405202 0.9908018474965913 0.9896139018536665 0.9883460188271032 0.9870052994682396 0.9856011332662132 0.9841452126186799 0.9826514730160573 0.9811359532979295 0.9796165734207614 0.9781128307006622 0.9766454192998909 0.9752357816138099 0.9739056039662561 0.9726762724072139 0.971568307205417 0.9706007966411798 0.9697908517708215 0.969153103844835 0.9686992649708088 0.968437770440396 0.9683735179777399 0.9685077151699808 0.9688378417197685 0.9693577281682424 0.9700577476531124 0.9709251123749932 0.971944262017582 0.9730973276436876 0.9743646517621686 0.9757253434637 0.9771578468221991 0.9786405011506679 0.980152073115711 0.9816722430257074 0.9831820306378363 0.9846641493700266 0.9861032816294093 0.987486271851746 0.9888022375733161 0.9900426022413013 0.9912010563609651 0.9922734558712089 0.9932576682736086 0.9941533779982444 0.9949618627982793 0.995685752685134 0.9963287821349727 0.9968955451208354 0.9973912610678122 0.997821558206266 0.9981922791184816 0.998509311632662 0.9987784466935102 0.9990052634901428 0.9991950409894257 0.9993526941266972 0.9994827322499207 0.9995892369870837 0.9996758564886321 0.9997458129578155 0.9998019204885901 0.9998466104483341 0.9998819619371784 0.999909735196242 0.9999314061965683 0.9999482009970619 0.9999611287963022 0.9999710129078015 0.9999785191536915 0.9999841813944316 0.9999884240916413 0.9999915819396247 0.9999939167023599 0.9999956314614853 0.9999968825223723 0.9999977892451044 0.9999984420700773 0.9999989089985808 0.9999992407710044 0.9999994749624926 0.9999996391905145 0.9999997536028745 0.9999998327895557 0.9999998872383977 0.9999999244335276 0.9999999496769294 0.9999999666976263 0.9999999780995357 0.9999999856879604 0.9999999907056333 0.9999999940019766 0.9999999961534926 0.9999999975487078 0.9999999984476357 0.9999999990230726 0.9999999993890566 0.9999999996203269 0.9999999997655292 0.9999999998561077 0.9999999999122481 0.9999999999468203 0.9999999999679738 0.9999999999808339 0.9999999999886019 0.9999999999932639 0.9999999999960442 0.9999999999976914 0.9999999999986612 0.9999999999992284 0.9999999999995581 0.9999999999997485 0.9999999999998578 0.9999999999999201 0.9999999999999554 0.9999999999999752 0.9999999999999863 0.9999999999999926 0.9999999999999959 0.9999999999999978 0.9999999999999988 0.9999999999999993 0.9999999999999997 0.9999999999999998 0.9999999999999999 1.0 1.0 1.0 1.0 1.0 1.0 1.0 1.0 1.0 1.0 1.0 1.0 1.0 1.0 1.0 1.0 1.0 1.0 1.0 1.0 1.0 1.0 1.0 1.0 1.0 1.0 1.0 1.0 1.0 1.0 1.0 1.0 1.0 1.0 1.0 1.0 1.0 1.0 1.0 1.0 1.0 1.0 1.0 1.0 1.0 1.0 1.0 1.0 1.0 1.0 1.0 1.0 1.0 1.0 1.0 1.0 1.0 1.0 1.0 1.0 1.0 1.0 1.0 1.0 1.0 1.0 1.0  </TABLE>
		</DEFINITION>
			
		<DEFINITION>
		<FOR>SENSOR2</FOR>
		<GIVEN>CLASS6</GIVEN>
		<TABLE> 6.684528788030118e-08 1.0078985050132639e-07 1.5098019099974337e-07 2.2468822130102697e-07 3.3219860809808907e-07 4.879468031536422e-07 7.120398695725571e-07 1.0322700173973076e-06 1.486755250970367e-06 2.1273689447465348e-06 3.0241499091132683e-06 4.2709155344279734e-06 5.99233129205204e-06 8.352717926321223e-06 1.1566900012365406e-05 1.5913412255953575e-05 2.175037818389836e-05 2.9534354120152454e-05 3.9842383311837656e-05 5.3397424127129715e-05 7.10971957887573e-05 9.404631912056191e-05 0.0001235914135634972 0.00016135854270948348 0.0002092920793573833 0.00026969369225805675 0.00034525974996857693 0.0004391150081051532 0.000554840016669879 0.0006964892824291407 0.0008685968820335866 0.001076165984210192 0.0013246386466704816 0.0016198423487647296 0.0019679100451243563 0.0023751711127769043 0.0028480114378455876 0.00339270205608637 0.004015197212998316 0.004720904410277842 0.005514430897474169 0.006399313067213961 0.007377737212177302 0.008450261975443796 0.009615554432946124 0.010870152942881394 0.012208270542936779 0.013621652650083022 0.015099502026409984 0.016628482365037604 0.018192809418985597 0.019774435395415072 0.021353328478883188 0.022907844998033507 0.024415187128548087 0.025851934388116216 0.02719463280678725 0.02842042183296921 0.0295076760298943 0.030436636660910916 0.031190007529477995 0.031753490034028206 0.03211623433856472 0.03227118677856022 0.03221531796389865 0.03194972127430213 0.031479577273597785 0.03081398566077301 0.02996567237298672 0.02895058501020649 0.027787394545975078 0.02649692506046177 0.02510153578797123 0.023624481001869403 0.022089273143849338 0.020519073206276647 0.01893612983875663 0.017361285180097497 0.015813561267987584 0.014309836330552423 0.012864615601250332 0.011489896791315101 0.010195126240197725 0.008987238236802919 0.007870767201040916 0.006848020416225834 0.005919297830327091 0.005083145067285197 0.0043366261330269615 0.003675603254614959 0.0030950127226110112 0.002589127372788061 0.0021517983004312293 0.0017766704147796702 0.001457368395715787 0.0011876514145838133 0.0009615365556252985 0.0007733921787044296 0.0006180034762955495 0.0004906131976367804 0.0003869409572435393 0.0003031847432710013 0.00023600823170317572 0.00018251733763491085 0.00014022913842090596 0.0001070359265010122 8.116672930775693e-05 6.114820117618967e-05 4.576637258097032e-05 3.403035380175057e-05 2.513874561181795e-05 1.8449215699872174e-05 1.3451458624248806e-05 9.743567948631645e-06 7.011708012669383e-06 5.012874054352097e-06 3.5604667182707624e-06 2.5123736745955513e-06 1.7612406640972293e-06 1.2266208439295608e-06 8.487096555913177e-07 5.833982367434084e-07 3.98408180929519e-07 2.703015583609826e-07 1.8219062168603308e-07 1.2200023083967935e-07 8.11619463691136e-08 5.3641562637153526e-08 3.5221476239659305e-08 2.2975811250703593e-08 1.4889884238650352e-08 9.586695965481077e-09 6.132022695944105e-09 3.896688764566639e-09 2.4600551958022507e-09 1.542947502723135e-09 9.61423237400316e-10 5.951620705066182e-10 3.6602693363883664e-10 2.2363923994198568e-10 1.357500936889343e-10 8.186333528977846e-11 4.90451308929695e-11 2.9191709429843936e-11 1.7261571177525092e-11 1.014047469694383e-11 5.91825146673898e-12 3.4315134817247088e-12 1.9766745511651587e-12 1.1312062573610082e-12 6.431401062094513e-13 3.6326750712844254e-13 2.0384716722944641e-13 1.1364228932911241e-13 6.294082538206162e-14 3.4632357819798886e-14 1.8931666810979272e-14 1.0281413153019737e-14 5.547201435392528e-15 2.973392409177769e-15 1.583389229429894e-15 8.376841746044598e-16 4.4028115969869913e-16 2.2989898769165566e-16 1.1926175132842226e-16 6.146423385373954e-17 3.1470303329447507e-17 1.6007980687300355e-17 8.089642709704878e-18 4.0614330291011534e-18 2.0257526618700093e-18 1.0038081248251426e-18 4.941652032655796e-19 2.4168560391258067e-19 1.174320303513255e-19 5.668648439082696e-20 2.718501918053714e-20 1.2952002821445384e-20 6.1305774487972046e-21 2.8828563516434103e-21 1.3467959087668944e-21 6.250830759189481e-22 2.8822447652126637e-22 1.3203259040550883e-22 6.008811709093084e-23 2.7167721271863957e-23 1.2203235627579545e-23 5.4457029434842164e-24 2.414293494970829e-24 1.0633674135983853e-24 4.653007976317779e-25 2.0227462885750906e-25 8.73587065852695e-26 3.748246499460273e-26 1.5977442349811202e-26 6.766179900260953e-27 2.84666910904073e-27 1.1898373641967406e-27 4.940778489053182e-28 2.038263514498021e-28 8.353768655153875e-29 3.4014314566956684e-29 1.3759357981411948e-29 5.529575376720815e-30 2.207712728204298e-30 8.756902350411067e-31 3.4507668600568414e-31 1.3509457104948391e-31 5.254329949903728e-32 2.0302707231110542e-32 7.793772584740546e-33 2.9723412795847447e-33 1.1261773358857593e-33 4.239084360653121e-34 1.585238101748045e-34 5.889441487899693e-35 2.1737564664934685e-35 7.970853532982356e-36 2.9037280323022477e-36 1.0509068236109595e-36 3.778588974824601e-37 1.3497466571074247e-37 4.789961628811535e-38 1.688764047719051e-38 5.915113485648007e-39 2.0583269212869958e-39 7.1157846084443385e-40 2.443927957193093e-40 8.33894619512025e-41 2.826774143884452e-41 9.519808564486502e-42 3.1850957053347457e-42 1.0587024648518283e-42 3.4960893891586655e-43 1.1469600700647715e-43 3.738274907461815e-44 1.2104624979753283e-44 3.893934199858861e-45 1.2444660250213224e-45 3.951251255941925e-46 1.246359750691836e-46 3.9057941520155944e-47 1.2159968568985665e-47 3.761081291497458e-48 1.1557134155792662e-48 3.5281314317073746e-49 1.0700314004462499e-49 3.2240773744029845e-50 9.650983113042519e-51 2.8700854164574866e-51 8.479597820469553e-52 2.4889309806110685e-52 7.257843827795272e-53 2.1026139947905373e-53 6.051578187989629e-54 1.730353809403166e-54 0.9999999331547121 0.9999998992101495 0.999999849019809 0.9999997753117787 0.9999996678013919 0.9999995120531968 0.9999992879601304 0.9999989677299826 0.999998513244749 0.9999978726310552 0.9999969758500908 0.9999957290844655 0.9999940076687079 0.9999916472820737 0.9999884330999876 0.9999840865877441 0.9999782496218161 0.9999704656458799 0.9999601576166882 0.9999466025758729 0.9999289028042112 0.9999059536808794 0.9998764085864364 0.9998386414572905 0.9997907079206426 0.999730306307742 0.9996547402500314 0.9995608849918949 0.9994451599833302 0.9993035107175708 0.9991314031179664 0.9989238340157898 0.9986753613533296 0.9983801576512352 0.9980320899548757 0.9976248288872231 0.9971519885621544 0.9966072979439137 0.9959848027870016 0.9952790955897222 0.9944855691025258 0.993600686932786 0.9926222627878227 0.9915497380245561 0.9903844455670539 0.9891298470571186 0.9877917294570632 0.986378347349917 0.98490049797359 0.9833715176349624 0.9818071905810144 0.9802255646045849 0.9786466715211168 0.9770921550019664 0.9755848128714519 0.9741480656118838 0.9728053671932128 0.9715795781670308 0.9704923239701057 0.9695633633390891 0.968809992470522 0.9682465099659718 0.9678837656614353 0.9677288132214398 0.9677846820361014 0.9680502787256978 0.9685204227264023 0.969186014339227 0.9700343276270132 0.9710494149897935 0.9722126054540249 0.9735030749395382 0.9748984642120287 0.9763755189981306 0.9779107268561507 0.9794809267937233 0.9810638701612434 0.9826387148199025 0.9841864387320124 0.9856901636694476 0.9871353843987497 0.9885101032086849 0.9898048737598023 0.9910127617631971 0.992129232798959 0.9931519795837742 0.9940807021696729 0.9949168549327148 0.995663373866973 0.9963243967453851 0.996904987277389 0.997410872627212 0.9978482016995688 0.9982233295852203 0.9985426316042842 0.9988123485854162 0.9990384634443747 0.9992266078212956 0.9993819965237044 0.9995093868023632 0.9996130590427564 0.999696815256729 0.9997639917682968 0.9998174826623651 0.9998597708615791 0.999892964073499 0.9999188332706922 0.9999388517988238 0.999954233627419 0.9999659696461982 0.9999748612543882 0.9999815507843002 0.9999865485413757 0.9999902564320514 0.9999929882919874 0.9999949871259457 0.9999964395332818 0.9999974876263255 0.9999982387593359 0.9999987733791561 0.9999991512903444 0.9999994166017633 0.9999996015918191 0.9999997296984416 0.9999998178093783 0.9999998779997692 0.9999999188380536 0.9999999463584374 0.9999999647785237 0.9999999770241887 0.9999999851101158 0.999999990413304 0.9999999938679773 0.9999999961033113 0.9999999975399448 0.9999999984570525 0.9999999990385767 0.999999999404838 0.999999999633973 0.9999999997763608 0.9999999998642499 0.9999999999181367 0.9999999999509549 0.9999999999708082 0.9999999999827385 0.9999999999898596 0.9999999999940817 0.9999999999965685 0.9999999999980234 0.9999999999988688 0.9999999999993568 0.9999999999996367 0.9999999999997962 0.9999999999998863 0.999999999999937 0.9999999999999654 0.999999999999981 0.9999999999999897 0.9999999999999944 0.999999999999997 0.9999999999999984 0.9999999999999991 0.9999999999999996 0.9999999999999998 0.9999999999999999 0.9999999999999999 1.0 1.0 1.0 1.0 1.0 1.0 1.0 1.0 1.0 1.0 1.0 1.0 1.0 1.0 1.0 1.0 1.0 1.0 1.0 1.0 1.0 1.0 1.0 1.0 1.0 1.0 1.0 1.0 1.0 1.0 1.0 1.0 1.0 1.0 1.0 1.0 1.0 1.0 1.0 1.0 1.0 1.0 1.0 1.0 1.0 1.0 1.0 1.0 1.0 1.0 1.0 1.0 1.0 1.0 1.0 1.0 1.0 1.0 1.0 1.0 1.0 1.0 1.0 1.0 1.0 1.0 1.0 1.0 1.0 1.0 1.0 1.0 1.0 1.0 1.0 1.0 1.0 1.0 1.0 1.0 1.0 1.0 1.0 1.0 1.0 1.0 1.0 1.0 1.0 1.0  </TABLE>
		</DEFINITION>
			
		<DEFINITION>
		<FOR>SENSOR3</FOR>
		<GIVEN>CLASS6</GIVEN>
		<TABLE> 6.603371933909557e-05 8.118840995198529e-05 9.945444964103065e-05 0.00012138256398717201 0.00014760134040900635 0.00017882416342139874 0.0002158559421558465 0.00025959942199091216 0.00031106083951414683 0.00037135464829818706 0.00044170701345911593 0.0005234577471969246 0.0006180603371753314 0.0007270797064749902 0.0008521873398017787 0.000995153417489455 0.0011578356183471793 0.0013421642861218075 0.0015501237035364082 0.0017837292833980764 0.0020450005685065152 0.0023359300308075136 0.0026584477745036274 0.003014382375986146 0.0034054182330197167 0.003833049943318332 0.004298534384440521 0.004802841318026606 0.005346603486415458 0.005930067302765886 0.006553045350853453 0.0072148720015602534 0.007914363513781879 0.008649784012593871 0.00941881872237885 0.010218555773603158 0.011045477796756603 0.011895464364884695 0.012763806148129046 0.013645231402566004 0.014533945136095374 0.015423680982717743 0.016307765481500463 0.017179194107612334 0.01803071805094574 0.01885494039480379 0.019644420025054857 0.020391781311101132 0.021089827355426107 0.021731654418734044 0.022310765001549857 0.02282117700738031 0.02325752643155205 0.023615161115414014 0.023890223276707798 0.024079718769732677 0.02418157133688407 0.0241946604771196 0.024118841965595487 0.023954950499032485 0.023704784398964694 0.02337107276485363 0.022957425915979802 0.022468270380440396 0.021908770067970557 0.02128473558878634 0.020602523943427202 0.019868931001306073 0.019091079303697873 0.01827630376836748 0.017432037838921596 0.016565702515920627 0.015684600534913846 0.014795817727092885 0.013906133321133763 0.013021940631200381 0.012149179237941303 0.011293279418797573 0.010459119232974287 0.009650994326235613 0.008872600201393115 0.008127026410685306 0.007416761873251349 0.006743710309831417 0.006109214621050999 0.00551408891667749 0.00495865683082036 0.004442794730322369 0.003965978437309111 0.003527332137639823 0.0031256782295845304 0.002759586975615489 0.0024274249486234056 0.002127401405998526 0.0018576118749062895 0.0016160783841977552 0.0014007859277579268 0.0012097148864323559 0.0010408692674741481 0.0008923007390137127 0.0007621285404694248 0.0006485554369544778 0.000549879956167561 0.0004645052001828171 0.00039094456270907986 0.00032782470592811566 0.0002738861614264502 0.00022798191870349515 0.00018907435409026656 0.00015623083450377518 0.00012861830610929727 0.00010549714938430391 8.621455084578865e-05 7.019760921017229e-05 5.6946361195530394e-05 4.602688053509463e-05 3.706457382721611e-05 2.9737769180504216e-05 2.3771668621185155e-05 1.8932713147243676e-05 1.5023390234355775e-05 1.1877497498780187e-05 9.355862985792459e-06 7.342511991947961e-06 5.741262208882167e-06 4.472723027988653e-06 3.4716707867032545e-06 2.6847692841327894e-06 2.068603771085993e-06 1.5879965686303714e-06 1.2145732538321557e-06 9.25549760806273e-07 7.027125965130177e-07 5.315665084748376e-07 4.006262371428235e-07 3.0083133550883784e-07 2.2506536205288233e-07 1.6776298977053982e-07 1.2459068083496382e-07 9.218852510784462e-08 6.796261498149682e-08 4.991892228393766e-08 3.653105600438319e-08 2.6635518690090063e-08 1.9349154680219592e-08 1.4004407534219274e-08 1.0098791142000256e-08 7.255643676942446e-09 5.193790271037504e-09 3.7042029784420005e-09 2.6321282762418024e-09 1.8634649600421174e-09 1.3144295590281704e-09 9.237518244945674e-10 6.468077387266705e-10 4.5122900841358157e-10 3.1363225589517036e-10 2.1719325707681681e-10 1.4985590488074888e-10 1.0301566935812451e-10 7.055610910236126e-11 4.814684830927245e-11 3.273429635320716e-11 2.2173796747279198e-11 1.4965079239907804e-11 1.006282419339116e-11 6.741594952280715e-12 4.499946311376653e-12 2.992636129680166e-12 1.9829072624136312e-12 1.3090396401056119e-12 8.610038602754564e-13 5.64234068366727e-13 3.683964342120583e-13 2.396477945637734e-13 1.5532213849272903e-13 1.0029867414148243e-13 6.452959343133216e-14 4.136419450624652e-14 2.6417524596608182e-14 1.6809762415956544e-14 1.0656950196153133e-14 6.73141247178875e-15 4.236247991847414e-15 2.656185826224531e-15 1.6593478611561475e-15 1.0328049978719146e-15 6.404734449065789e-16 3.9571802321741285e-16 2.435972829824226e-16 1.494035631194002e-16 9.12959214230661e-17 5.558322012468428e-17 3.371614683109603e-17 2.0376710517343476e-17 1.226964848913624e-17 7.36091956549964e-18 4.399810070145711e-18 2.620219610252161e-18 1.5546884136091031e-18 9.190749669901326e-19 5.413279093399046e-19 3.1766678379529745e-19 1.8573130039831086e-19 1.0819328293341934e-19 6.279389238213429e-20 3.6310850033847604e-20 2.0919790612394832e-20 1.2008262054021502e-20 6.867598331130628e-21 3.913195288838468e-21 2.2215703146903095e-21 1.256581065120901e-21 7.081460954329791e-22 3.9760984076793014e-22 2.224299633386728e-22 1.2397421356073696e-22 6.884483125029716e-23 3.809019741332372e-23 2.099698864270767e-23 1.1531948896270567e-23 6.310304421915262e-24 3.440327752857217e-24 1.8687501166256493e-24 1.0113571582679498e-24 5.453304880138929e-25 2.9296579029631073e-25 1.5681079211276997e-25 8.36251466992229e-26 4.443239698695101e-26 2.352147210106116e-26 1.2405982404044879e-26 6.519281422862939e-27 3.413266537713181e-27 1.780502481478589e-27 9.253730974273372e-28 4.791737975514704e-28 2.472129174695606e-28 1.270723800290834e-28 6.507783170965083e-29 3.320602502148932e-29 1.6881172711136405e-29 8.550474999930529e-30 4.314989824561415e-30 2.1695577575907366e-30 1.0868373697844404e-30 5.424501270284487e-31 2.6974721761599946e-31 1.3364602255809373e-31 6.59715987368759e-32 3.2445904483142873e-32 1.5898811780012278e-32 7.761959217082008e-33 3.7755476103729785e-33 1.829744506076342e-33 8.834924825136332e-34 0.9999339662806609 0.999918811590048 0.999900545550359 0.9998786174360128 0.999852398659591 0.9998211758365786 0.9997841440578441 0.9997404005780091 0.9996889391604858 0.9996286453517018 0.9995582929865409 0.999476542252803 0.9993819396628246 0.999272920293525 0.9991478126601983 0.9990048465825105 0.9988421643816529 0.9986578357138782 0.9984498762964636 0.9982162707166019 0.9979549994314935 0.9976640699691924 0.9973415522254964 0.9969856176240138 0.9965945817669802 0.9961669500566817 0.9957014656155595 0.9951971586819734 0.9946533965135845 0.9940699326972341 0.9934469546491466 0.9927851279984398 0.9920856364862182 0.9913502159874061 0.9905811812776212 0.9897814442263968 0.9889545222032434 0.9881045356351154 0.987236193851871 0.986354768597434 0.9854660548639046 0.9845763190172823 0.9836922345184995 0.9828208058923876 0.9819692819490543 0.9811450596051962 0.9803555799749452 0.9796082186888989 0.9789101726445739 0.978268345581266 0.9776892349984502 0.9771788229926197 0.9767424735684479 0.9763848388845859 0.9761097767232922 0.9759202812302673 0.975818428663116 0.9758053395228804 0.9758811580344046 0.9760450495009675 0.9762952156010353 0.9766289272351464 0.9770425740840202 0.9775317296195596 0.9780912299320295 0.9787152644112137 0.9793974760565728 0.980131068998694 0.9809089206963021 0.9817236962316325 0.9825679621610784 0.9834342974840794 0.9843153994650862 0.9852041822729071 0.9860938666788662 0.9869780593687996 0.9878508207620587 0.9887067205812025 0.9895408807670257 0.9903490056737644 0.9911273997986069 0.9918729735893147 0.9925832381267486 0.9932562896901685 0.993890785378949 0.9944859110833225 0.9950413431691797 0.9955572052696776 0.9960340215626909 0.9964726678623602 0.9968743217704155 0.9972404130243845 0.9975725750513766 0.9978725985940015 0.9981423881250937 0.9983839216158023 0.9985992140722421 0.9987902851135676 0.9989591307325258 0.9991076992609863 0.9992378714595306 0.9993514445630455 0.9994501200438325 0.9995354947998172 0.999609055437291 0.9996721752940719 0.9997261138385736 0.9997720180812965 0.9998109256459098 0.9998437691654962 0.9998713816938907 0.9998945028506157 0.9999137854491542 0.9999298023907899 0.9999430536388044 0.9999539731194649 0.9999629354261728 0.9999702622308195 0.9999762283313788 0.9999810672868528 0.9999849766097656 0.9999881225025012 0.9999906441370142 0.999992657488008 0.9999942587377911 0.999995527276972 0.9999965283292133 0.9999973152307159 0.999997931396229 0.9999984120034314 0.9999987854267461 0.9999990744502392 0.9999992972874034 0.9999994684334915 0.9999995993737628 0.9999996991686645 0.999999774934638 0.9999998322370103 0.9999998754093191 0.9999999078114749 0.999999932037385 0.9999999500810777 0.999999963468944 0.9999999733644813 0.9999999806508453 0.9999999859955925 0.9999999899012089 0.9999999927443564 0.9999999948062097 0.9999999962957971 0.9999999973678717 0.9999999981365351 0.9999999986855704 0.9999999990762481 0.9999999993531923 0.999999999548771 0.9999999996863678 0.9999999997828067 0.9999999998501441 0.9999999998969843 0.9999999999294439 0.9999999999518532 0.9999999999672657 0.9999999999778262 0.999999999985035 0.9999999999899372 0.9999999999932584 0.9999999999955 0.9999999999970074 0.9999999999980171 0.9999999999986909 0.999999999999139 0.9999999999994358 0.9999999999996316 0.9999999999997603 0.9999999999998447 0.9999999999998997 0.9999999999999355 0.9999999999999586 0.9999999999999736 0.9999999999999832 0.9999999999999893 0.9999999999999932 0.9999999999999958 0.9999999999999973 0.9999999999999983 0.999999999999999 0.9999999999999993 0.9999999999999996 0.9999999999999998 0.9999999999999999 0.9999999999999999 0.9999999999999999 1.0 1.0 1.0 1.0 1.0 1.0 1.0 1.0 1.0 1.0 1.0 1.0 1.0 1.0 1.0 1.0 1.0 1.0 1.0 1.0 1.0 1.0 1.0 1.0 1.0 1.0 1.0 1.0 1.0 1.0 1.0 1.0 1.0 1.0 1.0 1.0 1.0 1.0 1.0 1.0 1.0 1.0 1.0 1.0 1.0 1.0 1.0 1.0 1.0 1.0 1.0 1.0 1.0 1.0 1.0 1.0 1.0 1.0 1.0 1.0 1.0 1.0 1.0  </TABLE>
		</DEFINITION>
			
		<DEFINITION>
		<FOR>SENSOR4</FOR>
		<GIVEN>CLASS6</GIVEN>
