<?xml version="1.0" encoding="US-ASCII"?>
 
 
 <!--
 	Bayesian network in XMLBIF v0.3 (BayesNet Interchange Format)
 	Produced by JavaBayes (http://www.cs.cmu.edu/~javabayes/
 	Output created Mon Nov 02 22:40:12**8 GMT-03:00 1998
 -->

 
 
 <!-- DTD for the XMLBIF 0.3 format -->
 <!DOCTYPE BIF [
 	<!ELEMENT BIF ( NETWORK )*>
 	      <!ATTLIST BIF VERSION CDATA #REQUIRED>
 	<!ELEMENT NETWORK ( NAME, ( PROPERTY | VARIABLE | DEFINITION )* )>
 	<!ELEMENT NAME (#PCDATA)>
 	<!ELEMENT VARIABLE ( NAME, ( OUTCOME |  PROPERTY )* ) >
 	      <!ATTLIST VARIABLE TYPE (nature|decision|utility) "nature">
 	<!ELEMENT OUTCOME (#PCDATA)>
 	<!ELEMENT DEFINITION ( FOR | GIVEN | TABLE | PROPERTY )* >
 	<!ELEMENT FOR (#PCDATA)>
 	<!ELEMENT GIVEN (#PCDATA)>
 	<!ELEMENT TABLE (#PCDATA)>
 	<!ELEMENT PROPERTY (#PCDATA)>
 ]>
 
 
 <BIF VERSION="0.3">
 <NETWORK>
	<NAME>NAIVE_BAYES_MODEL</NAME>
	<VARIABLE TYPE  = "nature">
		<NAME>CLASS1</NAME>
		<OUTCOME>true</OUTCOME>
		<OUTCOME>false</OUTCOME>
	</VARIABLE>
		<VARIABLE TYPE  = "nature">
			<NAME>SENSOR1</NAME>
		
			<OUTCOME>X0</OUTCOME>
			<OUTCOME>X1</OUTCOME>
			<OUTCOME>X2</OUTCOME>
			<OUTCOME>X3</OUTCOME>
			<OUTCOME>X4</OUTCOME>
			<OUTCOME>X5</OUTCOME>
			<OUTCOME>X6</OUTCOME>
			<OUTCOME>X7</OUTCOME>
			<OUTCOME>X8</OUTCOME>
			<OUTCOME>X9</OUTCOME>
			<OUTCOME>X10</OUTCOME>
			<OUTCOME>X11</OUTCOME>
			<OUTCOME>X12</OUTCOME>
			<OUTCOME>X13</OUTCOME>
			<OUTCOME>X14</OUTCOME>
			<OUTCOME>X15</OUTCOME>
			<OUTCOME>X16</OUTCOME>
			<OUTCOME>X17</OUTCOME>
			<OUTCOME>X18</OUTCOME>
			<OUTCOME>X19</OUTCOME>
			<OUTCOME>X20</OUTCOME>
			<OUTCOME>X21</OUTCOME>
			<OUTCOME>X22</OUTCOME>
			<OUTCOME>X23</OUTCOME>
			<OUTCOME>X24</OUTCOME>
			<OUTCOME>X25</OUTCOME>
			<OUTCOME>X26</OUTCOME>
			<OUTCOME>X27</OUTCOME>
			<OUTCOME>X28</OUTCOME>
			<OUTCOME>X29</OUTCOME>
			<OUTCOME>X30</OUTCOME>
			<OUTCOME>X31</OUTCOME>
			<OUTCOME>X32</OUTCOME>
			<OUTCOME>X33</OUTCOME>
			<OUTCOME>X34</OUTCOME>
			<OUTCOME>X35</OUTCOME>
			<OUTCOME>X36</OUTCOME>
			<OUTCOME>X37</OUTCOME>
			<OUTCOME>X38</OUTCOME>
			<OUTCOME>X39</OUTCOME>
			<OUTCOME>X40</OUTCOME>
			<OUTCOME>X41</OUTCOME>
			<OUTCOME>X42</OUTCOME>
			<OUTCOME>X43</OUTCOME>
			<OUTCOME>X44</OUTCOME>
			<OUTCOME>X45</OUTCOME>
			<OUTCOME>X46</OUTCOME>
			<OUTCOME>X47</OUTCOME>
			<OUTCOME>X48</OUTCOME>
			<OUTCOME>X49</OUTCOME>
			<OUTCOME>X50</OUTCOME>
			<OUTCOME>X51</OUTCOME>
			<OUTCOME>X52</OUTCOME>
			<OUTCOME>X53</OUTCOME>
			<OUTCOME>X54</OUTCOME>
			<OUTCOME>X55</OUTCOME>
			<OUTCOME>X56</OUTCOME>
			<OUTCOME>X57</OUTCOME>
			<OUTCOME>X58</OUTCOME>
			<OUTCOME>X59</OUTCOME>
			<OUTCOME>X60</OUTCOME>
			<OUTCOME>X61</OUTCOME>
			<OUTCOME>X62</OUTCOME>
			<OUTCOME>X63</OUTCOME>
			<OUTCOME>X64</OUTCOME>
			<OUTCOME>X65</OUTCOME>
			<OUTCOME>X66</OUTCOME>
			<OUTCOME>X67</OUTCOME>
			<OUTCOME>X68</OUTCOME>
			<OUTCOME>X69</OUTCOME>
			<OUTCOME>X70</OUTCOME>
			<OUTCOME>X71</OUTCOME>
			<OUTCOME>X72</OUTCOME>
			<OUTCOME>X73</OUTCOME>
			<OUTCOME>X74</OUTCOME>
			<OUTCOME>X75</OUTCOME>
			<OUTCOME>X76</OUTCOME>
			<OUTCOME>X77</OUTCOME>
			<OUTCOME>X78</OUTCOME>
			<OUTCOME>X79</OUTCOME>
			<OUTCOME>X80</OUTCOME>
			<OUTCOME>X81</OUTCOME>
			<OUTCOME>X82</OUTCOME>
			<OUTCOME>X83</OUTCOME>
			<OUTCOME>X84</OUTCOME>
			<OUTCOME>X85</OUTCOME>
			<OUTCOME>X86</OUTCOME>
			<OUTCOME>X87</OUTCOME>
			<OUTCOME>X88</OUTCOME>
			<OUTCOME>X89</OUTCOME>
			<OUTCOME>X90</OUTCOME>
			<OUTCOME>X91</OUTCOME>
			<OUTCOME>X92</OUTCOME>
			<OUTCOME>X93</OUTCOME>
			<OUTCOME>X94</OUTCOME>
			<OUTCOME>X95</OUTCOME>
			<OUTCOME>X96</OUTCOME>
			<OUTCOME>X97</OUTCOME>
			<OUTCOME>X98</OUTCOME>
			<OUTCOME>X99</OUTCOME>
			<OUTCOME>X100</OUTCOME>
			<OUTCOME>X101</OUTCOME>
			<OUTCOME>X102</OUTCOME>
			<OUTCOME>X103</OUTCOME>
			<OUTCOME>X104</OUTCOME>
			<OUTCOME>X105</OUTCOME>
			<OUTCOME>X106</OUTCOME>
			<OUTCOME>X107</OUTCOME>
			<OUTCOME>X108</OUTCOME>
			<OUTCOME>X109</OUTCOME>
			<OUTCOME>X110</OUTCOME>
			<OUTCOME>X111</OUTCOME>
			<OUTCOME>X112</OUTCOME>
			<OUTCOME>X113</OUTCOME>
			<OUTCOME>X114</OUTCOME>
			<OUTCOME>X115</OUTCOME>
			<OUTCOME>X116</OUTCOME>
			<OUTCOME>X117</OUTCOME>
			<OUTCOME>X118</OUTCOME>
			<OUTCOME>X119</OUTCOME>
			<OUTCOME>X120</OUTCOME>
			<OUTCOME>X121</OUTCOME>
			<OUTCOME>X122</OUTCOME>
			<OUTCOME>X123</OUTCOME>
			<OUTCOME>X124</OUTCOME>
			<OUTCOME>X125</OUTCOME>
			<OUTCOME>X126</OUTCOME>
			<OUTCOME>X127</OUTCOME>
			<OUTCOME>X128</OUTCOME>
			<OUTCOME>X129</OUTCOME>
			<OUTCOME>X130</OUTCOME>
			<OUTCOME>X131</OUTCOME>
			<OUTCOME>X132</OUTCOME>
			<OUTCOME>X133</OUTCOME>
			<OUTCOME>X134</OUTCOME>
			<OUTCOME>X135</OUTCOME>
			<OUTCOME>X136</OUTCOME>
			<OUTCOME>X137</OUTCOME>
			<OUTCOME>X138</OUTCOME>
			<OUTCOME>X139</OUTCOME>
			<OUTCOME>X140</OUTCOME>
			<OUTCOME>X141</OUTCOME>
			<OUTCOME>X142</OUTCOME>
			<OUTCOME>X143</OUTCOME>
			<OUTCOME>X144</OUTCOME>
			<OUTCOME>X145</OUTCOME>
			<OUTCOME>X146</OUTCOME>
			<OUTCOME>X147</OUTCOME>
			<OUTCOME>X148</OUTCOME>
			<OUTCOME>X149</OUTCOME>
			<OUTCOME>X150</OUTCOME>
			<OUTCOME>X151</OUTCOME>
			<OUTCOME>X152</OUTCOME>
			<OUTCOME>X153</OUTCOME>
			<OUTCOME>X154</OUTCOME>
			<OUTCOME>X155</OUTCOME>
			<OUTCOME>X156</OUTCOME>
			<OUTCOME>X157</OUTCOME>
			<OUTCOME>X158</OUTCOME>
			<OUTCOME>X159</OUTCOME>
			<OUTCOME>X160</OUTCOME>
			<OUTCOME>X161</OUTCOME>
			<OUTCOME>X162</OUTCOME>
			<OUTCOME>X163</OUTCOME>
			<OUTCOME>X164</OUTCOME>
			<OUTCOME>X165</OUTCOME>
			<OUTCOME>X166</OUTCOME>
			<OUTCOME>X167</OUTCOME>
			<OUTCOME>X168</OUTCOME>
			<OUTCOME>X169</OUTCOME>
			<OUTCOME>X170</OUTCOME>
			<OUTCOME>X171</OUTCOME>
			<OUTCOME>X172</OUTCOME>
			<OUTCOME>X173</OUTCOME>
			<OUTCOME>X174</OUTCOME>
			<OUTCOME>X175</OUTCOME>
			<OUTCOME>X176</OUTCOME>
			<OUTCOME>X177</OUTCOME>
			<OUTCOME>X178</OUTCOME>
			<OUTCOME>X179</OUTCOME>
			<OUTCOME>X180</OUTCOME>
			<OUTCOME>X181</OUTCOME>
			<OUTCOME>X182</OUTCOME>
			<OUTCOME>X183</OUTCOME>
			<OUTCOME>X184</OUTCOME>
			<OUTCOME>X185</OUTCOME>
			<OUTCOME>X186</OUTCOME>
			<OUTCOME>X187</OUTCOME>
			<OUTCOME>X188</OUTCOME>
			<OUTCOME>X189</OUTCOME>
			<OUTCOME>X190</OUTCOME>
			<OUTCOME>X191</OUTCOME>
			<OUTCOME>X192</OUTCOME>
			<OUTCOME>X193</OUTCOME>
			<OUTCOME>X194</OUTCOME>
			<OUTCOME>X195</OUTCOME>
			<OUTCOME>X196</OUTCOME>
			<OUTCOME>X197</OUTCOME>
			<OUTCOME>X198</OUTCOME>
			<OUTCOME>X199</OUTCOME>
			<OUTCOME>X200</OUTCOME>
			<OUTCOME>X201</OUTCOME>
			<OUTCOME>X202</OUTCOME>
			<OUTCOME>X203</OUTCOME>
			<OUTCOME>X204</OUTCOME>
			<OUTCOME>X205</OUTCOME>
			<OUTCOME>X206</OUTCOME>
			<OUTCOME>X207</OUTCOME>
			<OUTCOME>X208</OUTCOME>
			<OUTCOME>X209</OUTCOME>
			<OUTCOME>X210</OUTCOME>
			<OUTCOME>X211</OUTCOME>
			<OUTCOME>X212</OUTCOME>
			<OUTCOME>X213</OUTCOME>
			<OUTCOME>X214</OUTCOME>
			<OUTCOME>X215</OUTCOME>
			<OUTCOME>X216</OUTCOME>
			<OUTCOME>X217</OUTCOME>
			<OUTCOME>X218</OUTCOME>
			<OUTCOME>X219</OUTCOME>
			<OUTCOME>X220</OUTCOME>
			<OUTCOME>X221</OUTCOME>
			<OUTCOME>X222</OUTCOME>
			<OUTCOME>X223</OUTCOME>
			<OUTCOME>X224</OUTCOME>
			<OUTCOME>X225</OUTCOME>
			<OUTCOME>X226</OUTCOME>
			<OUTCOME>X227</OUTCOME>
			<OUTCOME>X228</OUTCOME>
			<OUTCOME>X229</OUTCOME>
			<OUTCOME>X230</OUTCOME>
			<OUTCOME>X231</OUTCOME>
			<OUTCOME>X232</OUTCOME>
			<OUTCOME>X233</OUTCOME>
			<OUTCOME>X234</OUTCOME>
			<OUTCOME>X235</OUTCOME>
			<OUTCOME>X236</OUTCOME>
			<OUTCOME>X237</OUTCOME>
			<OUTCOME>X238</OUTCOME>
			<OUTCOME>X239</OUTCOME>
			<OUTCOME>X240</OUTCOME>
			<OUTCOME>X241</OUTCOME>
			<OUTCOME>X242</OUTCOME>
			<OUTCOME>X243</OUTCOME>
			<OUTCOME>X244</OUTCOME>
			<OUTCOME>X245</OUTCOME>
			<OUTCOME>X246</OUTCOME>
			<OUTCOME>X247</OUTCOME>
			<OUTCOME>X248</OUTCOME>
			<OUTCOME>X249</OUTCOME>
			<OUTCOME>X250</OUTCOME>
			<OUTCOME>X251</OUTCOME>
			<OUTCOME>X252</OUTCOME>
			<OUTCOME>X253</OUTCOME>
			<OUTCOME>X254</OUTCOME>
			<OUTCOME>X255</OUTCOME>
		</VARIABLE>
		<VARIABLE TYPE  = "nature">
			<NAME>SENSOR2</NAME>
		
			<OUTCOME>X0</OUTCOME>
			<OUTCOME>X1</OUTCOME>
			<OUTCOME>X2</OUTCOME>
			<OUTCOME>X3</OUTCOME>
			<OUTCOME>X4</OUTCOME>
			<OUTCOME>X5</OUTCOME>
			<OUTCOME>X6</OUTCOME>
			<OUTCOME>X7</OUTCOME>
			<OUTCOME>X8</OUTCOME>
			<OUTCOME>X9</OUTCOME>
			<OUTCOME>X10</OUTCOME>
			<OUTCOME>X11</OUTCOME>
			<OUTCOME>X12</OUTCOME>
			<OUTCOME>X13</OUTCOME>
			<OUTCOME>X14</OUTCOME>
			<OUTCOME>X15</OUTCOME>
			<OUTCOME>X16</OUTCOME>
			<OUTCOME>X17</OUTCOME>
			<OUTCOME>X18</OUTCOME>
			<OUTCOME>X19</OUTCOME>
			<OUTCOME>X20</OUTCOME>
			<OUTCOME>X21</OUTCOME>
			<OUTCOME>X22</OUTCOME>
			<OUTCOME>X23</OUTCOME>
			<OUTCOME>X24</OUTCOME>
			<OUTCOME>X25</OUTCOME>
			<OUTCOME>X26</OUTCOME>
			<OUTCOME>X27</OUTCOME>
			<OUTCOME>X28</OUTCOME>
			<OUTCOME>X29</OUTCOME>
			<OUTCOME>X30</OUTCOME>
			<OUTCOME>X31</OUTCOME>
			<OUTCOME>X32</OUTCOME>
			<OUTCOME>X33</OUTCOME>
			<OUTCOME>X34</OUTCOME>
			<OUTCOME>X35</OUTCOME>
			<OUTCOME>X36</OUTCOME>
			<OUTCOME>X37</OUTCOME>
			<OUTCOME>X38</OUTCOME>
			<OUTCOME>X39</OUTCOME>
			<OUTCOME>X40</OUTCOME>
			<OUTCOME>X41</OUTCOME>
			<OUTCOME>X42</OUTCOME>
			<OUTCOME>X43</OUTCOME>
			<OUTCOME>X44</OUTCOME>
			<OUTCOME>X45</OUTCOME>
			<OUTCOME>X46</OUTCOME>
			<OUTCOME>X47</OUTCOME>
			<OUTCOME>X48</OUTCOME>
			<OUTCOME>X49</OUTCOME>
			<OUTCOME>X50</OUTCOME>
			<OUTCOME>X51</OUTCOME>
			<OUTCOME>X52</OUTCOME>
			<OUTCOME>X53</OUTCOME>
			<OUTCOME>X54</OUTCOME>
			<OUTCOME>X55</OUTCOME>
			<OUTCOME>X56</OUTCOME>
			<OUTCOME>X57</OUTCOME>
			<OUTCOME>X58</OUTCOME>
			<OUTCOME>X59</OUTCOME>
			<OUTCOME>X60</OUTCOME>
			<OUTCOME>X61</OUTCOME>
			<OUTCOME>X62</OUTCOME>
			<OUTCOME>X63</OUTCOME>
			<OUTCOME>X64</OUTCOME>
			<OUTCOME>X65</OUTCOME>
			<OUTCOME>X66</OUTCOME>
			<OUTCOME>X67</OUTCOME>
			<OUTCOME>X68</OUTCOME>
			<OUTCOME>X69</OUTCOME>
			<OUTCOME>X70</OUTCOME>
			<OUTCOME>X71</OUTCOME>
			<OUTCOME>X72</OUTCOME>
			<OUTCOME>X73</OUTCOME>
			<OUTCOME>X74</OUTCOME>
			<OUTCOME>X75</OUTCOME>
			<OUTCOME>X76</OUTCOME>
			<OUTCOME>X77</OUTCOME>
			<OUTCOME>X78</OUTCOME>
			<OUTCOME>X79</OUTCOME>
			<OUTCOME>X80</OUTCOME>
			<OUTCOME>X81</OUTCOME>
			<OUTCOME>X82</OUTCOME>
			<OUTCOME>X83</OUTCOME>
			<OUTCOME>X84</OUTCOME>
			<OUTCOME>X85</OUTCOME>
			<OUTCOME>X86</OUTCOME>
			<OUTCOME>X87</OUTCOME>
			<OUTCOME>X88</OUTCOME>
			<OUTCOME>X89</OUTCOME>
			<OUTCOME>X90</OUTCOME>
			<OUTCOME>X91</OUTCOME>
			<OUTCOME>X92</OUTCOME>
			<OUTCOME>X93</OUTCOME>
			<OUTCOME>X94</OUTCOME>
			<OUTCOME>X95</OUTCOME>
			<OUTCOME>X96</OUTCOME>
			<OUTCOME>X97</OUTCOME>
			<OUTCOME>X98</OUTCOME>
			<OUTCOME>X99</OUTCOME>
			<OUTCOME>X100</OUTCOME>
			<OUTCOME>X101</OUTCOME>
			<OUTCOME>X102</OUTCOME>
			<OUTCOME>X103</OUTCOME>
			<OUTCOME>X104</OUTCOME>
			<OUTCOME>X105</OUTCOME>
			<OUTCOME>X106</OUTCOME>
			<OUTCOME>X107</OUTCOME>
			<OUTCOME>X108</OUTCOME>
			<OUTCOME>X109</OUTCOME>
			<OUTCOME>X110</OUTCOME>
			<OUTCOME>X111</OUTCOME>
			<OUTCOME>X112</OUTCOME>
			<OUTCOME>X113</OUTCOME>
			<OUTCOME>X114</OUTCOME>
			<OUTCOME>X115</OUTCOME>
			<OUTCOME>X116</OUTCOME>
			<OUTCOME>X117</OUTCOME>
			<OUTCOME>X118</OUTCOME>
			<OUTCOME>X119</OUTCOME>
			<OUTCOME>X120</OUTCOME>
			<OUTCOME>X121</OUTCOME>
			<OUTCOME>X122</OUTCOME>
			<OUTCOME>X123</OUTCOME>
			<OUTCOME>X124</OUTCOME>
			<OUTCOME>X125</OUTCOME>
			<OUTCOME>X126</OUTCOME>
			<OUTCOME>X127</OUTCOME>
			<OUTCOME>X128</OUTCOME>
			<OUTCOME>X129</OUTCOME>
			<OUTCOME>X130</OUTCOME>
			<OUTCOME>X131</OUTCOME>
			<OUTCOME>X132</OUTCOME>
			<OUTCOME>X133</OUTCOME>
			<OUTCOME>X134</OUTCOME>
			<OUTCOME>X135</OUTCOME>
			<OUTCOME>X136</OUTCOME>
			<OUTCOME>X137</OUTCOME>
			<OUTCOME>X138</OUTCOME>
			<OUTCOME>X139</OUTCOME>
			<OUTCOME>X140</OUTCOME>
			<OUTCOME>X141</OUTCOME>
			<OUTCOME>X142</OUTCOME>
			<OUTCOME>X143</OUTCOME>
			<OUTCOME>X144</OUTCOME>
			<OUTCOME>X145</OUTCOME>
			<OUTCOME>X146</OUTCOME>
			<OUTCOME>X147</OUTCOME>
			<OUTCOME>X148</OUTCOME>
			<OUTCOME>X149</OUTCOME>
			<OUTCOME>X150</OUTCOME>
			<OUTCOME>X151</OUTCOME>
			<OUTCOME>X152</OUTCOME>
			<OUTCOME>X153</OUTCOME>
			<OUTCOME>X154</OUTCOME>
			<OUTCOME>X155</OUTCOME>
			<OUTCOME>X156</OUTCOME>
			<OUTCOME>X157</OUTCOME>
			<OUTCOME>X158</OUTCOME>
			<OUTCOME>X159</OUTCOME>
			<OUTCOME>X160</OUTCOME>
			<OUTCOME>X161</OUTCOME>
			<OUTCOME>X162</OUTCOME>
			<OUTCOME>X163</OUTCOME>
			<OUTCOME>X164</OUTCOME>
			<OUTCOME>X165</OUTCOME>
			<OUTCOME>X166</OUTCOME>
			<OUTCOME>X167</OUTCOME>
			<OUTCOME>X168</OUTCOME>
			<OUTCOME>X169</OUTCOME>
			<OUTCOME>X170</OUTCOME>
			<OUTCOME>X171</OUTCOME>
			<OUTCOME>X172</OUTCOME>
			<OUTCOME>X173</OUTCOME>
			<OUTCOME>X174</OUTCOME>
			<OUTCOME>X175</OUTCOME>
			<OUTCOME>X176</OUTCOME>
			<OUTCOME>X177</OUTCOME>
			<OUTCOME>X178</OUTCOME>
			<OUTCOME>X179</OUTCOME>
			<OUTCOME>X180</OUTCOME>
			<OUTCOME>X181</OUTCOME>
			<OUTCOME>X182</OUTCOME>
			<OUTCOME>X183</OUTCOME>
			<OUTCOME>X184</OUTCOME>
			<OUTCOME>X185</OUTCOME>
			<OUTCOME>X186</OUTCOME>
			<OUTCOME>X187</OUTCOME>
			<OUTCOME>X188</OUTCOME>
			<OUTCOME>X189</OUTCOME>
			<OUTCOME>X190</OUTCOME>
			<OUTCOME>X191</OUTCOME>
			<OUTCOME>X192</OUTCOME>
			<OUTCOME>X193</OUTCOME>
			<OUTCOME>X194</OUTCOME>
			<OUTCOME>X195</OUTCOME>
			<OUTCOME>X196</OUTCOME>
			<OUTCOME>X197</OUTCOME>
			<OUTCOME>X198</OUTCOME>
			<OUTCOME>X199</OUTCOME>
			<OUTCOME>X200</OUTCOME>
			<OUTCOME>X201</OUTCOME>
			<OUTCOME>X202</OUTCOME>
			<OUTCOME>X203</OUTCOME>
			<OUTCOME>X204</OUTCOME>
			<OUTCOME>X205</OUTCOME>
			<OUTCOME>X206</OUTCOME>
			<OUTCOME>X207</OUTCOME>
			<OUTCOME>X208</OUTCOME>
			<OUTCOME>X209</OUTCOME>
			<OUTCOME>X210</OUTCOME>
			<OUTCOME>X211</OUTCOME>
			<OUTCOME>X212</OUTCOME>
			<OUTCOME>X213</OUTCOME>
			<OUTCOME>X214</OUTCOME>
			<OUTCOME>X215</OUTCOME>
			<OUTCOME>X216</OUTCOME>
			<OUTCOME>X217</OUTCOME>
			<OUTCOME>X218</OUTCOME>
			<OUTCOME>X219</OUTCOME>
			<OUTCOME>X220</OUTCOME>
			<OUTCOME>X221</OUTCOME>
			<OUTCOME>X222</OUTCOME>
			<OUTCOME>X223</OUTCOME>
			<OUTCOME>X224</OUTCOME>
			<OUTCOME>X225</OUTCOME>
			<OUTCOME>X226</OUTCOME>
			<OUTCOME>X227</OUTCOME>
			<OUTCOME>X228</OUTCOME>
			<OUTCOME>X229</OUTCOME>
			<OUTCOME>X230</OUTCOME>
			<OUTCOME>X231</OUTCOME>
			<OUTCOME>X232</OUTCOME>
			<OUTCOME>X233</OUTCOME>
			<OUTCOME>X234</OUTCOME>
			<OUTCOME>X235</OUTCOME>
			<OUTCOME>X236</OUTCOME>
			<OUTCOME>X237</OUTCOME>
			<OUTCOME>X238</OUTCOME>
			<OUTCOME>X239</OUTCOME>
			<OUTCOME>X240</OUTCOME>
			<OUTCOME>X241</OUTCOME>
			<OUTCOME>X242</OUTCOME>
			<OUTCOME>X243</OUTCOME>
			<OUTCOME>X244</OUTCOME>
			<OUTCOME>X245</OUTCOME>
			<OUTCOME>X246</OUTCOME>
			<OUTCOME>X247</OUTCOME>
			<OUTCOME>X248</OUTCOME>
			<OUTCOME>X249</OUTCOME>
			<OUTCOME>X250</OUTCOME>
			<OUTCOME>X251</OUTCOME>
			<OUTCOME>X252</OUTCOME>
			<OUTCOME>X253</OUTCOME>
			<OUTCOME>X254</OUTCOME>
			<OUTCOME>X255</OUTCOME>
		</VARIABLE>
		<VARIABLE TYPE  = "nature">
			<NAME>SENSOR3</NAME>
		
			<OUTCOME>X0</OUTCOME>
			<OUTCOME>X1</OUTCOME>
			<OUTCOME>X2</OUTCOME>
			<OUTCOME>X3</OUTCOME>
			<OUTCOME>X4</OUTCOME>
			<OUTCOME>X5</OUTCOME>
			<OUTCOME>X6</OUTCOME>
			<OUTCOME>X7</OUTCOME>
			<OUTCOME>X8</OUTCOME>
			<OUTCOME>X9</OUTCOME>
			<OUTCOME>X10</OUTCOME>
			<OUTCOME>X11</OUTCOME>
			<OUTCOME>X12</OUTCOME>
			<OUTCOME>X13</OUTCOME>
			<OUTCOME>X14</OUTCOME>
			<OUTCOME>X15</OUTCOME>
			<OUTCOME>X16</OUTCOME>
			<OUTCOME>X17</OUTCOME>
			<OUTCOME>X18</OUTCOME>
			<OUTCOME>X19</OUTCOME>
			<OUTCOME>X20</OUTCOME>
			<OUTCOME>X21</OUTCOME>
			<OUTCOME>X22</OUTCOME>
			<OUTCOME>X23</OUTCOME>
			<OUTCOME>X24</OUTCOME>
			<OUTCOME>X25</OUTCOME>
			<OUTCOME>X26</OUTCOME>
			<OUTCOME>X27</OUTCOME>
			<OUTCOME>X28</OUTCOME>
			<OUTCOME>X29</OUTCOME>
			<OUTCOME>X30</OUTCOME>
			<OUTCOME>X31</OUTCOME>
			<OUTCOME>X32</OUTCOME>
			<OUTCOME>X33</OUTCOME>
			<OUTCOME>X34</OUTCOME>
			<OUTCOME>X35</OUTCOME>
			<OUTCOME>X36</OUTCOME>
			<OUTCOME>X37</OUTCOME>
			<OUTCOME>X38</OUTCOME>
			<OUTCOME>X39</OUTCOME>
			<OUTCOME>X40</OUTCOME>
			<OUTCOME>X41</OUTCOME>
			<OUTCOME>X42</OUTCOME>
			<OUTCOME>X43</OUTCOME>
			<OUTCOME>X44</OUTCOME>
			<OUTCOME>X45</OUTCOME>
			<OUTCOME>X46</OUTCOME>
			<OUTCOME>X47</OUTCOME>
			<OUTCOME>X48</OUTCOME>
			<OUTCOME>X49</OUTCOME>
			<OUTCOME>X50</OUTCOME>
			<OUTCOME>X51</OUTCOME>
			<OUTCOME>X52</OUTCOME>
			<OUTCOME>X53</OUTCOME>
			<OUTCOME>X54</OUTCOME>
			<OUTCOME>X55</OUTCOME>
			<OUTCOME>X56</OUTCOME>
			<OUTCOME>X57</OUTCOME>
			<OUTCOME>X58</OUTCOME>
			<OUTCOME>X59</OUTCOME>
			<OUTCOME>X60</OUTCOME>
			<OUTCOME>X61</OUTCOME>
			<OUTCOME>X62</OUTCOME>
			<OUTCOME>X63</OUTCOME>
			<OUTCOME>X64</OUTCOME>
			<OUTCOME>X65</OUTCOME>
			<OUTCOME>X66</OUTCOME>
			<OUTCOME>X67</OUTCOME>
			<OUTCOME>X68</OUTCOME>
			<OUTCOME>X69</OUTCOME>
			<OUTCOME>X70</OUTCOME>
			<OUTCOME>X71</OUTCOME>
			<OUTCOME>X72</OUTCOME>
			<OUTCOME>X73</OUTCOME>
			<OUTCOME>X74</OUTCOME>
			<OUTCOME>X75</OUTCOME>
			<OUTCOME>X76</OUTCOME>
			<OUTCOME>X77</OUTCOME>
			<OUTCOME>X78</OUTCOME>
			<OUTCOME>X79</OUTCOME>
			<OUTCOME>X80</OUTCOME>
			<OUTCOME>X81</OUTCOME>
			<OUTCOME>X82</OUTCOME>
			<OUTCOME>X83</OUTCOME>
			<OUTCOME>X84</OUTCOME>
			<OUTCOME>X85</OUTCOME>
			<OUTCOME>X86</OUTCOME>
			<OUTCOME>X87</OUTCOME>
			<OUTCOME>X88</OUTCOME>
			<OUTCOME>X89</OUTCOME>
			<OUTCOME>X90</OUTCOME>
			<OUTCOME>X91</OUTCOME>
			<OUTCOME>X92</OUTCOME>
			<OUTCOME>X93</OUTCOME>
			<OUTCOME>X94</OUTCOME>
			<OUTCOME>X95</OUTCOME>
			<OUTCOME>X96</OUTCOME>
			<OUTCOME>X97</OUTCOME>
			<OUTCOME>X98</OUTCOME>
			<OUTCOME>X99</OUTCOME>
			<OUTCOME>X100</OUTCOME>
			<OUTCOME>X101</OUTCOME>
			<OUTCOME>X102</OUTCOME>
			<OUTCOME>X103</OUTCOME>
			<OUTCOME>X104</OUTCOME>
			<OUTCOME>X105</OUTCOME>
			<OUTCOME>X106</OUTCOME>
			<OUTCOME>X107</OUTCOME>
			<OUTCOME>X108</OUTCOME>
			<OUTCOME>X109</OUTCOME>
			<OUTCOME>X110</OUTCOME>
			<OUTCOME>X111</OUTCOME>
			<OUTCOME>X112</OUTCOME>
			<OUTCOME>X113</OUTCOME>
			<OUTCOME>X114</OUTCOME>
			<OUTCOME>X115</OUTCOME>
			<OUTCOME>X116</OUTCOME>
			<OUTCOME>X117</OUTCOME>
			<OUTCOME>X118</OUTCOME>
			<OUTCOME>X119</OUTCOME>
			<OUTCOME>X120</OUTCOME>
			<OUTCOME>X121</OUTCOME>
			<OUTCOME>X122</OUTCOME>
			<OUTCOME>X123</OUTCOME>
			<OUTCOME>X124</OUTCOME>
			<OUTCOME>X125</OUTCOME>
			<OUTCOME>X126</OUTCOME>
			<OUTCOME>X127</OUTCOME>
			<OUTCOME>X128</OUTCOME>
			<OUTCOME>X129</OUTCOME>
			<OUTCOME>X130</OUTCOME>
			<OUTCOME>X131</OUTCOME>
			<OUTCOME>X132</OUTCOME>
			<OUTCOME>X133</OUTCOME>
			<OUTCOME>X134</OUTCOME>
			<OUTCOME>X135</OUTCOME>
			<OUTCOME>X136</OUTCOME>
			<OUTCOME>X137</OUTCOME>
			<OUTCOME>X138</OUTCOME>
			<OUTCOME>X139</OUTCOME>
			<OUTCOME>X140</OUTCOME>
			<OUTCOME>X141</OUTCOME>
			<OUTCOME>X142</OUTCOME>
			<OUTCOME>X143</OUTCOME>
			<OUTCOME>X144</OUTCOME>
			<OUTCOME>X145</OUTCOME>
			<OUTCOME>X146</OUTCOME>
			<OUTCOME>X147</OUTCOME>
			<OUTCOME>X148</OUTCOME>
			<OUTCOME>X149</OUTCOME>
			<OUTCOME>X150</OUTCOME>
			<OUTCOME>X151</OUTCOME>
			<OUTCOME>X152</OUTCOME>
			<OUTCOME>X153</OUTCOME>
			<OUTCOME>X154</OUTCOME>
			<OUTCOME>X155</OUTCOME>
			<OUTCOME>X156</OUTCOME>
			<OUTCOME>X157</OUTCOME>
			<OUTCOME>X158</OUTCOME>
			<OUTCOME>X159</OUTCOME>
			<OUTCOME>X160</OUTCOME>
			<OUTCOME>X161</OUTCOME>
			<OUTCOME>X162</OUTCOME>
			<OUTCOME>X163</OUTCOME>
			<OUTCOME>X164</OUTCOME>
			<OUTCOME>X165</OUTCOME>
			<OUTCOME>X166</OUTCOME>
			<OUTCOME>X167</OUTCOME>
			<OUTCOME>X168</OUTCOME>
			<OUTCOME>X169</OUTCOME>
			<OUTCOME>X170</OUTCOME>
			<OUTCOME>X171</OUTCOME>
			<OUTCOME>X172</OUTCOME>
			<OUTCOME>X173</OUTCOME>
			<OUTCOME>X174</OUTCOME>
			<OUTCOME>X175</OUTCOME>
			<OUTCOME>X176</OUTCOME>
			<OUTCOME>X177</OUTCOME>
			<OUTCOME>X178</OUTCOME>
			<OUTCOME>X179</OUTCOME>
			<OUTCOME>X180</OUTCOME>
			<OUTCOME>X181</OUTCOME>
			<OUTCOME>X182</OUTCOME>
			<OUTCOME>X183</OUTCOME>
			<OUTCOME>X184</OUTCOME>
			<OUTCOME>X185</OUTCOME>
			<OUTCOME>X186</OUTCOME>
			<OUTCOME>X187</OUTCOME>
			<OUTCOME>X188</OUTCOME>
			<OUTCOME>X189</OUTCOME>
			<OUTCOME>X190</OUTCOME>
			<OUTCOME>X191</OUTCOME>
			<OUTCOME>X192</OUTCOME>
			<OUTCOME>X193</OUTCOME>
			<OUTCOME>X194</OUTCOME>
			<OUTCOME>X195</OUTCOME>
			<OUTCOME>X196</OUTCOME>
			<OUTCOME>X197</OUTCOME>
			<OUTCOME>X198</OUTCOME>
			<OUTCOME>X199</OUTCOME>
			<OUTCOME>X200</OUTCOME>
			<OUTCOME>X201</OUTCOME>
			<OUTCOME>X202</OUTCOME>
			<OUTCOME>X203</OUTCOME>
			<OUTCOME>X204</OUTCOME>
			<OUTCOME>X205</OUTCOME>
			<OUTCOME>X206</OUTCOME>
			<OUTCOME>X207</OUTCOME>
			<OUTCOME>X208</OUTCOME>
			<OUTCOME>X209</OUTCOME>
			<OUTCOME>X210</OUTCOME>
			<OUTCOME>X211</OUTCOME>
			<OUTCOME>X212</OUTCOME>
			<OUTCOME>X213</OUTCOME>
			<OUTCOME>X214</OUTCOME>
			<OUTCOME>X215</OUTCOME>
			<OUTCOME>X216</OUTCOME>
			<OUTCOME>X217</OUTCOME>
			<OUTCOME>X218</OUTCOME>
			<OUTCOME>X219</OUTCOME>
			<OUTCOME>X220</OUTCOME>
			<OUTCOME>X221</OUTCOME>
			<OUTCOME>X222</OUTCOME>
			<OUTCOME>X223</OUTCOME>
			<OUTCOME>X224</OUTCOME>
			<OUTCOME>X225</OUTCOME>
			<OUTCOME>X226</OUTCOME>
			<OUTCOME>X227</OUTCOME>
			<OUTCOME>X228</OUTCOME>
			<OUTCOME>X229</OUTCOME>
			<OUTCOME>X230</OUTCOME>
			<OUTCOME>X231</OUTCOME>
			<OUTCOME>X232</OUTCOME>
			<OUTCOME>X233</OUTCOME>
			<OUTCOME>X234</OUTCOME>
			<OUTCOME>X235</OUTCOME>
			<OUTCOME>X236</OUTCOME>
			<OUTCOME>X237</OUTCOME>
			<OUTCOME>X238</OUTCOME>
			<OUTCOME>X239</OUTCOME>
			<OUTCOME>X240</OUTCOME>
			<OUTCOME>X241</OUTCOME>
			<OUTCOME>X242</OUTCOME>
			<OUTCOME>X243</OUTCOME>
			<OUTCOME>X244</OUTCOME>
			<OUTCOME>X245</OUTCOME>
			<OUTCOME>X246</OUTCOME>
			<OUTCOME>X247</OUTCOME>
			<OUTCOME>X248</OUTCOME>
			<OUTCOME>X249</OUTCOME>
			<OUTCOME>X250</OUTCOME>
			<OUTCOME>X251</OUTCOME>
			<OUTCOME>X252</OUTCOME>
			<OUTCOME>X253</OUTCOME>
			<OUTCOME>X254</OUTCOME>
			<OUTCOME>X255</OUTCOME>
		</VARIABLE>
		<VARIABLE TYPE  = "nature">
			<NAME>SENSOR4</NAME>
		
			<OUTCOME>X0</OUTCOME>
			<OUTCOME>X1</OUTCOME>
			<OUTCOME>X2</OUTCOME>
			<OUTCOME>X3</OUTCOME>
			<OUTCOME>X4</OUTCOME>
			<OUTCOME>X5</OUTCOME>
			<OUTCOME>X6</OUTCOME>
			<OUTCOME>X7</OUTCOME>
			<OUTCOME>X8</OUTCOME>
			<OUTCOME>X9</OUTCOME>
			<OUTCOME>X10</OUTCOME>
			<OUTCOME>X11</OUTCOME>
			<OUTCOME>X12</OUTCOME>
			<OUTCOME>X13</OUTCOME>
			<OUTCOME>X14</OUTCOME>
			<OUTCOME>X15</OUTCOME>
			<OUTCOME>X16</OUTCOME>
			<OUTCOME>X17</OUTCOME>
			<OUTCOME>X18</OUTCOME>
			<OUTCOME>X19</OUTCOME>
			<OUTCOME>X20</OUTCOME>
			<OUTCOME>X21</OUTCOME>
			<OUTCOME>X22</OUTCOME>
			<OUTCOME>X23</OUTCOME>
			<OUTCOME>X24</OUTCOME>
			<OUTCOME>X25</OUTCOME>
			<OUTCOME>X26</OUTCOME>
			<OUTCOME>X27</OUTCOME>
			<OUTCOME>X28</OUTCOME>
			<OUTCOME>X29</OUTCOME>
			<OUTCOME>X30</OUTCOME>
			<OUTCOME>X31</OUTCOME>
			<OUTCOME>X32</OUTCOME>
			<OUTCOME>X33</OUTCOME>
			<OUTCOME>X34</OUTCOME>
			<OUTCOME>X35</OUTCOME>
			<OUTCOME>X36</OUTCOME>
			<OUTCOME>X37</OUTCOME>
			<OUTCOME>X38</OUTCOME>
			<OUTCOME>X39</OUTCOME>
			<OUTCOME>X40</OUTCOME>
			<OUTCOME>X41</OUTCOME>
			<OUTCOME>X42</OUTCOME>
			<OUTCOME>X43</OUTCOME>
			<OUTCOME>X44</OUTCOME>
			<OUTCOME>X45</OUTCOME>
			<OUTCOME>X46</OUTCOME>
			<OUTCOME>X47</OUTCOME>
			<OUTCOME>X48</OUTCOME>
			<OUTCOME>X49</OUTCOME>
			<OUTCOME>X50</OUTCOME>
			<OUTCOME>X51</OUTCOME>
			<OUTCOME>X52</OUTCOME>
			<OUTCOME>X53</OUTCOME>
			<OUTCOME>X54</OUTCOME>
			<OUTCOME>X55</OUTCOME>
			<OUTCOME>X56</OUTCOME>
			<OUTCOME>X57</OUTCOME>
			<OUTCOME>X58</OUTCOME>
			<OUTCOME>X59</OUTCOME>
			<OUTCOME>X60</OUTCOME>
			<OUTCOME>X61</OUTCOME>
			<OUTCOME>X62</OUTCOME>
			<OUTCOME>X63</OUTCOME>
			<OUTCOME>X64</OUTCOME>
			<OUTCOME>X65</OUTCOME>
			<OUTCOME>X66</OUTCOME>
			<OUTCOME>X67</OUTCOME>
			<OUTCOME>X68</OUTCOME>
			<OUTCOME>X69</OUTCOME>
			<OUTCOME>X70</OUTCOME>
			<OUTCOME>X71</OUTCOME>
			<OUTCOME>X72</OUTCOME>
			<OUTCOME>X73</OUTCOME>
			<OUTCOME>X74</OUTCOME>
			<OUTCOME>X75</OUTCOME>
			<OUTCOME>X76</OUTCOME>
			<OUTCOME>X77</OUTCOME>
			<OUTCOME>X78</OUTCOME>
			<OUTCOME>X79</OUTCOME>
			<OUTCOME>X80</OUTCOME>
			<OUTCOME>X81</OUTCOME>
			<OUTCOME>X82</OUTCOME>
			<OUTCOME>X83</OUTCOME>
			<OUTCOME>X84</OUTCOME>
			<OUTCOME>X85</OUTCOME>
			<OUTCOME>X86</OUTCOME>
			<OUTCOME>X87</OUTCOME>
			<OUTCOME>X88</OUTCOME>
			<OUTCOME>X89</OUTCOME>
			<OUTCOME>X90</OUTCOME>
			<OUTCOME>X91</OUTCOME>
			<OUTCOME>X92</OUTCOME>
			<OUTCOME>X93</OUTCOME>
			<OUTCOME>X94</OUTCOME>
			<OUTCOME>X95</OUTCOME>
			<OUTCOME>X96</OUTCOME>
			<OUTCOME>X97</OUTCOME>
			<OUTCOME>X98</OUTCOME>
			<OUTCOME>X99</OUTCOME>
			<OUTCOME>X100</OUTCOME>
			<OUTCOME>X101</OUTCOME>
			<OUTCOME>X102</OUTCOME>
			<OUTCOME>X103</OUTCOME>
			<OUTCOME>X104</OUTCOME>
			<OUTCOME>X105</OUTCOME>
			<OUTCOME>X106</OUTCOME>
			<OUTCOME>X107</OUTCOME>
			<OUTCOME>X108</OUTCOME>
			<OUTCOME>X109</OUTCOME>
			<OUTCOME>X110</OUTCOME>
			<OUTCOME>X111</OUTCOME>
			<OUTCOME>X112</OUTCOME>
			<OUTCOME>X113</OUTCOME>
			<OUTCOME>X114</OUTCOME>
			<OUTCOME>X115</OUTCOME>
			<OUTCOME>X116</OUTCOME>
			<OUTCOME>X117</OUTCOME>
			<OUTCOME>X118</OUTCOME>
			<OUTCOME>X119</OUTCOME>
			<OUTCOME>X120</OUTCOME>
			<OUTCOME>X121</OUTCOME>
			<OUTCOME>X122</OUTCOME>
			<OUTCOME>X123</OUTCOME>
			<OUTCOME>X124</OUTCOME>
			<OUTCOME>X125</OUTCOME>
			<OUTCOME>X126</OUTCOME>
			<OUTCOME>X127</OUTCOME>
			<OUTCOME>X128</OUTCOME>
			<OUTCOME>X129</OUTCOME>
			<OUTCOME>X130</OUTCOME>
			<OUTCOME>X131</OUTCOME>
			<OUTCOME>X132</OUTCOME>
			<OUTCOME>X133</OUTCOME>
			<OUTCOME>X134</OUTCOME>
			<OUTCOME>X135</OUTCOME>
			<OUTCOME>X136</OUTCOME>
			<OUTCOME>X137</OUTCOME>
			<OUTCOME>X138</OUTCOME>
			<OUTCOME>X139</OUTCOME>
			<OUTCOME>X140</OUTCOME>
			<OUTCOME>X141</OUTCOME>
			<OUTCOME>X142</OUTCOME>
			<OUTCOME>X143</OUTCOME>
			<OUTCOME>X144</OUTCOME>
			<OUTCOME>X145</OUTCOME>
			<OUTCOME>X146</OUTCOME>
			<OUTCOME>X147</OUTCOME>
			<OUTCOME>X148</OUTCOME>
			<OUTCOME>X149</OUTCOME>
			<OUTCOME>X150</OUTCOME>
			<OUTCOME>X151</OUTCOME>
			<OUTCOME>X152</OUTCOME>
			<OUTCOME>X153</OUTCOME>
			<OUTCOME>X154</OUTCOME>
			<OUTCOME>X155</OUTCOME>
			<OUTCOME>X156</OUTCOME>
			<OUTCOME>X157</OUTCOME>
			<OUTCOME>X158</OUTCOME>
			<OUTCOME>X159</OUTCOME>
			<OUTCOME>X160</OUTCOME>
			<OUTCOME>X161</OUTCOME>
			<OUTCOME>X162</OUTCOME>
			<OUTCOME>X163</OUTCOME>
			<OUTCOME>X164</OUTCOME>
			<OUTCOME>X165</OUTCOME>
			<OUTCOME>X166</OUTCOME>
			<OUTCOME>X167</OUTCOME>
			<OUTCOME>X168</OUTCOME>
			<OUTCOME>X169</OUTCOME>
			<OUTCOME>X170</OUTCOME>
			<OUTCOME>X171</OUTCOME>
			<OUTCOME>X172</OUTCOME>
			<OUTCOME>X173</OUTCOME>
			<OUTCOME>X174</OUTCOME>
			<OUTCOME>X175</OUTCOME>
			<OUTCOME>X176</OUTCOME>
			<OUTCOME>X177</OUTCOME>
			<OUTCOME>X178</OUTCOME>
			<OUTCOME>X179</OUTCOME>
			<OUTCOME>X180</OUTCOME>
			<OUTCOME>X181</OUTCOME>
			<OUTCOME>X182</OUTCOME>
			<OUTCOME>X183</OUTCOME>
			<OUTCOME>X184</OUTCOME>
			<OUTCOME>X185</OUTCOME>
			<OUTCOME>X186</OUTCOME>
			<OUTCOME>X187</OUTCOME>
			<OUTCOME>X188</OUTCOME>
			<OUTCOME>X189</OUTCOME>
			<OUTCOME>X190</OUTCOME>
			<OUTCOME>X191</OUTCOME>
			<OUTCOME>X192</OUTCOME>
			<OUTCOME>X193</OUTCOME>
			<OUTCOME>X194</OUTCOME>
			<OUTCOME>X195</OUTCOME>
			<OUTCOME>X196</OUTCOME>
			<OUTCOME>X197</OUTCOME>
			<OUTCOME>X198</OUTCOME>
			<OUTCOME>X199</OUTCOME>
			<OUTCOME>X200</OUTCOME>
			<OUTCOME>X201</OUTCOME>
			<OUTCOME>X202</OUTCOME>
			<OUTCOME>X203</OUTCOME>
			<OUTCOME>X204</OUTCOME>
			<OUTCOME>X205</OUTCOME>
			<OUTCOME>X206</OUTCOME>
			<OUTCOME>X207</OUTCOME>
			<OUTCOME>X208</OUTCOME>
			<OUTCOME>X209</OUTCOME>
			<OUTCOME>X210</OUTCOME>
			<OUTCOME>X211</OUTCOME>
			<OUTCOME>X212</OUTCOME>
			<OUTCOME>X213</OUTCOME>
			<OUTCOME>X214</OUTCOME>
			<OUTCOME>X215</OUTCOME>
			<OUTCOME>X216</OUTCOME>
			<OUTCOME>X217</OUTCOME>
			<OUTCOME>X218</OUTCOME>
			<OUTCOME>X219</OUTCOME>
			<OUTCOME>X220</OUTCOME>
			<OUTCOME>X221</OUTCOME>
			<OUTCOME>X222</OUTCOME>
			<OUTCOME>X223</OUTCOME>
			<OUTCOME>X224</OUTCOME>
			<OUTCOME>X225</OUTCOME>
			<OUTCOME>X226</OUTCOME>
			<OUTCOME>X227</OUTCOME>
			<OUTCOME>X228</OUTCOME>
			<OUTCOME>X229</OUTCOME>
			<OUTCOME>X230</OUTCOME>
			<OUTCOME>X231</OUTCOME>
			<OUTCOME>X232</OUTCOME>
			<OUTCOME>X233</OUTCOME>
			<OUTCOME>X234</OUTCOME>
			<OUTCOME>X235</OUTCOME>
			<OUTCOME>X236</OUTCOME>
			<OUTCOME>X237</OUTCOME>
			<OUTCOME>X238</OUTCOME>
			<OUTCOME>X239</OUTCOME>
			<OUTCOME>X240</OUTCOME>
			<OUTCOME>X241</OUTCOME>
			<OUTCOME>X242</OUTCOME>
			<OUTCOME>X243</OUTCOME>
			<OUTCOME>X244</OUTCOME>
			<OUTCOME>X245</OUTCOME>
			<OUTCOME>X246</OUTCOME>
			<OUTCOME>X247</OUTCOME>
			<OUTCOME>X248</OUTCOME>
			<OUTCOME>X249</OUTCOME>
			<OUTCOME>X250</OUTCOME>
			<OUTCOME>X251</OUTCOME>
			<OUTCOME>X252</OUTCOME>
			<OUTCOME>X253</OUTCOME>
			<OUTCOME>X254</OUTCOME>
			<OUTCOME>X255</OUTCOME>
		</VARIABLE>
		<VARIABLE TYPE  = "nature">
			<NAME>SENSOR5</NAME>
		
			<OUTCOME>X0</OUTCOME>
			<OUTCOME>X1</OUTCOME>
			<OUTCOME>X2</OUTCOME>
			<OUTCOME>X3</OUTCOME>
			<OUTCOME>X4</OUTCOME>
			<OUTCOME>X5</OUTCOME>
			<OUTCOME>X6</OUTCOME>
			<OUTCOME>X7</OUTCOME>
			<OUTCOME>X8</OUTCOME>
			<OUTCOME>X9</OUTCOME>
			<OUTCOME>X10</OUTCOME>
			<OUTCOME>X11</OUTCOME>
			<OUTCOME>X12</OUTCOME>
			<OUTCOME>X13</OUTCOME>
			<OUTCOME>X14</OUTCOME>
			<OUTCOME>X15</OUTCOME>
			<OUTCOME>X16</OUTCOME>
			<OUTCOME>X17</OUTCOME>
			<OUTCOME>X18</OUTCOME>
			<OUTCOME>X19</OUTCOME>
			<OUTCOME>X20</OUTCOME>
			<OUTCOME>X21</OUTCOME>
			<OUTCOME>X22</OUTCOME>
			<OUTCOME>X23</OUTCOME>
			<OUTCOME>X24</OUTCOME>
			<OUTCOME>X25</OUTCOME>
			<OUTCOME>X26</OUTCOME>
			<OUTCOME>X27</OUTCOME>
			<OUTCOME>X28</OUTCOME>
			<OUTCOME>X29</OUTCOME>
			<OUTCOME>X30</OUTCOME>
			<OUTCOME>X31</OUTCOME>
			<OUTCOME>X32</OUTCOME>
			<OUTCOME>X33</OUTCOME>
			<OUTCOME>X34</OUTCOME>
			<OUTCOME>X35</OUTCOME>
			<OUTCOME>X36</OUTCOME>
			<OUTCOME>X37</OUTCOME>
			<OUTCOME>X38</OUTCOME>
			<OUTCOME>X39</OUTCOME>
			<OUTCOME>X40</OUTCOME>
			<OUTCOME>X41</OUTCOME>
			<OUTCOME>X42</OUTCOME>
			<OUTCOME>X43</OUTCOME>
			<OUTCOME>X44</OUTCOME>
			<OUTCOME>X45</OUTCOME>
			<OUTCOME>X46</OUTCOME>
			<OUTCOME>X47</OUTCOME>
			<OUTCOME>X48</OUTCOME>
			<OUTCOME>X49</OUTCOME>
			<OUTCOME>X50</OUTCOME>
			<OUTCOME>X51</OUTCOME>
			<OUTCOME>X52</OUTCOME>
			<OUTCOME>X53</OUTCOME>
			<OUTCOME>X54</OUTCOME>
			<OUTCOME>X55</OUTCOME>
			<OUTCOME>X56</OUTCOME>
			<OUTCOME>X57</OUTCOME>
			<OUTCOME>X58</OUTCOME>
			<OUTCOME>X59</OUTCOME>
			<OUTCOME>X60</OUTCOME>
			<OUTCOME>X61</OUTCOME>
			<OUTCOME>X62</OUTCOME>
			<OUTCOME>X63</OUTCOME>
			<OUTCOME>X64</OUTCOME>
			<OUTCOME>X65</OUTCOME>
			<OUTCOME>X66</OUTCOME>
			<OUTCOME>X67</OUTCOME>
			<OUTCOME>X68</OUTCOME>
			<OUTCOME>X69</OUTCOME>
			<OUTCOME>X70</OUTCOME>
			<OUTCOME>X71</OUTCOME>
			<OUTCOME>X72</OUTCOME>
			<OUTCOME>X73</OUTCOME>
			<OUTCOME>X74</OUTCOME>
			<OUTCOME>X75</OUTCOME>
			<OUTCOME>X76</OUTCOME>
			<OUTCOME>X77</OUTCOME>
			<OUTCOME>X78</OUTCOME>
			<OUTCOME>X79</OUTCOME>
			<OUTCOME>X80</OUTCOME>
			<OUTCOME>X81</OUTCOME>
			<OUTCOME>X82</OUTCOME>
			<OUTCOME>X83</OUTCOME>
			<OUTCOME>X84</OUTCOME>
			<OUTCOME>X85</OUTCOME>
			<OUTCOME>X86</OUTCOME>
			<OUTCOME>X87</OUTCOME>
			<OUTCOME>X88</OUTCOME>
			<OUTCOME>X89</OUTCOME>
			<OUTCOME>X90</OUTCOME>
			<OUTCOME>X91</OUTCOME>
			<OUTCOME>X92</OUTCOME>
			<OUTCOME>X93</OUTCOME>
			<OUTCOME>X94</OUTCOME>
			<OUTCOME>X95</OUTCOME>
			<OUTCOME>X96</OUTCOME>
			<OUTCOME>X97</OUTCOME>
			<OUTCOME>X98</OUTCOME>
			<OUTCOME>X99</OUTCOME>
			<OUTCOME>X100</OUTCOME>
			<OUTCOME>X101</OUTCOME>
			<OUTCOME>X102</OUTCOME>
			<OUTCOME>X103</OUTCOME>
			<OUTCOME>X104</OUTCOME>
			<OUTCOME>X105</OUTCOME>
			<OUTCOME>X106</OUTCOME>
			<OUTCOME>X107</OUTCOME>
			<OUTCOME>X108</OUTCOME>
			<OUTCOME>X109</OUTCOME>
			<OUTCOME>X110</OUTCOME>
			<OUTCOME>X111</OUTCOME>
			<OUTCOME>X112</OUTCOME>
			<OUTCOME>X113</OUTCOME>
			<OUTCOME>X114</OUTCOME>
			<OUTCOME>X115</OUTCOME>
			<OUTCOME>X116</OUTCOME>
			<OUTCOME>X117</OUTCOME>
			<OUTCOME>X118</OUTCOME>
			<OUTCOME>X119</OUTCOME>
			<OUTCOME>X120</OUTCOME>
			<OUTCOME>X121</OUTCOME>
			<OUTCOME>X122</OUTCOME>
			<OUTCOME>X123</OUTCOME>
			<OUTCOME>X124</OUTCOME>
			<OUTCOME>X125</OUTCOME>
			<OUTCOME>X126</OUTCOME>
			<OUTCOME>X127</OUTCOME>
			<OUTCOME>X128</OUTCOME>
			<OUTCOME>X129</OUTCOME>
			<OUTCOME>X130</OUTCOME>
			<OUTCOME>X131</OUTCOME>
			<OUTCOME>X132</OUTCOME>
			<OUTCOME>X133</OUTCOME>
			<OUTCOME>X134</OUTCOME>
			<OUTCOME>X135</OUTCOME>
			<OUTCOME>X136</OUTCOME>
			<OUTCOME>X137</OUTCOME>
			<OUTCOME>X138</OUTCOME>
			<OUTCOME>X139</OUTCOME>
			<OUTCOME>X140</OUTCOME>
			<OUTCOME>X141</OUTCOME>
			<OUTCOME>X142</OUTCOME>
			<OUTCOME>X143</OUTCOME>
			<OUTCOME>X144</OUTCOME>
			<OUTCOME>X145</OUTCOME>
			<OUTCOME>X146</OUTCOME>
			<OUTCOME>X147</OUTCOME>
			<OUTCOME>X148</OUTCOME>
			<OUTCOME>X149</OUTCOME>
			<OUTCOME>X150</OUTCOME>
			<OUTCOME>X151</OUTCOME>
			<OUTCOME>X152</OUTCOME>
			<OUTCOME>X153</OUTCOME>
			<OUTCOME>X154</OUTCOME>
			<OUTCOME>X155</OUTCOME>
			<OUTCOME>X156</OUTCOME>
			<OUTCOME>X157</OUTCOME>
			<OUTCOME>X158</OUTCOME>
			<OUTCOME>X159</OUTCOME>
			<OUTCOME>X160</OUTCOME>
			<OUTCOME>X161</OUTCOME>
			<OUTCOME>X162</OUTCOME>
			<OUTCOME>X163</OUTCOME>
			<OUTCOME>X164</OUTCOME>
			<OUTCOME>X165</OUTCOME>
			<OUTCOME>X166</OUTCOME>
			<OUTCOME>X167</OUTCOME>
			<OUTCOME>X168</OUTCOME>
			<OUTCOME>X169</OUTCOME>
			<OUTCOME>X170</OUTCOME>
			<OUTCOME>X171</OUTCOME>
			<OUTCOME>X172</OUTCOME>
			<OUTCOME>X173</OUTCOME>
			<OUTCOME>X174</OUTCOME>
			<OUTCOME>X175</OUTCOME>
			<OUTCOME>X176</OUTCOME>
			<OUTCOME>X177</OUTCOME>
			<OUTCOME>X178</OUTCOME>
			<OUTCOME>X179</OUTCOME>
			<OUTCOME>X180</OUTCOME>
			<OUTCOME>X181</OUTCOME>
			<OUTCOME>X182</OUTCOME>
			<OUTCOME>X183</OUTCOME>
			<OUTCOME>X184</OUTCOME>
			<OUTCOME>X185</OUTCOME>
			<OUTCOME>X186</OUTCOME>
			<OUTCOME>X187</OUTCOME>
			<OUTCOME>X188</OUTCOME>
			<OUTCOME>X189</OUTCOME>
			<OUTCOME>X190</OUTCOME>
			<OUTCOME>X191</OUTCOME>
			<OUTCOME>X192</OUTCOME>
			<OUTCOME>X193</OUTCOME>
			<OUTCOME>X194</OUTCOME>
			<OUTCOME>X195</OUTCOME>
			<OUTCOME>X196</OUTCOME>
			<OUTCOME>X197</OUTCOME>
			<OUTCOME>X198</OUTCOME>
			<OUTCOME>X199</OUTCOME>
			<OUTCOME>X200</OUTCOME>
			<OUTCOME>X201</OUTCOME>
			<OUTCOME>X202</OUTCOME>
			<OUTCOME>X203</OUTCOME>
			<OUTCOME>X204</OUTCOME>
			<OUTCOME>X205</OUTCOME>
			<OUTCOME>X206</OUTCOME>
			<OUTCOME>X207</OUTCOME>
			<OUTCOME>X208</OUTCOME>
			<OUTCOME>X209</OUTCOME>
			<OUTCOME>X210</OUTCOME>
			<OUTCOME>X211</OUTCOME>
			<OUTCOME>X212</OUTCOME>
			<OUTCOME>X213</OUTCOME>
			<OUTCOME>X214</OUTCOME>
			<OUTCOME>X215</OUTCOME>
			<OUTCOME>X216</OUTCOME>
			<OUTCOME>X217</OUTCOME>
			<OUTCOME>X218</OUTCOME>
			<OUTCOME>X219</OUTCOME>
			<OUTCOME>X220</OUTCOME>
			<OUTCOME>X221</OUTCOME>
			<OUTCOME>X222</OUTCOME>
			<OUTCOME>X223</OUTCOME>
			<OUTCOME>X224</OUTCOME>
			<OUTCOME>X225</OUTCOME>
			<OUTCOME>X226</OUTCOME>
			<OUTCOME>X227</OUTCOME>
			<OUTCOME>X228</OUTCOME>
			<OUTCOME>X229</OUTCOME>
			<OUTCOME>X230</OUTCOME>
			<OUTCOME>X231</OUTCOME>
			<OUTCOME>X232</OUTCOME>
			<OUTCOME>X233</OUTCOME>
			<OUTCOME>X234</OUTCOME>
			<OUTCOME>X235</OUTCOME>
			<OUTCOME>X236</OUTCOME>
			<OUTCOME>X237</OUTCOME>
			<OUTCOME>X238</OUTCOME>
			<OUTCOME>X239</OUTCOME>
			<OUTCOME>X240</OUTCOME>
			<OUTCOME>X241</OUTCOME>
			<OUTCOME>X242</OUTCOME>
			<OUTCOME>X243</OUTCOME>
			<OUTCOME>X244</OUTCOME>
			<OUTCOME>X245</OUTCOME>
			<OUTCOME>X246</OUTCOME>
			<OUTCOME>X247</OUTCOME>
			<OUTCOME>X248</OUTCOME>
			<OUTCOME>X249</OUTCOME>
			<OUTCOME>X250</OUTCOME>
			<OUTCOME>X251</OUTCOME>
			<OUTCOME>X252</OUTCOME>
			<OUTCOME>X253</OUTCOME>
			<OUTCOME>X254</OUTCOME>
			<OUTCOME>X255</OUTCOME>
		</VARIABLE>
		<VARIABLE TYPE  = "nature">
			<NAME>SENSOR6</NAME>
		
			<OUTCOME>X0</OUTCOME>
			<OUTCOME>X1</OUTCOME>
			<OUTCOME>X2</OUTCOME>
			<OUTCOME>X3</OUTCOME>
			<OUTCOME>X4</OUTCOME>
			<OUTCOME>X5</OUTCOME>
			<OUTCOME>X6</OUTCOME>
			<OUTCOME>X7</OUTCOME>
			<OUTCOME>X8</OUTCOME>
			<OUTCOME>X9</OUTCOME>
			<OUTCOME>X10</OUTCOME>
			<OUTCOME>X11</OUTCOME>
			<OUTCOME>X12</OUTCOME>
			<OUTCOME>X13</OUTCOME>
			<OUTCOME>X14</OUTCOME>
			<OUTCOME>X15</OUTCOME>
			<OUTCOME>X16</OUTCOME>
			<OUTCOME>X17</OUTCOME>
			<OUTCOME>X18</OUTCOME>
			<OUTCOME>X19</OUTCOME>
			<OUTCOME>X20</OUTCOME>
			<OUTCOME>X21</OUTCOME>
			<OUTCOME>X22</OUTCOME>
			<OUTCOME>X23</OUTCOME>
			<OUTCOME>X24</OUTCOME>
			<OUTCOME>X25</OUTCOME>
			<OUTCOME>X26</OUTCOME>
			<OUTCOME>X27</OUTCOME>
			<OUTCOME>X28</OUTCOME>
			<OUTCOME>X29</OUTCOME>
			<OUTCOME>X30</OUTCOME>
			<OUTCOME>X31</OUTCOME>
			<OUTCOME>X32</OUTCOME>
			<OUTCOME>X33</OUTCOME>
			<OUTCOME>X34</OUTCOME>
			<OUTCOME>X35</OUTCOME>
			<OUTCOME>X36</OUTCOME>
			<OUTCOME>X37</OUTCOME>
			<OUTCOME>X38</OUTCOME>
			<OUTCOME>X39</OUTCOME>
			<OUTCOME>X40</OUTCOME>
			<OUTCOME>X41</OUTCOME>
			<OUTCOME>X42</OUTCOME>
			<OUTCOME>X43</OUTCOME>
			<OUTCOME>X44</OUTCOME>
			<OUTCOME>X45</OUTCOME>
			<OUTCOME>X46</OUTCOME>
			<OUTCOME>X47</OUTCOME>
			<OUTCOME>X48</OUTCOME>
			<OUTCOME>X49</OUTCOME>
			<OUTCOME>X50</OUTCOME>
			<OUTCOME>X51</OUTCOME>
			<OUTCOME>X52</OUTCOME>
			<OUTCOME>X53</OUTCOME>
			<OUTCOME>X54</OUTCOME>
			<OUTCOME>X55</OUTCOME>
			<OUTCOME>X56</OUTCOME>
			<OUTCOME>X57</OUTCOME>
			<OUTCOME>X58</OUTCOME>
			<OUTCOME>X59</OUTCOME>
			<OUTCOME>X60</OUTCOME>
			<OUTCOME>X61</OUTCOME>
			<OUTCOME>X62</OUTCOME>
			<OUTCOME>X63</OUTCOME>
			<OUTCOME>X64</OUTCOME>
			<OUTCOME>X65</OUTCOME>
			<OUTCOME>X66</OUTCOME>
			<OUTCOME>X67</OUTCOME>
			<OUTCOME>X68</OUTCOME>
			<OUTCOME>X69</OUTCOME>
			<OUTCOME>X70</OUTCOME>
			<OUTCOME>X71</OUTCOME>
			<OUTCOME>X72</OUTCOME>
			<OUTCOME>X73</OUTCOME>
			<OUTCOME>X74</OUTCOME>
			<OUTCOME>X75</OUTCOME>
			<OUTCOME>X76</OUTCOME>
			<OUTCOME>X77</OUTCOME>
			<OUTCOME>X78</OUTCOME>
			<OUTCOME>X79</OUTCOME>
			<OUTCOME>X80</OUTCOME>
			<OUTCOME>X81</OUTCOME>
			<OUTCOME>X82</OUTCOME>
			<OUTCOME>X83</OUTCOME>
			<OUTCOME>X84</OUTCOME>
			<OUTCOME>X85</OUTCOME>
			<OUTCOME>X86</OUTCOME>
			<OUTCOME>X87</OUTCOME>
			<OUTCOME>X88</OUTCOME>
			<OUTCOME>X89</OUTCOME>
			<OUTCOME>X90</OUTCOME>
			<OUTCOME>X91</OUTCOME>
			<OUTCOME>X92</OUTCOME>
			<OUTCOME>X93</OUTCOME>
			<OUTCOME>X94</OUTCOME>
			<OUTCOME>X95</OUTCOME>
			<OUTCOME>X96</OUTCOME>
			<OUTCOME>X97</OUTCOME>
			<OUTCOME>X98</OUTCOME>
			<OUTCOME>X99</OUTCOME>
			<OUTCOME>X100</OUTCOME>
			<OUTCOME>X101</OUTCOME>
			<OUTCOME>X102</OUTCOME>
			<OUTCOME>X103</OUTCOME>
			<OUTCOME>X104</OUTCOME>
			<OUTCOME>X105</OUTCOME>
			<OUTCOME>X106</OUTCOME>
			<OUTCOME>X107</OUTCOME>
			<OUTCOME>X108</OUTCOME>
			<OUTCOME>X109</OUTCOME>
			<OUTCOME>X110</OUTCOME>
			<OUTCOME>X111</OUTCOME>
			<OUTCOME>X112</OUTCOME>
			<OUTCOME>X113</OUTCOME>
			<OUTCOME>X114</OUTCOME>
			<OUTCOME>X115</OUTCOME>
			<OUTCOME>X116</OUTCOME>
			<OUTCOME>X117</OUTCOME>
			<OUTCOME>X118</OUTCOME>
			<OUTCOME>X119</OUTCOME>
			<OUTCOME>X120</OUTCOME>
			<OUTCOME>X121</OUTCOME>
			<OUTCOME>X122</OUTCOME>
			<OUTCOME>X123</OUTCOME>
			<OUTCOME>X124</OUTCOME>
			<OUTCOME>X125</OUTCOME>
			<OUTCOME>X126</OUTCOME>
			<OUTCOME>X127</OUTCOME>
			<OUTCOME>X128</OUTCOME>
			<OUTCOME>X129</OUTCOME>
			<OUTCOME>X130</OUTCOME>
			<OUTCOME>X131</OUTCOME>
			<OUTCOME>X132</OUTCOME>
			<OUTCOME>X133</OUTCOME>
			<OUTCOME>X134</OUTCOME>
			<OUTCOME>X135</OUTCOME>
			<OUTCOME>X136</OUTCOME>
			<OUTCOME>X137</OUTCOME>
			<OUTCOME>X138</OUTCOME>
			<OUTCOME>X139</OUTCOME>
			<OUTCOME>X140</OUTCOME>
			<OUTCOME>X141</OUTCOME>
			<OUTCOME>X142</OUTCOME>
			<OUTCOME>X143</OUTCOME>
			<OUTCOME>X144</OUTCOME>
			<OUTCOME>X145</OUTCOME>
			<OUTCOME>X146</OUTCOME>
			<OUTCOME>X147</OUTCOME>
			<OUTCOME>X148</OUTCOME>
			<OUTCOME>X149</OUTCOME>
			<OUTCOME>X150</OUTCOME>
			<OUTCOME>X151</OUTCOME>
			<OUTCOME>X152</OUTCOME>
			<OUTCOME>X153</OUTCOME>
			<OUTCOME>X154</OUTCOME>
			<OUTCOME>X155</OUTCOME>
			<OUTCOME>X156</OUTCOME>
			<OUTCOME>X157</OUTCOME>
			<OUTCOME>X158</OUTCOME>
			<OUTCOME>X159</OUTCOME>
			<OUTCOME>X160</OUTCOME>
			<OUTCOME>X161</OUTCOME>
			<OUTCOME>X162</OUTCOME>
			<OUTCOME>X163</OUTCOME>
			<OUTCOME>X164</OUTCOME>
			<OUTCOME>X165</OUTCOME>
			<OUTCOME>X166</OUTCOME>
			<OUTCOME>X167</OUTCOME>
			<OUTCOME>X168</OUTCOME>
			<OUTCOME>X169</OUTCOME>
			<OUTCOME>X170</OUTCOME>
			<OUTCOME>X171</OUTCOME>
			<OUTCOME>X172</OUTCOME>
			<OUTCOME>X173</OUTCOME>
			<OUTCOME>X174</OUTCOME>
			<OUTCOME>X175</OUTCOME>
			<OUTCOME>X176</OUTCOME>
			<OUTCOME>X177</OUTCOME>
			<OUTCOME>X178</OUTCOME>
			<OUTCOME>X179</OUTCOME>
			<OUTCOME>X180</OUTCOME>
			<OUTCOME>X181</OUTCOME>
			<OUTCOME>X182</OUTCOME>
			<OUTCOME>X183</OUTCOME>
			<OUTCOME>X184</OUTCOME>
			<OUTCOME>X185</OUTCOME>
			<OUTCOME>X186</OUTCOME>
			<OUTCOME>X187</OUTCOME>
			<OUTCOME>X188</OUTCOME>
			<OUTCOME>X189</OUTCOME>
			<OUTCOME>X190</OUTCOME>
			<OUTCOME>X191</OUTCOME>
			<OUTCOME>X192</OUTCOME>
			<OUTCOME>X193</OUTCOME>
			<OUTCOME>X194</OUTCOME>
			<OUTCOME>X195</OUTCOME>
			<OUTCOME>X196</OUTCOME>
			<OUTCOME>X197</OUTCOME>
			<OUTCOME>X198</OUTCOME>
			<OUTCOME>X199</OUTCOME>
			<OUTCOME>X200</OUTCOME>
			<OUTCOME>X201</OUTCOME>
			<OUTCOME>X202</OUTCOME>
			<OUTCOME>X203</OUTCOME>
			<OUTCOME>X204</OUTCOME>
			<OUTCOME>X205</OUTCOME>
			<OUTCOME>X206</OUTCOME>
			<OUTCOME>X207</OUTCOME>
			<OUTCOME>X208</OUTCOME>
			<OUTCOME>X209</OUTCOME>
			<OUTCOME>X210</OUTCOME>
			<OUTCOME>X211</OUTCOME>
			<OUTCOME>X212</OUTCOME>
			<OUTCOME>X213</OUTCOME>
			<OUTCOME>X214</OUTCOME>
			<OUTCOME>X215</OUTCOME>
			<OUTCOME>X216</OUTCOME>
			<OUTCOME>X217</OUTCOME>
			<OUTCOME>X218</OUTCOME>
			<OUTCOME>X219</OUTCOME>
			<OUTCOME>X220</OUTCOME>
			<OUTCOME>X221</OUTCOME>
			<OUTCOME>X222</OUTCOME>
			<OUTCOME>X223</OUTCOME>
			<OUTCOME>X224</OUTCOME>
			<OUTCOME>X225</OUTCOME>
			<OUTCOME>X226</OUTCOME>
			<OUTCOME>X227</OUTCOME>
			<OUTCOME>X228</OUTCOME>
			<OUTCOME>X229</OUTCOME>
			<OUTCOME>X230</OUTCOME>
			<OUTCOME>X231</OUTCOME>
			<OUTCOME>X232</OUTCOME>
			<OUTCOME>X233</OUTCOME>
			<OUTCOME>X234</OUTCOME>
			<OUTCOME>X235</OUTCOME>
			<OUTCOME>X236</OUTCOME>
			<OUTCOME>X237</OUTCOME>
			<OUTCOME>X238</OUTCOME>
			<OUTCOME>X239</OUTCOME>
			<OUTCOME>X240</OUTCOME>
			<OUTCOME>X241</OUTCOME>
			<OUTCOME>X242</OUTCOME>
			<OUTCOME>X243</OUTCOME>
			<OUTCOME>X244</OUTCOME>
			<OUTCOME>X245</OUTCOME>
			<OUTCOME>X246</OUTCOME>
			<OUTCOME>X247</OUTCOME>
			<OUTCOME>X248</OUTCOME>
			<OUTCOME>X249</OUTCOME>
			<OUTCOME>X250</OUTCOME>
			<OUTCOME>X251</OUTCOME>
			<OUTCOME>X252</OUTCOME>
			<OUTCOME>X253</OUTCOME>
			<OUTCOME>X254</OUTCOME>
			<OUTCOME>X255</OUTCOME>
		</VARIABLE>
		<VARIABLE TYPE  = "nature">
			<NAME>SENSOR7</NAME>
		
			<OUTCOME>X0</OUTCOME>
			<OUTCOME>X1</OUTCOME>
			<OUTCOME>X2</OUTCOME>
			<OUTCOME>X3</OUTCOME>
			<OUTCOME>X4</OUTCOME>
			<OUTCOME>X5</OUTCOME>
			<OUTCOME>X6</OUTCOME>
			<OUTCOME>X7</OUTCOME>
			<OUTCOME>X8</OUTCOME>
			<OUTCOME>X9</OUTCOME>
			<OUTCOME>X10</OUTCOME>
			<OUTCOME>X11</OUTCOME>
			<OUTCOME>X12</OUTCOME>
			<OUTCOME>X13</OUTCOME>
			<OUTCOME>X14</OUTCOME>
			<OUTCOME>X15</OUTCOME>
			<OUTCOME>X16</OUTCOME>
			<OUTCOME>X17</OUTCOME>
			<OUTCOME>X18</OUTCOME>
			<OUTCOME>X19</OUTCOME>
			<OUTCOME>X20</OUTCOME>
			<OUTCOME>X21</OUTCOME>
			<OUTCOME>X22</OUTCOME>
			<OUTCOME>X23</OUTCOME>
			<OUTCOME>X24</OUTCOME>
			<OUTCOME>X25</OUTCOME>
			<OUTCOME>X26</OUTCOME>
			<OUTCOME>X27</OUTCOME>
			<OUTCOME>X28</OUTCOME>
			<OUTCOME>X29</OUTCOME>
			<OUTCOME>X30</OUTCOME>
			<OUTCOME>X31</OUTCOME>
			<OUTCOME>X32</OUTCOME>
			<OUTCOME>X33</OUTCOME>
			<OUTCOME>X34</OUTCOME>
			<OUTCOME>X35</OUTCOME>
			<OUTCOME>X36</OUTCOME>
			<OUTCOME>X37</OUTCOME>
			<OUTCOME>X38</OUTCOME>
			<OUTCOME>X39</OUTCOME>
			<OUTCOME>X40</OUTCOME>
			<OUTCOME>X41</OUTCOME>
			<OUTCOME>X42</OUTCOME>
			<OUTCOME>X43</OUTCOME>
			<OUTCOME>X44</OUTCOME>
			<OUTCOME>X45</OUTCOME>
			<OUTCOME>X46</OUTCOME>
			<OUTCOME>X47</OUTCOME>
			<OUTCOME>X48</OUTCOME>
			<OUTCOME>X49</OUTCOME>
			<OUTCOME>X50</OUTCOME>
			<OUTCOME>X51</OUTCOME>
			<OUTCOME>X52</OUTCOME>
			<OUTCOME>X53</OUTCOME>
			<OUTCOME>X54</OUTCOME>
			<OUTCOME>X55</OUTCOME>
			<OUTCOME>X56</OUTCOME>
			<OUTCOME>X57</OUTCOME>
			<OUTCOME>X58</OUTCOME>
			<OUTCOME>X59</OUTCOME>
			<OUTCOME>X60</OUTCOME>
			<OUTCOME>X61</OUTCOME>
			<OUTCOME>X62</OUTCOME>
			<OUTCOME>X63</OUTCOME>
			<OUTCOME>X64</OUTCOME>
			<OUTCOME>X65</OUTCOME>
			<OUTCOME>X66</OUTCOME>
			<OUTCOME>X67</OUTCOME>
			<OUTCOME>X68</OUTCOME>
			<OUTCOME>X69</OUTCOME>
			<OUTCOME>X70</OUTCOME>
			<OUTCOME>X71</OUTCOME>
			<OUTCOME>X72</OUTCOME>
			<OUTCOME>X73</OUTCOME>
			<OUTCOME>X74</OUTCOME>
			<OUTCOME>X75</OUTCOME>
			<OUTCOME>X76</OUTCOME>
			<OUTCOME>X77</OUTCOME>
			<OUTCOME>X78</OUTCOME>
			<OUTCOME>X79</OUTCOME>
			<OUTCOME>X80</OUTCOME>
			<OUTCOME>X81</OUTCOME>
			<OUTCOME>X82</OUTCOME>
			<OUTCOME>X83</OUTCOME>
			<OUTCOME>X84</OUTCOME>
			<OUTCOME>X85</OUTCOME>
			<OUTCOME>X86</OUTCOME>
			<OUTCOME>X87</OUTCOME>
			<OUTCOME>X88</OUTCOME>
			<OUTCOME>X89</OUTCOME>
			<OUTCOME>X90</OUTCOME>
			<OUTCOME>X91</OUTCOME>
			<OUTCOME>X92</OUTCOME>
			<OUTCOME>X93</OUTCOME>
			<OUTCOME>X94</OUTCOME>
			<OUTCOME>X95</OUTCOME>
			<OUTCOME>X96</OUTCOME>
			<OUTCOME>X97</OUTCOME>
			<OUTCOME>X98</OUTCOME>
			<OUTCOME>X99</OUTCOME>
			<OUTCOME>X100</OUTCOME>
			<OUTCOME>X101</OUTCOME>
			<OUTCOME>X102</OUTCOME>
			<OUTCOME>X103</OUTCOME>
			<OUTCOME>X104</OUTCOME>
			<OUTCOME>X105</OUTCOME>
			<OUTCOME>X106</OUTCOME>
			<OUTCOME>X107</OUTCOME>
			<OUTCOME>X108</OUTCOME>
			<OUTCOME>X109</OUTCOME>
			<OUTCOME>X110</OUTCOME>
			<OUTCOME>X111</OUTCOME>
			<OUTCOME>X112</OUTCOME>
			<OUTCOME>X113</OUTCOME>
			<OUTCOME>X114</OUTCOME>
			<OUTCOME>X115</OUTCOME>
			<OUTCOME>X116</OUTCOME>
			<OUTCOME>X117</OUTCOME>
			<OUTCOME>X118</OUTCOME>
			<OUTCOME>X119</OUTCOME>
			<OUTCOME>X120</OUTCOME>
			<OUTCOME>X121</OUTCOME>
			<OUTCOME>X122</OUTCOME>
			<OUTCOME>X123</OUTCOME>
			<OUTCOME>X124</OUTCOME>
			<OUTCOME>X125</OUTCOME>
			<OUTCOME>X126</OUTCOME>
			<OUTCOME>X127</OUTCOME>
			<OUTCOME>X128</OUTCOME>
			<OUTCOME>X129</OUTCOME>
			<OUTCOME>X130</OUTCOME>
			<OUTCOME>X131</OUTCOME>
			<OUTCOME>X132</OUTCOME>
			<OUTCOME>X133</OUTCOME>
			<OUTCOME>X134</OUTCOME>
			<OUTCOME>X135</OUTCOME>
			<OUTCOME>X136</OUTCOME>
			<OUTCOME>X137</OUTCOME>
			<OUTCOME>X138</OUTCOME>
			<OUTCOME>X139</OUTCOME>
			<OUTCOME>X140</OUTCOME>
			<OUTCOME>X141</OUTCOME>
			<OUTCOME>X142</OUTCOME>
			<OUTCOME>X143</OUTCOME>
			<OUTCOME>X144</OUTCOME>
			<OUTCOME>X145</OUTCOME>
			<OUTCOME>X146</OUTCOME>
			<OUTCOME>X147</OUTCOME>
			<OUTCOME>X148</OUTCOME>
			<OUTCOME>X149</OUTCOME>
			<OUTCOME>X150</OUTCOME>
			<OUTCOME>X151</OUTCOME>
			<OUTCOME>X152</OUTCOME>
			<OUTCOME>X153</OUTCOME>
			<OUTCOME>X154</OUTCOME>
			<OUTCOME>X155</OUTCOME>
			<OUTCOME>X156</OUTCOME>
			<OUTCOME>X157</OUTCOME>
			<OUTCOME>X158</OUTCOME>
			<OUTCOME>X159</OUTCOME>
			<OUTCOME>X160</OUTCOME>
			<OUTCOME>X161</OUTCOME>
			<OUTCOME>X162</OUTCOME>
			<OUTCOME>X163</OUTCOME>
			<OUTCOME>X164</OUTCOME>
			<OUTCOME>X165</OUTCOME>
			<OUTCOME>X166</OUTCOME>
			<OUTCOME>X167</OUTCOME>
			<OUTCOME>X168</OUTCOME>
			<OUTCOME>X169</OUTCOME>
			<OUTCOME>X170</OUTCOME>
			<OUTCOME>X171</OUTCOME>
			<OUTCOME>X172</OUTCOME>
			<OUTCOME>X173</OUTCOME>
			<OUTCOME>X174</OUTCOME>
			<OUTCOME>X175</OUTCOME>
			<OUTCOME>X176</OUTCOME>
			<OUTCOME>X177</OUTCOME>
			<OUTCOME>X178</OUTCOME>
			<OUTCOME>X179</OUTCOME>
			<OUTCOME>X180</OUTCOME>
			<OUTCOME>X181</OUTCOME>
			<OUTCOME>X182</OUTCOME>
			<OUTCOME>X183</OUTCOME>
			<OUTCOME>X184</OUTCOME>
			<OUTCOME>X185</OUTCOME>
			<OUTCOME>X186</OUTCOME>
			<OUTCOME>X187</OUTCOME>
			<OUTCOME>X188</OUTCOME>
			<OUTCOME>X189</OUTCOME>
			<OUTCOME>X190</OUTCOME>
			<OUTCOME>X191</OUTCOME>
			<OUTCOME>X192</OUTCOME>
			<OUTCOME>X193</OUTCOME>
			<OUTCOME>X194</OUTCOME>
			<OUTCOME>X195</OUTCOME>
			<OUTCOME>X196</OUTCOME>
			<OUTCOME>X197</OUTCOME>
			<OUTCOME>X198</OUTCOME>
			<OUTCOME>X199</OUTCOME>
			<OUTCOME>X200</OUTCOME>
			<OUTCOME>X201</OUTCOME>
			<OUTCOME>X202</OUTCOME>
			<OUTCOME>X203</OUTCOME>
			<OUTCOME>X204</OUTCOME>
			<OUTCOME>X205</OUTCOME>
			<OUTCOME>X206</OUTCOME>
			<OUTCOME>X207</OUTCOME>
			<OUTCOME>X208</OUTCOME>
			<OUTCOME>X209</OUTCOME>
			<OUTCOME>X210</OUTCOME>
			<OUTCOME>X211</OUTCOME>
			<OUTCOME>X212</OUTCOME>
			<OUTCOME>X213</OUTCOME>
			<OUTCOME>X214</OUTCOME>
			<OUTCOME>X215</OUTCOME>
			<OUTCOME>X216</OUTCOME>
			<OUTCOME>X217</OUTCOME>
			<OUTCOME>X218</OUTCOME>
			<OUTCOME>X219</OUTCOME>
			<OUTCOME>X220</OUTCOME>
			<OUTCOME>X221</OUTCOME>
			<OUTCOME>X222</OUTCOME>
			<OUTCOME>X223</OUTCOME>
			<OUTCOME>X224</OUTCOME>
			<OUTCOME>X225</OUTCOME>
			<OUTCOME>X226</OUTCOME>
			<OUTCOME>X227</OUTCOME>
			<OUTCOME>X228</OUTCOME>
			<OUTCOME>X229</OUTCOME>
			<OUTCOME>X230</OUTCOME>
			<OUTCOME>X231</OUTCOME>
			<OUTCOME>X232</OUTCOME>
			<OUTCOME>X233</OUTCOME>
			<OUTCOME>X234</OUTCOME>
			<OUTCOME>X235</OUTCOME>
			<OUTCOME>X236</OUTCOME>
			<OUTCOME>X237</OUTCOME>
			<OUTCOME>X238</OUTCOME>
			<OUTCOME>X239</OUTCOME>
			<OUTCOME>X240</OUTCOME>
			<OUTCOME>X241</OUTCOME>
			<OUTCOME>X242</OUTCOME>
			<OUTCOME>X243</OUTCOME>
			<OUTCOME>X244</OUTCOME>
			<OUTCOME>X245</OUTCOME>
			<OUTCOME>X246</OUTCOME>
			<OUTCOME>X247</OUTCOME>
			<OUTCOME>X248</OUTCOME>
			<OUTCOME>X249</OUTCOME>
			<OUTCOME>X250</OUTCOME>
			<OUTCOME>X251</OUTCOME>
			<OUTCOME>X252</OUTCOME>
			<OUTCOME>X253</OUTCOME>
			<OUTCOME>X254</OUTCOME>
			<OUTCOME>X255</OUTCOME>
		</VARIABLE>
		<VARIABLE TYPE  = "nature">
			<NAME>SENSOR8</NAME>
		
			<OUTCOME>X0</OUTCOME>
			<OUTCOME>X1</OUTCOME>
			<OUTCOME>X2</OUTCOME>
			<OUTCOME>X3</OUTCOME>
			<OUTCOME>X4</OUTCOME>
			<OUTCOME>X5</OUTCOME>
			<OUTCOME>X6</OUTCOME>
			<OUTCOME>X7</OUTCOME>
			<OUTCOME>X8</OUTCOME>
			<OUTCOME>X9</OUTCOME>
			<OUTCOME>X10</OUTCOME>
			<OUTCOME>X11</OUTCOME>
			<OUTCOME>X12</OUTCOME>
			<OUTCOME>X13</OUTCOME>
			<OUTCOME>X14</OUTCOME>
			<OUTCOME>X15</OUTCOME>
			<OUTCOME>X16</OUTCOME>
			<OUTCOME>X17</OUTCOME>
			<OUTCOME>X18</OUTCOME>
			<OUTCOME>X19</OUTCOME>
			<OUTCOME>X20</OUTCOME>
			<OUTCOME>X21</OUTCOME>
			<OUTCOME>X22</OUTCOME>
			<OUTCOME>X23</OUTCOME>
			<OUTCOME>X24</OUTCOME>
			<OUTCOME>X25</OUTCOME>
			<OUTCOME>X26</OUTCOME>
			<OUTCOME>X27</OUTCOME>
			<OUTCOME>X28</OUTCOME>
			<OUTCOME>X29</OUTCOME>
			<OUTCOME>X30</OUTCOME>
			<OUTCOME>X31</OUTCOME>
			<OUTCOME>X32</OUTCOME>
			<OUTCOME>X33</OUTCOME>
			<OUTCOME>X34</OUTCOME>
			<OUTCOME>X35</OUTCOME>
			<OUTCOME>X36</OUTCOME>
			<OUTCOME>X37</OUTCOME>
			<OUTCOME>X38</OUTCOME>
			<OUTCOME>X39</OUTCOME>
			<OUTCOME>X40</OUTCOME>
			<OUTCOME>X41</OUTCOME>
			<OUTCOME>X42</OUTCOME>
			<OUTCOME>X43</OUTCOME>
			<OUTCOME>X44</OUTCOME>
			<OUTCOME>X45</OUTCOME>
			<OUTCOME>X46</OUTCOME>
			<OUTCOME>X47</OUTCOME>
			<OUTCOME>X48</OUTCOME>
			<OUTCOME>X49</OUTCOME>
			<OUTCOME>X50</OUTCOME>
			<OUTCOME>X51</OUTCOME>
			<OUTCOME>X52</OUTCOME>
			<OUTCOME>X53</OUTCOME>
			<OUTCOME>X54</OUTCOME>
			<OUTCOME>X55</OUTCOME>
			<OUTCOME>X56</OUTCOME>
			<OUTCOME>X57</OUTCOME>
			<OUTCOME>X58</OUTCOME>
			<OUTCOME>X59</OUTCOME>
			<OUTCOME>X60</OUTCOME>
			<OUTCOME>X61</OUTCOME>
			<OUTCOME>X62</OUTCOME>
			<OUTCOME>X63</OUTCOME>
			<OUTCOME>X64</OUTCOME>
			<OUTCOME>X65</OUTCOME>
			<OUTCOME>X66</OUTCOME>
			<OUTCOME>X67</OUTCOME>
			<OUTCOME>X68</OUTCOME>
			<OUTCOME>X69</OUTCOME>
			<OUTCOME>X70</OUTCOME>
			<OUTCOME>X71</OUTCOME>
			<OUTCOME>X72</OUTCOME>
			<OUTCOME>X73</OUTCOME>
			<OUTCOME>X74</OUTCOME>
			<OUTCOME>X75</OUTCOME>
			<OUTCOME>X76</OUTCOME>
			<OUTCOME>X77</OUTCOME>
			<OUTCOME>X78</OUTCOME>
			<OUTCOME>X79</OUTCOME>
			<OUTCOME>X80</OUTCOME>
			<OUTCOME>X81</OUTCOME>
			<OUTCOME>X82</OUTCOME>
			<OUTCOME>X83</OUTCOME>
			<OUTCOME>X84</OUTCOME>
			<OUTCOME>X85</OUTCOME>
			<OUTCOME>X86</OUTCOME>
			<OUTCOME>X87</OUTCOME>
			<OUTCOME>X88</OUTCOME>
			<OUTCOME>X89</OUTCOME>
			<OUTCOME>X90</OUTCOME>
			<OUTCOME>X91</OUTCOME>
			<OUTCOME>X92</OUTCOME>
			<OUTCOME>X93</OUTCOME>
			<OUTCOME>X94</OUTCOME>
			<OUTCOME>X95</OUTCOME>
			<OUTCOME>X96</OUTCOME>
			<OUTCOME>X97</OUTCOME>
			<OUTCOME>X98</OUTCOME>
			<OUTCOME>X99</OUTCOME>
			<OUTCOME>X100</OUTCOME>
			<OUTCOME>X101</OUTCOME>
			<OUTCOME>X102</OUTCOME>
			<OUTCOME>X103</OUTCOME>
			<OUTCOME>X104</OUTCOME>
			<OUTCOME>X105</OUTCOME>
			<OUTCOME>X106</OUTCOME>
			<OUTCOME>X107</OUTCOME>
			<OUTCOME>X108</OUTCOME>
			<OUTCOME>X109</OUTCOME>
			<OUTCOME>X110</OUTCOME>
			<OUTCOME>X111</OUTCOME>
			<OUTCOME>X112</OUTCOME>
			<OUTCOME>X113</OUTCOME>
			<OUTCOME>X114</OUTCOME>
			<OUTCOME>X115</OUTCOME>
			<OUTCOME>X116</OUTCOME>
			<OUTCOME>X117</OUTCOME>
			<OUTCOME>X118</OUTCOME>
			<OUTCOME>X119</OUTCOME>
			<OUTCOME>X120</OUTCOME>
			<OUTCOME>X121</OUTCOME>
			<OUTCOME>X122</OUTCOME>
			<OUTCOME>X123</OUTCOME>
			<OUTCOME>X124</OUTCOME>
			<OUTCOME>X125</OUTCOME>
			<OUTCOME>X126</OUTCOME>
			<OUTCOME>X127</OUTCOME>
			<OUTCOME>X128</OUTCOME>
			<OUTCOME>X129</OUTCOME>
			<OUTCOME>X130</OUTCOME>
			<OUTCOME>X131</OUTCOME>
			<OUTCOME>X132</OUTCOME>
			<OUTCOME>X133</OUTCOME>
			<OUTCOME>X134</OUTCOME>
			<OUTCOME>X135</OUTCOME>
			<OUTCOME>X136</OUTCOME>
			<OUTCOME>X137</OUTCOME>
			<OUTCOME>X138</OUTCOME>
			<OUTCOME>X139</OUTCOME>
			<OUTCOME>X140</OUTCOME>
			<OUTCOME>X141</OUTCOME>
			<OUTCOME>X142</OUTCOME>
			<OUTCOME>X143</OUTCOME>
			<OUTCOME>X144</OUTCOME>
			<OUTCOME>X145</OUTCOME>
			<OUTCOME>X146</OUTCOME>
			<OUTCOME>X147</OUTCOME>
			<OUTCOME>X148</OUTCOME>
			<OUTCOME>X149</OUTCOME>
			<OUTCOME>X150</OUTCOME>
			<OUTCOME>X151</OUTCOME>
			<OUTCOME>X152</OUTCOME>
			<OUTCOME>X153</OUTCOME>
			<OUTCOME>X154</OUTCOME>
			<OUTCOME>X155</OUTCOME>
			<OUTCOME>X156</OUTCOME>
			<OUTCOME>X157</OUTCOME>
			<OUTCOME>X158</OUTCOME>
			<OUTCOME>X159</OUTCOME>
			<OUTCOME>X160</OUTCOME>
			<OUTCOME>X161</OUTCOME>
			<OUTCOME>X162</OUTCOME>
			<OUTCOME>X163</OUTCOME>
			<OUTCOME>X164</OUTCOME>
			<OUTCOME>X165</OUTCOME>
			<OUTCOME>X166</OUTCOME>
			<OUTCOME>X167</OUTCOME>
			<OUTCOME>X168</OUTCOME>
			<OUTCOME>X169</OUTCOME>
			<OUTCOME>X170</OUTCOME>
			<OUTCOME>X171</OUTCOME>
			<OUTCOME>X172</OUTCOME>
			<OUTCOME>X173</OUTCOME>
			<OUTCOME>X174</OUTCOME>
			<OUTCOME>X175</OUTCOME>
			<OUTCOME>X176</OUTCOME>
			<OUTCOME>X177</OUTCOME>
			<OUTCOME>X178</OUTCOME>
			<OUTCOME>X179</OUTCOME>
			<OUTCOME>X180</OUTCOME>
			<OUTCOME>X181</OUTCOME>
			<OUTCOME>X182</OUTCOME>
			<OUTCOME>X183</OUTCOME>
			<OUTCOME>X184</OUTCOME>
			<OUTCOME>X185</OUTCOME>
			<OUTCOME>X186</OUTCOME>
			<OUTCOME>X187</OUTCOME>
			<OUTCOME>X188</OUTCOME>
			<OUTCOME>X189</OUTCOME>
			<OUTCOME>X190</OUTCOME>
			<OUTCOME>X191</OUTCOME>
			<OUTCOME>X192</OUTCOME>
			<OUTCOME>X193</OUTCOME>
			<OUTCOME>X194</OUTCOME>
			<OUTCOME>X195</OUTCOME>
			<OUTCOME>X196</OUTCOME>
			<OUTCOME>X197</OUTCOME>
			<OUTCOME>X198</OUTCOME>
			<OUTCOME>X199</OUTCOME>
			<OUTCOME>X200</OUTCOME>
			<OUTCOME>X201</OUTCOME>
			<OUTCOME>X202</OUTCOME>
			<OUTCOME>X203</OUTCOME>
			<OUTCOME>X204</OUTCOME>
			<OUTCOME>X205</OUTCOME>
			<OUTCOME>X206</OUTCOME>
			<OUTCOME>X207</OUTCOME>
			<OUTCOME>X208</OUTCOME>
			<OUTCOME>X209</OUTCOME>
			<OUTCOME>X210</OUTCOME>
			<OUTCOME>X211</OUTCOME>
			<OUTCOME>X212</OUTCOME>
			<OUTCOME>X213</OUTCOME>
			<OUTCOME>X214</OUTCOME>
			<OUTCOME>X215</OUTCOME>
			<OUTCOME>X216</OUTCOME>
			<OUTCOME>X217</OUTCOME>
			<OUTCOME>X218</OUTCOME>
			<OUTCOME>X219</OUTCOME>
			<OUTCOME>X220</OUTCOME>
			<OUTCOME>X221</OUTCOME>
			<OUTCOME>X222</OUTCOME>
			<OUTCOME>X223</OUTCOME>
			<OUTCOME>X224</OUTCOME>
			<OUTCOME>X225</OUTCOME>
			<OUTCOME>X226</OUTCOME>
			<OUTCOME>X227</OUTCOME>
			<OUTCOME>X228</OUTCOME>
			<OUTCOME>X229</OUTCOME>
			<OUTCOME>X230</OUTCOME>
			<OUTCOME>X231</OUTCOME>
			<OUTCOME>X232</OUTCOME>
			<OUTCOME>X233</OUTCOME>
			<OUTCOME>X234</OUTCOME>
			<OUTCOME>X235</OUTCOME>
			<OUTCOME>X236</OUTCOME>
			<OUTCOME>X237</OUTCOME>
			<OUTCOME>X238</OUTCOME>
			<OUTCOME>X239</OUTCOME>
			<OUTCOME>X240</OUTCOME>
			<OUTCOME>X241</OUTCOME>
			<OUTCOME>X242</OUTCOME>
			<OUTCOME>X243</OUTCOME>
			<OUTCOME>X244</OUTCOME>
			<OUTCOME>X245</OUTCOME>
			<OUTCOME>X246</OUTCOME>
			<OUTCOME>X247</OUTCOME>
			<OUTCOME>X248</OUTCOME>
			<OUTCOME>X249</OUTCOME>
			<OUTCOME>X250</OUTCOME>
			<OUTCOME>X251</OUTCOME>
			<OUTCOME>X252</OUTCOME>
			<OUTCOME>X253</OUTCOME>
			<OUTCOME>X254</OUTCOME>
			<OUTCOME>X255</OUTCOME>
		</VARIABLE>
		<VARIABLE TYPE  = "nature">
			<NAME>SENSOR9</NAME>
		
			<OUTCOME>X0</OUTCOME>
			<OUTCOME>X1</OUTCOME>
			<OUTCOME>X2</OUTCOME>
			<OUTCOME>X3</OUTCOME>
			<OUTCOME>X4</OUTCOME>
			<OUTCOME>X5</OUTCOME>
			<OUTCOME>X6</OUTCOME>
			<OUTCOME>X7</OUTCOME>
			<OUTCOME>X8</OUTCOME>
			<OUTCOME>X9</OUTCOME>
			<OUTCOME>X10</OUTCOME>
			<OUTCOME>X11</OUTCOME>
			<OUTCOME>X12</OUTCOME>
			<OUTCOME>X13</OUTCOME>
			<OUTCOME>X14</OUTCOME>
			<OUTCOME>X15</OUTCOME>
			<OUTCOME>X16</OUTCOME>
			<OUTCOME>X17</OUTCOME>
			<OUTCOME>X18</OUTCOME>
			<OUTCOME>X19</OUTCOME>
			<OUTCOME>X20</OUTCOME>
			<OUTCOME>X21</OUTCOME>
			<OUTCOME>X22</OUTCOME>
			<OUTCOME>X23</OUTCOME>
			<OUTCOME>X24</OUTCOME>
			<OUTCOME>X25</OUTCOME>
			<OUTCOME>X26</OUTCOME>
			<OUTCOME>X27</OUTCOME>
			<OUTCOME>X28</OUTCOME>
			<OUTCOME>X29</OUTCOME>
			<OUTCOME>X30</OUTCOME>
			<OUTCOME>X31</OUTCOME>
			<OUTCOME>X32</OUTCOME>
			<OUTCOME>X33</OUTCOME>
			<OUTCOME>X34</OUTCOME>
			<OUTCOME>X35</OUTCOME>
			<OUTCOME>X36</OUTCOME>
			<OUTCOME>X37</OUTCOME>
			<OUTCOME>X38</OUTCOME>
			<OUTCOME>X39</OUTCOME>
			<OUTCOME>X40</OUTCOME>
			<OUTCOME>X41</OUTCOME>
			<OUTCOME>X42</OUTCOME>
			<OUTCOME>X43</OUTCOME>
			<OUTCOME>X44</OUTCOME>
			<OUTCOME>X45</OUTCOME>
			<OUTCOME>X46</OUTCOME>
			<OUTCOME>X47</OUTCOME>
			<OUTCOME>X48</OUTCOME>
			<OUTCOME>X49</OUTCOME>
			<OUTCOME>X50</OUTCOME>
			<OUTCOME>X51</OUTCOME>
			<OUTCOME>X52</OUTCOME>
			<OUTCOME>X53</OUTCOME>
			<OUTCOME>X54</OUTCOME>
			<OUTCOME>X55</OUTCOME>
			<OUTCOME>X56</OUTCOME>
			<OUTCOME>X57</OUTCOME>
			<OUTCOME>X58</OUTCOME>
			<OUTCOME>X59</OUTCOME>
			<OUTCOME>X60</OUTCOME>
			<OUTCOME>X61</OUTCOME>
			<OUTCOME>X62</OUTCOME>
			<OUTCOME>X63</OUTCOME>
			<OUTCOME>X64</OUTCOME>
			<OUTCOME>X65</OUTCOME>
			<OUTCOME>X66</OUTCOME>
			<OUTCOME>X67</OUTCOME>
			<OUTCOME>X68</OUTCOME>
			<OUTCOME>X69</OUTCOME>
			<OUTCOME>X70</OUTCOME>
			<OUTCOME>X71</OUTCOME>
			<OUTCOME>X72</OUTCOME>
			<OUTCOME>X73</OUTCOME>
			<OUTCOME>X74</OUTCOME>
			<OUTCOME>X75</OUTCOME>
			<OUTCOME>X76</OUTCOME>
			<OUTCOME>X77</OUTCOME>
			<OUTCOME>X78</OUTCOME>
			<OUTCOME>X79</OUTCOME>
			<OUTCOME>X80</OUTCOME>
			<OUTCOME>X81</OUTCOME>
			<OUTCOME>X82</OUTCOME>
			<OUTCOME>X83</OUTCOME>
			<OUTCOME>X84</OUTCOME>
			<OUTCOME>X85</OUTCOME>
			<OUTCOME>X86</OUTCOME>
			<OUTCOME>X87</OUTCOME>
			<OUTCOME>X88</OUTCOME>
			<OUTCOME>X89</OUTCOME>
			<OUTCOME>X90</OUTCOME>
			<OUTCOME>X91</OUTCOME>
			<OUTCOME>X92</OUTCOME>
			<OUTCOME>X93</OUTCOME>
			<OUTCOME>X94</OUTCOME>
			<OUTCOME>X95</OUTCOME>
			<OUTCOME>X96</OUTCOME>
			<OUTCOME>X97</OUTCOME>
			<OUTCOME>X98</OUTCOME>
			<OUTCOME>X99</OUTCOME>
			<OUTCOME>X100</OUTCOME>
			<OUTCOME>X101</OUTCOME>
			<OUTCOME>X102</OUTCOME>
			<OUTCOME>X103</OUTCOME>
			<OUTCOME>X104</OUTCOME>
			<OUTCOME>X105</OUTCOME>
			<OUTCOME>X106</OUTCOME>
			<OUTCOME>X107</OUTCOME>
			<OUTCOME>X108</OUTCOME>
			<OUTCOME>X109</OUTCOME>
			<OUTCOME>X110</OUTCOME>
			<OUTCOME>X111</OUTCOME>
			<OUTCOME>X112</OUTCOME>
			<OUTCOME>X113</OUTCOME>
			<OUTCOME>X114</OUTCOME>
			<OUTCOME>X115</OUTCOME>
			<OUTCOME>X116</OUTCOME>
			<OUTCOME>X117</OUTCOME>
			<OUTCOME>X118</OUTCOME>
			<OUTCOME>X119</OUTCOME>
			<OUTCOME>X120</OUTCOME>
			<OUTCOME>X121</OUTCOME>
			<OUTCOME>X122</OUTCOME>
			<OUTCOME>X123</OUTCOME>
			<OUTCOME>X124</OUTCOME>
			<OUTCOME>X125</OUTCOME>
			<OUTCOME>X126</OUTCOME>
			<OUTCOME>X127</OUTCOME>
			<OUTCOME>X128</OUTCOME>
			<OUTCOME>X129</OUTCOME>
			<OUTCOME>X130</OUTCOME>
			<OUTCOME>X131</OUTCOME>
			<OUTCOME>X132</OUTCOME>
			<OUTCOME>X133</OUTCOME>
			<OUTCOME>X134</OUTCOME>
			<OUTCOME>X135</OUTCOME>
			<OUTCOME>X136</OUTCOME>
			<OUTCOME>X137</OUTCOME>
			<OUTCOME>X138</OUTCOME>
			<OUTCOME>X139</OUTCOME>
			<OUTCOME>X140</OUTCOME>
			<OUTCOME>X141</OUTCOME>
			<OUTCOME>X142</OUTCOME>
			<OUTCOME>X143</OUTCOME>
			<OUTCOME>X144</OUTCOME>
			<OUTCOME>X145</OUTCOME>
			<OUTCOME>X146</OUTCOME>
			<OUTCOME>X147</OUTCOME>
			<OUTCOME>X148</OUTCOME>
			<OUTCOME>X149</OUTCOME>
			<OUTCOME>X150</OUTCOME>
			<OUTCOME>X151</OUTCOME>
			<OUTCOME>X152</OUTCOME>
			<OUTCOME>X153</OUTCOME>
			<OUTCOME>X154</OUTCOME>
			<OUTCOME>X155</OUTCOME>
			<OUTCOME>X156</OUTCOME>
			<OUTCOME>X157</OUTCOME>
			<OUTCOME>X158</OUTCOME>
			<OUTCOME>X159</OUTCOME>
			<OUTCOME>X160</OUTCOME>
			<OUTCOME>X161</OUTCOME>
			<OUTCOME>X162</OUTCOME>
			<OUTCOME>X163</OUTCOME>
			<OUTCOME>X164</OUTCOME>
			<OUTCOME>X165</OUTCOME>
			<OUTCOME>X166</OUTCOME>
			<OUTCOME>X167</OUTCOME>
			<OUTCOME>X168</OUTCOME>
			<OUTCOME>X169</OUTCOME>
			<OUTCOME>X170</OUTCOME>
			<OUTCOME>X171</OUTCOME>
			<OUTCOME>X172</OUTCOME>
			<OUTCOME>X173</OUTCOME>
			<OUTCOME>X174</OUTCOME>
			<OUTCOME>X175</OUTCOME>
			<OUTCOME>X176</OUTCOME>
			<OUTCOME>X177</OUTCOME>
			<OUTCOME>X178</OUTCOME>
			<OUTCOME>X179</OUTCOME>
			<OUTCOME>X180</OUTCOME>
			<OUTCOME>X181</OUTCOME>
			<OUTCOME>X182</OUTCOME>
			<OUTCOME>X183</OUTCOME>
			<OUTCOME>X184</OUTCOME>
			<OUTCOME>X185</OUTCOME>
			<OUTCOME>X186</OUTCOME>
			<OUTCOME>X187</OUTCOME>
			<OUTCOME>X188</OUTCOME>
			<OUTCOME>X189</OUTCOME>
			<OUTCOME>X190</OUTCOME>
			<OUTCOME>X191</OUTCOME>
			<OUTCOME>X192</OUTCOME>
			<OUTCOME>X193</OUTCOME>
			<OUTCOME>X194</OUTCOME>
			<OUTCOME>X195</OUTCOME>
			<OUTCOME>X196</OUTCOME>
			<OUTCOME>X197</OUTCOME>
			<OUTCOME>X198</OUTCOME>
			<OUTCOME>X199</OUTCOME>
			<OUTCOME>X200</OUTCOME>
			<OUTCOME>X201</OUTCOME>
			<OUTCOME>X202</OUTCOME>
			<OUTCOME>X203</OUTCOME>
			<OUTCOME>X204</OUTCOME>
			<OUTCOME>X205</OUTCOME>
			<OUTCOME>X206</OUTCOME>
			<OUTCOME>X207</OUTCOME>
			<OUTCOME>X208</OUTCOME>
			<OUTCOME>X209</OUTCOME>
			<OUTCOME>X210</OUTCOME>
			<OUTCOME>X211</OUTCOME>
			<OUTCOME>X212</OUTCOME>
			<OUTCOME>X213</OUTCOME>
			<OUTCOME>X214</OUTCOME>
			<OUTCOME>X215</OUTCOME>
			<OUTCOME>X216</OUTCOME>
			<OUTCOME>X217</OUTCOME>
			<OUTCOME>X218</OUTCOME>
			<OUTCOME>X219</OUTCOME>
			<OUTCOME>X220</OUTCOME>
			<OUTCOME>X221</OUTCOME>
			<OUTCOME>X222</OUTCOME>
			<OUTCOME>X223</OUTCOME>
			<OUTCOME>X224</OUTCOME>
			<OUTCOME>X225</OUTCOME>
			<OUTCOME>X226</OUTCOME>
			<OUTCOME>X227</OUTCOME>
			<OUTCOME>X228</OUTCOME>
			<OUTCOME>X229</OUTCOME>
			<OUTCOME>X230</OUTCOME>
			<OUTCOME>X231</OUTCOME>
			<OUTCOME>X232</OUTCOME>
			<OUTCOME>X233</OUTCOME>
			<OUTCOME>X234</OUTCOME>
			<OUTCOME>X235</OUTCOME>
			<OUTCOME>X236</OUTCOME>
			<OUTCOME>X237</OUTCOME>
			<OUTCOME>X238</OUTCOME>
			<OUTCOME>X239</OUTCOME>
			<OUTCOME>X240</OUTCOME>
			<OUTCOME>X241</OUTCOME>
			<OUTCOME>X242</OUTCOME>
			<OUTCOME>X243</OUTCOME>
			<OUTCOME>X244</OUTCOME>
			<OUTCOME>X245</OUTCOME>
			<OUTCOME>X246</OUTCOME>
			<OUTCOME>X247</OUTCOME>
			<OUTCOME>X248</OUTCOME>
			<OUTCOME>X249</OUTCOME>
			<OUTCOME>X250</OUTCOME>
			<OUTCOME>X251</OUTCOME>
			<OUTCOME>X252</OUTCOME>
			<OUTCOME>X253</OUTCOME>
			<OUTCOME>X254</OUTCOME>
			<OUTCOME>X255</OUTCOME>
		</VARIABLE>
	<DEFINITION>
	<FOR>CLASS1</FOR>
		<TABLE>0.319 0.681</TABLE>
	</DEFINITION>
			
		<DEFINITION>
		<FOR>SENSOR1</FOR>
		<GIVEN>CLASS1</GIVEN>
		<TABLE> 2.4977036980707106e-05 2.848699372539248e-05 3.244575390675192e-05 3.690410409600586e-05 4.1917658026071497e-05 4.754719494652125e-05 5.3859006513151205e-05 6.0925250337104904e-05 6.882430799753318e-05 7.764114498331413e-05 8.746766967551581e-05 9.840308811565567e-05 0.0001105542509285245 0.00012403598838607333 0.0001389714292148398 0.00015549229836840623 0.00017373918861378237 0.0001938618004222695 0.00021601914431769304 0.0002403796995247346 0.0002671215224847553 0.000296432298573582 0.00032850933017316116 0.00036355945412482076 0.00040179888153428424 0.0004434529529156337 0.0004887558017610348 0.0005379499198127789 0.0005912856176011623 0.0006490203742023214 0.0007114180706700265 0.0007787481022091586 0.0008512843648896826 0.0009293041135504124 0.00101308668851243 0.0011029121098115344 0.0011990595388647843 0.0013018056088032412 0.0014114226261246034 0.0015281766478367005 0.0016523254398646725 0.001784116324167886 0.0019237839237418984 0.002071547816448545 0.0022276101104041204 0.002392152955440265 0.0025653360069116753 0.0027472938598346462 0.0029381334729751928 0.003137931604038663 0.003346732278517339 0.0035645443160015073 0.0037913389388260655 0.004027047488782766 0.004271559278252859 0.004524719602482879 0.004786327939816432 0.00505613636648851 0.005333848212070486 0.005619116980811445 0.005911545562946445 0.006210685758530788 0.006516038134511499 0.006827052233568455 0.007143127150757561 0.007463612491182596 0.007787809718830403 0.008114973903351561 0.008444315867985119 0.008775004738046037 0.00910617088545661 0.009436909260750808 0.00976628309985948 0.01009332798884348 0.010417056265632236 0.01073646173379958 0.011050524659520224 0.011358217019152302 0.011658507961436528 0.01195036944514117 0.01223278201016279 0.012504740637660243 0.01276526065279451 0.013013383622105761 0.013248183196511708 0.013468770850382566 0.013674301467154973 0.013863978722501405 0.014037060217175564 0.01419286231330445 0.014330764630082121 0.014450214157519492 0.014550728950092155 0.014631901365770585 0.014693400819973864 0.014734976028412812 0.014756456717529592 0.014757754786241601 0.014738864907897862 0.01469986456669244 0.014640913528186575 0.014562252749002538 0.014464202736101515 0.014347161371279034 0.014211601221541578 0.014058066360805605 0.013887168732828773 0.013699584089389845 0.013496047541431874 0.013277348764131279 0.013044326899619265 0.012797865203333718 0.012538885481699348 0.012268342370008544 0.01198721750000005 0.011696513606709607 0.011397248623705898 0.011090449814843294 0.01077714798918351 0.010458371843791172 0.010135142476728526 0.009808468109802572 0.009479339057497892 0.00914872297510846 0.008817560415412184 0.008486760719364859 0.008157198262279319 0.007829709072853719 0.007505087838273152 0.007184085304482512 0.006867406076664666 0.0065557068210033535 0.006249594865007853 0.005949627190065662 0.005656309806505276 0.005370097498324426 0.0050913939218951414 0.004820552040416864 0.004557874873668027 0.004303616540715774 0.004057983571688603 0.0038211364634985453 0.00359319145351466 0.003374222484630161 0.003164263334919881 0.0029633098851377616 0.0027713224976374895 0.002588228480892271 0.0024139246146192284 0.0022482797115550455 0.002091137193156566 0.0019423176578861358 0.0018016214222596355 0.0016688310164583193 0.0015437136180072929 0.00142602340877793 0.0013155038423543286 0.0012118898105916715 0.0011149096999657731 0.0010242873300482676 0.0009397437681232701 0.0008609990155731422 0.0007877735631897913 0.0007197898140023922 0.0006567733735432927 0.0005984542086941965 0.0005445676773593472 0.0004948554321983911 0.000449066202517518 0.00040695645916381356 0.0003682909678964092 0.000332843237222285 0.0003003958670889363 0.0002707408051260545 0.0002436795173302225 0.00021902308019741275 0.0001965922013353027 0.00017621717553896636 0.00015773778319744272 0.00014100313772315754 0.00012587148846928805 0.00011220998532983077 9.989441091104304e-05 8.880888582839656e-05 7.8845552327134e-05 6.990424105341532e-05 6.189212542282008e-05 5.472336764906147e-05 4.831876011302569e-05 4.260536537497516e-05 3.7516157764700695e-05 3.2989669128762495e-05 2.896964097340268e-05 2.5404684918393e-05 2.2247953072698794e-05 1.945681965862586e-05 1.6992574947912094e-05 1.4820132331487455e-05 1.290774912449201e-05 1.1226761509445105e-05 9.751333842789974e-06 8.458222392761612e-06 7.3265534388351975e-06 6.337615543947799e-06 5.474665709182167e-06 4.722749035502731e-06 4.0685314472345505e-06 3.5001449760334094e-06 3.0070450608606233e-06 2.579879287706606e-06 2.2103669712862952e-06 1.8911889684781058e-06 1.6158871087675737e-06 1.3787726293158975e-06 1.1748430104965645e-06 9.997066208940774e-07 8.495145979738858e-07 7.208994111228016e-07 6.109195768096923e-07 5.170100205853067e-07 4.3693760695761965e-07 3.6876138534339983e-07 3.1079712787133375e-07 2.615857624219532e-07 2.1986533161682228e-07 1.8454613524875365e-07 1.5468873965932086e-07 1.2948456264622592e-07 1.0823876648711175e-07 9.035521449882447e-08 7.532326814325402e-08 6.270622200063144e-08 5.2131192939361246e-08 4.328029751836814e-08 3.5882968079979763e-08 2.9709273158329585e-08 2.456412178058673e-08 2.028224402478037e-08 1.6723851873620177e-08 1.3770895027988891e-08 1.1323835979030598e-08 9.298877347829355e-09 7.6255823507955e-09 6.244836300712831e-09 5.10710337028686e-09 4.1709384873468605e-09 3.401719256556124e-09 2.7705672667491164e-09 2.253432097988798e-09 1.830314837079286e-09 1.4846109902590328e-09 1.2025553895287608e-09 9.727540636630263e-10 7.857901223590316e-10 6.338925150546864e-10 5.106581046224267e-10 0.9999750229630193 0.9999715130062746 0.9999675542460933 0.999963095895904 0.9999580823419739 0.9999524528050535 0.9999461409934869 0.9999390747496629 0.9999311756920025 0.9999223588550167 0.9999125323303245 0.9999015969118843 0.9998894457490715 0.9998759640116139 0.9998610285707852 0.9998445077016316 0.9998262608113863 0.9998061381995778 0.9997839808556823 0.9997596203004753 0.9997328784775152 0.9997035677014264 0.9996714906698269 0.9996364405458752 0.9995982011184658 0.9995565470470844 0.999511244198239 0.9994620500801872 0.9994087143823989 0.9993509796257977 0.99928858192933 0.9992212518977909 0.9991487156351103 0.9990706958864496 0.9989869133114876 0.9988970878901885 0.9988009404611352 0.9986981943911968 0.9985885773738754 0.9984718233521633 0.9983476745601353 0.9982158836758321 0.9980762160762581 0.9979284521835514 0.9977723898895959 0.9976078470445597 0.9974346639930883 0.9972527061401654 0.9970618665270248 0.9968620683959614 0.9966532677214827 0.9964354556839985 0.9962086610611739 0.9959729525112172 0.9957284407217472 0.9954752803975171 0.9952136720601835 0.9949438636335115 0.9946661517879295 0.9943808830191886 0.9940884544370535 0.9937893142414692 0.9934839618654885 0.9931729477664315 0.9928568728492424 0.9925363875088175 0.9922121902811696 0.9918850260966484 0.9915556841320149 0.991224995261954 0.9908938291145434 0.9905630907392492 0.9902337169001405 0.9899066720111566 0.9895829437343677 0.9892635382662004 0.9889494753404797 0.9886417829808477 0.9883414920385635 0.9880496305548588 0.9877672179898372 0.9874952593623397 0.9872347393472055 0.9869866163778942 0.9867518168034883 0.9865312291496174 0.986325698532845 0.9861360212774986 0.9859629397828245 0.9858071376866956 0.9856692353699179 0.9855497858424805 0.9854492710499079 0.9853680986342294 0.9853065991800262 0.9852650239715872 0.9852435432824704 0.9852422452137584 0.9852611350921021 0.9853001354333075 0.9853590864718135 0.9854377472509974 0.9855357972638985 0.985652838628721 0.9857883987784585 0.9859419336391944 0.9861128312671712 0.9863004159106101 0.9865039524585681 0.9867226512358688 0.9869556731003807 0.9872021347966663 0.9874611145183007 0.9877316576299915 0.9880127824999999 0.9883034863932904 0.988602751376294 0.9889095501851567 0.9892228520108165 0.9895416281562088 0.9898648575232715 0.9901915318901974 0.9905206609425021 0.9908512770248915 0.9911824395845878 0.9915132392806352 0.9918428017377207 0.9921702909271463 0.9924949121617268 0.9928159146955174 0.9931325939233353 0.9934442931789966 0.9937504051349921 0.9940503728099344 0.9943436901934948 0.9946299025016756 0.9949086060781048 0.9951794479595831 0.995442125126332 0.9956963834592842 0.9959420164283114 0.9961788635365014 0.9964068085464853 0.9966257775153698 0.9968357366650801 0.9970366901148623 0.9972286775023625 0.9974117715191078 0.9975860753853808 0.9977517202884449 0.9979088628068434 0.9980576823421139 0.9981983785777404 0.9983311689835417 0.9984562863819927 0.998573976591222 0.9986844961576457 0.9987881101894083 0.9988850903000343 0.9989757126699518 0.9990602562318768 0.9991390009844269 0.9992122264368102 0.9992802101859976 0.9993432266264567 0.9994015457913058 0.9994554323226407 0.9995051445678016 0.9995509337974825 0.9995930435408362 0.9996317090321036 0.9996671567627777 0.999699604132911 0.999729259194874 0.9997563204826698 0.9997809769198026 0.9998034077986647 0.999823782824461 0.9998422622168025 0.9998589968622769 0.9998741285115307 0.9998877900146702 0.9999001055890889 0.9999111911141716 0.9999211544476728 0.9999300957589465 0.9999381078745772 0.9999452766323509 0.999951681239887 0.9999573946346251 0.9999624838422353 0.9999670103308712 0.9999710303590266 0.9999745953150816 0.9999777520469273 0.9999805431803414 0.9999830074250521 0.9999851798676685 0.9999870922508755 0.9999887732384906 0.9999902486661572 0.9999915417776072 0.9999926734465612 0.9999936623844561 0.9999945253342908 0.9999952772509645 0.9999959314685528 0.9999964998550239 0.9999969929549392 0.9999974201207122 0.9999977896330288 0.9999981088110316 0.9999983841128912 0.9999986212273707 0.9999988251569895 0.9999990002933791 0.999999150485402 0.9999992791005888 0.9999993890804232 0.9999994829899794 0.999999563062393 0.9999996312386147 0.9999996892028721 0.9999997384142376 0.9999997801346684 0.9999998154538647 0.9999998453112603 0.9999998705154374 0.9999998917612335 0.9999999096447855 0.9999999246767318 0.999999937293778 0.9999999478688071 0.9999999567197024 0.999999964117032 0.9999999702907268 0.9999999754358783 0.999999979717756 0.9999999832761481 0.999999986229105 0.999999988676164 0.9999999907011227 0.9999999923744176 0.9999999937551637 0.9999999948928966 0.9999999958290615 0.9999999965982808 0.9999999972294328 0.9999999977465679 0.9999999981696852 0.999999998515389 0.9999999987974446 0.9999999990272459 0.9999999992142099 0.9999999993661075 0.9999999994893419  </TABLE>
		</DEFINITION>
			
		<DEFINITION>
		<FOR>SENSOR2</FOR>
		<GIVEN>CLASS1</GIVEN>
		<TABLE> 0.0002644182450722497 0.0002905026682670487 0.0003187967575740195 0.0003494481359226021 0.00038261027014424895 0.000418442300560022 0.0004571088204849736 0.0004987796024754966 0.0005436292682907553 0.0005918368997266578 0.0006435855877124818 0.000699061917337885 0.0007584553868027354 0.000821957758654738 0.000889762342100478 0.0009620632056438712 0.0010390543198212157 0.001120928630362574 0.0012078770627127664 0.0013000874594890236 0.0013977434531326771 0.0015010232767247533 0.001610098516675061 0.0017251328117554225 0.0018462805037236867 0.0019736852455689547 0.002107478574192295 0.002247778455112793 0.0023946878075473085 0.002548293018944553 0.002708662458750535 0.002875845001833196 0.0030498685725894588 0.0032307387212878345 0.00341843724465463 0.003612920863082079 0.003814119967113324 0.0040219374460336655 0.0042362476114619 0.00445689522878301 0.004683694669087886 0.004916429193982169 0.005154850385191125 0.005398677730318213 0.005647598375410808 0.0059012670541481425 0.00615930620249583 0.006421306266572519 0.006686826210252597 0.006955394227691711 0.007226508664518062 0.007499639149892489 0.007774227940016283 0.008049691471971028 0.008325422125024623 0.008600790184747702 0.00887514600347266 0.009147822348811117 0.009418136930143728 0.009685395091228299 0.009948892655357198 0.010207918907853095 0.010461759699141916 0.010709700650202658 0.010951030440883107 0.011185044160405878 0.011411046698386001 0.011628356153854031 0.011836307239140021 0.012034254655034196 0.012221576413408753 0.012397677083468122 0.012561990937996585 0.012713984976393908 0.012853161801930916 0.012979062331514218 0.013091268317317108 0.013189404660903065 0.013273141501929236 0.013342196065156091 0.013396334251291404 0.013435371959144177 0.013459176128638542 0.013467665496418011 0.013460811058035236 0.013438636233048447 0.013401216731709405 0.013348680124304903 0.013281205116580035 0.013199020537002741 0.013102404043901415 0.012991680562697885 0.012867220465544699 0.012729437507637656 0.012578786536292744 0.012415760990533748 0.012240890210417178 0.01205473657661175 0.01185789250183921 0.011650977296663438 0.011434633932779232 0.01120952572739743 0.010976332972547992 0.010735749533128744 0.010488479437318649 0.010235233482556763 0.009976725879670178 0.009713670956926412 0.009446779944800858 0.009176757861101484 0.008904300514797313 0.0086300916454708 0.008354800213774998 0.008079077856643324 0.007803556519291646 0.007528846274289159 0.007255533336175282 0.006984178278284137 0.006715314456624692 0.006449446643871671 0.0061870498747670696 0.005928568502530823 0.00567441546424698 0.005424971751642141 0.005180586082218379 0.004941574764353901 0.004708221748750357 0.00448077885749352 0.004259466181009521 0.0040444726323461445 0.0038359566474901593 0.003634047019848044 0.003438843856568054 0.003250419644064188 0.003068820409913495 0.0028940669682328605 0.002726156235693593 0.002565062605495298 0.0024107393668866134 0.0022631201581811114 0.0021221204416629748 0.0019876389892994903 0.0018595593687662356 0.001737751419936215 0.0016220727126762344 0.0015123699775226682 0.0014084805015649685 0.0013102334826394205 0.0012174513357190487 0.0011299509461697138 0.0010475448653196448 0.0009700424445526238 0.0008972509048772833 0.0008289763396406743 0.0007650246487382104 0.0007052024033199338 0.0006493176406010767 0.0005971805889500761 0.0005486043239473679 0.000503405356581674 0.00046140415517626014 0.0004224256030153101 0.0003862993939703386 0.00035286036870914956 0.00032194879430633275 0.0002934105902662728 0.00026709750411899497 0.00024286723985809624 0.00022058354256096827 0.0002001162425671555 0.00018134126259380047 0.0001641405911406181 0.00014840222548367034 0.00013402008748034626 0.00012089391531036949 0.00010892913416224119 9.803670874411423e-05 8.813298035539939e-05 7.913949110300153e-05 7.098279768642397e-05 6.359427701132402e-05 5.690992572356012e-05 5.087015558725582e-05 4.541958646266141e-05 4.050683847415623e-05 3.608432479697441e-05 3.210804633433094e-05 2.853738940557452e-05 2.533492742162994e-05 2.2466227386988814e-05 1.9899661938378642e-05 1.760622750936296e-05 1.5559369097746962e-05 1.373481200890966e-05 1.2110400853076841e-05 1.0665945988012629e-05 9.383077520485566e-06 8.245106909927252e-06 7.236896155658044e-06 6.3447344945644335e-06 5.556222488797641e-06 4.8601633425096325e-06 4.246461252419076e-06 3.706026568656985e-06 3.2306875194247358e-06 2.813108235048774e-06 2.446712793584336e-06 2.125615000761307e-06 1.8445536113487695e-06 1.5988326965264253e-06 1.3842668621969033e-06 1.1971310259785451e-06 1.0341144655339082e-06 8.92278857587487e-07 7.690200351654376e-07 6.620331999729402e-07 5.692813371586361e-07 4.889665907721203e-07 4.195043697952619e-07 3.5949996653894e-07 3.0772748128396534e-07 2.6311085916847774e-07 2.2470685736397655e-07 1.9168977243592973e-07 1.6333776936678304e-07 1.390206649587745e-07 1.1818902917436892e-07 1.0036447836923043e-07 8.513104429328023e-08 7.212751215637996e-08 6.10406299620551e-08 5.159909969846248e-08 4.356826884013328e-08 3.6745447961986405e-08 3.095578710845113e-08 2.604864990884142e-08 2.189443030198348e-08 1.838176214756774e-08 1.5415076979587278e-08 1.2912469720665438e-08 1.0803836348006229e-08 9.029251305494587e-09 7.53755591560593e-09 6.285132182529912e-09 5.234839217130488e-09 4.3550920772864934e-09 3.619065125248008e-09 3.0040040774761573e-09 2.490632781601183e-09 2.0626424181896704e-09 1.706252309432064e-09 1.4098328390266058e-09 1.1635821627273834e-09 9.592494314399578e-10 7.898981715244045e-10 6.49704282210419e-10 0.9997355817549277 0.999709497331733 0.9996812032424259 0.9996505518640774 0.9996173897298557 0.99958155769944 0.999542891179515 0.9995012203975245 0.9994563707317092 0.9994081631002734 0.9993564144122875 0.9993009380826621 0.9992415446131973 0.9991780422413452 0.9991102376578995 0.9990379367943562 0.9989609456801788 0.9988790713696374 0.9987921229372873 0.9986999125405109 0.9986022565468673 0.9984989767232753 0.998389901483325 0.9982748671882445 0.9981537194962763 0.998026314754431 0.9978925214258078 0.9977522215448872 0.9976053121924527 0.9974517069810555 0.9972913375412494 0.9971241549981668 0.9969501314274105 0.9967692612787121 0.9965815627553454 0.9963870791369179 0.9961858800328867 0.9959780625539664 0.9957637523885381 0.995543104771217 0.9953163053309121 0.9950835708060178 0.9948451496148089 0.9946013222696818 0.9943524016245892 0.9940987329458518 0.9938406937975042 0.9935786937334274 0.9933131737897474 0.9930446057723082 0.992773491335482 0.9925003608501075 0.9922257720599837 0.991950308528029 0.9916745778749754 0.9913992098152523 0.9911248539965274 0.9908521776511889 0.9905818630698563 0.9903146049087717 0.9900511073446429 0.9897920810921469 0.9895382403008581 0.9892902993497974 0.9890489695591169 0.9888149558395941 0.988588953301614 0.988371643846146 0.98816369276086 0.9879657453449658 0.9877784235865913 0.9876023229165318 0.9874380090620034 0.9872860150236061 0.987146838198069 0.9870209376684858 0.9869087316826829 0.986810595339097 0.9867268584980707 0.9866578039348439 0.9866036657487086 0.9865646280408559 0.9865408238713614 0.986532334503582 0.9865391889419648 0.9865613637669516 0.9865987832682906 0.9866513198756951 0.98671879488342 0.9868009794629973 0.9868975959560986 0.9870083194373022 0.9871327795344553 0.9872705624923623 0.9874212134637073 0.9875842390094662 0.9877591097895828 0.9879452634233883 0.9881421074981608 0.9883490227033366 0.9885653660672208 0.9887904742726026 0.989023667027452 0.9892642504668713 0.9895115205626813 0.9897647665174433 0.9900232741203299 0.9902863290430736 0.9905532200551992 0.9908232421388985 0.9910956994852027 0.9913699083545292 0.991645199786225 0.9919209221433567 0.9921964434807083 0.9924711537257108 0.9927444666638248 0.9930158217217159 0.9932846855433753 0.9935505533561283 0.993812950125233 0.9940714314974691 0.994325584535753 0.9945750282483579 0.9948194139177816 0.9950584252356461 0.9952917782512496 0.9955192211425065 0.9957405338189905 0.9959555273676538 0.9961640433525099 0.996365952980152 0.996561156143432 0.9967495803559359 0.9969311795900865 0.9971059330317671 0.9972738437643064 0.9974349373945047 0.9975892606331134 0.9977368798418189 0.9978778795583371 0.9980123610107005 0.9981404406312337 0.9982622485800637 0.9983779272873238 0.9984876300224773 0.998591519498435 0.9986897665173606 0.998782548664281 0.9988700490538303 0.9989524551346803 0.9990299575554473 0.9991027490951228 0.9991710236603594 0.9992349753512618 0.99929479759668 0.999350682359399 0.9994028194110499 0.9994513956760527 0.9994965946434183 0.9995385958448237 0.9995775743969847 0.9996137006060296 0.9996471396312908 0.9996780512056936 0.9997065894097338 0.999732902495881 0.9997571327601419 0.9997794164574391 0.9997998837574329 0.9998186587374062 0.9998358594088593 0.9998515977745164 0.9998659799125197 0.9998791060846897 0.9998910708658377 0.9999019632912559 0.9999118670196446 0.999920860508897 0.9999290172023135 0.9999364057229887 0.9999430900742764 0.9999491298444128 0.9999545804135374 0.9999594931615259 0.999963915675203 0.9999678919536656 0.9999714626105944 0.9999746650725784 0.999977533772613 0.9999801003380616 0.9999823937724907 0.9999844406309023 0.999986265187991 0.999987889599147 0.999989334054012 0.9999906169224795 0.9999917548930901 0.9999927631038443 0.9999936552655054 0.9999944437775112 0.9999951398366574 0.9999957535387476 0.9999962939734314 0.9999967693124806 0.999997186891765 0.9999975532872064 0.9999978743849992 0.9999981554463887 0.9999984011673034 0.9999986157331378 0.999998802868974 0.9999989658855345 0.9999991077211424 0.9999992309799648 0.9999993379668001 0.9999994307186628 0.9999995110334092 0.9999995804956302 0.9999996405000334 0.9999996922725187 0.9999997368891408 0.9999997752931427 0.9999998083102276 0.9999998366622306 0.999999860979335 0.9999998818109709 0.9999998996355216 0.9999999148689557 0.9999999278724878 0.99999993895937 0.9999999484009003 0.9999999564317311 0.9999999632545521 0.9999999690442128 0.9999999739513501 0.9999999781055697 0.9999999816182379 0.999999984584923 0.9999999870875302 0.9999999891961636 0.9999999909707487 0.9999999924624441 0.9999999937148678 0.9999999947651608 0.9999999956449079 0.9999999963809348 0.999999996995996 0.9999999975093672 0.9999999979373576 0.9999999982937476 0.9999999985901672 0.9999999988364179 0.9999999990407505 0.9999999992101019 0.9999999993502957  </TABLE>
		</DEFINITION>
			
		<DEFINITION>
		<FOR>SENSOR3</FOR>
		<GIVEN>CLASS1</GIVEN>
		<TABLE> 0.001072500034697025 0.0011315335234935312 0.001193044716789415 0.0012570866232639775 0.0013237100760912016 0.0013929634812796887 0.0014648925606426883 0.0015395400901363583 0.001616945634364744 0.0016971452781092277 0.0017801713557979953 0.0018660521798869257 0.0019548117691768653 0.002046469578142994 0.002141040228399556 0.0022385332434671345 0.0023389527880494335 0.0024422974130618846 0.0025485598076846892 0.0026577265597379825 0.0027697779256960586 0.002884687611670777 0.0030024225667010175 0.0031229427896849976 0.0032462011512851816 0.003372143232121107 0.003500707178543542 0.0036318235772537536 0.003765415349994227 0.0039013976694918188 0.004039677897781012 0.004180155547973714 0.004322722270472915 0.004467261864550708 0.004613650316126743 0.004761755862491464 0.004911439084619677 0.005062553027614582 0.005214943349710568 0.005368448500145544 0.005522899926090602 0.005678122308697161 0.005833933828189869 0.005990146457798224 0.006146566286181657 0.006302993867862685 0.006459224601041124 0.006615049132020372 0.006770253785335037 0.006924621018528636 0.007077929900391525 0.007229956611333632 0.007380474964434565 0.007529256945586472 0.007676073271023108 0.007820693960413086 0.007962888923586861 0.008102428558866408 0.008239084360874754 0.008372629535619881 0.008502839620575032 0.00862949310741548 0.008752372065021009 0.008871262760314256 0.008985956274477862 0.009096249112078722 0.00920194380062551 0.009302849478096467 0.009398782465998099 0.009489566825552194 0.009575034894658134 0.009655027803339883 0.009729395965461941 0.00979799954458572 0.009860708891936753 0.009917404954563577 0.009967979651890151 0.010012336218995149 0.010050389515092156 0.010082066295834424 0.010107305448225185 0.01012605818707904 0.010138288212150404 0.010143971825220643 0.010143098006615303 0.010135668450805591 0.010121697560933157 0.010101212402282901 0.010074252614914205 0.010040870285845339 0.010001129781367895 0.009955107540246868 0.009902891828736335 0.009844582458509731 0.009780290468766327 0.00971013777393097 0.009634256778511392 0.009552789960815758 0.009465889427361866 0.009373716439927645 0.00927644091730006 0.00917424091387534 0.009067302077347442 0.008955817087793213 0.00883998508052173 0.008720011055101501 0.00859610527301243 0.008468482646389698 0.00833736212033408 0.008202966051257744 0.008065519583716485 0.007925250028149053 0.007782386241901849 0.0076371580158635256 0.0074897954689691236 0.007340528452758181 0.007189585968086081 0.007037195595993671 0.006883582944637458 0.0067289711140723135 0.006573580180561296 0.00641762670196385 0.00626132324562503 0.006104877940055394 0.005948494051554731 0.005792369586793593 0.005636696922225683 0.00548166246106225 0.005327446318397674 0.005174222034934157 0.00502215631961369 0.004871408821327984 0.004722131929742571 0.004574470605140516 0.004428562237064624 0.004284536531415587 0.004142515425547308 0.004002613030790596 0.003864935601732687 0.0037295815314830677 0.0035966413720663394 0.0034661978790003906 0.0033383260790433847 0.003213093360026022 0.0030905595816264494 0.002970777205893944 0.002853791446284311 0.0027396404339345435 0.0026283553998767417 0.00251996087187142 0.002414474884527865 0.002311909201374039 0.0022122695475403223 0.0021155558517298523 0.0020217624961630836 0.0019308785732050165 0.0018428881474100388 0.0017577705217510357 0.0016755005068359661 0.0015960486919560511 0.0015193817168546407 0.0014454625431542646 0.001374250724430939 0.0013057026739789852 0.0012397719293660485 0.0011764094129362284 0.0011155636874788275 0.0010571812063407799 0.0010012065573219917 0.0009475826997541534 0.0008962511942247887 0.0008471524244690054 0.0008002258110113069 0.000755410016198601 0.0007126431403229554 0.0006718629085884283 0.0006330068487302124 0.0005960124591462141 0.0005608173674508148 0.00052735947940781 0.0004955771182442576 0.00046540915438907424 0.00043679512571962787 0.0004096753484362088 0.00038399101871809156 0.0003596843053459092 0.00033669843350322135 0.00031497775999552444 0.0002944678401475249 0.0002751154866593387 0.0002568688207194505 0.00023967731568685008 0.00022349183366681156 0.0002082646553144518 0.00019394950320753365 0.0001805015591351308 0.0001678774756518392 0.00015603538224833566 0.00014493488648837307 0.00013453707045988928 0.00012480448288394144 0.00011570112721976227 0.00010719244609753845 9.924530240262311e-05 9.182795732598442e-05 8.491004568584977e-05 7.846254881487868e-05 7.24577652958884e-05 6.686927981728822e-05 6.167193040705607e-05 5.684177429141401e-05 5.23560526114349e-05 4.819315421772169e-05 4.433257875013547e-05 4.075489919638817e-05 3.744172411022932e-05 3.437565965701643e-05 3.1540271641719365e-05 2.8920047661933347e-05 2.6500359516302376e-05 2.4267425986936314e-05 2.220827610297034e-05 2.0310712981402942e-05 1.856327833077839e-05 1.695521769317964e-05 1.547644649037746e-05 1.4117516930861193e-05 1.286958582585685e-05 1.1724383354329804e-05 1.0674182809368453e-05 9.711771351252766e-06 8.830421785919884e-06 8.023865381442259e-06 7.286265729519602e-06 6.6121936538445255e-06 5.996603162515992e-06 5.4348084374323875e-06 4.922461849776769e-06 4.455532987295696e-06 4.0302886760486665e-06 3.6432739766503468e-06 3.291294132720328e-06 2.9713974472770765e-06 2.680859061141989e-06 2.4171656060370076e-06 2.1780007039443217e-06 1.9612312834297947e-06 1.7648946829935021e-06 1.5871865110823468e-06 1.4264492321623752e-06 1.2811614481853387e-06 1.1499278448771308e-06 1.031469772509899e-06 9.246164311783004e-07 8.282966310698793e-07 7.415310987851784e-07 0.998927499965303 0.9988684664765065 0.9988069552832106 0.998742913376736 0.9986762899239088 0.9986070365187203 0.9985351074393574 0.9984604599098637 0.9983830543656352 0.9983028547218907 0.998219828644202 0.9981339478201131 0.9980451882308231 0.997953530421857 0.9978589597716004 0.9977614667565329 0.9976610472119506 0.9975577025869381 0.9974514401923154 0.997342273440262 0.9972302220743039 0.9971153123883292 0.996997577433299 0.996877057210315 0.9967537988487148 0.9966278567678789 0.9964992928214564 0.9963681764227462 0.9962345846500058 0.9960986023305082 0.995960322102219 0.9958198444520263 0.9956772777295271 0.9955327381354493 0.9953863496838733 0.9952382441375085 0.9950885609153803 0.9949374469723854 0.9947850566502894 0.9946315514998545 0.9944771000739094 0.9943218776913029 0.9941660661718101 0.9940098535422017 0.9938534337138183 0.9936970061321373 0.9935407753989589 0.9933849508679796 0.993229746214665 0.9930753789814714 0.9929220700996084 0.9927700433886664 0.9926195250355654 0.9924707430544135 0.9923239267289768 0.9921793060395869 0.9920371110764131 0.9918975714411336 0.9917609156391253 0.9916273704643801 0.9914971603794249 0.9913705068925845 0.991247627934979 0.9911287372396858 0.9910140437255222 0.9909037508879213 0.9907980561993744 0.9906971505219035 0.9906012175340019 0.9905104331744478 0.9904249651053418 0.9903449721966601 0.990270604034538 0.9902020004554143 0.9901392911080632 0.9900825950454364 0.9900320203481099 0.9899876637810049 0.9899496104849078 0.9899179337041656 0.9898926945517749 0.989873941812921 0.9898617117878497 0.9898560281747794 0.9898569019933847 0.9898643315491944 0.9898783024390668 0.9898987875977171 0.9899257473850858 0.9899591297141547 0.9899988702186321 0.9900448924597531 0.9900971081712636 0.9901554175414903 0.9902197095312337 0.9902898622260691 0.9903657432214886 0.9904472100391842 0.9905341105726382 0.9906262835600723 0.9907235590826999 0.9908257590861247 0.9909326979226526 0.9910441829122068 0.9911600149194782 0.9912799889448985 0.9914038947269875 0.9915315173536103 0.9916626378796659 0.9917970339487423 0.9919344804162835 0.992074749971851 0.9922176137580981 0.9923628419841365 0.9925102045310309 0.9926594715472418 0.992810414031914 0.9929628044040063 0.9931164170553626 0.9932710288859277 0.9934264198194387 0.9935823732980361 0.993738676754375 0.9938951220599446 0.9940515059484453 0.9942076304132064 0.9943633030777743 0.9945183375389377 0.9946725536816023 0.9948257779650659 0.9949778436803863 0.995128591178672 0.9952778680702574 0.9954255293948595 0.9955714377629353 0.9957154634685844 0.9958574845744527 0.9959973869692094 0.9961350643982673 0.9962704184685169 0.9964033586279336 0.9965338021209996 0.9966616739209566 0.9967869066399739 0.9969094404183736 0.9970292227941061 0.9971462085537157 0.9972603595660654 0.9973716446001233 0.9974800391281285 0.9975855251154722 0.997688090798626 0.9977877304524597 0.9978844441482702 0.997978237503837 0.9980691214267949 0.9981571118525899 0.9982422294782489 0.998324499493164 0.9984039513080439 0.9984806182831454 0.9985545374568457 0.998625749275569 0.998694297326021 0.9987602280706339 0.9988235905870638 0.9988844363125212 0.9989428187936592 0.9989987934426781 0.9990524173002459 0.9991037488057752 0.999152847575531 0.9991997741889886 0.9992445899838014 0.9992873568596771 0.9993281370914116 0.9993669931512698 0.9994039875408538 0.9994391826325492 0.9994726405205921 0.9995044228817558 0.9995345908456109 0.9995632048742804 0.9995903246515638 0.9996160089812819 0.9996403156946541 0.9996633015664967 0.9996850222400044 0.9997055321598525 0.9997248845133406 0.9997431311792806 0.9997603226843131 0.9997765081663332 0.9997917353446856 0.9998060504967925 0.9998194984408648 0.9998321225243482 0.9998439646177517 0.9998550651135116 0.9998654629295401 0.999875195517116 0.9998842988727802 0.9998928075539024 0.9999007546975974 0.999908172042674 0.9999150899543141 0.9999215374511852 0.9999275422347041 0.9999331307201828 0.9999383280695929 0.9999431582257086 0.9999476439473886 0.9999518068457823 0.9999556674212499 0.9999592451008036 0.9999625582758898 0.999965624340343 0.9999684597283582 0.999971079952338 0.9999734996404837 0.9999757325740131 0.999977791723897 0.9999796892870186 0.9999814367216692 0.9999830447823068 0.9999845235535096 0.9999858824830692 0.9999871304141742 0.9999882756166457 0.9999893258171906 0.9999902882286488 0.9999911695782141 0.9999919761346185 0.9999927137342705 0.9999933878063462 0.9999940033968375 0.9999945651915626 0.9999950775381502 0.9999955444670127 0.999995969711324 0.9999963567260234 0.9999967087058673 0.9999970286025527 0.9999973191409388 0.999997582834394 0.9999978219992961 0.9999980387687166 0.999998235105317 0.9999984128134889 0.9999985735507678 0.9999987188385518 0.9999988500721552 0.9999989685302275 0.9999990753835688 0.9999991717033689 0.9999992584689013  </TABLE>
		</DEFINITION>
			
		<DEFINITION>
		<FOR>SENSOR4</FOR>
		<GIVEN>CLASS1</GIVEN>
