<?xml version="1.0" encoding="US-ASCII"?>
 
 
 <!--
 	Bayesian network in XMLBIF v0.3 (BayesNet Interchange Format)
 	Produced by JavaBayes (http://www.cs.cmu.edu/~javabayes/
 	Output created Mon Nov 02 22:40:12**8 GMT-03:00 1998
 -->

 
 
 <!-- DTD for the XMLBIF 0.3 format -->
 <!DOCTYPE BIF [
 	<!ELEMENT BIF ( NETWORK )*>
 	      <!ATTLIST BIF VERSION CDATA #REQUIRED>
 	<!ELEMENT NETWORK ( NAME, ( PROPERTY | VARIABLE | DEFINITION )* )>
 	<!ELEMENT NAME (#PCDATA)>
 	<!ELEMENT VARIABLE ( NAME, ( OUTCOME |  PROPERTY )* ) >
 	      <!ATTLIST VARIABLE TYPE (nature|decision|utility) "nature">
 	<!ELEMENT OUTCOME (#PCDATA)>
 	<!ELEMENT DEFINITION ( FOR | GIVEN | TABLE | PROPERTY )* >
 	<!ELEMENT FOR (#PCDATA)>
 	<!ELEMENT GIVEN (#PCDATA)>
 	<!ELEMENT TABLE (#PCDATA)>
 	<!ELEMENT PROPERTY (#PCDATA)>
 ]>
 
 
 <BIF VERSION="0.3">
 <NETWORK>
	<NAME>NAIVE_BAYES_MODEL</NAME>
	<VARIABLE TYPE  = "nature">
		<NAME>CLASS3</NAME>
		<OUTCOME>true</OUTCOME>
		<OUTCOME>false</OUTCOME>
	</VARIABLE>
		<VARIABLE TYPE  = "nature">
			<NAME>SENSOR1</NAME>
		
			<OUTCOME>X0</OUTCOME>
			<OUTCOME>X1</OUTCOME>
			<OUTCOME>X2</OUTCOME>
			<OUTCOME>X3</OUTCOME>
			<OUTCOME>X4</OUTCOME>
			<OUTCOME>X5</OUTCOME>
			<OUTCOME>X6</OUTCOME>
			<OUTCOME>X7</OUTCOME>
			<OUTCOME>X8</OUTCOME>
			<OUTCOME>X9</OUTCOME>
			<OUTCOME>X10</OUTCOME>
			<OUTCOME>X11</OUTCOME>
			<OUTCOME>X12</OUTCOME>
			<OUTCOME>X13</OUTCOME>
			<OUTCOME>X14</OUTCOME>
			<OUTCOME>X15</OUTCOME>
			<OUTCOME>X16</OUTCOME>
			<OUTCOME>X17</OUTCOME>
			<OUTCOME>X18</OUTCOME>
			<OUTCOME>X19</OUTCOME>
			<OUTCOME>X20</OUTCOME>
			<OUTCOME>X21</OUTCOME>
			<OUTCOME>X22</OUTCOME>
			<OUTCOME>X23</OUTCOME>
			<OUTCOME>X24</OUTCOME>
			<OUTCOME>X25</OUTCOME>
			<OUTCOME>X26</OUTCOME>
			<OUTCOME>X27</OUTCOME>
			<OUTCOME>X28</OUTCOME>
			<OUTCOME>X29</OUTCOME>
			<OUTCOME>X30</OUTCOME>
			<OUTCOME>X31</OUTCOME>
			<OUTCOME>X32</OUTCOME>
			<OUTCOME>X33</OUTCOME>
			<OUTCOME>X34</OUTCOME>
			<OUTCOME>X35</OUTCOME>
			<OUTCOME>X36</OUTCOME>
			<OUTCOME>X37</OUTCOME>
			<OUTCOME>X38</OUTCOME>
			<OUTCOME>X39</OUTCOME>
			<OUTCOME>X40</OUTCOME>
			<OUTCOME>X41</OUTCOME>
			<OUTCOME>X42</OUTCOME>
			<OUTCOME>X43</OUTCOME>
			<OUTCOME>X44</OUTCOME>
			<OUTCOME>X45</OUTCOME>
			<OUTCOME>X46</OUTCOME>
			<OUTCOME>X47</OUTCOME>
			<OUTCOME>X48</OUTCOME>
			<OUTCOME>X49</OUTCOME>
			<OUTCOME>X50</OUTCOME>
			<OUTCOME>X51</OUTCOME>
			<OUTCOME>X52</OUTCOME>
			<OUTCOME>X53</OUTCOME>
			<OUTCOME>X54</OUTCOME>
			<OUTCOME>X55</OUTCOME>
			<OUTCOME>X56</OUTCOME>
			<OUTCOME>X57</OUTCOME>
			<OUTCOME>X58</OUTCOME>
			<OUTCOME>X59</OUTCOME>
			<OUTCOME>X60</OUTCOME>
			<OUTCOME>X61</OUTCOME>
			<OUTCOME>X62</OUTCOME>
			<OUTCOME>X63</OUTCOME>
			<OUTCOME>X64</OUTCOME>
			<OUTCOME>X65</OUTCOME>
			<OUTCOME>X66</OUTCOME>
			<OUTCOME>X67</OUTCOME>
			<OUTCOME>X68</OUTCOME>
			<OUTCOME>X69</OUTCOME>
			<OUTCOME>X70</OUTCOME>
			<OUTCOME>X71</OUTCOME>
			<OUTCOME>X72</OUTCOME>
			<OUTCOME>X73</OUTCOME>
			<OUTCOME>X74</OUTCOME>
			<OUTCOME>X75</OUTCOME>
			<OUTCOME>X76</OUTCOME>
			<OUTCOME>X77</OUTCOME>
			<OUTCOME>X78</OUTCOME>
			<OUTCOME>X79</OUTCOME>
			<OUTCOME>X80</OUTCOME>
			<OUTCOME>X81</OUTCOME>
			<OUTCOME>X82</OUTCOME>
			<OUTCOME>X83</OUTCOME>
			<OUTCOME>X84</OUTCOME>
			<OUTCOME>X85</OUTCOME>
			<OUTCOME>X86</OUTCOME>
			<OUTCOME>X87</OUTCOME>
			<OUTCOME>X88</OUTCOME>
			<OUTCOME>X89</OUTCOME>
			<OUTCOME>X90</OUTCOME>
			<OUTCOME>X91</OUTCOME>
			<OUTCOME>X92</OUTCOME>
			<OUTCOME>X93</OUTCOME>
			<OUTCOME>X94</OUTCOME>
			<OUTCOME>X95</OUTCOME>
			<OUTCOME>X96</OUTCOME>
			<OUTCOME>X97</OUTCOME>
			<OUTCOME>X98</OUTCOME>
			<OUTCOME>X99</OUTCOME>
			<OUTCOME>X100</OUTCOME>
			<OUTCOME>X101</OUTCOME>
			<OUTCOME>X102</OUTCOME>
			<OUTCOME>X103</OUTCOME>
			<OUTCOME>X104</OUTCOME>
			<OUTCOME>X105</OUTCOME>
			<OUTCOME>X106</OUTCOME>
			<OUTCOME>X107</OUTCOME>
			<OUTCOME>X108</OUTCOME>
			<OUTCOME>X109</OUTCOME>
			<OUTCOME>X110</OUTCOME>
			<OUTCOME>X111</OUTCOME>
			<OUTCOME>X112</OUTCOME>
			<OUTCOME>X113</OUTCOME>
			<OUTCOME>X114</OUTCOME>
			<OUTCOME>X115</OUTCOME>
			<OUTCOME>X116</OUTCOME>
			<OUTCOME>X117</OUTCOME>
			<OUTCOME>X118</OUTCOME>
			<OUTCOME>X119</OUTCOME>
			<OUTCOME>X120</OUTCOME>
			<OUTCOME>X121</OUTCOME>
			<OUTCOME>X122</OUTCOME>
			<OUTCOME>X123</OUTCOME>
			<OUTCOME>X124</OUTCOME>
			<OUTCOME>X125</OUTCOME>
			<OUTCOME>X126</OUTCOME>
			<OUTCOME>X127</OUTCOME>
			<OUTCOME>X128</OUTCOME>
			<OUTCOME>X129</OUTCOME>
			<OUTCOME>X130</OUTCOME>
			<OUTCOME>X131</OUTCOME>
			<OUTCOME>X132</OUTCOME>
			<OUTCOME>X133</OUTCOME>
			<OUTCOME>X134</OUTCOME>
			<OUTCOME>X135</OUTCOME>
			<OUTCOME>X136</OUTCOME>
			<OUTCOME>X137</OUTCOME>
			<OUTCOME>X138</OUTCOME>
			<OUTCOME>X139</OUTCOME>
			<OUTCOME>X140</OUTCOME>
			<OUTCOME>X141</OUTCOME>
			<OUTCOME>X142</OUTCOME>
			<OUTCOME>X143</OUTCOME>
			<OUTCOME>X144</OUTCOME>
			<OUTCOME>X145</OUTCOME>
			<OUTCOME>X146</OUTCOME>
			<OUTCOME>X147</OUTCOME>
			<OUTCOME>X148</OUTCOME>
			<OUTCOME>X149</OUTCOME>
			<OUTCOME>X150</OUTCOME>
			<OUTCOME>X151</OUTCOME>
			<OUTCOME>X152</OUTCOME>
			<OUTCOME>X153</OUTCOME>
			<OUTCOME>X154</OUTCOME>
			<OUTCOME>X155</OUTCOME>
			<OUTCOME>X156</OUTCOME>
			<OUTCOME>X157</OUTCOME>
			<OUTCOME>X158</OUTCOME>
			<OUTCOME>X159</OUTCOME>
			<OUTCOME>X160</OUTCOME>
			<OUTCOME>X161</OUTCOME>
			<OUTCOME>X162</OUTCOME>
			<OUTCOME>X163</OUTCOME>
			<OUTCOME>X164</OUTCOME>
			<OUTCOME>X165</OUTCOME>
			<OUTCOME>X166</OUTCOME>
			<OUTCOME>X167</OUTCOME>
			<OUTCOME>X168</OUTCOME>
			<OUTCOME>X169</OUTCOME>
			<OUTCOME>X170</OUTCOME>
			<OUTCOME>X171</OUTCOME>
			<OUTCOME>X172</OUTCOME>
			<OUTCOME>X173</OUTCOME>
			<OUTCOME>X174</OUTCOME>
			<OUTCOME>X175</OUTCOME>
			<OUTCOME>X176</OUTCOME>
			<OUTCOME>X177</OUTCOME>
			<OUTCOME>X178</OUTCOME>
			<OUTCOME>X179</OUTCOME>
			<OUTCOME>X180</OUTCOME>
			<OUTCOME>X181</OUTCOME>
			<OUTCOME>X182</OUTCOME>
			<OUTCOME>X183</OUTCOME>
			<OUTCOME>X184</OUTCOME>
			<OUTCOME>X185</OUTCOME>
			<OUTCOME>X186</OUTCOME>
			<OUTCOME>X187</OUTCOME>
			<OUTCOME>X188</OUTCOME>
			<OUTCOME>X189</OUTCOME>
			<OUTCOME>X190</OUTCOME>
			<OUTCOME>X191</OUTCOME>
			<OUTCOME>X192</OUTCOME>
			<OUTCOME>X193</OUTCOME>
			<OUTCOME>X194</OUTCOME>
			<OUTCOME>X195</OUTCOME>
			<OUTCOME>X196</OUTCOME>
			<OUTCOME>X197</OUTCOME>
			<OUTCOME>X198</OUTCOME>
			<OUTCOME>X199</OUTCOME>
			<OUTCOME>X200</OUTCOME>
			<OUTCOME>X201</OUTCOME>
			<OUTCOME>X202</OUTCOME>
			<OUTCOME>X203</OUTCOME>
			<OUTCOME>X204</OUTCOME>
			<OUTCOME>X205</OUTCOME>
			<OUTCOME>X206</OUTCOME>
			<OUTCOME>X207</OUTCOME>
			<OUTCOME>X208</OUTCOME>
			<OUTCOME>X209</OUTCOME>
			<OUTCOME>X210</OUTCOME>
			<OUTCOME>X211</OUTCOME>
			<OUTCOME>X212</OUTCOME>
			<OUTCOME>X213</OUTCOME>
			<OUTCOME>X214</OUTCOME>
			<OUTCOME>X215</OUTCOME>
			<OUTCOME>X216</OUTCOME>
			<OUTCOME>X217</OUTCOME>
			<OUTCOME>X218</OUTCOME>
			<OUTCOME>X219</OUTCOME>
			<OUTCOME>X220</OUTCOME>
			<OUTCOME>X221</OUTCOME>
			<OUTCOME>X222</OUTCOME>
			<OUTCOME>X223</OUTCOME>
			<OUTCOME>X224</OUTCOME>
			<OUTCOME>X225</OUTCOME>
			<OUTCOME>X226</OUTCOME>
			<OUTCOME>X227</OUTCOME>
			<OUTCOME>X228</OUTCOME>
			<OUTCOME>X229</OUTCOME>
			<OUTCOME>X230</OUTCOME>
			<OUTCOME>X231</OUTCOME>
			<OUTCOME>X232</OUTCOME>
			<OUTCOME>X233</OUTCOME>
			<OUTCOME>X234</OUTCOME>
			<OUTCOME>X235</OUTCOME>
			<OUTCOME>X236</OUTCOME>
			<OUTCOME>X237</OUTCOME>
			<OUTCOME>X238</OUTCOME>
			<OUTCOME>X239</OUTCOME>
			<OUTCOME>X240</OUTCOME>
			<OUTCOME>X241</OUTCOME>
			<OUTCOME>X242</OUTCOME>
			<OUTCOME>X243</OUTCOME>
			<OUTCOME>X244</OUTCOME>
			<OUTCOME>X245</OUTCOME>
			<OUTCOME>X246</OUTCOME>
			<OUTCOME>X247</OUTCOME>
			<OUTCOME>X248</OUTCOME>
			<OUTCOME>X249</OUTCOME>
			<OUTCOME>X250</OUTCOME>
			<OUTCOME>X251</OUTCOME>
			<OUTCOME>X252</OUTCOME>
			<OUTCOME>X253</OUTCOME>
			<OUTCOME>X254</OUTCOME>
			<OUTCOME>X255</OUTCOME>
		</VARIABLE>
		<VARIABLE TYPE  = "nature">
			<NAME>SENSOR2</NAME>
		
			<OUTCOME>X0</OUTCOME>
			<OUTCOME>X1</OUTCOME>
			<OUTCOME>X2</OUTCOME>
			<OUTCOME>X3</OUTCOME>
			<OUTCOME>X4</OUTCOME>
			<OUTCOME>X5</OUTCOME>
			<OUTCOME>X6</OUTCOME>
			<OUTCOME>X7</OUTCOME>
			<OUTCOME>X8</OUTCOME>
			<OUTCOME>X9</OUTCOME>
			<OUTCOME>X10</OUTCOME>
			<OUTCOME>X11</OUTCOME>
			<OUTCOME>X12</OUTCOME>
			<OUTCOME>X13</OUTCOME>
			<OUTCOME>X14</OUTCOME>
			<OUTCOME>X15</OUTCOME>
			<OUTCOME>X16</OUTCOME>
			<OUTCOME>X17</OUTCOME>
			<OUTCOME>X18</OUTCOME>
			<OUTCOME>X19</OUTCOME>
			<OUTCOME>X20</OUTCOME>
			<OUTCOME>X21</OUTCOME>
			<OUTCOME>X22</OUTCOME>
			<OUTCOME>X23</OUTCOME>
			<OUTCOME>X24</OUTCOME>
			<OUTCOME>X25</OUTCOME>
			<OUTCOME>X26</OUTCOME>
			<OUTCOME>X27</OUTCOME>
			<OUTCOME>X28</OUTCOME>
			<OUTCOME>X29</OUTCOME>
			<OUTCOME>X30</OUTCOME>
			<OUTCOME>X31</OUTCOME>
			<OUTCOME>X32</OUTCOME>
			<OUTCOME>X33</OUTCOME>
			<OUTCOME>X34</OUTCOME>
			<OUTCOME>X35</OUTCOME>
			<OUTCOME>X36</OUTCOME>
			<OUTCOME>X37</OUTCOME>
			<OUTCOME>X38</OUTCOME>
			<OUTCOME>X39</OUTCOME>
			<OUTCOME>X40</OUTCOME>
			<OUTCOME>X41</OUTCOME>
			<OUTCOME>X42</OUTCOME>
			<OUTCOME>X43</OUTCOME>
			<OUTCOME>X44</OUTCOME>
			<OUTCOME>X45</OUTCOME>
			<OUTCOME>X46</OUTCOME>
			<OUTCOME>X47</OUTCOME>
			<OUTCOME>X48</OUTCOME>
			<OUTCOME>X49</OUTCOME>
			<OUTCOME>X50</OUTCOME>
			<OUTCOME>X51</OUTCOME>
			<OUTCOME>X52</OUTCOME>
			<OUTCOME>X53</OUTCOME>
			<OUTCOME>X54</OUTCOME>
			<OUTCOME>X55</OUTCOME>
			<OUTCOME>X56</OUTCOME>
			<OUTCOME>X57</OUTCOME>
			<OUTCOME>X58</OUTCOME>
			<OUTCOME>X59</OUTCOME>
			<OUTCOME>X60</OUTCOME>
			<OUTCOME>X61</OUTCOME>
			<OUTCOME>X62</OUTCOME>
			<OUTCOME>X63</OUTCOME>
			<OUTCOME>X64</OUTCOME>
			<OUTCOME>X65</OUTCOME>
			<OUTCOME>X66</OUTCOME>
			<OUTCOME>X67</OUTCOME>
			<OUTCOME>X68</OUTCOME>
			<OUTCOME>X69</OUTCOME>
			<OUTCOME>X70</OUTCOME>
			<OUTCOME>X71</OUTCOME>
			<OUTCOME>X72</OUTCOME>
			<OUTCOME>X73</OUTCOME>
			<OUTCOME>X74</OUTCOME>
			<OUTCOME>X75</OUTCOME>
			<OUTCOME>X76</OUTCOME>
			<OUTCOME>X77</OUTCOME>
			<OUTCOME>X78</OUTCOME>
			<OUTCOME>X79</OUTCOME>
			<OUTCOME>X80</OUTCOME>
			<OUTCOME>X81</OUTCOME>
			<OUTCOME>X82</OUTCOME>
			<OUTCOME>X83</OUTCOME>
			<OUTCOME>X84</OUTCOME>
			<OUTCOME>X85</OUTCOME>
			<OUTCOME>X86</OUTCOME>
			<OUTCOME>X87</OUTCOME>
			<OUTCOME>X88</OUTCOME>
			<OUTCOME>X89</OUTCOME>
			<OUTCOME>X90</OUTCOME>
			<OUTCOME>X91</OUTCOME>
			<OUTCOME>X92</OUTCOME>
			<OUTCOME>X93</OUTCOME>
			<OUTCOME>X94</OUTCOME>
			<OUTCOME>X95</OUTCOME>
			<OUTCOME>X96</OUTCOME>
			<OUTCOME>X97</OUTCOME>
			<OUTCOME>X98</OUTCOME>
			<OUTCOME>X99</OUTCOME>
			<OUTCOME>X100</OUTCOME>
			<OUTCOME>X101</OUTCOME>
			<OUTCOME>X102</OUTCOME>
			<OUTCOME>X103</OUTCOME>
			<OUTCOME>X104</OUTCOME>
			<OUTCOME>X105</OUTCOME>
			<OUTCOME>X106</OUTCOME>
			<OUTCOME>X107</OUTCOME>
			<OUTCOME>X108</OUTCOME>
			<OUTCOME>X109</OUTCOME>
			<OUTCOME>X110</OUTCOME>
			<OUTCOME>X111</OUTCOME>
			<OUTCOME>X112</OUTCOME>
			<OUTCOME>X113</OUTCOME>
			<OUTCOME>X114</OUTCOME>
			<OUTCOME>X115</OUTCOME>
			<OUTCOME>X116</OUTCOME>
			<OUTCOME>X117</OUTCOME>
			<OUTCOME>X118</OUTCOME>
			<OUTCOME>X119</OUTCOME>
			<OUTCOME>X120</OUTCOME>
			<OUTCOME>X121</OUTCOME>
			<OUTCOME>X122</OUTCOME>
			<OUTCOME>X123</OUTCOME>
			<OUTCOME>X124</OUTCOME>
			<OUTCOME>X125</OUTCOME>
			<OUTCOME>X126</OUTCOME>
			<OUTCOME>X127</OUTCOME>
			<OUTCOME>X128</OUTCOME>
			<OUTCOME>X129</OUTCOME>
			<OUTCOME>X130</OUTCOME>
			<OUTCOME>X131</OUTCOME>
			<OUTCOME>X132</OUTCOME>
			<OUTCOME>X133</OUTCOME>
			<OUTCOME>X134</OUTCOME>
			<OUTCOME>X135</OUTCOME>
			<OUTCOME>X136</OUTCOME>
			<OUTCOME>X137</OUTCOME>
			<OUTCOME>X138</OUTCOME>
			<OUTCOME>X139</OUTCOME>
			<OUTCOME>X140</OUTCOME>
			<OUTCOME>X141</OUTCOME>
			<OUTCOME>X142</OUTCOME>
			<OUTCOME>X143</OUTCOME>
			<OUTCOME>X144</OUTCOME>
			<OUTCOME>X145</OUTCOME>
			<OUTCOME>X146</OUTCOME>
			<OUTCOME>X147</OUTCOME>
			<OUTCOME>X148</OUTCOME>
			<OUTCOME>X149</OUTCOME>
			<OUTCOME>X150</OUTCOME>
			<OUTCOME>X151</OUTCOME>
			<OUTCOME>X152</OUTCOME>
			<OUTCOME>X153</OUTCOME>
			<OUTCOME>X154</OUTCOME>
			<OUTCOME>X155</OUTCOME>
			<OUTCOME>X156</OUTCOME>
			<OUTCOME>X157</OUTCOME>
			<OUTCOME>X158</OUTCOME>
			<OUTCOME>X159</OUTCOME>
			<OUTCOME>X160</OUTCOME>
			<OUTCOME>X161</OUTCOME>
			<OUTCOME>X162</OUTCOME>
			<OUTCOME>X163</OUTCOME>
			<OUTCOME>X164</OUTCOME>
			<OUTCOME>X165</OUTCOME>
			<OUTCOME>X166</OUTCOME>
			<OUTCOME>X167</OUTCOME>
			<OUTCOME>X168</OUTCOME>
			<OUTCOME>X169</OUTCOME>
			<OUTCOME>X170</OUTCOME>
			<OUTCOME>X171</OUTCOME>
			<OUTCOME>X172</OUTCOME>
			<OUTCOME>X173</OUTCOME>
			<OUTCOME>X174</OUTCOME>
			<OUTCOME>X175</OUTCOME>
			<OUTCOME>X176</OUTCOME>
			<OUTCOME>X177</OUTCOME>
			<OUTCOME>X178</OUTCOME>
			<OUTCOME>X179</OUTCOME>
			<OUTCOME>X180</OUTCOME>
			<OUTCOME>X181</OUTCOME>
			<OUTCOME>X182</OUTCOME>
			<OUTCOME>X183</OUTCOME>
			<OUTCOME>X184</OUTCOME>
			<OUTCOME>X185</OUTCOME>
			<OUTCOME>X186</OUTCOME>
			<OUTCOME>X187</OUTCOME>
			<OUTCOME>X188</OUTCOME>
			<OUTCOME>X189</OUTCOME>
			<OUTCOME>X190</OUTCOME>
			<OUTCOME>X191</OUTCOME>
			<OUTCOME>X192</OUTCOME>
			<OUTCOME>X193</OUTCOME>
			<OUTCOME>X194</OUTCOME>
			<OUTCOME>X195</OUTCOME>
			<OUTCOME>X196</OUTCOME>
			<OUTCOME>X197</OUTCOME>
			<OUTCOME>X198</OUTCOME>
			<OUTCOME>X199</OUTCOME>
			<OUTCOME>X200</OUTCOME>
			<OUTCOME>X201</OUTCOME>
			<OUTCOME>X202</OUTCOME>
			<OUTCOME>X203</OUTCOME>
			<OUTCOME>X204</OUTCOME>
			<OUTCOME>X205</OUTCOME>
			<OUTCOME>X206</OUTCOME>
			<OUTCOME>X207</OUTCOME>
			<OUTCOME>X208</OUTCOME>
			<OUTCOME>X209</OUTCOME>
			<OUTCOME>X210</OUTCOME>
			<OUTCOME>X211</OUTCOME>
			<OUTCOME>X212</OUTCOME>
			<OUTCOME>X213</OUTCOME>
			<OUTCOME>X214</OUTCOME>
			<OUTCOME>X215</OUTCOME>
			<OUTCOME>X216</OUTCOME>
			<OUTCOME>X217</OUTCOME>
			<OUTCOME>X218</OUTCOME>
			<OUTCOME>X219</OUTCOME>
			<OUTCOME>X220</OUTCOME>
			<OUTCOME>X221</OUTCOME>
			<OUTCOME>X222</OUTCOME>
			<OUTCOME>X223</OUTCOME>
			<OUTCOME>X224</OUTCOME>
			<OUTCOME>X225</OUTCOME>
			<OUTCOME>X226</OUTCOME>
			<OUTCOME>X227</OUTCOME>
			<OUTCOME>X228</OUTCOME>
			<OUTCOME>X229</OUTCOME>
			<OUTCOME>X230</OUTCOME>
			<OUTCOME>X231</OUTCOME>
			<OUTCOME>X232</OUTCOME>
			<OUTCOME>X233</OUTCOME>
			<OUTCOME>X234</OUTCOME>
			<OUTCOME>X235</OUTCOME>
			<OUTCOME>X236</OUTCOME>
			<OUTCOME>X237</OUTCOME>
			<OUTCOME>X238</OUTCOME>
			<OUTCOME>X239</OUTCOME>
			<OUTCOME>X240</OUTCOME>
			<OUTCOME>X241</OUTCOME>
			<OUTCOME>X242</OUTCOME>
			<OUTCOME>X243</OUTCOME>
			<OUTCOME>X244</OUTCOME>
			<OUTCOME>X245</OUTCOME>
			<OUTCOME>X246</OUTCOME>
			<OUTCOME>X247</OUTCOME>
			<OUTCOME>X248</OUTCOME>
			<OUTCOME>X249</OUTCOME>
			<OUTCOME>X250</OUTCOME>
			<OUTCOME>X251</OUTCOME>
			<OUTCOME>X252</OUTCOME>
			<OUTCOME>X253</OUTCOME>
			<OUTCOME>X254</OUTCOME>
			<OUTCOME>X255</OUTCOME>
		</VARIABLE>
		<VARIABLE TYPE  = "nature">
			<NAME>SENSOR3</NAME>
		
			<OUTCOME>X0</OUTCOME>
			<OUTCOME>X1</OUTCOME>
			<OUTCOME>X2</OUTCOME>
			<OUTCOME>X3</OUTCOME>
			<OUTCOME>X4</OUTCOME>
			<OUTCOME>X5</OUTCOME>
			<OUTCOME>X6</OUTCOME>
			<OUTCOME>X7</OUTCOME>
			<OUTCOME>X8</OUTCOME>
			<OUTCOME>X9</OUTCOME>
			<OUTCOME>X10</OUTCOME>
			<OUTCOME>X11</OUTCOME>
			<OUTCOME>X12</OUTCOME>
			<OUTCOME>X13</OUTCOME>
			<OUTCOME>X14</OUTCOME>
			<OUTCOME>X15</OUTCOME>
			<OUTCOME>X16</OUTCOME>
			<OUTCOME>X17</OUTCOME>
			<OUTCOME>X18</OUTCOME>
			<OUTCOME>X19</OUTCOME>
			<OUTCOME>X20</OUTCOME>
			<OUTCOME>X21</OUTCOME>
			<OUTCOME>X22</OUTCOME>
			<OUTCOME>X23</OUTCOME>
			<OUTCOME>X24</OUTCOME>
			<OUTCOME>X25</OUTCOME>
			<OUTCOME>X26</OUTCOME>
			<OUTCOME>X27</OUTCOME>
			<OUTCOME>X28</OUTCOME>
			<OUTCOME>X29</OUTCOME>
			<OUTCOME>X30</OUTCOME>
			<OUTCOME>X31</OUTCOME>
			<OUTCOME>X32</OUTCOME>
			<OUTCOME>X33</OUTCOME>
			<OUTCOME>X34</OUTCOME>
			<OUTCOME>X35</OUTCOME>
			<OUTCOME>X36</OUTCOME>
			<OUTCOME>X37</OUTCOME>
			<OUTCOME>X38</OUTCOME>
			<OUTCOME>X39</OUTCOME>
			<OUTCOME>X40</OUTCOME>
			<OUTCOME>X41</OUTCOME>
			<OUTCOME>X42</OUTCOME>
			<OUTCOME>X43</OUTCOME>
			<OUTCOME>X44</OUTCOME>
			<OUTCOME>X45</OUTCOME>
			<OUTCOME>X46</OUTCOME>
			<OUTCOME>X47</OUTCOME>
			<OUTCOME>X48</OUTCOME>
			<OUTCOME>X49</OUTCOME>
			<OUTCOME>X50</OUTCOME>
			<OUTCOME>X51</OUTCOME>
			<OUTCOME>X52</OUTCOME>
			<OUTCOME>X53</OUTCOME>
			<OUTCOME>X54</OUTCOME>
			<OUTCOME>X55</OUTCOME>
			<OUTCOME>X56</OUTCOME>
			<OUTCOME>X57</OUTCOME>
			<OUTCOME>X58</OUTCOME>
			<OUTCOME>X59</OUTCOME>
			<OUTCOME>X60</OUTCOME>
			<OUTCOME>X61</OUTCOME>
			<OUTCOME>X62</OUTCOME>
			<OUTCOME>X63</OUTCOME>
			<OUTCOME>X64</OUTCOME>
			<OUTCOME>X65</OUTCOME>
			<OUTCOME>X66</OUTCOME>
			<OUTCOME>X67</OUTCOME>
			<OUTCOME>X68</OUTCOME>
			<OUTCOME>X69</OUTCOME>
			<OUTCOME>X70</OUTCOME>
			<OUTCOME>X71</OUTCOME>
			<OUTCOME>X72</OUTCOME>
			<OUTCOME>X73</OUTCOME>
			<OUTCOME>X74</OUTCOME>
			<OUTCOME>X75</OUTCOME>
			<OUTCOME>X76</OUTCOME>
			<OUTCOME>X77</OUTCOME>
			<OUTCOME>X78</OUTCOME>
			<OUTCOME>X79</OUTCOME>
			<OUTCOME>X80</OUTCOME>
			<OUTCOME>X81</OUTCOME>
			<OUTCOME>X82</OUTCOME>
			<OUTCOME>X83</OUTCOME>
			<OUTCOME>X84</OUTCOME>
			<OUTCOME>X85</OUTCOME>
			<OUTCOME>X86</OUTCOME>
			<OUTCOME>X87</OUTCOME>
			<OUTCOME>X88</OUTCOME>
			<OUTCOME>X89</OUTCOME>
			<OUTCOME>X90</OUTCOME>
			<OUTCOME>X91</OUTCOME>
			<OUTCOME>X92</OUTCOME>
			<OUTCOME>X93</OUTCOME>
			<OUTCOME>X94</OUTCOME>
			<OUTCOME>X95</OUTCOME>
			<OUTCOME>X96</OUTCOME>
			<OUTCOME>X97</OUTCOME>
			<OUTCOME>X98</OUTCOME>
			<OUTCOME>X99</OUTCOME>
			<OUTCOME>X100</OUTCOME>
			<OUTCOME>X101</OUTCOME>
			<OUTCOME>X102</OUTCOME>
			<OUTCOME>X103</OUTCOME>
			<OUTCOME>X104</OUTCOME>
			<OUTCOME>X105</OUTCOME>
			<OUTCOME>X106</OUTCOME>
			<OUTCOME>X107</OUTCOME>
			<OUTCOME>X108</OUTCOME>
			<OUTCOME>X109</OUTCOME>
			<OUTCOME>X110</OUTCOME>
			<OUTCOME>X111</OUTCOME>
			<OUTCOME>X112</OUTCOME>
			<OUTCOME>X113</OUTCOME>
			<OUTCOME>X114</OUTCOME>
			<OUTCOME>X115</OUTCOME>
			<OUTCOME>X116</OUTCOME>
			<OUTCOME>X117</OUTCOME>
			<OUTCOME>X118</OUTCOME>
			<OUTCOME>X119</OUTCOME>
			<OUTCOME>X120</OUTCOME>
			<OUTCOME>X121</OUTCOME>
			<OUTCOME>X122</OUTCOME>
			<OUTCOME>X123</OUTCOME>
			<OUTCOME>X124</OUTCOME>
			<OUTCOME>X125</OUTCOME>
			<OUTCOME>X126</OUTCOME>
			<OUTCOME>X127</OUTCOME>
			<OUTCOME>X128</OUTCOME>
			<OUTCOME>X129</OUTCOME>
			<OUTCOME>X130</OUTCOME>
			<OUTCOME>X131</OUTCOME>
			<OUTCOME>X132</OUTCOME>
			<OUTCOME>X133</OUTCOME>
			<OUTCOME>X134</OUTCOME>
			<OUTCOME>X135</OUTCOME>
			<OUTCOME>X136</OUTCOME>
			<OUTCOME>X137</OUTCOME>
			<OUTCOME>X138</OUTCOME>
			<OUTCOME>X139</OUTCOME>
			<OUTCOME>X140</OUTCOME>
			<OUTCOME>X141</OUTCOME>
			<OUTCOME>X142</OUTCOME>
			<OUTCOME>X143</OUTCOME>
			<OUTCOME>X144</OUTCOME>
			<OUTCOME>X145</OUTCOME>
			<OUTCOME>X146</OUTCOME>
			<OUTCOME>X147</OUTCOME>
			<OUTCOME>X148</OUTCOME>
			<OUTCOME>X149</OUTCOME>
			<OUTCOME>X150</OUTCOME>
			<OUTCOME>X151</OUTCOME>
			<OUTCOME>X152</OUTCOME>
			<OUTCOME>X153</OUTCOME>
			<OUTCOME>X154</OUTCOME>
			<OUTCOME>X155</OUTCOME>
			<OUTCOME>X156</OUTCOME>
			<OUTCOME>X157</OUTCOME>
			<OUTCOME>X158</OUTCOME>
			<OUTCOME>X159</OUTCOME>
			<OUTCOME>X160</OUTCOME>
			<OUTCOME>X161</OUTCOME>
			<OUTCOME>X162</OUTCOME>
			<OUTCOME>X163</OUTCOME>
			<OUTCOME>X164</OUTCOME>
			<OUTCOME>X165</OUTCOME>
			<OUTCOME>X166</OUTCOME>
			<OUTCOME>X167</OUTCOME>
			<OUTCOME>X168</OUTCOME>
			<OUTCOME>X169</OUTCOME>
			<OUTCOME>X170</OUTCOME>
			<OUTCOME>X171</OUTCOME>
			<OUTCOME>X172</OUTCOME>
			<OUTCOME>X173</OUTCOME>
			<OUTCOME>X174</OUTCOME>
			<OUTCOME>X175</OUTCOME>
			<OUTCOME>X176</OUTCOME>
			<OUTCOME>X177</OUTCOME>
			<OUTCOME>X178</OUTCOME>
			<OUTCOME>X179</OUTCOME>
			<OUTCOME>X180</OUTCOME>
			<OUTCOME>X181</OUTCOME>
			<OUTCOME>X182</OUTCOME>
			<OUTCOME>X183</OUTCOME>
			<OUTCOME>X184</OUTCOME>
			<OUTCOME>X185</OUTCOME>
			<OUTCOME>X186</OUTCOME>
			<OUTCOME>X187</OUTCOME>
			<OUTCOME>X188</OUTCOME>
			<OUTCOME>X189</OUTCOME>
			<OUTCOME>X190</OUTCOME>
			<OUTCOME>X191</OUTCOME>
			<OUTCOME>X192</OUTCOME>
			<OUTCOME>X193</OUTCOME>
			<OUTCOME>X194</OUTCOME>
			<OUTCOME>X195</OUTCOME>
			<OUTCOME>X196</OUTCOME>
			<OUTCOME>X197</OUTCOME>
			<OUTCOME>X198</OUTCOME>
			<OUTCOME>X199</OUTCOME>
			<OUTCOME>X200</OUTCOME>
			<OUTCOME>X201</OUTCOME>
			<OUTCOME>X202</OUTCOME>
			<OUTCOME>X203</OUTCOME>
			<OUTCOME>X204</OUTCOME>
			<OUTCOME>X205</OUTCOME>
			<OUTCOME>X206</OUTCOME>
			<OUTCOME>X207</OUTCOME>
			<OUTCOME>X208</OUTCOME>
			<OUTCOME>X209</OUTCOME>
			<OUTCOME>X210</OUTCOME>
			<OUTCOME>X211</OUTCOME>
			<OUTCOME>X212</OUTCOME>
			<OUTCOME>X213</OUTCOME>
			<OUTCOME>X214</OUTCOME>
			<OUTCOME>X215</OUTCOME>
			<OUTCOME>X216</OUTCOME>
			<OUTCOME>X217</OUTCOME>
			<OUTCOME>X218</OUTCOME>
			<OUTCOME>X219</OUTCOME>
			<OUTCOME>X220</OUTCOME>
			<OUTCOME>X221</OUTCOME>
			<OUTCOME>X222</OUTCOME>
			<OUTCOME>X223</OUTCOME>
			<OUTCOME>X224</OUTCOME>
			<OUTCOME>X225</OUTCOME>
			<OUTCOME>X226</OUTCOME>
			<OUTCOME>X227</OUTCOME>
			<OUTCOME>X228</OUTCOME>
			<OUTCOME>X229</OUTCOME>
			<OUTCOME>X230</OUTCOME>
			<OUTCOME>X231</OUTCOME>
			<OUTCOME>X232</OUTCOME>
			<OUTCOME>X233</OUTCOME>
			<OUTCOME>X234</OUTCOME>
			<OUTCOME>X235</OUTCOME>
			<OUTCOME>X236</OUTCOME>
			<OUTCOME>X237</OUTCOME>
			<OUTCOME>X238</OUTCOME>
			<OUTCOME>X239</OUTCOME>
			<OUTCOME>X240</OUTCOME>
			<OUTCOME>X241</OUTCOME>
			<OUTCOME>X242</OUTCOME>
			<OUTCOME>X243</OUTCOME>
			<OUTCOME>X244</OUTCOME>
			<OUTCOME>X245</OUTCOME>
			<OUTCOME>X246</OUTCOME>
			<OUTCOME>X247</OUTCOME>
			<OUTCOME>X248</OUTCOME>
			<OUTCOME>X249</OUTCOME>
			<OUTCOME>X250</OUTCOME>
			<OUTCOME>X251</OUTCOME>
			<OUTCOME>X252</OUTCOME>
			<OUTCOME>X253</OUTCOME>
			<OUTCOME>X254</OUTCOME>
			<OUTCOME>X255</OUTCOME>
		</VARIABLE>
		<VARIABLE TYPE  = "nature">
			<NAME>SENSOR4</NAME>
		
			<OUTCOME>X0</OUTCOME>
			<OUTCOME>X1</OUTCOME>
			<OUTCOME>X2</OUTCOME>
			<OUTCOME>X3</OUTCOME>
			<OUTCOME>X4</OUTCOME>
			<OUTCOME>X5</OUTCOME>
			<OUTCOME>X6</OUTCOME>
			<OUTCOME>X7</OUTCOME>
			<OUTCOME>X8</OUTCOME>
			<OUTCOME>X9</OUTCOME>
			<OUTCOME>X10</OUTCOME>
			<OUTCOME>X11</OUTCOME>
			<OUTCOME>X12</OUTCOME>
			<OUTCOME>X13</OUTCOME>
			<OUTCOME>X14</OUTCOME>
			<OUTCOME>X15</OUTCOME>
			<OUTCOME>X16</OUTCOME>
			<OUTCOME>X17</OUTCOME>
			<OUTCOME>X18</OUTCOME>
			<OUTCOME>X19</OUTCOME>
			<OUTCOME>X20</OUTCOME>
			<OUTCOME>X21</OUTCOME>
			<OUTCOME>X22</OUTCOME>
			<OUTCOME>X23</OUTCOME>
			<OUTCOME>X24</OUTCOME>
			<OUTCOME>X25</OUTCOME>
			<OUTCOME>X26</OUTCOME>
			<OUTCOME>X27</OUTCOME>
			<OUTCOME>X28</OUTCOME>
			<OUTCOME>X29</OUTCOME>
			<OUTCOME>X30</OUTCOME>
			<OUTCOME>X31</OUTCOME>
			<OUTCOME>X32</OUTCOME>
			<OUTCOME>X33</OUTCOME>
			<OUTCOME>X34</OUTCOME>
			<OUTCOME>X35</OUTCOME>
			<OUTCOME>X36</OUTCOME>
			<OUTCOME>X37</OUTCOME>
			<OUTCOME>X38</OUTCOME>
			<OUTCOME>X39</OUTCOME>
			<OUTCOME>X40</OUTCOME>
			<OUTCOME>X41</OUTCOME>
			<OUTCOME>X42</OUTCOME>
			<OUTCOME>X43</OUTCOME>
			<OUTCOME>X44</OUTCOME>
			<OUTCOME>X45</OUTCOME>
			<OUTCOME>X46</OUTCOME>
			<OUTCOME>X47</OUTCOME>
			<OUTCOME>X48</OUTCOME>
			<OUTCOME>X49</OUTCOME>
			<OUTCOME>X50</OUTCOME>
			<OUTCOME>X51</OUTCOME>
			<OUTCOME>X52</OUTCOME>
			<OUTCOME>X53</OUTCOME>
			<OUTCOME>X54</OUTCOME>
			<OUTCOME>X55</OUTCOME>
			<OUTCOME>X56</OUTCOME>
			<OUTCOME>X57</OUTCOME>
			<OUTCOME>X58</OUTCOME>
			<OUTCOME>X59</OUTCOME>
			<OUTCOME>X60</OUTCOME>
			<OUTCOME>X61</OUTCOME>
			<OUTCOME>X62</OUTCOME>
			<OUTCOME>X63</OUTCOME>
			<OUTCOME>X64</OUTCOME>
			<OUTCOME>X65</OUTCOME>
			<OUTCOME>X66</OUTCOME>
			<OUTCOME>X67</OUTCOME>
			<OUTCOME>X68</OUTCOME>
			<OUTCOME>X69</OUTCOME>
			<OUTCOME>X70</OUTCOME>
			<OUTCOME>X71</OUTCOME>
			<OUTCOME>X72</OUTCOME>
			<OUTCOME>X73</OUTCOME>
			<OUTCOME>X74</OUTCOME>
			<OUTCOME>X75</OUTCOME>
			<OUTCOME>X76</OUTCOME>
			<OUTCOME>X77</OUTCOME>
			<OUTCOME>X78</OUTCOME>
			<OUTCOME>X79</OUTCOME>
			<OUTCOME>X80</OUTCOME>
			<OUTCOME>X81</OUTCOME>
			<OUTCOME>X82</OUTCOME>
			<OUTCOME>X83</OUTCOME>
			<OUTCOME>X84</OUTCOME>
			<OUTCOME>X85</OUTCOME>
			<OUTCOME>X86</OUTCOME>
			<OUTCOME>X87</OUTCOME>
			<OUTCOME>X88</OUTCOME>
			<OUTCOME>X89</OUTCOME>
			<OUTCOME>X90</OUTCOME>
			<OUTCOME>X91</OUTCOME>
			<OUTCOME>X92</OUTCOME>
			<OUTCOME>X93</OUTCOME>
			<OUTCOME>X94</OUTCOME>
			<OUTCOME>X95</OUTCOME>
			<OUTCOME>X96</OUTCOME>
			<OUTCOME>X97</OUTCOME>
			<OUTCOME>X98</OUTCOME>
			<OUTCOME>X99</OUTCOME>
			<OUTCOME>X100</OUTCOME>
			<OUTCOME>X101</OUTCOME>
			<OUTCOME>X102</OUTCOME>
			<OUTCOME>X103</OUTCOME>
			<OUTCOME>X104</OUTCOME>
			<OUTCOME>X105</OUTCOME>
			<OUTCOME>X106</OUTCOME>
			<OUTCOME>X107</OUTCOME>
			<OUTCOME>X108</OUTCOME>
			<OUTCOME>X109</OUTCOME>
			<OUTCOME>X110</OUTCOME>
			<OUTCOME>X111</OUTCOME>
			<OUTCOME>X112</OUTCOME>
			<OUTCOME>X113</OUTCOME>
			<OUTCOME>X114</OUTCOME>
			<OUTCOME>X115</OUTCOME>
			<OUTCOME>X116</OUTCOME>
			<OUTCOME>X117</OUTCOME>
			<OUTCOME>X118</OUTCOME>
			<OUTCOME>X119</OUTCOME>
			<OUTCOME>X120</OUTCOME>
			<OUTCOME>X121</OUTCOME>
			<OUTCOME>X122</OUTCOME>
			<OUTCOME>X123</OUTCOME>
			<OUTCOME>X124</OUTCOME>
			<OUTCOME>X125</OUTCOME>
			<OUTCOME>X126</OUTCOME>
			<OUTCOME>X127</OUTCOME>
			<OUTCOME>X128</OUTCOME>
			<OUTCOME>X129</OUTCOME>
			<OUTCOME>X130</OUTCOME>
			<OUTCOME>X131</OUTCOME>
			<OUTCOME>X132</OUTCOME>
			<OUTCOME>X133</OUTCOME>
			<OUTCOME>X134</OUTCOME>
			<OUTCOME>X135</OUTCOME>
			<OUTCOME>X136</OUTCOME>
			<OUTCOME>X137</OUTCOME>
			<OUTCOME>X138</OUTCOME>
			<OUTCOME>X139</OUTCOME>
			<OUTCOME>X140</OUTCOME>
			<OUTCOME>X141</OUTCOME>
			<OUTCOME>X142</OUTCOME>
			<OUTCOME>X143</OUTCOME>
			<OUTCOME>X144</OUTCOME>
			<OUTCOME>X145</OUTCOME>
			<OUTCOME>X146</OUTCOME>
			<OUTCOME>X147</OUTCOME>
			<OUTCOME>X148</OUTCOME>
			<OUTCOME>X149</OUTCOME>
			<OUTCOME>X150</OUTCOME>
			<OUTCOME>X151</OUTCOME>
			<OUTCOME>X152</OUTCOME>
			<OUTCOME>X153</OUTCOME>
			<OUTCOME>X154</OUTCOME>
			<OUTCOME>X155</OUTCOME>
			<OUTCOME>X156</OUTCOME>
			<OUTCOME>X157</OUTCOME>
			<OUTCOME>X158</OUTCOME>
			<OUTCOME>X159</OUTCOME>
			<OUTCOME>X160</OUTCOME>
			<OUTCOME>X161</OUTCOME>
			<OUTCOME>X162</OUTCOME>
			<OUTCOME>X163</OUTCOME>
			<OUTCOME>X164</OUTCOME>
			<OUTCOME>X165</OUTCOME>
			<OUTCOME>X166</OUTCOME>
			<OUTCOME>X167</OUTCOME>
			<OUTCOME>X168</OUTCOME>
			<OUTCOME>X169</OUTCOME>
			<OUTCOME>X170</OUTCOME>
			<OUTCOME>X171</OUTCOME>
			<OUTCOME>X172</OUTCOME>
			<OUTCOME>X173</OUTCOME>
			<OUTCOME>X174</OUTCOME>
			<OUTCOME>X175</OUTCOME>
			<OUTCOME>X176</OUTCOME>
			<OUTCOME>X177</OUTCOME>
			<OUTCOME>X178</OUTCOME>
			<OUTCOME>X179</OUTCOME>
			<OUTCOME>X180</OUTCOME>
			<OUTCOME>X181</OUTCOME>
			<OUTCOME>X182</OUTCOME>
			<OUTCOME>X183</OUTCOME>
			<OUTCOME>X184</OUTCOME>
			<OUTCOME>X185</OUTCOME>
			<OUTCOME>X186</OUTCOME>
			<OUTCOME>X187</OUTCOME>
			<OUTCOME>X188</OUTCOME>
			<OUTCOME>X189</OUTCOME>
			<OUTCOME>X190</OUTCOME>
			<OUTCOME>X191</OUTCOME>
			<OUTCOME>X192</OUTCOME>
			<OUTCOME>X193</OUTCOME>
			<OUTCOME>X194</OUTCOME>
			<OUTCOME>X195</OUTCOME>
			<OUTCOME>X196</OUTCOME>
			<OUTCOME>X197</OUTCOME>
			<OUTCOME>X198</OUTCOME>
			<OUTCOME>X199</OUTCOME>
			<OUTCOME>X200</OUTCOME>
			<OUTCOME>X201</OUTCOME>
			<OUTCOME>X202</OUTCOME>
			<OUTCOME>X203</OUTCOME>
			<OUTCOME>X204</OUTCOME>
			<OUTCOME>X205</OUTCOME>
			<OUTCOME>X206</OUTCOME>
			<OUTCOME>X207</OUTCOME>
			<OUTCOME>X208</OUTCOME>
			<OUTCOME>X209</OUTCOME>
			<OUTCOME>X210</OUTCOME>
			<OUTCOME>X211</OUTCOME>
			<OUTCOME>X212</OUTCOME>
			<OUTCOME>X213</OUTCOME>
			<OUTCOME>X214</OUTCOME>
			<OUTCOME>X215</OUTCOME>
			<OUTCOME>X216</OUTCOME>
			<OUTCOME>X217</OUTCOME>
			<OUTCOME>X218</OUTCOME>
			<OUTCOME>X219</OUTCOME>
			<OUTCOME>X220</OUTCOME>
			<OUTCOME>X221</OUTCOME>
			<OUTCOME>X222</OUTCOME>
			<OUTCOME>X223</OUTCOME>
			<OUTCOME>X224</OUTCOME>
			<OUTCOME>X225</OUTCOME>
			<OUTCOME>X226</OUTCOME>
			<OUTCOME>X227</OUTCOME>
			<OUTCOME>X228</OUTCOME>
			<OUTCOME>X229</OUTCOME>
			<OUTCOME>X230</OUTCOME>
			<OUTCOME>X231</OUTCOME>
			<OUTCOME>X232</OUTCOME>
			<OUTCOME>X233</OUTCOME>
			<OUTCOME>X234</OUTCOME>
			<OUTCOME>X235</OUTCOME>
			<OUTCOME>X236</OUTCOME>
			<OUTCOME>X237</OUTCOME>
			<OUTCOME>X238</OUTCOME>
			<OUTCOME>X239</OUTCOME>
			<OUTCOME>X240</OUTCOME>
			<OUTCOME>X241</OUTCOME>
			<OUTCOME>X242</OUTCOME>
			<OUTCOME>X243</OUTCOME>
			<OUTCOME>X244</OUTCOME>
			<OUTCOME>X245</OUTCOME>
			<OUTCOME>X246</OUTCOME>
			<OUTCOME>X247</OUTCOME>
			<OUTCOME>X248</OUTCOME>
			<OUTCOME>X249</OUTCOME>
			<OUTCOME>X250</OUTCOME>
			<OUTCOME>X251</OUTCOME>
			<OUTCOME>X252</OUTCOME>
			<OUTCOME>X253</OUTCOME>
			<OUTCOME>X254</OUTCOME>
			<OUTCOME>X255</OUTCOME>
		</VARIABLE>
		<VARIABLE TYPE  = "nature">
			<NAME>SENSOR5</NAME>
		
			<OUTCOME>X0</OUTCOME>
			<OUTCOME>X1</OUTCOME>
			<OUTCOME>X2</OUTCOME>
			<OUTCOME>X3</OUTCOME>
			<OUTCOME>X4</OUTCOME>
			<OUTCOME>X5</OUTCOME>
			<OUTCOME>X6</OUTCOME>
			<OUTCOME>X7</OUTCOME>
			<OUTCOME>X8</OUTCOME>
			<OUTCOME>X9</OUTCOME>
			<OUTCOME>X10</OUTCOME>
			<OUTCOME>X11</OUTCOME>
			<OUTCOME>X12</OUTCOME>
			<OUTCOME>X13</OUTCOME>
			<OUTCOME>X14</OUTCOME>
			<OUTCOME>X15</OUTCOME>
			<OUTCOME>X16</OUTCOME>
			<OUTCOME>X17</OUTCOME>
			<OUTCOME>X18</OUTCOME>
			<OUTCOME>X19</OUTCOME>
			<OUTCOME>X20</OUTCOME>
			<OUTCOME>X21</OUTCOME>
			<OUTCOME>X22</OUTCOME>
			<OUTCOME>X23</OUTCOME>
			<OUTCOME>X24</OUTCOME>
			<OUTCOME>X25</OUTCOME>
			<OUTCOME>X26</OUTCOME>
			<OUTCOME>X27</OUTCOME>
			<OUTCOME>X28</OUTCOME>
			<OUTCOME>X29</OUTCOME>
			<OUTCOME>X30</OUTCOME>
			<OUTCOME>X31</OUTCOME>
			<OUTCOME>X32</OUTCOME>
			<OUTCOME>X33</OUTCOME>
			<OUTCOME>X34</OUTCOME>
			<OUTCOME>X35</OUTCOME>
			<OUTCOME>X36</OUTCOME>
			<OUTCOME>X37</OUTCOME>
			<OUTCOME>X38</OUTCOME>
			<OUTCOME>X39</OUTCOME>
			<OUTCOME>X40</OUTCOME>
			<OUTCOME>X41</OUTCOME>
			<OUTCOME>X42</OUTCOME>
			<OUTCOME>X43</OUTCOME>
			<OUTCOME>X44</OUTCOME>
			<OUTCOME>X45</OUTCOME>
			<OUTCOME>X46</OUTCOME>
			<OUTCOME>X47</OUTCOME>
			<OUTCOME>X48</OUTCOME>
			<OUTCOME>X49</OUTCOME>
			<OUTCOME>X50</OUTCOME>
			<OUTCOME>X51</OUTCOME>
			<OUTCOME>X52</OUTCOME>
			<OUTCOME>X53</OUTCOME>
			<OUTCOME>X54</OUTCOME>
			<OUTCOME>X55</OUTCOME>
			<OUTCOME>X56</OUTCOME>
			<OUTCOME>X57</OUTCOME>
			<OUTCOME>X58</OUTCOME>
			<OUTCOME>X59</OUTCOME>
			<OUTCOME>X60</OUTCOME>
			<OUTCOME>X61</OUTCOME>
			<OUTCOME>X62</OUTCOME>
			<OUTCOME>X63</OUTCOME>
			<OUTCOME>X64</OUTCOME>
			<OUTCOME>X65</OUTCOME>
			<OUTCOME>X66</OUTCOME>
			<OUTCOME>X67</OUTCOME>
			<OUTCOME>X68</OUTCOME>
			<OUTCOME>X69</OUTCOME>
			<OUTCOME>X70</OUTCOME>
			<OUTCOME>X71</OUTCOME>
			<OUTCOME>X72</OUTCOME>
			<OUTCOME>X73</OUTCOME>
			<OUTCOME>X74</OUTCOME>
			<OUTCOME>X75</OUTCOME>
			<OUTCOME>X76</OUTCOME>
			<OUTCOME>X77</OUTCOME>
			<OUTCOME>X78</OUTCOME>
			<OUTCOME>X79</OUTCOME>
			<OUTCOME>X80</OUTCOME>
			<OUTCOME>X81</OUTCOME>
			<OUTCOME>X82</OUTCOME>
			<OUTCOME>X83</OUTCOME>
			<OUTCOME>X84</OUTCOME>
			<OUTCOME>X85</OUTCOME>
			<OUTCOME>X86</OUTCOME>
			<OUTCOME>X87</OUTCOME>
			<OUTCOME>X88</OUTCOME>
			<OUTCOME>X89</OUTCOME>
			<OUTCOME>X90</OUTCOME>
			<OUTCOME>X91</OUTCOME>
			<OUTCOME>X92</OUTCOME>
			<OUTCOME>X93</OUTCOME>
			<OUTCOME>X94</OUTCOME>
			<OUTCOME>X95</OUTCOME>
			<OUTCOME>X96</OUTCOME>
			<OUTCOME>X97</OUTCOME>
			<OUTCOME>X98</OUTCOME>
			<OUTCOME>X99</OUTCOME>
			<OUTCOME>X100</OUTCOME>
			<OUTCOME>X101</OUTCOME>
			<OUTCOME>X102</OUTCOME>
			<OUTCOME>X103</OUTCOME>
			<OUTCOME>X104</OUTCOME>
			<OUTCOME>X105</OUTCOME>
			<OUTCOME>X106</OUTCOME>
			<OUTCOME>X107</OUTCOME>
			<OUTCOME>X108</OUTCOME>
			<OUTCOME>X109</OUTCOME>
			<OUTCOME>X110</OUTCOME>
			<OUTCOME>X111</OUTCOME>
			<OUTCOME>X112</OUTCOME>
			<OUTCOME>X113</OUTCOME>
			<OUTCOME>X114</OUTCOME>
			<OUTCOME>X115</OUTCOME>
			<OUTCOME>X116</OUTCOME>
			<OUTCOME>X117</OUTCOME>
			<OUTCOME>X118</OUTCOME>
			<OUTCOME>X119</OUTCOME>
			<OUTCOME>X120</OUTCOME>
			<OUTCOME>X121</OUTCOME>
			<OUTCOME>X122</OUTCOME>
			<OUTCOME>X123</OUTCOME>
			<OUTCOME>X124</OUTCOME>
			<OUTCOME>X125</OUTCOME>
			<OUTCOME>X126</OUTCOME>
			<OUTCOME>X127</OUTCOME>
			<OUTCOME>X128</OUTCOME>
			<OUTCOME>X129</OUTCOME>
			<OUTCOME>X130</OUTCOME>
			<OUTCOME>X131</OUTCOME>
			<OUTCOME>X132</OUTCOME>
			<OUTCOME>X133</OUTCOME>
			<OUTCOME>X134</OUTCOME>
			<OUTCOME>X135</OUTCOME>
			<OUTCOME>X136</OUTCOME>
			<OUTCOME>X137</OUTCOME>
			<OUTCOME>X138</OUTCOME>
			<OUTCOME>X139</OUTCOME>
			<OUTCOME>X140</OUTCOME>
			<OUTCOME>X141</OUTCOME>
			<OUTCOME>X142</OUTCOME>
			<OUTCOME>X143</OUTCOME>
			<OUTCOME>X144</OUTCOME>
			<OUTCOME>X145</OUTCOME>
			<OUTCOME>X146</OUTCOME>
			<OUTCOME>X147</OUTCOME>
			<OUTCOME>X148</OUTCOME>
			<OUTCOME>X149</OUTCOME>
			<OUTCOME>X150</OUTCOME>
			<OUTCOME>X151</OUTCOME>
			<OUTCOME>X152</OUTCOME>
			<OUTCOME>X153</OUTCOME>
			<OUTCOME>X154</OUTCOME>
			<OUTCOME>X155</OUTCOME>
			<OUTCOME>X156</OUTCOME>
			<OUTCOME>X157</OUTCOME>
			<OUTCOME>X158</OUTCOME>
			<OUTCOME>X159</OUTCOME>
			<OUTCOME>X160</OUTCOME>
			<OUTCOME>X161</OUTCOME>
			<OUTCOME>X162</OUTCOME>
			<OUTCOME>X163</OUTCOME>
			<OUTCOME>X164</OUTCOME>
			<OUTCOME>X165</OUTCOME>
			<OUTCOME>X166</OUTCOME>
			<OUTCOME>X167</OUTCOME>
			<OUTCOME>X168</OUTCOME>
			<OUTCOME>X169</OUTCOME>
			<OUTCOME>X170</OUTCOME>
			<OUTCOME>X171</OUTCOME>
			<OUTCOME>X172</OUTCOME>
			<OUTCOME>X173</OUTCOME>
			<OUTCOME>X174</OUTCOME>
			<OUTCOME>X175</OUTCOME>
			<OUTCOME>X176</OUTCOME>
			<OUTCOME>X177</OUTCOME>
			<OUTCOME>X178</OUTCOME>
			<OUTCOME>X179</OUTCOME>
			<OUTCOME>X180</OUTCOME>
			<OUTCOME>X181</OUTCOME>
			<OUTCOME>X182</OUTCOME>
			<OUTCOME>X183</OUTCOME>
			<OUTCOME>X184</OUTCOME>
			<OUTCOME>X185</OUTCOME>
			<OUTCOME>X186</OUTCOME>
			<OUTCOME>X187</OUTCOME>
			<OUTCOME>X188</OUTCOME>
			<OUTCOME>X189</OUTCOME>
			<OUTCOME>X190</OUTCOME>
			<OUTCOME>X191</OUTCOME>
			<OUTCOME>X192</OUTCOME>
			<OUTCOME>X193</OUTCOME>
			<OUTCOME>X194</OUTCOME>
			<OUTCOME>X195</OUTCOME>
			<OUTCOME>X196</OUTCOME>
			<OUTCOME>X197</OUTCOME>
			<OUTCOME>X198</OUTCOME>
			<OUTCOME>X199</OUTCOME>
			<OUTCOME>X200</OUTCOME>
			<OUTCOME>X201</OUTCOME>
			<OUTCOME>X202</OUTCOME>
			<OUTCOME>X203</OUTCOME>
			<OUTCOME>X204</OUTCOME>
			<OUTCOME>X205</OUTCOME>
			<OUTCOME>X206</OUTCOME>
			<OUTCOME>X207</OUTCOME>
			<OUTCOME>X208</OUTCOME>
			<OUTCOME>X209</OUTCOME>
			<OUTCOME>X210</OUTCOME>
			<OUTCOME>X211</OUTCOME>
			<OUTCOME>X212</OUTCOME>
			<OUTCOME>X213</OUTCOME>
			<OUTCOME>X214</OUTCOME>
			<OUTCOME>X215</OUTCOME>
			<OUTCOME>X216</OUTCOME>
			<OUTCOME>X217</OUTCOME>
			<OUTCOME>X218</OUTCOME>
			<OUTCOME>X219</OUTCOME>
			<OUTCOME>X220</OUTCOME>
			<OUTCOME>X221</OUTCOME>
			<OUTCOME>X222</OUTCOME>
			<OUTCOME>X223</OUTCOME>
			<OUTCOME>X224</OUTCOME>
			<OUTCOME>X225</OUTCOME>
			<OUTCOME>X226</OUTCOME>
			<OUTCOME>X227</OUTCOME>
			<OUTCOME>X228</OUTCOME>
			<OUTCOME>X229</OUTCOME>
			<OUTCOME>X230</OUTCOME>
			<OUTCOME>X231</OUTCOME>
			<OUTCOME>X232</OUTCOME>
			<OUTCOME>X233</OUTCOME>
			<OUTCOME>X234</OUTCOME>
			<OUTCOME>X235</OUTCOME>
			<OUTCOME>X236</OUTCOME>
			<OUTCOME>X237</OUTCOME>
			<OUTCOME>X238</OUTCOME>
			<OUTCOME>X239</OUTCOME>
			<OUTCOME>X240</OUTCOME>
			<OUTCOME>X241</OUTCOME>
			<OUTCOME>X242</OUTCOME>
			<OUTCOME>X243</OUTCOME>
			<OUTCOME>X244</OUTCOME>
			<OUTCOME>X245</OUTCOME>
			<OUTCOME>X246</OUTCOME>
			<OUTCOME>X247</OUTCOME>
			<OUTCOME>X248</OUTCOME>
			<OUTCOME>X249</OUTCOME>
			<OUTCOME>X250</OUTCOME>
			<OUTCOME>X251</OUTCOME>
			<OUTCOME>X252</OUTCOME>
			<OUTCOME>X253</OUTCOME>
			<OUTCOME>X254</OUTCOME>
			<OUTCOME>X255</OUTCOME>
		</VARIABLE>
		<VARIABLE TYPE  = "nature">
			<NAME>SENSOR6</NAME>
		
			<OUTCOME>X0</OUTCOME>
			<OUTCOME>X1</OUTCOME>
			<OUTCOME>X2</OUTCOME>
			<OUTCOME>X3</OUTCOME>
			<OUTCOME>X4</OUTCOME>
			<OUTCOME>X5</OUTCOME>
			<OUTCOME>X6</OUTCOME>
			<OUTCOME>X7</OUTCOME>
			<OUTCOME>X8</OUTCOME>
			<OUTCOME>X9</OUTCOME>
			<OUTCOME>X10</OUTCOME>
			<OUTCOME>X11</OUTCOME>
			<OUTCOME>X12</OUTCOME>
			<OUTCOME>X13</OUTCOME>
			<OUTCOME>X14</OUTCOME>
			<OUTCOME>X15</OUTCOME>
			<OUTCOME>X16</OUTCOME>
			<OUTCOME>X17</OUTCOME>
			<OUTCOME>X18</OUTCOME>
			<OUTCOME>X19</OUTCOME>
			<OUTCOME>X20</OUTCOME>
			<OUTCOME>X21</OUTCOME>
			<OUTCOME>X22</OUTCOME>
			<OUTCOME>X23</OUTCOME>
			<OUTCOME>X24</OUTCOME>
			<OUTCOME>X25</OUTCOME>
			<OUTCOME>X26</OUTCOME>
			<OUTCOME>X27</OUTCOME>
			<OUTCOME>X28</OUTCOME>
			<OUTCOME>X29</OUTCOME>
			<OUTCOME>X30</OUTCOME>
			<OUTCOME>X31</OUTCOME>
			<OUTCOME>X32</OUTCOME>
			<OUTCOME>X33</OUTCOME>
			<OUTCOME>X34</OUTCOME>
			<OUTCOME>X35</OUTCOME>
			<OUTCOME>X36</OUTCOME>
			<OUTCOME>X37</OUTCOME>
			<OUTCOME>X38</OUTCOME>
			<OUTCOME>X39</OUTCOME>
			<OUTCOME>X40</OUTCOME>
			<OUTCOME>X41</OUTCOME>
			<OUTCOME>X42</OUTCOME>
			<OUTCOME>X43</OUTCOME>
			<OUTCOME>X44</OUTCOME>
			<OUTCOME>X45</OUTCOME>
			<OUTCOME>X46</OUTCOME>
			<OUTCOME>X47</OUTCOME>
			<OUTCOME>X48</OUTCOME>
			<OUTCOME>X49</OUTCOME>
			<OUTCOME>X50</OUTCOME>
			<OUTCOME>X51</OUTCOME>
			<OUTCOME>X52</OUTCOME>
			<OUTCOME>X53</OUTCOME>
			<OUTCOME>X54</OUTCOME>
			<OUTCOME>X55</OUTCOME>
			<OUTCOME>X56</OUTCOME>
			<OUTCOME>X57</OUTCOME>
			<OUTCOME>X58</OUTCOME>
			<OUTCOME>X59</OUTCOME>
			<OUTCOME>X60</OUTCOME>
			<OUTCOME>X61</OUTCOME>
			<OUTCOME>X62</OUTCOME>
			<OUTCOME>X63</OUTCOME>
			<OUTCOME>X64</OUTCOME>
			<OUTCOME>X65</OUTCOME>
			<OUTCOME>X66</OUTCOME>
			<OUTCOME>X67</OUTCOME>
			<OUTCOME>X68</OUTCOME>
			<OUTCOME>X69</OUTCOME>
			<OUTCOME>X70</OUTCOME>
			<OUTCOME>X71</OUTCOME>
			<OUTCOME>X72</OUTCOME>
			<OUTCOME>X73</OUTCOME>
			<OUTCOME>X74</OUTCOME>
			<OUTCOME>X75</OUTCOME>
			<OUTCOME>X76</OUTCOME>
			<OUTCOME>X77</OUTCOME>
			<OUTCOME>X78</OUTCOME>
			<OUTCOME>X79</OUTCOME>
			<OUTCOME>X80</OUTCOME>
			<OUTCOME>X81</OUTCOME>
			<OUTCOME>X82</OUTCOME>
			<OUTCOME>X83</OUTCOME>
			<OUTCOME>X84</OUTCOME>
			<OUTCOME>X85</OUTCOME>
			<OUTCOME>X86</OUTCOME>
			<OUTCOME>X87</OUTCOME>
			<OUTCOME>X88</OUTCOME>
			<OUTCOME>X89</OUTCOME>
			<OUTCOME>X90</OUTCOME>
			<OUTCOME>X91</OUTCOME>
			<OUTCOME>X92</OUTCOME>
			<OUTCOME>X93</OUTCOME>
			<OUTCOME>X94</OUTCOME>
			<OUTCOME>X95</OUTCOME>
			<OUTCOME>X96</OUTCOME>
			<OUTCOME>X97</OUTCOME>
			<OUTCOME>X98</OUTCOME>
			<OUTCOME>X99</OUTCOME>
			<OUTCOME>X100</OUTCOME>
			<OUTCOME>X101</OUTCOME>
			<OUTCOME>X102</OUTCOME>
			<OUTCOME>X103</OUTCOME>
			<OUTCOME>X104</OUTCOME>
			<OUTCOME>X105</OUTCOME>
			<OUTCOME>X106</OUTCOME>
			<OUTCOME>X107</OUTCOME>
			<OUTCOME>X108</OUTCOME>
			<OUTCOME>X109</OUTCOME>
			<OUTCOME>X110</OUTCOME>
			<OUTCOME>X111</OUTCOME>
			<OUTCOME>X112</OUTCOME>
			<OUTCOME>X113</OUTCOME>
			<OUTCOME>X114</OUTCOME>
			<OUTCOME>X115</OUTCOME>
			<OUTCOME>X116</OUTCOME>
			<OUTCOME>X117</OUTCOME>
			<OUTCOME>X118</OUTCOME>
			<OUTCOME>X119</OUTCOME>
			<OUTCOME>X120</OUTCOME>
			<OUTCOME>X121</OUTCOME>
			<OUTCOME>X122</OUTCOME>
			<OUTCOME>X123</OUTCOME>
			<OUTCOME>X124</OUTCOME>
			<OUTCOME>X125</OUTCOME>
			<OUTCOME>X126</OUTCOME>
			<OUTCOME>X127</OUTCOME>
			<OUTCOME>X128</OUTCOME>
			<OUTCOME>X129</OUTCOME>
			<OUTCOME>X130</OUTCOME>
			<OUTCOME>X131</OUTCOME>
			<OUTCOME>X132</OUTCOME>
			<OUTCOME>X133</OUTCOME>
			<OUTCOME>X134</OUTCOME>
			<OUTCOME>X135</OUTCOME>
			<OUTCOME>X136</OUTCOME>
			<OUTCOME>X137</OUTCOME>
			<OUTCOME>X138</OUTCOME>
			<OUTCOME>X139</OUTCOME>
			<OUTCOME>X140</OUTCOME>
			<OUTCOME>X141</OUTCOME>
			<OUTCOME>X142</OUTCOME>
			<OUTCOME>X143</OUTCOME>
			<OUTCOME>X144</OUTCOME>
			<OUTCOME>X145</OUTCOME>
			<OUTCOME>X146</OUTCOME>
			<OUTCOME>X147</OUTCOME>
			<OUTCOME>X148</OUTCOME>
			<OUTCOME>X149</OUTCOME>
			<OUTCOME>X150</OUTCOME>
			<OUTCOME>X151</OUTCOME>
			<OUTCOME>X152</OUTCOME>
			<OUTCOME>X153</OUTCOME>
			<OUTCOME>X154</OUTCOME>
			<OUTCOME>X155</OUTCOME>
			<OUTCOME>X156</OUTCOME>
			<OUTCOME>X157</OUTCOME>
			<OUTCOME>X158</OUTCOME>
			<OUTCOME>X159</OUTCOME>
			<OUTCOME>X160</OUTCOME>
			<OUTCOME>X161</OUTCOME>
			<OUTCOME>X162</OUTCOME>
			<OUTCOME>X163</OUTCOME>
			<OUTCOME>X164</OUTCOME>
			<OUTCOME>X165</OUTCOME>
			<OUTCOME>X166</OUTCOME>
			<OUTCOME>X167</OUTCOME>
			<OUTCOME>X168</OUTCOME>
			<OUTCOME>X169</OUTCOME>
			<OUTCOME>X170</OUTCOME>
			<OUTCOME>X171</OUTCOME>
			<OUTCOME>X172</OUTCOME>
			<OUTCOME>X173</OUTCOME>
			<OUTCOME>X174</OUTCOME>
			<OUTCOME>X175</OUTCOME>
			<OUTCOME>X176</OUTCOME>
			<OUTCOME>X177</OUTCOME>
			<OUTCOME>X178</OUTCOME>
			<OUTCOME>X179</OUTCOME>
			<OUTCOME>X180</OUTCOME>
			<OUTCOME>X181</OUTCOME>
			<OUTCOME>X182</OUTCOME>
			<OUTCOME>X183</OUTCOME>
			<OUTCOME>X184</OUTCOME>
			<OUTCOME>X185</OUTCOME>
			<OUTCOME>X186</OUTCOME>
			<OUTCOME>X187</OUTCOME>
			<OUTCOME>X188</OUTCOME>
			<OUTCOME>X189</OUTCOME>
			<OUTCOME>X190</OUTCOME>
			<OUTCOME>X191</OUTCOME>
			<OUTCOME>X192</OUTCOME>
			<OUTCOME>X193</OUTCOME>
			<OUTCOME>X194</OUTCOME>
			<OUTCOME>X195</OUTCOME>
			<OUTCOME>X196</OUTCOME>
			<OUTCOME>X197</OUTCOME>
			<OUTCOME>X198</OUTCOME>
			<OUTCOME>X199</OUTCOME>
			<OUTCOME>X200</OUTCOME>
			<OUTCOME>X201</OUTCOME>
			<OUTCOME>X202</OUTCOME>
			<OUTCOME>X203</OUTCOME>
			<OUTCOME>X204</OUTCOME>
			<OUTCOME>X205</OUTCOME>
			<OUTCOME>X206</OUTCOME>
			<OUTCOME>X207</OUTCOME>
			<OUTCOME>X208</OUTCOME>
			<OUTCOME>X209</OUTCOME>
			<OUTCOME>X210</OUTCOME>
			<OUTCOME>X211</OUTCOME>
			<OUTCOME>X212</OUTCOME>
			<OUTCOME>X213</OUTCOME>
			<OUTCOME>X214</OUTCOME>
			<OUTCOME>X215</OUTCOME>
			<OUTCOME>X216</OUTCOME>
			<OUTCOME>X217</OUTCOME>
			<OUTCOME>X218</OUTCOME>
			<OUTCOME>X219</OUTCOME>
			<OUTCOME>X220</OUTCOME>
			<OUTCOME>X221</OUTCOME>
			<OUTCOME>X222</OUTCOME>
			<OUTCOME>X223</OUTCOME>
			<OUTCOME>X224</OUTCOME>
			<OUTCOME>X225</OUTCOME>
			<OUTCOME>X226</OUTCOME>
			<OUTCOME>X227</OUTCOME>
			<OUTCOME>X228</OUTCOME>
			<OUTCOME>X229</OUTCOME>
			<OUTCOME>X230</OUTCOME>
			<OUTCOME>X231</OUTCOME>
			<OUTCOME>X232</OUTCOME>
			<OUTCOME>X233</OUTCOME>
			<OUTCOME>X234</OUTCOME>
			<OUTCOME>X235</OUTCOME>
			<OUTCOME>X236</OUTCOME>
			<OUTCOME>X237</OUTCOME>
			<OUTCOME>X238</OUTCOME>
			<OUTCOME>X239</OUTCOME>
			<OUTCOME>X240</OUTCOME>
			<OUTCOME>X241</OUTCOME>
			<OUTCOME>X242</OUTCOME>
			<OUTCOME>X243</OUTCOME>
			<OUTCOME>X244</OUTCOME>
			<OUTCOME>X245</OUTCOME>
			<OUTCOME>X246</OUTCOME>
			<OUTCOME>X247</OUTCOME>
			<OUTCOME>X248</OUTCOME>
			<OUTCOME>X249</OUTCOME>
			<OUTCOME>X250</OUTCOME>
			<OUTCOME>X251</OUTCOME>
			<OUTCOME>X252</OUTCOME>
			<OUTCOME>X253</OUTCOME>
			<OUTCOME>X254</OUTCOME>
			<OUTCOME>X255</OUTCOME>
		</VARIABLE>
		<VARIABLE TYPE  = "nature">
			<NAME>SENSOR7</NAME>
		
			<OUTCOME>X0</OUTCOME>
			<OUTCOME>X1</OUTCOME>
			<OUTCOME>X2</OUTCOME>
			<OUTCOME>X3</OUTCOME>
			<OUTCOME>X4</OUTCOME>
			<OUTCOME>X5</OUTCOME>
			<OUTCOME>X6</OUTCOME>
			<OUTCOME>X7</OUTCOME>
			<OUTCOME>X8</OUTCOME>
			<OUTCOME>X9</OUTCOME>
			<OUTCOME>X10</OUTCOME>
			<OUTCOME>X11</OUTCOME>
			<OUTCOME>X12</OUTCOME>
			<OUTCOME>X13</OUTCOME>
			<OUTCOME>X14</OUTCOME>
			<OUTCOME>X15</OUTCOME>
			<OUTCOME>X16</OUTCOME>
			<OUTCOME>X17</OUTCOME>
			<OUTCOME>X18</OUTCOME>
			<OUTCOME>X19</OUTCOME>
			<OUTCOME>X20</OUTCOME>
			<OUTCOME>X21</OUTCOME>
			<OUTCOME>X22</OUTCOME>
			<OUTCOME>X23</OUTCOME>
			<OUTCOME>X24</OUTCOME>
			<OUTCOME>X25</OUTCOME>
			<OUTCOME>X26</OUTCOME>
			<OUTCOME>X27</OUTCOME>
			<OUTCOME>X28</OUTCOME>
			<OUTCOME>X29</OUTCOME>
			<OUTCOME>X30</OUTCOME>
			<OUTCOME>X31</OUTCOME>
			<OUTCOME>X32</OUTCOME>
			<OUTCOME>X33</OUTCOME>
			<OUTCOME>X34</OUTCOME>
			<OUTCOME>X35</OUTCOME>
			<OUTCOME>X36</OUTCOME>
			<OUTCOME>X37</OUTCOME>
			<OUTCOME>X38</OUTCOME>
			<OUTCOME>X39</OUTCOME>
			<OUTCOME>X40</OUTCOME>
			<OUTCOME>X41</OUTCOME>
			<OUTCOME>X42</OUTCOME>
			<OUTCOME>X43</OUTCOME>
			<OUTCOME>X44</OUTCOME>
			<OUTCOME>X45</OUTCOME>
			<OUTCOME>X46</OUTCOME>
			<OUTCOME>X47</OUTCOME>
			<OUTCOME>X48</OUTCOME>
			<OUTCOME>X49</OUTCOME>
			<OUTCOME>X50</OUTCOME>
			<OUTCOME>X51</OUTCOME>
			<OUTCOME>X52</OUTCOME>
			<OUTCOME>X53</OUTCOME>
			<OUTCOME>X54</OUTCOME>
			<OUTCOME>X55</OUTCOME>
			<OUTCOME>X56</OUTCOME>
			<OUTCOME>X57</OUTCOME>
			<OUTCOME>X58</OUTCOME>
			<OUTCOME>X59</OUTCOME>
			<OUTCOME>X60</OUTCOME>
			<OUTCOME>X61</OUTCOME>
			<OUTCOME>X62</OUTCOME>
			<OUTCOME>X63</OUTCOME>
			<OUTCOME>X64</OUTCOME>
			<OUTCOME>X65</OUTCOME>
			<OUTCOME>X66</OUTCOME>
			<OUTCOME>X67</OUTCOME>
			<OUTCOME>X68</OUTCOME>
			<OUTCOME>X69</OUTCOME>
			<OUTCOME>X70</OUTCOME>
			<OUTCOME>X71</OUTCOME>
			<OUTCOME>X72</OUTCOME>
			<OUTCOME>X73</OUTCOME>
			<OUTCOME>X74</OUTCOME>
			<OUTCOME>X75</OUTCOME>
			<OUTCOME>X76</OUTCOME>
			<OUTCOME>X77</OUTCOME>
			<OUTCOME>X78</OUTCOME>
			<OUTCOME>X79</OUTCOME>
			<OUTCOME>X80</OUTCOME>
			<OUTCOME>X81</OUTCOME>
			<OUTCOME>X82</OUTCOME>
			<OUTCOME>X83</OUTCOME>
			<OUTCOME>X84</OUTCOME>
			<OUTCOME>X85</OUTCOME>
			<OUTCOME>X86</OUTCOME>
			<OUTCOME>X87</OUTCOME>
			<OUTCOME>X88</OUTCOME>
			<OUTCOME>X89</OUTCOME>
			<OUTCOME>X90</OUTCOME>
			<OUTCOME>X91</OUTCOME>
			<OUTCOME>X92</OUTCOME>
			<OUTCOME>X93</OUTCOME>
			<OUTCOME>X94</OUTCOME>
			<OUTCOME>X95</OUTCOME>
			<OUTCOME>X96</OUTCOME>
			<OUTCOME>X97</OUTCOME>
			<OUTCOME>X98</OUTCOME>
			<OUTCOME>X99</OUTCOME>
			<OUTCOME>X100</OUTCOME>
			<OUTCOME>X101</OUTCOME>
			<OUTCOME>X102</OUTCOME>
			<OUTCOME>X103</OUTCOME>
			<OUTCOME>X104</OUTCOME>
			<OUTCOME>X105</OUTCOME>
			<OUTCOME>X106</OUTCOME>
			<OUTCOME>X107</OUTCOME>
			<OUTCOME>X108</OUTCOME>
			<OUTCOME>X109</OUTCOME>
			<OUTCOME>X110</OUTCOME>
			<OUTCOME>X111</OUTCOME>
			<OUTCOME>X112</OUTCOME>
			<OUTCOME>X113</OUTCOME>
			<OUTCOME>X114</OUTCOME>
			<OUTCOME>X115</OUTCOME>
			<OUTCOME>X116</OUTCOME>
			<OUTCOME>X117</OUTCOME>
			<OUTCOME>X118</OUTCOME>
			<OUTCOME>X119</OUTCOME>
			<OUTCOME>X120</OUTCOME>
			<OUTCOME>X121</OUTCOME>
			<OUTCOME>X122</OUTCOME>
			<OUTCOME>X123</OUTCOME>
			<OUTCOME>X124</OUTCOME>
			<OUTCOME>X125</OUTCOME>
			<OUTCOME>X126</OUTCOME>
			<OUTCOME>X127</OUTCOME>
			<OUTCOME>X128</OUTCOME>
			<OUTCOME>X129</OUTCOME>
			<OUTCOME>X130</OUTCOME>
			<OUTCOME>X131</OUTCOME>
			<OUTCOME>X132</OUTCOME>
			<OUTCOME>X133</OUTCOME>
			<OUTCOME>X134</OUTCOME>
			<OUTCOME>X135</OUTCOME>
			<OUTCOME>X136</OUTCOME>
			<OUTCOME>X137</OUTCOME>
			<OUTCOME>X138</OUTCOME>
			<OUTCOME>X139</OUTCOME>
			<OUTCOME>X140</OUTCOME>
			<OUTCOME>X141</OUTCOME>
			<OUTCOME>X142</OUTCOME>
			<OUTCOME>X143</OUTCOME>
			<OUTCOME>X144</OUTCOME>
			<OUTCOME>X145</OUTCOME>
			<OUTCOME>X146</OUTCOME>
			<OUTCOME>X147</OUTCOME>
			<OUTCOME>X148</OUTCOME>
			<OUTCOME>X149</OUTCOME>
			<OUTCOME>X150</OUTCOME>
			<OUTCOME>X151</OUTCOME>
			<OUTCOME>X152</OUTCOME>
			<OUTCOME>X153</OUTCOME>
			<OUTCOME>X154</OUTCOME>
			<OUTCOME>X155</OUTCOME>
			<OUTCOME>X156</OUTCOME>
			<OUTCOME>X157</OUTCOME>
			<OUTCOME>X158</OUTCOME>
			<OUTCOME>X159</OUTCOME>
			<OUTCOME>X160</OUTCOME>
			<OUTCOME>X161</OUTCOME>
			<OUTCOME>X162</OUTCOME>
			<OUTCOME>X163</OUTCOME>
			<OUTCOME>X164</OUTCOME>
			<OUTCOME>X165</OUTCOME>
			<OUTCOME>X166</OUTCOME>
			<OUTCOME>X167</OUTCOME>
			<OUTCOME>X168</OUTCOME>
			<OUTCOME>X169</OUTCOME>
			<OUTCOME>X170</OUTCOME>
			<OUTCOME>X171</OUTCOME>
			<OUTCOME>X172</OUTCOME>
			<OUTCOME>X173</OUTCOME>
			<OUTCOME>X174</OUTCOME>
			<OUTCOME>X175</OUTCOME>
			<OUTCOME>X176</OUTCOME>
			<OUTCOME>X177</OUTCOME>
			<OUTCOME>X178</OUTCOME>
			<OUTCOME>X179</OUTCOME>
			<OUTCOME>X180</OUTCOME>
			<OUTCOME>X181</OUTCOME>
			<OUTCOME>X182</OUTCOME>
			<OUTCOME>X183</OUTCOME>
			<OUTCOME>X184</OUTCOME>
			<OUTCOME>X185</OUTCOME>
			<OUTCOME>X186</OUTCOME>
			<OUTCOME>X187</OUTCOME>
			<OUTCOME>X188</OUTCOME>
			<OUTCOME>X189</OUTCOME>
			<OUTCOME>X190</OUTCOME>
			<OUTCOME>X191</OUTCOME>
			<OUTCOME>X192</OUTCOME>
			<OUTCOME>X193</OUTCOME>
			<OUTCOME>X194</OUTCOME>
			<OUTCOME>X195</OUTCOME>
			<OUTCOME>X196</OUTCOME>
			<OUTCOME>X197</OUTCOME>
			<OUTCOME>X198</OUTCOME>
			<OUTCOME>X199</OUTCOME>
			<OUTCOME>X200</OUTCOME>
			<OUTCOME>X201</OUTCOME>
			<OUTCOME>X202</OUTCOME>
			<OUTCOME>X203</OUTCOME>
			<OUTCOME>X204</OUTCOME>
			<OUTCOME>X205</OUTCOME>
			<OUTCOME>X206</OUTCOME>
			<OUTCOME>X207</OUTCOME>
			<OUTCOME>X208</OUTCOME>
			<OUTCOME>X209</OUTCOME>
			<OUTCOME>X210</OUTCOME>
			<OUTCOME>X211</OUTCOME>
			<OUTCOME>X212</OUTCOME>
			<OUTCOME>X213</OUTCOME>
			<OUTCOME>X214</OUTCOME>
			<OUTCOME>X215</OUTCOME>
			<OUTCOME>X216</OUTCOME>
			<OUTCOME>X217</OUTCOME>
			<OUTCOME>X218</OUTCOME>
			<OUTCOME>X219</OUTCOME>
			<OUTCOME>X220</OUTCOME>
			<OUTCOME>X221</OUTCOME>
			<OUTCOME>X222</OUTCOME>
			<OUTCOME>X223</OUTCOME>
			<OUTCOME>X224</OUTCOME>
			<OUTCOME>X225</OUTCOME>
			<OUTCOME>X226</OUTCOME>
			<OUTCOME>X227</OUTCOME>
			<OUTCOME>X228</OUTCOME>
			<OUTCOME>X229</OUTCOME>
			<OUTCOME>X230</OUTCOME>
			<OUTCOME>X231</OUTCOME>
			<OUTCOME>X232</OUTCOME>
			<OUTCOME>X233</OUTCOME>
			<OUTCOME>X234</OUTCOME>
			<OUTCOME>X235</OUTCOME>
			<OUTCOME>X236</OUTCOME>
			<OUTCOME>X237</OUTCOME>
			<OUTCOME>X238</OUTCOME>
			<OUTCOME>X239</OUTCOME>
			<OUTCOME>X240</OUTCOME>
			<OUTCOME>X241</OUTCOME>
			<OUTCOME>X242</OUTCOME>
			<OUTCOME>X243</OUTCOME>
			<OUTCOME>X244</OUTCOME>
			<OUTCOME>X245</OUTCOME>
			<OUTCOME>X246</OUTCOME>
			<OUTCOME>X247</OUTCOME>
			<OUTCOME>X248</OUTCOME>
			<OUTCOME>X249</OUTCOME>
			<OUTCOME>X250</OUTCOME>
			<OUTCOME>X251</OUTCOME>
			<OUTCOME>X252</OUTCOME>
			<OUTCOME>X253</OUTCOME>
			<OUTCOME>X254</OUTCOME>
			<OUTCOME>X255</OUTCOME>
		</VARIABLE>
		<VARIABLE TYPE  = "nature">
			<NAME>SENSOR8</NAME>
		
			<OUTCOME>X0</OUTCOME>
			<OUTCOME>X1</OUTCOME>
			<OUTCOME>X2</OUTCOME>
			<OUTCOME>X3</OUTCOME>
			<OUTCOME>X4</OUTCOME>
			<OUTCOME>X5</OUTCOME>
			<OUTCOME>X6</OUTCOME>
			<OUTCOME>X7</OUTCOME>
			<OUTCOME>X8</OUTCOME>
			<OUTCOME>X9</OUTCOME>
			<OUTCOME>X10</OUTCOME>
			<OUTCOME>X11</OUTCOME>
			<OUTCOME>X12</OUTCOME>
			<OUTCOME>X13</OUTCOME>
			<OUTCOME>X14</OUTCOME>
			<OUTCOME>X15</OUTCOME>
			<OUTCOME>X16</OUTCOME>
			<OUTCOME>X17</OUTCOME>
			<OUTCOME>X18</OUTCOME>
			<OUTCOME>X19</OUTCOME>
			<OUTCOME>X20</OUTCOME>
			<OUTCOME>X21</OUTCOME>
			<OUTCOME>X22</OUTCOME>
			<OUTCOME>X23</OUTCOME>
			<OUTCOME>X24</OUTCOME>
			<OUTCOME>X25</OUTCOME>
			<OUTCOME>X26</OUTCOME>
			<OUTCOME>X27</OUTCOME>
			<OUTCOME>X28</OUTCOME>
			<OUTCOME>X29</OUTCOME>
			<OUTCOME>X30</OUTCOME>
			<OUTCOME>X31</OUTCOME>
			<OUTCOME>X32</OUTCOME>
			<OUTCOME>X33</OUTCOME>
			<OUTCOME>X34</OUTCOME>
			<OUTCOME>X35</OUTCOME>
			<OUTCOME>X36</OUTCOME>
			<OUTCOME>X37</OUTCOME>
			<OUTCOME>X38</OUTCOME>
			<OUTCOME>X39</OUTCOME>
			<OUTCOME>X40</OUTCOME>
			<OUTCOME>X41</OUTCOME>
			<OUTCOME>X42</OUTCOME>
			<OUTCOME>X43</OUTCOME>
			<OUTCOME>X44</OUTCOME>
			<OUTCOME>X45</OUTCOME>
			<OUTCOME>X46</OUTCOME>
			<OUTCOME>X47</OUTCOME>
			<OUTCOME>X48</OUTCOME>
			<OUTCOME>X49</OUTCOME>
			<OUTCOME>X50</OUTCOME>
			<OUTCOME>X51</OUTCOME>
			<OUTCOME>X52</OUTCOME>
			<OUTCOME>X53</OUTCOME>
			<OUTCOME>X54</OUTCOME>
			<OUTCOME>X55</OUTCOME>
			<OUTCOME>X56</OUTCOME>
			<OUTCOME>X57</OUTCOME>
			<OUTCOME>X58</OUTCOME>
			<OUTCOME>X59</OUTCOME>
			<OUTCOME>X60</OUTCOME>
			<OUTCOME>X61</OUTCOME>
			<OUTCOME>X62</OUTCOME>
			<OUTCOME>X63</OUTCOME>
			<OUTCOME>X64</OUTCOME>
			<OUTCOME>X65</OUTCOME>
			<OUTCOME>X66</OUTCOME>
			<OUTCOME>X67</OUTCOME>
			<OUTCOME>X68</OUTCOME>
			<OUTCOME>X69</OUTCOME>
			<OUTCOME>X70</OUTCOME>
			<OUTCOME>X71</OUTCOME>
			<OUTCOME>X72</OUTCOME>
			<OUTCOME>X73</OUTCOME>
			<OUTCOME>X74</OUTCOME>
			<OUTCOME>X75</OUTCOME>
			<OUTCOME>X76</OUTCOME>
			<OUTCOME>X77</OUTCOME>
			<OUTCOME>X78</OUTCOME>
			<OUTCOME>X79</OUTCOME>
			<OUTCOME>X80</OUTCOME>
			<OUTCOME>X81</OUTCOME>
			<OUTCOME>X82</OUTCOME>
			<OUTCOME>X83</OUTCOME>
			<OUTCOME>X84</OUTCOME>
			<OUTCOME>X85</OUTCOME>
			<OUTCOME>X86</OUTCOME>
			<OUTCOME>X87</OUTCOME>
			<OUTCOME>X88</OUTCOME>
			<OUTCOME>X89</OUTCOME>
			<OUTCOME>X90</OUTCOME>
			<OUTCOME>X91</OUTCOME>
			<OUTCOME>X92</OUTCOME>
			<OUTCOME>X93</OUTCOME>
			<OUTCOME>X94</OUTCOME>
			<OUTCOME>X95</OUTCOME>
			<OUTCOME>X96</OUTCOME>
			<OUTCOME>X97</OUTCOME>
			<OUTCOME>X98</OUTCOME>
			<OUTCOME>X99</OUTCOME>
			<OUTCOME>X100</OUTCOME>
			<OUTCOME>X101</OUTCOME>
			<OUTCOME>X102</OUTCOME>
			<OUTCOME>X103</OUTCOME>
			<OUTCOME>X104</OUTCOME>
			<OUTCOME>X105</OUTCOME>
			<OUTCOME>X106</OUTCOME>
			<OUTCOME>X107</OUTCOME>
			<OUTCOME>X108</OUTCOME>
			<OUTCOME>X109</OUTCOME>
			<OUTCOME>X110</OUTCOME>
			<OUTCOME>X111</OUTCOME>
			<OUTCOME>X112</OUTCOME>
			<OUTCOME>X113</OUTCOME>
			<OUTCOME>X114</OUTCOME>
			<OUTCOME>X115</OUTCOME>
			<OUTCOME>X116</OUTCOME>
			<OUTCOME>X117</OUTCOME>
			<OUTCOME>X118</OUTCOME>
			<OUTCOME>X119</OUTCOME>
			<OUTCOME>X120</OUTCOME>
			<OUTCOME>X121</OUTCOME>
			<OUTCOME>X122</OUTCOME>
			<OUTCOME>X123</OUTCOME>
			<OUTCOME>X124</OUTCOME>
			<OUTCOME>X125</OUTCOME>
			<OUTCOME>X126</OUTCOME>
			<OUTCOME>X127</OUTCOME>
			<OUTCOME>X128</OUTCOME>
			<OUTCOME>X129</OUTCOME>
			<OUTCOME>X130</OUTCOME>
			<OUTCOME>X131</OUTCOME>
			<OUTCOME>X132</OUTCOME>
			<OUTCOME>X133</OUTCOME>
			<OUTCOME>X134</OUTCOME>
			<OUTCOME>X135</OUTCOME>
			<OUTCOME>X136</OUTCOME>
			<OUTCOME>X137</OUTCOME>
			<OUTCOME>X138</OUTCOME>
			<OUTCOME>X139</OUTCOME>
			<OUTCOME>X140</OUTCOME>
			<OUTCOME>X141</OUTCOME>
			<OUTCOME>X142</OUTCOME>
			<OUTCOME>X143</OUTCOME>
			<OUTCOME>X144</OUTCOME>
			<OUTCOME>X145</OUTCOME>
			<OUTCOME>X146</OUTCOME>
			<OUTCOME>X147</OUTCOME>
			<OUTCOME>X148</OUTCOME>
			<OUTCOME>X149</OUTCOME>
			<OUTCOME>X150</OUTCOME>
			<OUTCOME>X151</OUTCOME>
			<OUTCOME>X152</OUTCOME>
			<OUTCOME>X153</OUTCOME>
			<OUTCOME>X154</OUTCOME>
			<OUTCOME>X155</OUTCOME>
			<OUTCOME>X156</OUTCOME>
			<OUTCOME>X157</OUTCOME>
			<OUTCOME>X158</OUTCOME>
			<OUTCOME>X159</OUTCOME>
			<OUTCOME>X160</OUTCOME>
			<OUTCOME>X161</OUTCOME>
			<OUTCOME>X162</OUTCOME>
			<OUTCOME>X163</OUTCOME>
			<OUTCOME>X164</OUTCOME>
			<OUTCOME>X165</OUTCOME>
			<OUTCOME>X166</OUTCOME>
			<OUTCOME>X167</OUTCOME>
			<OUTCOME>X168</OUTCOME>
			<OUTCOME>X169</OUTCOME>
			<OUTCOME>X170</OUTCOME>
			<OUTCOME>X171</OUTCOME>
			<OUTCOME>X172</OUTCOME>
			<OUTCOME>X173</OUTCOME>
			<OUTCOME>X174</OUTCOME>
			<OUTCOME>X175</OUTCOME>
			<OUTCOME>X176</OUTCOME>
			<OUTCOME>X177</OUTCOME>
			<OUTCOME>X178</OUTCOME>
			<OUTCOME>X179</OUTCOME>
			<OUTCOME>X180</OUTCOME>
			<OUTCOME>X181</OUTCOME>
			<OUTCOME>X182</OUTCOME>
			<OUTCOME>X183</OUTCOME>
			<OUTCOME>X184</OUTCOME>
			<OUTCOME>X185</OUTCOME>
			<OUTCOME>X186</OUTCOME>
			<OUTCOME>X187</OUTCOME>
			<OUTCOME>X188</OUTCOME>
			<OUTCOME>X189</OUTCOME>
			<OUTCOME>X190</OUTCOME>
			<OUTCOME>X191</OUTCOME>
			<OUTCOME>X192</OUTCOME>
			<OUTCOME>X193</OUTCOME>
			<OUTCOME>X194</OUTCOME>
			<OUTCOME>X195</OUTCOME>
			<OUTCOME>X196</OUTCOME>
			<OUTCOME>X197</OUTCOME>
			<OUTCOME>X198</OUTCOME>
			<OUTCOME>X199</OUTCOME>
			<OUTCOME>X200</OUTCOME>
			<OUTCOME>X201</OUTCOME>
			<OUTCOME>X202</OUTCOME>
			<OUTCOME>X203</OUTCOME>
			<OUTCOME>X204</OUTCOME>
			<OUTCOME>X205</OUTCOME>
			<OUTCOME>X206</OUTCOME>
			<OUTCOME>X207</OUTCOME>
			<OUTCOME>X208</OUTCOME>
			<OUTCOME>X209</OUTCOME>
			<OUTCOME>X210</OUTCOME>
			<OUTCOME>X211</OUTCOME>
			<OUTCOME>X212</OUTCOME>
			<OUTCOME>X213</OUTCOME>
			<OUTCOME>X214</OUTCOME>
			<OUTCOME>X215</OUTCOME>
			<OUTCOME>X216</OUTCOME>
			<OUTCOME>X217</OUTCOME>
			<OUTCOME>X218</OUTCOME>
			<OUTCOME>X219</OUTCOME>
			<OUTCOME>X220</OUTCOME>
			<OUTCOME>X221</OUTCOME>
			<OUTCOME>X222</OUTCOME>
			<OUTCOME>X223</OUTCOME>
			<OUTCOME>X224</OUTCOME>
			<OUTCOME>X225</OUTCOME>
			<OUTCOME>X226</OUTCOME>
			<OUTCOME>X227</OUTCOME>
			<OUTCOME>X228</OUTCOME>
			<OUTCOME>X229</OUTCOME>
			<OUTCOME>X230</OUTCOME>
			<OUTCOME>X231</OUTCOME>
			<OUTCOME>X232</OUTCOME>
			<OUTCOME>X233</OUTCOME>
			<OUTCOME>X234</OUTCOME>
			<OUTCOME>X235</OUTCOME>
			<OUTCOME>X236</OUTCOME>
			<OUTCOME>X237</OUTCOME>
			<OUTCOME>X238</OUTCOME>
			<OUTCOME>X239</OUTCOME>
			<OUTCOME>X240</OUTCOME>
			<OUTCOME>X241</OUTCOME>
			<OUTCOME>X242</OUTCOME>
			<OUTCOME>X243</OUTCOME>
			<OUTCOME>X244</OUTCOME>
			<OUTCOME>X245</OUTCOME>
			<OUTCOME>X246</OUTCOME>
			<OUTCOME>X247</OUTCOME>
			<OUTCOME>X248</OUTCOME>
			<OUTCOME>X249</OUTCOME>
			<OUTCOME>X250</OUTCOME>
			<OUTCOME>X251</OUTCOME>
			<OUTCOME>X252</OUTCOME>
			<OUTCOME>X253</OUTCOME>
			<OUTCOME>X254</OUTCOME>
			<OUTCOME>X255</OUTCOME>
		</VARIABLE>
		<VARIABLE TYPE  = "nature">
			<NAME>SENSOR9</NAME>
		
			<OUTCOME>X0</OUTCOME>
			<OUTCOME>X1</OUTCOME>
			<OUTCOME>X2</OUTCOME>
			<OUTCOME>X3</OUTCOME>
			<OUTCOME>X4</OUTCOME>
			<OUTCOME>X5</OUTCOME>
			<OUTCOME>X6</OUTCOME>
			<OUTCOME>X7</OUTCOME>
			<OUTCOME>X8</OUTCOME>
			<OUTCOME>X9</OUTCOME>
			<OUTCOME>X10</OUTCOME>
			<OUTCOME>X11</OUTCOME>
			<OUTCOME>X12</OUTCOME>
			<OUTCOME>X13</OUTCOME>
			<OUTCOME>X14</OUTCOME>
			<OUTCOME>X15</OUTCOME>
			<OUTCOME>X16</OUTCOME>
			<OUTCOME>X17</OUTCOME>
			<OUTCOME>X18</OUTCOME>
			<OUTCOME>X19</OUTCOME>
			<OUTCOME>X20</OUTCOME>
			<OUTCOME>X21</OUTCOME>
			<OUTCOME>X22</OUTCOME>
			<OUTCOME>X23</OUTCOME>
			<OUTCOME>X24</OUTCOME>
			<OUTCOME>X25</OUTCOME>
			<OUTCOME>X26</OUTCOME>
			<OUTCOME>X27</OUTCOME>
			<OUTCOME>X28</OUTCOME>
			<OUTCOME>X29</OUTCOME>
			<OUTCOME>X30</OUTCOME>
			<OUTCOME>X31</OUTCOME>
			<OUTCOME>X32</OUTCOME>
			<OUTCOME>X33</OUTCOME>
			<OUTCOME>X34</OUTCOME>
			<OUTCOME>X35</OUTCOME>
			<OUTCOME>X36</OUTCOME>
			<OUTCOME>X37</OUTCOME>
			<OUTCOME>X38</OUTCOME>
			<OUTCOME>X39</OUTCOME>
			<OUTCOME>X40</OUTCOME>
			<OUTCOME>X41</OUTCOME>
			<OUTCOME>X42</OUTCOME>
			<OUTCOME>X43</OUTCOME>
			<OUTCOME>X44</OUTCOME>
			<OUTCOME>X45</OUTCOME>
			<OUTCOME>X46</OUTCOME>
			<OUTCOME>X47</OUTCOME>
			<OUTCOME>X48</OUTCOME>
			<OUTCOME>X49</OUTCOME>
			<OUTCOME>X50</OUTCOME>
			<OUTCOME>X51</OUTCOME>
			<OUTCOME>X52</OUTCOME>
			<OUTCOME>X53</OUTCOME>
			<OUTCOME>X54</OUTCOME>
			<OUTCOME>X55</OUTCOME>
			<OUTCOME>X56</OUTCOME>
			<OUTCOME>X57</OUTCOME>
			<OUTCOME>X58</OUTCOME>
			<OUTCOME>X59</OUTCOME>
			<OUTCOME>X60</OUTCOME>
			<OUTCOME>X61</OUTCOME>
			<OUTCOME>X62</OUTCOME>
			<OUTCOME>X63</OUTCOME>
			<OUTCOME>X64</OUTCOME>
			<OUTCOME>X65</OUTCOME>
			<OUTCOME>X66</OUTCOME>
			<OUTCOME>X67</OUTCOME>
			<OUTCOME>X68</OUTCOME>
			<OUTCOME>X69</OUTCOME>
			<OUTCOME>X70</OUTCOME>
			<OUTCOME>X71</OUTCOME>
			<OUTCOME>X72</OUTCOME>
			<OUTCOME>X73</OUTCOME>
			<OUTCOME>X74</OUTCOME>
			<OUTCOME>X75</OUTCOME>
			<OUTCOME>X76</OUTCOME>
			<OUTCOME>X77</OUTCOME>
			<OUTCOME>X78</OUTCOME>
			<OUTCOME>X79</OUTCOME>
			<OUTCOME>X80</OUTCOME>
			<OUTCOME>X81</OUTCOME>
			<OUTCOME>X82</OUTCOME>
			<OUTCOME>X83</OUTCOME>
			<OUTCOME>X84</OUTCOME>
			<OUTCOME>X85</OUTCOME>
			<OUTCOME>X86</OUTCOME>
			<OUTCOME>X87</OUTCOME>
			<OUTCOME>X88</OUTCOME>
			<OUTCOME>X89</OUTCOME>
			<OUTCOME>X90</OUTCOME>
			<OUTCOME>X91</OUTCOME>
			<OUTCOME>X92</OUTCOME>
			<OUTCOME>X93</OUTCOME>
			<OUTCOME>X94</OUTCOME>
			<OUTCOME>X95</OUTCOME>
			<OUTCOME>X96</OUTCOME>
			<OUTCOME>X97</OUTCOME>
			<OUTCOME>X98</OUTCOME>
			<OUTCOME>X99</OUTCOME>
			<OUTCOME>X100</OUTCOME>
			<OUTCOME>X101</OUTCOME>
			<OUTCOME>X102</OUTCOME>
			<OUTCOME>X103</OUTCOME>
			<OUTCOME>X104</OUTCOME>
			<OUTCOME>X105</OUTCOME>
			<OUTCOME>X106</OUTCOME>
			<OUTCOME>X107</OUTCOME>
			<OUTCOME>X108</OUTCOME>
			<OUTCOME>X109</OUTCOME>
			<OUTCOME>X110</OUTCOME>
			<OUTCOME>X111</OUTCOME>
			<OUTCOME>X112</OUTCOME>
			<OUTCOME>X113</OUTCOME>
			<OUTCOME>X114</OUTCOME>
			<OUTCOME>X115</OUTCOME>
			<OUTCOME>X116</OUTCOME>
			<OUTCOME>X117</OUTCOME>
			<OUTCOME>X118</OUTCOME>
			<OUTCOME>X119</OUTCOME>
			<OUTCOME>X120</OUTCOME>
			<OUTCOME>X121</OUTCOME>
			<OUTCOME>X122</OUTCOME>
			<OUTCOME>X123</OUTCOME>
			<OUTCOME>X124</OUTCOME>
			<OUTCOME>X125</OUTCOME>
			<OUTCOME>X126</OUTCOME>
			<OUTCOME>X127</OUTCOME>
			<OUTCOME>X128</OUTCOME>
			<OUTCOME>X129</OUTCOME>
			<OUTCOME>X130</OUTCOME>
			<OUTCOME>X131</OUTCOME>
			<OUTCOME>X132</OUTCOME>
			<OUTCOME>X133</OUTCOME>
			<OUTCOME>X134</OUTCOME>
			<OUTCOME>X135</OUTCOME>
			<OUTCOME>X136</OUTCOME>
			<OUTCOME>X137</OUTCOME>
			<OUTCOME>X138</OUTCOME>
			<OUTCOME>X139</OUTCOME>
			<OUTCOME>X140</OUTCOME>
			<OUTCOME>X141</OUTCOME>
			<OUTCOME>X142</OUTCOME>
			<OUTCOME>X143</OUTCOME>
			<OUTCOME>X144</OUTCOME>
			<OUTCOME>X145</OUTCOME>
			<OUTCOME>X146</OUTCOME>
			<OUTCOME>X147</OUTCOME>
			<OUTCOME>X148</OUTCOME>
			<OUTCOME>X149</OUTCOME>
			<OUTCOME>X150</OUTCOME>
			<OUTCOME>X151</OUTCOME>
			<OUTCOME>X152</OUTCOME>
			<OUTCOME>X153</OUTCOME>
			<OUTCOME>X154</OUTCOME>
			<OUTCOME>X155</OUTCOME>
			<OUTCOME>X156</OUTCOME>
			<OUTCOME>X157</OUTCOME>
			<OUTCOME>X158</OUTCOME>
			<OUTCOME>X159</OUTCOME>
			<OUTCOME>X160</OUTCOME>
			<OUTCOME>X161</OUTCOME>
			<OUTCOME>X162</OUTCOME>
			<OUTCOME>X163</OUTCOME>
			<OUTCOME>X164</OUTCOME>
			<OUTCOME>X165</OUTCOME>
			<OUTCOME>X166</OUTCOME>
			<OUTCOME>X167</OUTCOME>
			<OUTCOME>X168</OUTCOME>
			<OUTCOME>X169</OUTCOME>
			<OUTCOME>X170</OUTCOME>
			<OUTCOME>X171</OUTCOME>
			<OUTCOME>X172</OUTCOME>
			<OUTCOME>X173</OUTCOME>
			<OUTCOME>X174</OUTCOME>
			<OUTCOME>X175</OUTCOME>
			<OUTCOME>X176</OUTCOME>
			<OUTCOME>X177</OUTCOME>
			<OUTCOME>X178</OUTCOME>
			<OUTCOME>X179</OUTCOME>
			<OUTCOME>X180</OUTCOME>
			<OUTCOME>X181</OUTCOME>
			<OUTCOME>X182</OUTCOME>
			<OUTCOME>X183</OUTCOME>
			<OUTCOME>X184</OUTCOME>
			<OUTCOME>X185</OUTCOME>
			<OUTCOME>X186</OUTCOME>
			<OUTCOME>X187</OUTCOME>
			<OUTCOME>X188</OUTCOME>
			<OUTCOME>X189</OUTCOME>
			<OUTCOME>X190</OUTCOME>
			<OUTCOME>X191</OUTCOME>
			<OUTCOME>X192</OUTCOME>
			<OUTCOME>X193</OUTCOME>
			<OUTCOME>X194</OUTCOME>
			<OUTCOME>X195</OUTCOME>
			<OUTCOME>X196</OUTCOME>
			<OUTCOME>X197</OUTCOME>
			<OUTCOME>X198</OUTCOME>
			<OUTCOME>X199</OUTCOME>
			<OUTCOME>X200</OUTCOME>
			<OUTCOME>X201</OUTCOME>
			<OUTCOME>X202</OUTCOME>
			<OUTCOME>X203</OUTCOME>
			<OUTCOME>X204</OUTCOME>
			<OUTCOME>X205</OUTCOME>
			<OUTCOME>X206</OUTCOME>
			<OUTCOME>X207</OUTCOME>
			<OUTCOME>X208</OUTCOME>
			<OUTCOME>X209</OUTCOME>
			<OUTCOME>X210</OUTCOME>
			<OUTCOME>X211</OUTCOME>
			<OUTCOME>X212</OUTCOME>
			<OUTCOME>X213</OUTCOME>
			<OUTCOME>X214</OUTCOME>
			<OUTCOME>X215</OUTCOME>
			<OUTCOME>X216</OUTCOME>
			<OUTCOME>X217</OUTCOME>
			<OUTCOME>X218</OUTCOME>
			<OUTCOME>X219</OUTCOME>
			<OUTCOME>X220</OUTCOME>
			<OUTCOME>X221</OUTCOME>
			<OUTCOME>X222</OUTCOME>
			<OUTCOME>X223</OUTCOME>
			<OUTCOME>X224</OUTCOME>
			<OUTCOME>X225</OUTCOME>
			<OUTCOME>X226</OUTCOME>
			<OUTCOME>X227</OUTCOME>
			<OUTCOME>X228</OUTCOME>
			<OUTCOME>X229</OUTCOME>
			<OUTCOME>X230</OUTCOME>
			<OUTCOME>X231</OUTCOME>
			<OUTCOME>X232</OUTCOME>
			<OUTCOME>X233</OUTCOME>
			<OUTCOME>X234</OUTCOME>
			<OUTCOME>X235</OUTCOME>
			<OUTCOME>X236</OUTCOME>
			<OUTCOME>X237</OUTCOME>
			<OUTCOME>X238</OUTCOME>
			<OUTCOME>X239</OUTCOME>
			<OUTCOME>X240</OUTCOME>
			<OUTCOME>X241</OUTCOME>
			<OUTCOME>X242</OUTCOME>
			<OUTCOME>X243</OUTCOME>
			<OUTCOME>X244</OUTCOME>
			<OUTCOME>X245</OUTCOME>
			<OUTCOME>X246</OUTCOME>
			<OUTCOME>X247</OUTCOME>
			<OUTCOME>X248</OUTCOME>
			<OUTCOME>X249</OUTCOME>
			<OUTCOME>X250</OUTCOME>
			<OUTCOME>X251</OUTCOME>
			<OUTCOME>X252</OUTCOME>
			<OUTCOME>X253</OUTCOME>
			<OUTCOME>X254</OUTCOME>
			<OUTCOME>X255</OUTCOME>
		</VARIABLE>
	<DEFINITION>
	<FOR>CLASS3</FOR>
		<TABLE>0.107 0.893</TABLE>
	</DEFINITION>
			
		<DEFINITION>
		<FOR>SENSOR1</FOR>
		<GIVEN>CLASS3</GIVEN>
		<TABLE> 0.00010405476833843266 0.00011538167562712647 0.0001277993406299463 0.00014139605769639932 0.0001562654277727976 0.00017250648488520637 0.0001902238042393312 0.00020952758924745166 0.00023053373468376635 0.0002533638630755894 0.00027814533136128757 0.00030501120478922626 0.00033410019499789916 0.00036555655920847516 0.0003995299574797364 0.0004361752650243398 0.0004756523366668536 0.0005181257206403619 0.0005637643190716178 0.0006127409926965587 0.0006652321075799933 0.0007214170218866176 0.0007814775110660298 0.0008455971301724657 0.0009139605124405619 0.0009867526036809319 0.0010641578325426967 0.0011463592172126517 0.001233537409680231 0.0013258696792910192 0.0014235288379357846 0.0015266821098727393 0.0016354899498533155 0.0017501048139107979 0.0018706698878707675 0.001997317779346081 0.002130169179679909 0.0022693315029909105 0.0024148975101469165 0.0025669439261394376 0.0027255300599424385 0.0028906964365065157 0.0030624634510552657 0.0032408300563055103 0.0034257724936188555 0.0036172430794003895 0.0038151690582835505 0.0040194515347709205 0.004229964495032201 0.004446553930487173 0.004669037074617736 0.004897201764155287 0.005130805935374688 0.005369577265691957 0.005613212970109324 0.005861379761278881 0.0061137139810671344 0.006369821910500885 0.006629280263864956 0.006891636871511058 0.007156411554632304 0.007423097193869017 0.0076911609921491144 0.00796004593064258 0.008229172415137353 0.008497940108537633 0.00876572994356013 0.009031906308075224 0.009295819393924456 0.009556807698460436 0.009814200666517014 0.010067321459043434 0.01031548983324316 0.010558025117762595 0.010794249265292538 0.011023489963891329 0.011245083787426648 0.011458379364775945 0.011662740546834268 0.011857549549962796 0.012042210054279174 0.012216150235147943 0.012378825706379727 0.012529722353993286 0.012668359039934666 0.012794290155880005 0.01290710800816842 0.013006445016011746 0.01309197570640013 0.013163418490555138 0.01322053720836274 0.013263142428932244 0.01329109249725792 0.013304294318890056 0.013302703876532578 0.013286326474555321 0.013255216709520143 0.01320947816695007 0.013149262846698396 0.013074770321378895 0.012986246634377986 0.012883982945964365 0.012768313937921931 0.012639615988938677 0.01249830513467079 0.012344834827951144 0.01217969351601064 0.01200340205281695 0.011816510965697502 0.011619597596293555 0.011413263136583555 0.011198129581212446 0.01097483661766695 0.010744038475945593 0.010506400759288206 0.010262597277257578 0.010013306902011875 0.009759210467978816 0.00950098773435122 0.00923931442888001 0.008974859390357953 0.008708281825979514 0.008440228698444373 0.008171332256260237 0.007902207719211348 0.007633451129409186 0.007365637376748617 0.007099318405973057 0.006835021610922839 0.006573248419918404 0.006314473074629617 0.006059141603219661 0.005807670987040228 0.00556044851870726 0.0053178313480148265 0.005080146210859293 0.004847689335155897 0.004620726516642644 0.004399493356488457 0.004184195651758372 0.003975009929041633 0.0037720841109206314 0.0035755383044502116 0.0033854657004273323 0.0032019335719578965 0.003024984360668098 0.0028546368388570856 0.002690887335941147 0.0025337110176908138 0.0023830632070044088 0.0022388807352872603 0.002101083313907131 0.0019695749156650867 0.0018442451567486045 0.0017249706702114718 0.001611616462644354 0.001504037246352239 0.0014020787400318604 0.0013055789316355826 0.001214369297810332 0.0011282759750035568 0.0010471208780261033 0.0009707227625478757 0.0008988982286704606 0.0008314626633663026 0.0007682311201920011 0.0007090191352698004 0.0006536434790831237 0.0006019228441462782 0.0005536784690831498 0.0005087347000832534 0.00046691949109497663 0.0004280648444647512 0.0003920071940372864 0.00035858773299638245 0.00032765268894907737 0.0002990535489392862 0.0002726472372221888 0.0002482962487392969 0.00022586874130846833 0.0002052385895853804 0.00018628540386556066 0.00016889451678150306 0.00015295694091024375 0.00013836930024564484 0.00012503373840913303 0.0001128578063753246 0.0001017543323773442 9.164127653313175e-05 8.244157260093874e-05 7.408295913173695e-05 6.649780214045638e-05 5.9622911268742275e-05 5.339935126103225e-05 4.777225042480259e-05 4.269060759625309e-05 3.810709898576801e-05 3.397788613432369e-05 3.0262426073570556e-05 2.6923284649406584e-05 2.3925953842148514e-05 2.1238673796422295e-05 1.883226016103839e-05 1.6679937233670404e-05 1.4757177307294872e-05 1.3041546525145788e-05 1.1512557468379956e-05 1.0151528625644026e-05 8.941450826121509e-06 7.866860657199016e-06 6.913720834355477e-06 6.069307443938516e-06 5.322103938805555e-06 4.661701732007879e-06 4.078707204400711e-06 3.5646549178760834e-06 3.1119268064392042e-06 2.713677102183651e-06 2.3637627419707264e-06 2.0566789928988775e-06 1.7875000300848798e-06 1.551824198511057e-06 1.3457236913792359e-06 1.1656983802285921e-06 1.0086335367177624e-06 8.717611921577074e-07 7.526248883499686e-07 6.490475817942202e-07 5.591024726609371e-07 4.810865398814536e-07 4.134965741110497e-07 3.5500751101329405e-07 3.044528781562199e-07 2.608071796817639e-07 2.2317005370433856e-07 1.9075204802309017e-07 1.6286187012041775e-07 1.388949775047486e-07 1.1832338418859077e-07 1.0068656843438416e-07 8.558337582134435e-08 7.266482016552753e-08 6.162769284961236e-08 5.2208898681803145e-08 4.4180443503989694e-08 3.7345005411841745e-08 3.153202764198457e-08 2.6594276935272103e-08 2.24048165146559e-08 1.885434773761325e-08 1.5848879014554736e-08 1.3307684745266765e-08 1.1161520835239296e-08 9.351066833087284e-09 7.825567899744836e-09 6.541652700131032e-09 0.9998959452316616 0.9998846183243729 0.9998722006593701 0.9998586039423036 0.9998437345722272 0.9998274935151148 0.9998097761957606 0.9997904724107526 0.9997694662653163 0.9997466361369244 0.9997218546686387 0.9996949887952108 0.9996658998050021 0.9996344434407916 0.9996004700425203 0.9995638247349756 0.9995243476633332 0.9994818742793596 0.9994362356809284 0.9993872590073034 0.99933476789242 0.9992785829781133 0.999218522488934 0.9991544028698275 0.9990860394875595 0.999013247396319 0.9989358421674573 0.9988536407827874 0.9987664625903198 0.998674130320709 0.9985764711620642 0.9984733178901273 0.9983645100501467 0.9982498951860892 0.9981293301121292 0.9980026822206539 0.9978698308203201 0.9977306684970091 0.9975851024898531 0.9974330560738606 0.9972744699400575 0.9971093035634935 0.9969375365489447 0.9967591699436945 0.9965742275063811 0.9963827569205996 0.9961848309417165 0.9959805484652291 0.9957700355049678 0.9955534460695128 0.9953309629253823 0.9951027982358447 0.9948691940646253 0.994630422734308 0.9943867870298907 0.9941386202387211 0.9938862860189329 0.9936301780894992 0.993370719736135 0.9931083631284889 0.9928435884453677 0.992576902806131 0.9923088390078509 0.9920399540693574 0.9917708275848627 0.9915020598914623 0.9912342700564398 0.9909680936919247 0.9907041806060756 0.9904431923015395 0.9901857993334829 0.9899326785409566 0.9896845101667568 0.9894419748822374 0.9892057507347075 0.9889765100361086 0.9887549162125734 0.9885416206352241 0.9883372594531658 0.9881424504500372 0.9879577899457208 0.987783849764852 0.9876211742936203 0.9874702776460067 0.9873316409600653 0.98720570984412 0.9870928919918316 0.9869935549839882 0.9869080242935999 0.9868365815094449 0.9867794627916373 0.9867368575710678 0.9867089075027421 0.98669570568111 0.9866972961234675 0.9867136735254447 0.9867447832904799 0.9867905218330499 0.9868507371533016 0.9869252296786211 0.987013753365622 0.9871160170540356 0.9872316860620781 0.9873603840110613 0.9875016948653292 0.9876551651720489 0.9878203064839893 0.9879965979471831 0.9881834890343025 0.9883804024037064 0.9885867368634165 0.9888018704187875 0.989025163382333 0.9892559615240544 0.9894935992407118 0.9897374027227425 0.9899866930979881 0.9902407895320212 0.9904990122656487 0.99076068557112 0.9910251406096421 0.9912917181740205 0.9915597713015556 0.9918286677437398 0.9920977922807886 0.9923665488705908 0.9926343626232513 0.9929006815940269 0.9931649783890771 0.9934267515800816 0.9936855269253704 0.9939408583967804 0.9941923290129597 0.9944395514812927 0.9946821686519852 0.9949198537891407 0.9951523106648441 0.9953792734833573 0.9956005066435115 0.9958158043482416 0.9960249900709583 0.9962279158890793 0.9964244616955498 0.9966145342995727 0.9967980664280421 0.9969750156393319 0.9971453631611429 0.9973091126640589 0.9974662889823092 0.9976169367929956 0.9977611192647128 0.9978989166860929 0.9980304250843349 0.9981557548432514 0.9982750293297885 0.9983883835373556 0.9984959627536477 0.9985979212599682 0.9986944210683644 0.9987856307021896 0.9988717240249965 0.998952879121974 0.9990292772374522 0.9991011017713295 0.9991685373366337 0.999231768879808 0.9992909808647302 0.9993463565209169 0.9993980771558537 0.9994463215309168 0.9994912652999167 0.999533080508905 0.9995719351555352 0.9996079928059627 0.9996414122670036 0.9996723473110509 0.9997009464510607 0.9997273527627778 0.9997517037512607 0.9997741312586915 0.9997947614104146 0.9998137145961344 0.9998311054832185 0.9998470430590898 0.9998616306997543 0.9998749662615909 0.9998871421936246 0.9998982456676226 0.9999083587234668 0.999917558427399 0.9999259170408683 0.9999335021978596 0.9999403770887313 0.999946600648739 0.9999522277495752 0.9999573093924038 0.9999618929010142 0.9999660221138656 0.9999697375739264 0.9999730767153506 0.9999760740461578 0.9999787613262036 0.9999811677398389 0.9999833200627664 0.9999852428226927 0.9999869584534749 0.9999884874425317 0.9999898484713744 0.9999910585491739 0.9999921331393428 0.9999930862791656 0.999993930692556 0.9999946778960612 0.999995338298268 0.9999959212927956 0.9999964353450821 0.9999968880731935 0.9999972863228979 0.999997636237258 0.9999979433210071 0.9999982124999699 0.9999984481758015 0.9999986542763086 0.9999988343016197 0.9999989913664633 0.9999991282388079 0.9999992473751117 0.9999993509524182 0.9999994408975273 0.9999995189134602 0.9999995865034259 0.999999644992489 0.9999996955471219 0.9999997391928204 0.9999997768299463 0.999999809247952 0.9999998371381299 0.9999998611050225 0.9999998816766158 0.9999998993134316 0.9999999144166242 0.9999999273351798 0.9999999383723072 0.9999999477911014 0.9999999558195565 0.9999999626549946 0.9999999684679723 0.9999999734057231 0.9999999775951834 0.9999999811456523 0.999999984151121 0.9999999866923153 0.9999999888384792 0.9999999906489332 0.9999999921744321 0.9999999934583473  </TABLE>
		</DEFINITION>
			
		<DEFINITION>
		<FOR>SENSOR2</FOR>
		<GIVEN>CLASS3</GIVEN>
		<TABLE> 0.0005026438283857958 0.0005430341304307299 0.0005861151288024571 0.0006320155588456737 0.0006808659899940374 0.0007327984563933265 0.0007879460516076879 0.0008464424870207054 0.0009084216137624901 0.0009740169082316054 0.0010433609215354804 0.001116584693444267 0.0011938171317395364 0.0012751843581394185 0.0013608090222941656 0.001450809585668618 0.00154529957745876 0.0016443868250258966 0.0017481726616715744 0.0018567511149163325 0.0019702080787827626 0.00208862047391512 0.002212055399690465 0.002340569282786783 0.002474207026968106 0.002613001169121945 0.0027569710468366222 0.0029061219830319894 0.0030604444933528398 0.0032199135221968648 0.0033844877133747987 0.003554108721486518 0.0037287005701402585 0.003908169063140362 0.004092401254719533 0.004281264984792659 0.004474608485059207 0.00467226006157875 0.004874027859188772 0.005079699712825112 0.005289043090443626 0.005501805131827561 0.005717712787100099 0.005936473058247413 0.006157773346396784 0.006381281906989813 0.006606648414346087 0.006833504636431709 0.007061465219934697 0.007290128585009999 0.007519077928296649 0.00774788233203382 0.00797609797631777 0.008203269450754124 0.008428931160976526 0.008652608824730056 0.008873821051463376 0.009092080998643722 0.009306898097311323 0.009517779838730837 0.009724233613384063 0.009925768592986736 0.01012189764570876 0.010312139274337478 0.010496019566752723 0.010673074147785002 0.010842850121308398 0.011004907991280892 0.011158823550389626 0.011304189724988867 0.011440618365135482 0.011567741968730717 0.011685215329067558 0.011792717095458807 0.01188995123707964 0.01197664840069748 0.012052567153577096 0.012117495103536033 0.012171249888879018 0.012213680031754352 0.012244665649343699 0.01226411901821218 0.0122719849881006 0.012268241242428039 0.012252898403782747 0.012225999983703337 0.01218762217708265 0.012137873502553824 0.01207689429123404 0.012004856027196933 0.01192196054401176 0.011828439082617798 0.011724551216688386 0.011610583652473383 0.011486848910884655 0.01135368390030059 0.011211448389206905 0.011060523388357519 0.010901309452626863 0.010734224913130513 0.010559704050512077 0.010378195220529018 0.010190158943218031 0.009996065966981636 0.00979639531891251 0.009591632352562772 0.009382266804173936 0.009168790868113114 0.008951697301915622 0.008731477570918493 0.008508620041987713 0.008283608235300692 0.008056919142549662 0.007829021619288308 0.007600374858459231 0.007371426951420691 0.0071426135420446036 0.0069143565786907385 0.006687063168081738 0.006461124534316656 0.006236915085474279 0.006014791589477736 0.005795092460125526 0.005578137153446704 0.005364225673815459 0.00515363818856764 0.004946634749203723 0.004743455116643535 0.004544318687421369 0.004349424517179065 0.004158951437332002 0.003973058260350527 0.0037918840687189283 0.0036155485823063304 0.0034441525986095827 0.0032777785001069978 0.003116490822793224 0.0029603368798486627 0.002809347434329998 0.0026635374147499944 0.0025229066674423736 0.0023874407396788115 0.002257111687617183 0.0021318789033100273 0.002011689955186587 0.0018964814366373912 0.0017861798175736814 0.0016807022941014676 0.0015799576317381907 0.0014838469979051262 0.0013922647797474888 0.0013050993836631244 0.0012222340132564168 0.0011435474227734603 0.0010689146434145781 0.0009982076802580906 0.0009312961778622069 0.0008680480529375959 0.0008083300927993936 0.0007520085186121192 0.000698949512732508 0.0006490197097320547 0.0006020866509419065 0.0005580192026065443 0.0005166879379586853 0.00047796548373542103 0.0004417268318443903 0.0004078496170586059 0.0003762143617694218 0.0003467046889591777 0.00031920750466869595 0.00029361315133043296 0.0002698155334163721 0.00024771221691135284 0.00022720450416830802 0.00020819748573269368 0.00019060007074020145 0.0001743249974956636 0.00015928882583290176 0.00014541191283622373 0.00013261837347539442 0.00012083602766826387 0.000109996335239899 0.00010003432019505469 9.088848566315338e-05 8.250072081258335e-05 7.481620096499708e-05 6.778328207127557e-05 6.135339063973574e-05 5.548091013477166e-05 5.012306479113527e-05 4.5239801716130933e-05 4.0793672079704464e-05 3.67497121212734e-05 3.3075324632639324e-05 2.9740161508844435e-05 2.671600789373519e-05 2.3976668384561272e-05 2.1497855700413743e-05 1.925708216287435e-05 1.723355428405449e-05 1.5408070707345017e-05 1.3762923699733922e-05 1.228180435150269e-05 1.0949711599469951e-05 9.75286515367629e-06 8.678622374427386e-06 7.715399116848779e-06 6.8525945334443135e-06 6.08051980147016e-06 5.390330721099585e-06 4.773964112213019e-06 4.224077922050055e-06 3.733994942743159e-06 3.2976500267550778e-06 2.9095406792979414e-06 2.5646808997582055e-06 2.258558138825894e-06 1.9870932342708017e-06 1.7466031859678691e-06 1.5337666297012234e-06 1.3455918693288096e-06 1.1793873279320384e-06 1.0327342804799968e-06 9.034617331855102e-07 7.89623318008809e-07 6.894760745700892e-07 6.014609959692975e-07 5.241852195923785e-07 4.56405748828486e-07 3.97014596660306e-07 3.4502524725508517e-07 2.995603369199541e-07 2.5984046104081053e-07 2.2517401885525802e-07 1.9494801307844584e-07 1.6861972647348218e-07 1.4570920240766358e-07 1.257924612393828e-07 1.084953890195785e-07 9.348823945148955e-08 8.048069432215451e-08 6.921743169073532e-08 5.947415498724715e-08 5.105403983807468e-08 4.378455889134968e-08 3.7514648167271116e-08 3.2112181508841654e-08 2.7461722561632722e-08 2.3462526372573418e-08 2.0026765173773166e-08 1.7077955215130677e-08 1.4549563636582603e-08 1.2383776335339383e-08 1.0530409593603712e-08 8.945949896497656e-09 0.9994973561716142 0.9994569658695692 0.9994138848711975 0.9993679844411544 0.9993191340100059 0.9992672015436067 0.9992120539483923 0.9991535575129793 0.9990915783862375 0.9990259830917684 0.9989566390784645 0.9988834153065558 0.9988061828682605 0.9987248156418606 0.9986391909777058 0.9985491904143314 0.9984547004225413 0.9983556131749741 0.9982518273383284 0.9981432488850837 0.9980297919212172 0.9979113795260849 0.9977879446003095 0.9976594307172132 0.9975257929730319 0.997386998830878 0.9972430289531634 0.997093878016968 0.9969395555066471 0.9967800864778031 0.9966155122866251 0.9964458912785135 0.9962712994298597 0.9960918309368596 0.9959075987452805 0.9957187350152074 0.9955253915149408 0.9953277399384213 0.9951259721408112 0.9949203002871749 0.9947109569095564 0.9944981948681725 0.9942822872128999 0.9940635269417526 0.9938422266536032 0.9936187180930102 0.9933933515856539 0.9931664953635683 0.9929385347800653 0.99270987141499 0.9924809220717034 0.9922521176679662 0.9920239020236822 0.9917967305492459 0.9915710688390235 0.9913473911752699 0.9911261789485366 0.9909079190013563 0.9906931019026887 0.9904822201612692 0.990275766386616 0.9900742314070132 0.9898781023542912 0.9896878607256625 0.9895039804332473 0.989326925852215 0.9891571498786916 0.9889950920087192 0.9888411764496103 0.9886958102750112 0.9885593816348646 0.9884322580312693 0.9883147846709325 0.9882072829045412 0.9881100487629204 0.9880233515993025 0.987947432846423 0.987882504896464 0.987828750111121 0.9877863199682456 0.9877553343506563 0.9877358809817878 0.9877280150118994 0.9877317587575719 0.9877471015962173 0.9877740000162967 0.9878123778229173 0.9878621264974462 0.987923105708766 0.9879951439728031 0.9880780394559883 0.9881715609173822 0.9882754487833116 0.9883894163475266 0.9885131510891153 0.9886463160996994 0.988788551610793 0.9889394766116425 0.9890986905473731 0.9892657750868695 0.9894402959494879 0.9896218047794709 0.9898098410567819 0.9900039340330183 0.9902036046810875 0.9904083676474372 0.990617733195826 0.9908312091318869 0.9910483026980844 0.9912685224290815 0.9914913799580123 0.9917163917646993 0.9919430808574503 0.9921709783807117 0.9923996251415408 0.9926285730485793 0.9928573864579554 0.9930856434213092 0.9933129368319182 0.9935388754656833 0.9937630849145257 0.9939852084105223 0.9942049075398744 0.9944218628465533 0.9946357743261846 0.9948463618114324 0.9950533652507962 0.9952565448833565 0.9954556813125787 0.995650575482821 0.995841048562668 0.9960269417396495 0.9962081159312811 0.9963844514176937 0.9965558474013905 0.996722221499893 0.9968835091772068 0.9970396631201514 0.99719065256567 0.99733646258525 0.9974770933325576 0.9976125592603212 0.9977428883123828 0.99786812109669 0.9979883100448134 0.9981035185633627 0.9982138201824263 0.9983192977058986 0.9984200423682618 0.9985161530020948 0.9986077352202525 0.9986949006163369 0.9987777659867436 0.9988564525772266 0.9989310853565854 0.999001792319742 0.9990687038221377 0.9991319519470624 0.9991916699072007 0.9992479914813879 0.9993010504872675 0.9993509802902679 0.9993979133490581 0.9994419807973934 0.9994833120620413 0.9995220345162645 0.9995582731681556 0.9995921503829414 0.9996237856382306 0.9996532953110409 0.9996807924953313 0.9997063868486695 0.9997301844665837 0.9997522877830887 0.9997727954958316 0.9997918025142674 0.9998093999292598 0.9998256750025043 0.9998407111741671 0.9998545880871638 0.9998673816265246 0.9998791639723318 0.9998900036647601 0.999899965679805 0.9999091115143368 0.9999174992791874 0.9999251837990351 0.9999322167179288 0.9999386466093603 0.9999445190898653 0.9999498769352089 0.9999547601982839 0.9999592063279203 0.9999632502878787 0.9999669246753674 0.9999702598384912 0.9999732839921063 0.9999760233316154 0.9999785021442996 0.9999807429178371 0.9999827664457159 0.9999845919292927 0.9999862370763003 0.9999877181956485 0.9999890502884006 0.9999902471348463 0.9999913213776256 0.9999922846008832 0.9999931474054665 0.9999939194801986 0.9999946096692789 0.9999952260358878 0.999995775922078 0.9999962660050573 0.9999967023499733 0.9999970904593207 0.9999974353191002 0.9999977414418612 0.9999980129067657 0.999998253396814 0.9999984662333703 0.9999986544081306 0.9999988206126721 0.9999989672657196 0.9999990965382668 0.999999210376682 0.9999993105239254 0.999999398539004 0.9999994758147804 0.9999995435942511 0.9999996029854034 0.9999996549747527 0.9999997004396631 0.999999740159539 0.9999997748259811 0.9999998050519869 0.9999998313802735 0.9999998542907976 0.9999998742075388 0.999999891504611 0.9999999065117605 0.9999999195193057 0.9999999307825683 0.9999999405258451 0.9999999489459601 0.9999999562154411 0.9999999624853518 0.9999999678878185 0.9999999725382774 0.9999999765374736 0.9999999799732349 0.9999999829220448 0.9999999854504363 0.9999999876162237 0.9999999894695905 0.9999999910540501  </TABLE>
		</DEFINITION>
			
		<DEFINITION>
		<FOR>SENSOR3</FOR>
		<GIVEN>CLASS3</GIVEN>
		<TABLE> 0.0012054367512757164 0.0012670790029615413 0.0013310729965340577 0.0013974586444496335 0.0014662734428309663 0.0015375522586249272 0.0016113271143077563 0.0016876269708118888 0.0017664775093893298 0.0018479009131656125 0.001931915649175604 0.002018536251707583 0.002107773107814707 0.0021996322458829945 0.00229411512817192 0.0023912184482674384 0.0024909339344073743 0.0025932481596554 0.0026981423599120543 0.0028055922607590957 0.0029155679141368187 0.0030280335458524902 0.003142947414911677 0.0032602616856527004 0.0033799223136476795 0.0035018689463115027 0.003626034839132466 0.0037523467884052306 0.003880725081308131 0.0040110834641227805 0.004143329129344271 0.00427736272237535 0.0044130783684376805 0.004550363720267933 0.004689100027096204 0.004829162225329224 0.004970419051281432 0.005112733176213394 0.005255961363849685 0.005399954650457485 0.0055445585474733095 0.0056896132665687285 0.0058349539669472865 0.005980411024564448 0.006125810322860854 0.006270973564496919 0.006415718603474516 0.00655985979692955 0.006703208375778346 0.006845572833301497 0.006986759330651603 0.00712657211817702 0.0072648139713625565 0.0074012866401009575 0.0075357913099261785 0.00766812907376177 0.007798101412665392 0.007925510683984258 0.008050160615276568 0.008171856802301144 0.008290407209331978 0.008405622670016636 0.008517317386967671 0.008625309428254763 0.008729421218952413 0.008829480025893894 0.008925318433786874 0.009016774810859916 0.009103693762231732 0.009185926569226904 0.009263331612902364 0.009335774780098473 0.0094031298503866 0.009465278862351531 0.009522112457721731 0.009573530201942636 0.009619440879878028 0.009659762765421001 0.009694423863899262 0.009723362126268386 0.009746525634201128 0.00976387275529997 0.009775372267783446 0.009781003454123532 0.00978075616324102 0.009774630840997557 0.009762638528856105 0.009744800830715473 0.009721149848058382 0.009691728083685505 0.009656588314439612 0.009615793433453259 0.009569416262580024 0.009517539335792302 0.009460254654447352 0.009397663415437373 0.00932987571334779 0.009257010217850567 0.009179193827655398 0.009096561302430708 0.009009254874188135 0.008917423839697958 0.008821224135568864 0.008720817897682673 0.008616373006723492 0.008508062621580615 0.008396064702435533 0.008280561525365384 0.008161739190308125 0.00803978712423876 0.007914897581401015 0.0077872651424253 0.007657086214141572 0.0075245585318653215 0.007389880665896428 0.007253251533924476 0.0071148699209807615 0.006974934008516802 0.00683364091412252 0.006691186243324433 0.006547763654826054 0.006403564440469536 0.006258777121110035 0.006113587059502932 0.005968176091209348 0.005822722174428045 0.005677399059562384 0.005532375979229948 0.005387817359320525 0.005243882551605794 0.005100725588301852 0.00495849495888427 0.0048173334093550915 0.004677377764062707 0.004538758770079182 0.00440160096404603 0.004266022561308811 0.004132135367073913 0.004000044709237585 0.0038698493924582667 0.0037416416729686504 0.003615507253554013 0.003491525298058448 0.003369768464720806 0.0032503029575876373 0.0031331885952012883 0.003018478895717658 0.0029062211775699558 0.0027964566747622007 0.002689220665849042 0.0025845426156368367 0.002482446328624565 0.002382950113192086 0.0022860669555372633 0.0021918047023624363 0.0021001662513144203 0.0020111497481904595 0.0019247487899351151 0.0018409526324697119 0.0017597464024163758 0.0016811113118027233 0.0016050248748604747 0.0015314611260615403 0.00146039083856801 0.0013917817423078364 0.0013255987409254131 0.0012618041268954755 0.0012003577941295351 0.0011412174474460146 0.0010843388083182192 0.0010296758163578844 0.0009771808260361013 0.000926804798187603 0.0008784974858885473 0.0008322076143417567 0.0007878830544466644 0.0007454709897738322 0.0007049180767055561 0.0006661705975446868 0.0006291746064331595 0.0005938760679597002 0.0005602209883726671 0.0005281555393488556 0.0004976261743022525 0.00046857973724812236 0.0004409635642673171 0.00041472557764334994 0.00038981437277045604 0.00036617929795461666 0.00034377052725127814 0.00032253912650331986 0.00030243711276066904 0.00028341750727889283 0.0002654343823081354 0.00024844290189594896 0.00023239935693795266 0.00021726119471889818 0.0002029870431936896 0.00018953673026326202 0.00017687129830405685 0.00016495301421220982 0.00015374537522457355 0.00014321311077842517 0.0001333221806702359 0.00012403976977129496 0.00011533427955438023 0.0001071753166811327 9.953367889440903e-05 9.238133845375285e-05 8.569142334531e-05 7.943819649011432e-05 7.359703316675947e-05 6.814439685612837e-05 6.305781370715159e-05 5.831584581357974e-05 5.389806348255102e-05 4.978501666637273e-05 4.5958205719485164e-05 4.2400051633082576e-05 3.909386589038968e-05 3.6023820076175496e-05 3.3174915364779646e-05 3.05329520017627e-05 2.8084498885314137e-05 2.581686334478657e-05 2.371806120520564e-05 2.177678721835221e-05 1.998238593305263e-05 1.8324823069658164e-05 1.679465745636351e-05 1.5383013578017703e-05 1.4081554781425978e-05 1.2882457174837043e-05 1.1778384253358087e-05 1.076246227644155e-05 9.828256418343787e-06 8.96974770756046e-06 8.181310766695562e-06 7.457692360011471e-06 6.793990752030509e-06 6.1856358770041235e-06 5.628370315825174e-06 5.11823107401972e-06 4.65153215180693e-06 4.22484789484587e-06 3.834997112183747e-06 3.479027946068763e-06 3.1542034766778145e-06 2.8579880434224593e-06 2.588034263321239e-06 2.3421707259498015e-06 2.1183903436883986e-06 1.9148393353661227e-06 1.729806820940081e-06 1.5617150045322107e-06 1.4091099229650746e-06 0.9987945632487243 0.9987329209970385 0.998668927003466 0.9986025413555504 0.998533726557169 0.998462447741375 0.9983886728856922 0.9983123730291881 0.9982335224906107 0.9981520990868343 0.9980680843508244 0.9979814637482924 0.9978922268921853 0.997800367754117 0.9977058848718281 0.9976087815517326 0.9975090660655926 0.9974067518403446 0.9973018576400879 0.997194407739241 0.9970844320858632 0.9969719664541475 0.9968570525850883 0.9967397383143473 0.9966200776863523 0.9964981310536885 0.9963739651608675 0.9962476532115948 0.9961192749186919 0.9959889165358772 0.9958566708706558 0.9957226372776247 0.9955869216315624 0.995449636279732 0.9953108999729038 0.9951708377746707 0.9950295809487185 0.9948872668237866 0.9947440386361504 0.9946000453495425 0.9944554414525267 0.9943103867334313 0.9941650460330527 0.9940195889754355 0.9938741896771391 0.9937290264355031 0.9935842813965254 0.9934401402030705 0.9932967916242217 0.9931544271666986 0.9930132406693484 0.992873427881823 0.9927351860286374 0.992598713359899 0.9924642086900738 0.9923318709262382 0.9922018985873347 0.9920744893160157 0.9919498393847235 0.9918281431976989 0.9917095927906681 0.9915943773299833 0.9914826826130323 0.9913746905717452 0.9912705787810476 0.9911705199741061 0.9910746815662131 0.9909832251891401 0.9908963062377683 0.9908140734307731 0.9907366683870976 0.9906642252199015 0.9905968701496134 0.9905347211376485 0.9904778875422783 0.9904264697980574 0.990380559120122 0.990340237234579 0.9903055761361007 0.9902766378737317 0.9902534743657989 0.9902361272447 0.9902246277322165 0.9902189965458764 0.990219243836759 0.9902253691590024 0.9902373614711439 0.9902551991692845 0.9902788501519416 0.9903082719163145 0.9903434116855604 0.9903842065665467 0.99043058373742 0.9904824606642078 0.9905397453455527 0.9906023365845626 0.9906701242866522 0.9907429897821495 0.9908208061723446 0.9909034386975692 0.9909907451258119 0.991082576160302 0.9911787758644311 0.9912791821023174 0.9913836269932765 0.9914919373784193 0.9916039352975645 0.9917194384746346 0.9918382608096918 0.9919602128757612 0.992085102418599 0.9922127348575747 0.9923429137858585 0.9924754414681347 0.9926101193341036 0.9927467484660755 0.9928851300790192 0.9930250659914832 0.9931663590858775 0.9933088137566756 0.993452236345174 0.9935964355595305 0.99374122287889 0.9938864129404971 0.9940318239087906 0.994177277825572 0.9943226009404376 0.99446762402077 0.9946121826406795 0.9947561174483942 0.9948992744116981 0.9950415050411158 0.9951826665906449 0.9953226222359373 0.9954612412299209 0.9955983990359539 0.9957339774386912 0.9958678646329261 0.9959999552907625 0.9961301506075417 0.9962583583270314 0.996384492746446 0.9965084747019416 0.9966302315352792 0.9967496970424123 0.9968668114047987 0.9969815211042823 0.99709377882243 0.9972035433252378 0.9973107793341509 0.9974154573843632 0.9975175536713754 0.9976170498868079 0.9977139330444628 0.9978081952976375 0.9978998337486856 0.9979888502518095 0.9980752512100649 0.9981590473675302 0.9982402535975836 0.9983188886881973 0.9983949751251395 0.9984685388739385 0.998539609161432 0.9986082182576922 0.9986744012590746 0.9987381958731045 0.9987996422058705 0.998858782552554 0.9989156611916817 0.9989703241836421 0.9990228191739638 0.9990731952018124 0.9991215025141115 0.9991677923856582 0.9992121169455533 0.9992545290102262 0.9992950819232944 0.9993338294024553 0.9993708253935668 0.9994061239320403 0.9994397790116273 0.9994718444606512 0.9995023738256977 0.9995314202627519 0.9995590364357326 0.9995852744223567 0.9996101856272296 0.9996338207020454 0.9996562294727487 0.9996774608734966 0.9996975628872393 0.9997165824927211 0.9997345656176919 0.999751557098104 0.999767600643062 0.9997827388052811 0.9997970129568063 0.9998104632697368 0.999823128701696 0.9998350469857878 0.9998462546247754 0.9998567868892215 0.9998666778193298 0.9998759602302287 0.9998846657204457 0.9998928246833189 0.9999004663211056 0.9999076186615462 0.9999143085766546 0.9999205618035099 0.9999264029668332 0.9999318556031439 0.9999369421862928 0.9999416841541864 0.9999461019365175 0.9999502149833336 0.9999540417942805 0.999957599948367 0.9999609061341096 0.9999639761799238 0.9999668250846352 0.9999694670479983 0.9999719155011146 0.9999741831366552 0.9999762819387948 0.9999782232127816 0.999980017614067 0.9999816751769304 0.9999832053425436 0.9999846169864219 0.9999859184452186 0.9999871175428252 0.9999882216157466 0.9999892375377235 0.9999901717435816 0.9999910302522924 0.9999918186892333 0.99999254230764 0.999993206009248 0.999993814364123 0.9999943716296842 0.9999948817689259 0.9999953484678482 0.9999957751521051 0.9999961650028878 0.9999965209720539 0.9999968457965234 0.9999971420119566 0.9999974119657367 0.9999976578292741 0.9999978816096563 0.9999980851606647 0.9999982701931791 0.9999984382849955 0.999998590890077  </TABLE>
		</DEFINITION>
			
		<DEFINITION>
		<FOR>SENSOR4</FOR>
		<GIVEN>CLASS3</GIVEN>
